{"learner":{"attributes":{"scikit_learn":"{\"_estimator_type\": \"classifier\"}"},"feature_names":[],"feature_types":[],"gradient_booster":{"model":{"gbtree_model_param":{"num_parallel_tree":"1","num_trees":"100"},"iteration_indptr":[0,1,2,3,4,5,6,7,8,9,10,11,12,13,14,15,16,17,18,19,20,21,22,23,24,25,26,27,28,29,30,31,32,33,34,35,36,37,38,39,40,41,42,43,44,45,46,47,48,49,50,51,52,53,54,55,56,57,58,59,60,61,62,63,64,65,66,67,68,69,70,71,72,73,74,75,76,77,78,79,80,81,82,83,84,85,86,87,88,89,90,91,92,93,94,95,96,97,98,99,100],"tree_info":[0,0,0,0,0,0,0,0,0,0,0,0,0,0,0,0,0,0,0,0,0,0,0,0,0,0,0,0,0,0,0,0,0,0,0,0,0,0,0,0,0,0,0,0,0,0,0,0,0,0,0,0,0,0,0,0,0,0,0,0,0,0,0,0,0,0,0,0,0,0,0,0,0,0,0,0,0,0,0,0,0,0,0,0,0,0,0,0,0,0,0,0,0,0,0,0,0,0,0,0],"trees":[{"base_weights":[-7.2487225E-8,-1.5919919E0,1.5192697E0,-1.8736318E0,-7.39027E-1,7.82585E-1,1.8110625E0,-1.9271034E0,-1.4910271E0,-9.4515234E-1,1.981484E-1,1.8105273E-1,1.3578516E0,1.3553777E0,1.9049454E0,-1.9494387E0,-1.6703148E0,-1.5914812E0,-8.9787215E-1,-1.3179656E0,-7.1026456E-1,-5.398587E-1,6.089185E-1,-2.415846E-1,4.2824668E-1,9.059912E-1,1.5473434E0,1.129132E0,1.6651206E0,1.786434E0,1.9549584E-1,-1.9792613E-1,-1.8567534E-1,-1.095766E-1,-1.743191E-1,-1.6302803E-1,-1.04269624E-1,-1.04339376E-1,2.0338591E-2,-1.5932803E-1,-1.1406913E-1,-9.098273E-2,-2.9748207E-2,-8.503953E-2,4.9014896E-2,4.0720464E-4,9.405378E-2,-3.469616E-2,4.7933433E-2,9.401297E-3,6.564536E-2,4.6270188E-2,1.21995665E-1,1.2547535E-1,1.7276256E-1,7.846628E-2,1.2508465E-1,1.2056605E-1,1.7338957E-1,1.6437161E-1,1.9028188E-1],"categories":[],"categories_nodes":[],"categories_segments":[],"categories_sizes":[],"default_left":[0,0,0,0,0,0,0,0,0,0,0,0,0,0,0,0,0,0,0,0,0,0,0,0,0,0,0,0,0,0,0,0,0,0,0,0,0,0,0,0,0,0,0,0,0,0,0,0,0,0,0,0,0,0,0,0,0,0,0,0,0],"id":0,"left_children":[1,3,5,7,9,11,13,15,17,19,21,23,25,27,29,31,33,35,37,39,41,43,45,47,49,51,53,55,57,59,-1,-1,-1,-1,-1,-1,-1,-1,-1,-1,-1,-1,-1,-1,-1,-1,-1,-1,-1,-1,-1,-1,-1,-1,-1,-1,-1,-1,-1,-1,-1],"loss_changes":[3.3603445E4,1.6284043E3,1.5267402E3,1.0146094E2,3.2582434E2,6.98307E2,2.1523242E2,2.2382812E1,3.6093628E1,1.2008154E2,9.271166E1,1.0332045E2,8.693799E1,5.9313843E1,2.1513672E1,7.6777344E0,1.3361938E1,9.739014E0,1.5195839E1,2.4195557E1,6.974707E1,3.5440044E1,3.9358727E1,2.7913002E1,4.751322E1,4.21967E1,3.6100586E1,2.0306335E1,9.4904175E0,1.7862793E1,0E0,0E0,0E0,0E0,0E0,0E0,0E0,0E0,0E0,0E0,0E0,0E0,0E0,0E0,0E0,0E0,0E0,0E0,0E0,0E0,0E0,0E0,0E0,0E0,0E0,0E0,0E0,0E0,0E0,0E0,0E0],"parents":[2147483647,0,0,1,1,2,2,3,3,4,4,5,5,6,6,7,7,8,8,9,9,10,10,11,11,12,12,13,13,14,14,15,15,16,16,17,17,18,18,19,19,20,20,21,21,22,22,23,23,24,24,25,25,26,26,27,27,28,28,29,29],"right_children":[2,4,6,8,10,12,14,16,18,20,22,24,26,28,30,32,34,36,38,40,42,44,46,48,50,52,54,56,58,60,-1,-1,-1,-1,-1,-1,-1,-1,-1,-1,-1,-1,-1,-1,-1,-1,-1,-1,-1,-1,-1,-1,-1,-1,-1,-1,-1,-1,-1,-1,-1],"split_conditions":[7.5E-2,5.0925925E-2,1.1574074E-1,4.3209877E-2,5.4080224E-1,5.160442E-1,4.9831676E-1,4.533167E-1,4.7362992E-1,5.8080807E-2,5.8080807E-2,8.796296E-2,8.547009E-2,1.8333334E-1,5.4080224E-1,3.1746034E-2,1.2621143E-1,5.5389804E-1,5.580967E-1,4.2159423E-1,4.6842462E-1,5.784865E-1,4.5389766E-1,6E-1,4.728687E-1,5.4147345E-1,5.4429096E-1,4.4719085E-1,4.3503445E-1,1.7777778E-1,1.9549584E-1,-1.9792613E-1,-1.8567534E-1,-1.095766E-1,-1.743191E-1,-1.6302803E-1,-1.04269624E-1,-1.04339376E-1,2.0338591E-2,-1.5932803E-1,-1.1406913E-1,-9.098273E-2,-2.9748207E-2,-8.503953E-2,4.9014896E-2,4.0720464E-4,9.405378E-2,-3.469616E-2,4.7933433E-2,9.401297E-3,6.564536E-2,4.6270188E-2,1.21995665E-1,1.2547535E-1,1.7276256E-1,7.846628E-2,1.2508465E-1,1.2056605E-1,1.7338957E-1,1.6437161E-1,1.9028188E-1],"split_indices":[0,0,0,0,2,2,2,1,1,0,0,0,0,0,2,0,7,2,2,1,1,2,1,9,2,2,2,2,2,0,0,0,0,0,0,0,0,0,0,0,0,0,0,0,0,0,0,0,0,0,0,0,0,0,0,0,0,0,0,0,0],"split_type":[0,0,0,0,0,0,0,0,0,0,0,0,0,0,0,0,0,0,0,0,0,0,0,0,0,0,0,0,0,0,0,0,0,0,0,0,0,0,0,0,0,0,0,0,0,0,0,0,0,0,0,0,0,0,0,0,0,0,0,0,0],"sum_hessian":[1.3891385E4,6.783322E3,7.108063E3,5.098616E3,1.6847057E3,2.017697E3,5.090366E3,4.4698823E3,6.2873346E2,1.3809637E3,3.03742E2,9.8697406E2,1.0307229E3,8.7222705E2,4.218139E3,4.106142E3,3.6374045E2,5.362359E2,9.249757E1,5.31986E2,8.4897766E2,1.0849715E2,1.9524487E2,3.6424042E2,6.2273364E2,3.0624194E2,7.2448096E2,5.067367E2,3.654904E2,1.2627168E3,2.9554224E3,3.0911687E3,1.0149733E3,4.2748875E1,3.2099158E2,4.9898688E2,3.724902E1,8.174785E1,1.0749718E1,2.052446E2,3.2674142E2,5.71485E2,2.774927E2,8.34978E1,2.4999342E1,6.949818E1,1.257467E2,3.1824164E2,4.599879E1,2.5324335E2,3.694903E2,1.27996635E2,1.7824532E2,2.7924265E2,4.4523828E2,1.3424648E2,3.724902E2,4.9998684E1,3.154917E2,5.739849E2,6.887319E2],"tree_param":{"num_deleted":"0","num_feature":"10","num_nodes":"61","size_leaf_vector":"1"}},{"base_weights":[8.3744795E-5,-1.4184968E0,1.4023849E0,-1.6955783E0,-6.1136967E-1,7.5314736E-1,1.645956E0,-1.749511E0,-1.337298E0,-8.703049E-1,6.545873E-2,1.4896844E-1,1.2108014E0,1.1751161E0,1.7229269E0,-1.7700704E0,-1.5137113E0,-1.4235702E0,-8.592618E-1,-1.2427486E0,-6.9588876E-1,-6.637812E-1,4.2558092E-1,-1.0180084E-1,4.260476E-1,4.1277528E-1,1.3238356E0,9.179457E-1,1.4579873E0,1.5551302E0,1.7658867E0,-1.7976265E-1,-1.6845402E-1,-2.1629002E-2,-1.5395145E-1,-1.5101114E-1,-1.22046806E-1,-9.851562E-2,1.7759461E-2,-8.922412E-2,-1.4512065E-1,-4.6244383E-2,-9.335088E-2,-9.499993E-2,2.4315631E-2,-8.7673105E-3,7.253213E-2,1.4476704E-2,-2.928474E-2,1.5012835E-2,7.084071E-2,7.9111494E-2,-8.1287324E-2,1.03244565E-1,1.54642E-1,7.2599314E-2,1.1524054E-1,1.09936774E-1,1.5359353E-1,1.3568352E-1,1.6645484E-1,1.7057209E-1,1.7958821E-1],"categories":[],"categories_nodes":[],"categories_segments":[],"categories_sizes":[],"default_left":[0,0,0,0,0,0,0,0,0,0,0,0,0,0,0,0,0,0,0,0,0,0,0,0,0,0,0,0,0,0,0,0,0,0,0,0,0,0,0,0,0,0,0,0,0,0,0,0,0,0,0,0,0,0,0,0,0,0,0,0,0,0,0],"id":1,"left_children":[1,3,5,7,9,11,13,15,17,19,21,23,25,27,29,31,33,35,37,39,41,43,45,47,49,51,53,55,57,59,61,-1,-1,-1,-1,-1,-1,-1,-1,-1,-1,-1,-1,-1,-1,-1,-1,-1,-1,-1,-1,-1,-1,-1,-1,-1,-1,-1,-1,-1,-1,-1,-1],"loss_changes":[2.7444906E4,1.5327744E3,1.0959082E3,9.630664E1,3.0750684E2,5.236958E2,1.8078906E2,1.881543E1,2.6498413E1,8.1565735E1,1.2800906E2,5.6862064E1,9.668506E1,5.04505E1,2.8490234E1,6.5703125E0,1.1802551E1,8.138672E0,1.3918442E1,2.8183289E1,4.763385E1,4.2068626E1,5.0245674E1,2.030052E1,3.0175179E1,6.333084E1,5.9611572E1,1.6067108E1,7.7406616E0,1.7088623E1,3.1503906E0,0E0,0E0,0E0,0E0,0E0,0E0,0E0,0E0,0E0,0E0,0E0,0E0,0E0,0E0,0E0,0E0,0E0,0E0,0E0,0E0,0E0,0E0,0E0,0E0,0E0,0E0,0E0,0E0,0E0,0E0,0E0,0E0],"parents":[2147483647,0,0,1,1,2,2,3,3,4,4,5,5,6,6,7,7,8,8,9,9,10,10,11,11,12,12,13,13,14,14,15,15,16,16,17,17,18,18,19,19,20,20,21,21,22,22,23,23,24,24,25,25,26,26,27,27,28,28,29,29,30,30],"right_children":[2,4,6,8,10,12,14,16,18,20,22,24,26,28,30,32,34,36,38,40,42,44,46,48,50,52,54,56,58,60,62,-1,-1,-1,-1,-1,-1,-1,-1,-1,-1,-1,-1,-1,-1,-1,-1,-1,-1,-1,-1,-1,-1,-1,-1,-1,-1,-1,-1,-1,-1,-1,-1],"split_conditions":[7.716049E-2,5.1587302E-2,1.1574074E-1,4.3209877E-2,5.2750665E-1,5.086459E-1,4.9061447E-1,4.533167E-1,4.7362992E-1,4.2073056E-1,5.8080807E-2,9.375E-2,4.3383133E-1,1.7592593E-1,5.2648103E-1,3.1746034E-2,8.242207E-2,5.1356924E-1,5.580967E-1,4.8361602E-1,5.775332E-1,5.6739414E-1,4.5389766E-1,5.4343295E-1,4.6631828E-1,5.657023E-1,5.4429096E-1,1.0983202E-1,4.3690205E-1,1.574074E-1,1.736111E-1,-1.7976265E-1,-1.6845402E-1,-2.1629002E-2,-1.5395145E-1,-1.5101114E-1,-1.22046806E-1,-9.851562E-2,1.7759461E-2,-8.922412E-2,-1.4512065E-1,-4.6244383E-2,-9.335088E-2,-9.499993E-2,2.4315631E-2,-8.7673105E-3,7.253213E-2,1.4476704E-2,-2.928474E-2,1.5012835E-2,7.084071E-2,7.9111494E-2,-8.1287324E-2,1.03244565E-1,1.54642E-1,7.2599314E-2,1.1524054E-1,1.09936774E-1,1.5359353E-1,1.3568352E-1,1.6645484E-1,1.7057209E-1,1.7958821E-1],"split_indices":[0,0,0,0,2,2,2,1,1,1,0,0,1,0,2,0,7,2,2,3,3,2,1,3,1,3,2,4,2,0,0,0,0,0,0,0,0,0,0,0,0,0,0,0,0,0,0,0,0,0,0,0,0,0,0,0,0,0,0,0,0,0,0],"split_type":[0,0,0,0,0,0,0,0,0,0,0,0,0,0,0,0,0,0,0,0,0,0,0,0,0,0,0,0,0,0,0,0,0,0,0,0,0,0,0,0,0,0,0,0,0,0,0,0,0,0,0,0,0,0,0,0,0,0,0,0,0,0,0],"sum_hessian":[1.379442E4,6.8574E3,6.93702E3,5.1040967E3,1.7533033E3,1.8936364E3,5.043384E3,4.432917E3,6.711795E2,1.26794E3,4.8536343E2,8.167358E2,1.0769006E3,7.1091235E2,4.332471E3,4.0714229E3,3.6149442E2,5.668932E2,1.0428632E2,4.0244464E2,8.654953E2,1.6017308E2,3.2519034E2,4.2905447E2,3.8768127E2,1.3418703E2,9.4271356E2,3.7459604E2,3.3631628E2,8.9069824E2,3.4417732E3,3.0641912E3,1.0072316E3,7.2321506E0,3.5426224E2,3.9300137E2,1.738918E2,9.3039406E1,1.1246916E1,1.5205493E2,2.5038971E2,4.380693E2,4.2742596E2,1.21714134E2,3.845894E1,1.2015426E2,2.0503609E2,1.8741534E2,2.4163913E2,1.9685143E2,1.9082986E2,1.0280666E2,3.138037E1,4.1069806E2,5.320155E2,2.0822131E2,1.6637473E2,6.2745075E1,2.7357123E2,3.2148376E2,5.6921454E2,1.164282E3,2.2774912E3],"tree_param":{"num_deleted":"0","num_feature":"10","num_nodes":"63","size_leaf_vector":"1"}},{"base_weights":[1.3123747E-4,-1.3242544E0,1.2657398E0,-1.566917E0,-6.058557E-1,6.437372E-1,1.5174236E0,-1.6139802E0,-1.2344263E0,-7.7709585E-1,1.7034084E-1,9.060934E-2,1.0774181E0,1.1195723E0,1.6007074E0,-1.6338006E0,-1.3882068E0,-1.3207802E0,-7.3132646E-1,-1.1047442E0,-5.72199E-1,-4.8629168E-1,5.2180433E-1,-2.6249325E-1,3.025802E-1,7.8606296E-1,1.3318621E0,9.492046E-1,1.4371818E0,1.4957174E0,1.6474423E0,-1.6605096E-1,-1.5511926E-1,-1.4495835E-1,-7.921968E-2,-1.3558304E-1,-8.32473E-2,-2.6277546E-2,-1.0691253E-1,-1.3366105E-1,-9.5693804E-2,-7.36218E-2,-1.882892E-2,7.7147805E-3,-1.1749504E-1,1.1503136E-2,1.0778111E-1,-3.5418835E-2,3.8886465E-2,6.0321107E-3,5.0907113E-2,3.954188E-2,9.808131E-2,3.0003536E-2,1.3920209E-1,7.072237E-2,1.0893106E-1,7.453604E-2,1.4816795E-1,1.3665254E-1,1.6020146E-1,1.5709086E-1,1.6625842E-1],"categories":[],"categories_nodes":[],"categories_segments":[],"categories_sizes":[],"default_left":[0,0,0,0,0,0,0,0,0,0,0,0,0,0,0,0,0,0,0,0,0,0,0,0,0,0,0,0,0,0,0,0,0,0,0,0,0,0,0,0,0,0,0,0,0,0,0,0,0,0,0,0,0,0,0,0,0,0,0,0,0,0,0],"id":2,"left_children":[1,3,5,7,9,11,13,15,17,19,21,23,25,27,29,31,33,35,37,39,41,43,45,47,49,51,53,55,57,59,61,-1,-1,-1,-1,-1,-1,-1,-1,-1,-1,-1,-1,-1,-1,-1,-1,-1,-1,-1,-1,-1,-1,-1,-1,-1,-1,-1,-1,-1,-1,-1,-1],"loss_changes":[2.2707006E4,1.1530742E3,1.0834727E3,7.5430664E1,2.2251416E2,4.790122E2,1.6159277E2,1.7112305E1,2.587207E1,9.140082E1,7.023088E1,6.585937E1,8.194043E1,4.5001587E1,1.7532227E1,6.1953125E0,1.1880981E1,7.8741455E0,1.4397625E1,1.6760376E1,5.3101837E1,4.1310307E1,4.4654106E1,1.9860065E1,2.746473E1,3.95E1,3.6585938E1,1.823758E1,8.045166E0,1.519751E1,6.4501953E-1,0E0,0E0,0E0,0E0,0E0,0E0,0E0,0E0,0E0,0E0,0E0,0E0,0E0,0E0,0E0,0E0,0E0,0E0,0E0,0E0,0E0,0E0,0E0,0E0,0E0,0E0,0E0,0E0,0E0,0E0,0E0,0E0],"parents":[2147483647,0,0,1,1,2,2,3,3,4,4,5,5,6,6,7,7,8,8,9,9,10,10,11,11,12,12,13,13,14,14,15,15,16,16,17,17,18,18,19,19,20,20,21,21,22,22,23,23,24,24,25,25,26,26,27,27,28,28,29,29,30,30],"right_children":[2,4,6,8,10,12,14,16,18,20,22,24,26,28,30,32,34,36,38,40,42,44,46,48,50,52,54,56,58,60,62,-1,-1,-1,-1,-1,-1,-1,-1,-1,-1,-1,-1,-1,-1,-1,-1,-1,-1,-1,-1,-1,-1,-1,-1,-1,-1,-1,-1,-1,-1,-1,-1],"split_conditions":[7.5E-2,5.0925925E-2,1.1574074E-1,4.3209877E-2,5.4080224E-1,5.086459E-1,4.9831676E-1,4.533167E-1,4.7362992E-1,5.8080807E-2,4.4597346E-1,8.796296E-2,5.4429096E-1,2.013889E-1,5.421356E-1,3.1746034E-2,5.633006E-1,5.5389804E-1,2.585439E-1,4.2159423E-1,4.7133493E-1,5.719917E-1,5.694269E-1,6E-1,4.728687E-1,8.547009E-2,4.2235467E-1,4.59015E-1,4.1240966E-1,1.7777778E-1,1.4351852E-1,-1.6605096E-1,-1.5511926E-1,-1.4495835E-1,-7.921968E-2,-1.3558304E-1,-8.32473E-2,-2.6277546E-2,-1.0691253E-1,-1.3366105E-1,-9.5693804E-2,-7.36218E-2,-1.882892E-2,7.7147805E-3,-1.1749504E-1,1.1503136E-2,1.0778111E-1,-3.5418835E-2,3.8886465E-2,6.0321107E-3,5.0907113E-2,3.954188E-2,9.808131E-2,3.0003536E-2,1.3920209E-1,7.072237E-2,1.0893106E-1,7.453604E-2,1.4816795E-1,1.3665254E-1,1.6020146E-1,1.5709086E-1,1.6625842E-1],"split_indices":[0,0,0,0,2,2,2,1,1,0,1,0,2,0,2,0,2,2,6,1,1,3,2,9,2,0,1,2,2,0,0,0,0,0,0,0,0,0,0,0,0,0,0,0,0,0,0,0,0,0,0,0,0,0,0,0,0,0,0,0,0,0,0],"split_type":[0,0,0,0,0,0,0,0,0,0,0,0,0,0,0,0,0,0,0,0,0,0,0,0,0,0,0,0,0,0,0,0,0,0,0,0,0,0,0,0,0,0,0,0,0,0,0,0,0,0,0,0,0,0,0,0,0,0,0,0,0,0,0],"sum_hessian":[1.354509E4,6.6188267E3,6.9262627E3,4.9467275E3,1.6720995E3,1.9962811E3,4.9299814E3,4.329975E3,6.1675214E2,1.3698824E3,3.02217E2,8.7785333E2,1.1184277E3,8.558721E2,4.0741096E3,3.974796E3,3.551793E2,5.2501184E2,9.174028E1,5.253728E2,8.4450964E2,1.0523146E2,1.9698553E2,3.2921173E2,5.486416E2,5.2330176E2,5.95126E2,5.596572E2,2.9621484E2,1.2650901E3,2.8090193E3,2.9892197E3,9.855763E2,3.2071976E2,3.445955E1,4.881932E2,3.681864E1,3.9176956E1,5.2563324E1,2.0139601E2,3.239768E2,5.9106805E2,2.5344159E2,5.8366085E1,4.686537E1,1.1445643E2,8.252911E1,2.889859E2,4.022584E1,2.5305026E2,2.9559134E2,1.7510127E2,3.482005E2,3.3116066E1,5.620099E2,2.0743605E2,3.5222116E2,1.8973713E1,2.7724112E2,5.773018E2,6.877883E2,4.8125882E2,2.3277605E3],"tree_param":{"num_deleted":"0","num_feature":"10","num_nodes":"63","size_leaf_vector":"1"}},{"base_weights":[1.6027276E-4,-1.2048242E0,1.1927123E0,-1.4604042E0,-5.154227E-1,6.2446904E-1,1.4138695E0,-1.5068976E0,-1.1364943E0,-7.66576E-1,-1.811063E-2,1.737674E-1,1.0603623E0,1.0282888E0,1.4959731E0,-1.5266266E0,-1.284478E0,-1.2187439E0,-6.64965E-1,-1.0618405E0,-6.0105664E-1,-6.0102355E-1,2.8607464E-1,-2.1513447E-1,3.191147E-1,4.8784107E-1,1.1783099E0,7.0904535E-1,1.1820877E0,1.3440295E0,1.5283087E0,-1.5533963E-1,-1.4442638E-1,-7.572764E-2,-1.3532393E-1,-1.2521796E-1,-7.596805E-2,-2.3771567E-2,-9.758242E-2,-1.2517795E-1,-8.803358E-2,-9.289523E-2,-4.7792975E-2,-8.046995E-2,1.15918545E-2,1.0267204E-2,9.4595335E-2,2.051478E-3,-1.2085364E-1,5.8792837E-2,6.5544075E-3,7.408045E-2,-7.9046175E-2,7.8515716E-2,1.2956426E-1,8.153543E-2,3.15478E-2,1.0703383E-1,1.4379817E-1,1.19343676E-1,1.4749338E-1,1.4411542E-1,1.547184E-1],"categories":[],"categories_nodes":[],"categories_segments":[],"categories_sizes":[],"default_left":[0,0,0,0,0,0,0,0,0,0,0,0,0,0,0,0,0,0,0,0,0,0,0,0,0,0,0,0,0,0,0,0,0,0,0,0,0,0,0,0,0,0,0,0,0,0,0,0,0,0,0,0,0,0,0,0,0,0,0,0,0,0,0],"id":3,"left_children":[1,3,5,7,9,11,13,15,17,19,21,23,25,27,29,31,33,35,37,39,41,43,45,47,49,51,53,55,57,59,61,-1,-1,-1,-1,-1,-1,-1,-1,-1,-1,-1,-1,-1,-1,-1,-1,-1,-1,-1,-1,-1,-1,-1,-1,-1,-1,-1,-1,-1,-1,-1,-1],"loss_changes":[1.8957512E4,1.1554492E3,8.3236426E2,7.037207E1,2.2184872E2,3.6509943E2,1.4953418E2,1.6393555E1,2.2649414E1,5.7041626E1,1.0604142E2,5.180918E1,6.3239136E1,4.045166E1,1.7263672E1,6.2158203E0,1.15578E1,6.935913E0,1.1992657E1,1.346875E1,3.0181946E1,3.0036789E1,4.7467037E1,5.8460503E1,4.5407127E1,5.333751E1,3.5096436E1,1.1286911E1,1.4647217E1,1.2004761E1,3.0922852E0,0E0,0E0,0E0,0E0,0E0,0E0,0E0,0E0,0E0,0E0,0E0,0E0,0E0,0E0,0E0,0E0,0E0,0E0,0E0,0E0,0E0,0E0,0E0,0E0,0E0,0E0,0E0,0E0,0E0,0E0,0E0,0E0],"parents":[2147483647,0,0,1,1,2,2,3,3,4,4,5,5,6,6,7,7,8,8,9,9,10,10,11,11,12,12,13,13,14,14,15,15,16,16,17,17,18,18,19,19,20,20,21,21,22,22,23,23,24,24,25,25,26,26,27,27,28,28,29,29,30,30],"right_children":[2,4,6,8,10,12,14,16,18,20,22,24,26,28,30,32,34,36,38,40,42,44,46,48,50,52,54,56,58,60,62,-1,-1,-1,-1,-1,-1,-1,-1,-1,-1,-1,-1,-1,-1,-1,-1,-1,-1,-1,-1,-1,-1,-1,-1,-1,-1,-1,-1,-1,-1,-1,-1],"split_conditions":[7.716049E-2,5.0925925E-2,1.1574074E-1,4.3209877E-2,5.19687E-1,5.160442E-1,4.9831676E-1,4.533167E-1,4.7362992E-1,5.8080807E-2,5.952381E-2,4.3236122E-1,4.451549E-1,1.4351852E-1,5.2648103E-1,3.1746034E-2,1.2621143E-1,5.5389804E-1,2.585439E-1,4.2996645E-1,4.192584E-1,5.648401E-1,5.694269E-1,5.509017E-1,1.8181819E-1,5.857938E-1,5.3361034E-1,2.7272728E-1,2.5925925E-1,1.7777778E-1,1.4351852E-1,-1.5533963E-1,-1.4442638E-1,-7.572764E-2,-1.3532393E-1,-1.2521796E-1,-7.596805E-2,-2.3771567E-2,-9.758242E-2,-1.2517795E-1,-8.803358E-2,-9.289523E-2,-4.7792975E-2,-8.046995E-2,1.15918545E-2,1.0267204E-2,9.4595335E-2,2.051478E-3,-1.2085364E-1,5.8792837E-2,6.5544075E-3,7.408045E-2,-7.9046175E-2,7.8515716E-2,1.2956426E-1,8.153543E-2,3.15478E-2,1.0703383E-1,1.4379817E-1,1.19343676E-1,1.4749338E-1,1.4411542E-1,1.547184E-1],"split_indices":[0,0,0,0,2,2,2,1,1,0,0,1,1,0,2,0,7,2,6,1,1,2,2,3,8,3,2,8,0,0,0,0,0,0,0,0,0,0,0,0,0,0,0,0,0,0,0,0,0,0,0,0,0,0,0,0,0,0,0,0,0,0,0],"split_type":[0,0,0,0,0,0,0,0,0,0,0,0,0,0,0,0,0,0,0,0,0,0,0,0,0,0,0,0,0,0,0,0,0,0,0,0,0,0,0,0,0,0,0,0,0,0,0,0,0,0,0,0,0,0,0,0,0,0,0,0,0,0,0],"sum_hessian":[1.3190362E4,6.5609766E3,6.6293857E3,4.7856772E3,1.7752992E3,1.8583494E3,4.771036E3,4.1817793E3,6.038982E2,1.1792241E3,5.960751E2,9.143428E2,9.4400665E2,8.3994635E2,3.9310898E3,3.8356836E3,3.460956E2,5.128553E2,9.1042915E1,4.216468E2,7.5757733E2,2.0405904E2,3.9201602E2,2.4862457E2,6.657182E2,1.6213489E2,7.8187177E2,2.7491327E2,5.650331E2,6.972616E2,3.2338281E3,2.8813328E3,9.5435077E2,4.131801E1,3.0477762E2,4.7642725E2,3.642805E1,3.9086536E1,5.1956375E1,2.0315504E2,2.1849173E2,2.050282E2,5.5254913E2,1.5881804E2,4.5240993E1,3.0766196E2,8.4354065E1,2.017467E2,4.687788E1,3.2250635E2,3.4321188E2,1.357014E2,2.6433483E1,1.8147743E2,6.003943E2,2.1560355E2,5.930973E1,3.968923E2,1.6814075E2,3.2895154E2,3.683101E2,5.8945123E2,2.644377E3],"tree_param":{"num_deleted":"0","num_feature":"10","num_nodes":"63","size_leaf_vector":"1"}},{"base_weights":[1.5242101E-4,-1.1897898E0,1.0506977E0,-1.3969194E0,-6.430331E-1,2.7826765E-1,1.2677742E0,-1.4584999E0,-1.2627869E0,-7.2336745E-1,3.7839386E-1,-5.17431E-2,8.444556E-1,7.637258E-1,1.366238E0,-1.4597818E0,-4.149224E-2,-1.3105569E0,-1.0364681E0,-9.602088E-1,-4.9118733E-1,-3.707596E-1,7.609383E-1,-2.5258464E-1,2.5087085E-1,2.868529E-1,9.600856E-1,4.4138357E-1,1.0641819E0,1.1922929E0,1.4359138E0,-2.6675055E-2,-1.4607027E-1,6.288244E-2,-5.7023145E-2,-1.19840875E-1,-1.3627855E-1,-3.2508597E-2,-1.1260785E-1,-7.3024735E-2,-1.1941224E-1,-7.660424E-2,-2.4974473E-2,1.1703354E-2,-1.08596124E-1,1.0575273E-1,-3.7270002E-2,-4.0482692E-2,2.6867856E-4,6.0926892E-2,-1.1791608E-2,5.762997E-2,-1.1008798E-1,7.756497E-2,1.2415122E-1,5.507187E-2,1.240634E-3,9.208004E-2,1.290044E-1,9.688678E-2,1.3385858E-1,1.3401234E-1,1.4682637E-1],"categories":[],"categories_nodes":[],"categories_segments":[],"categories_sizes":[],"default_left":[0,0,0,0,0,0,0,0,0,0,0,0,0,0,0,0,0,0,0,0,0,0,0,0,0,0,0,0,0,0,0,0,0,0,0,0,0,0,0,0,0,0,0,0,0,0,0,0,0,0,0,0,0,0,0,0,0,0,0,0,0,0,0],"id":4,"left_children":[1,3,5,7,9,11,13,15,17,19,21,23,25,27,29,31,33,35,37,39,41,43,45,47,49,51,53,55,57,59,61,-1,-1,-1,-1,-1,-1,-1,-1,-1,-1,-1,-1,-1,-1,-1,-1,-1,-1,-1,-1,-1,-1,-1,-1,-1,-1,-1,-1,-1,-1,-1,-1],"loss_changes":[1.59627E4,6.771719E2,1.1368066E3,3.4018555E1,1.3540997E2,2.7827493E2,2.6169043E2,5.3325195E0,1.3490723E1,8.350592E1,3.4883865E1,5.729693E1,3.5082123E1,8.353668E1,5.194629E1,2.869629E0,1.6744239E0,4.9874268E0,1.51987E1,3.973694E1,5.112018E1,1.4600058E1,2.7377232E1,2.2017971E1,4.979074E1,3.903988E1,2.259021E1,1.969976E1,1.3327698E1,4.0283447E1,7.8129883E0,0E0,0E0,0E0,0E0,0E0,0E0,0E0,0E0,0E0,0E0,0E0,0E0,0E0,0E0,0E0,0E0,0E0,0E0,0E0,0E0,0E0,0E0,0E0,0E0,0E0,0E0,0E0,0E0,0E0,0E0,0E0,0E0],"parents":[2147483647,0,0,1,1,2,2,3,3,4,4,5,5,6,6,7,7,8,8,9,9,10,10,11,11,12,12,13,13,14,14,15,15,16,16,17,17,18,18,19,19,20,20,21,21,22,22,23,23,24,24,25,25,26,26,27,27,28,28,29,29,30,30],"right_children":[2,4,6,8,10,12,14,16,18,20,22,24,26,28,30,32,34,36,38,40,42,44,46,48,50,52,54,56,58,60,62,-1,-1,-1,-1,-1,-1,-1,-1,-1,-1,-1,-1,-1,-1,-1,-1,-1,-1,-1,-1,-1,-1,-1,-1,-1,-1,-1,-1,-1,-1,-1,-1],"split_conditions":[7.1428575E-2,4.761905E-2,9.920635E-2,3.3333335E-2,5.648401E-1,5.2701104E-1,4.9061447E-1,6.3255244E-1,4.5691553E-1,4.4067597E-1,4.4597346E-1,4.9417713E-1,4.4299337E-1,1.4583333E-1,5.341081E-1,4.7640454E-2,5.893789E-1,5.182307E-1,1.2779689E-1,5.2970874E-1,5.8641974E-2,5.749008E-1,3.2112834E-1,4.6776515E-1,5.642312E-1,5.878719E-1,5.648401E-1,2.7272728E-1,2.2916667E-1,1.4583333E-1,1.4351852E-1,-2.6675055E-2,-1.4607027E-1,6.288244E-2,-5.7023145E-2,-1.19840875E-1,-1.3627855E-1,-3.2508597E-2,-1.1260785E-1,-7.3024735E-2,-1.1941224E-1,-7.660424E-2,-2.4974473E-2,1.1703354E-2,-1.08596124E-1,1.0575273E-1,-3.7270002E-2,-4.0482692E-2,2.6867856E-4,6.0926892E-2,-1.1791608E-2,5.762997E-2,-1.1008798E-1,7.756497E-2,1.2415122E-1,5.507187E-2,1.240634E-3,9.208004E-2,1.290044E-1,9.688678E-2,1.3385858E-1,1.3401234E-1,1.4682637E-1],"split_indices":[0,0,0,0,2,2,2,2,1,1,1,2,1,0,2,7,3,3,7,3,0,3,6,1,3,3,2,8,0,0,0,0,0,0,0,0,0,0,0,0,0,0,0,0,0,0,0,0,0,0,0,0,0,0,0,0,0,0,0,0,0,0,0],"split_type":[0,0,0,0,0,0,0,0,0,0,0,0,0,0,0,0,0,0,0,0,0,0,0,0,0,0,0,0,0,0,0,0,0,0,0,0,0,0,0,0,0,0,0,0,0,0,0,0,0,0,0,0,0,0,0,0,0,0,0,0,0,0,0],"sum_hessian":[1.2767261E4,5.9863965E3,6.7808643E3,4.3405107E3,1.6458854E3,1.4880771E3,5.292787E3,2.9680154E3,1.3724956E3,1.526147E3,1.1973836E2,9.406907E2,5.473864E2,8.6638934E2,4.426398E3,2.9653027E3,2.7126534E0,1.1293322E3,2.4316345E2,7.539378E2,7.722092E2,4.0485207E1,7.925315E1,5.65524E2,3.751667E2,9.461328E1,4.5277313E2,4.191626E2,4.472267E2,1.2711345E3,3.1552634E3,2.511328E0,2.9627913E3,1.1127098E0,1.5999436E0,3.6643878E2,7.6289343E2,2.7721443E1,2.15442E2,3.822592E2,3.7167862E2,3.601016E2,4.1210767E2,2.4566402E1,1.5918804E1,6.2871483E1,1.6381668E1,3.5388394E2,2.1164005E2,1.8993254E2,1.8523415E2,7.8768776E1,1.5844504E1,2.7578842E2,1.769847E2,3.3380145E2,8.536114E1,2.7666895E2,1.7055779E2,5.0598865E2,7.6514594E2,8.072763E2,2.347987E3],"tree_param":{"num_deleted":"0","num_feature":"10","num_nodes":"63","size_leaf_vector":"1"}},{"base_weights":[1.5861062E-4,-1.052766E0,1.0418549E0,-1.29991E0,-4.299233E-1,5.221426E-1,1.2562556E0,-1.3481544E0,-9.7638625E-1,-6.704061E-1,-3.499045E-2,9.3532965E-2,8.714479E-1,8.800156E-1,1.3402364E0,-1.3691474E0,-1.117661E0,-1.0566983E0,-5.332272E-1,-9.175413E-1,-5.365804E-1,-3.4201172E-1,3.819729E-1,-9.6651286E-2,3.2197347E-1,-2.44022E-2,9.524511E-1,7.307818E-1,1.1733536E0,1.2423791E0,1.396405E-1,-1.3974573E-1,-1.2833612E-1,-1.1809873E-1,-5.2458744E-2,-1.301549E-1,-9.82956E-2,-7.518325E-2,3.087082E-3,-1.119092E-1,-7.6229E-2,-1.1419977E-2,-5.9944134E-2,-4.5298394E-2,5.7044156E-2,8.580926E-2,1.9423075E-2,2.1091696E-2,-5.3215068E-2,5.369829E-2,-2.573906E-3,3.9480504E-2,-1.0788393E-1,8.216324E-2,1.3262728E-1,5.057319E-2,8.640274E-2,4.7748793E-2,1.2208362E-1,1.1164099E-1,1.347417E-1],"categories":[],"categories_nodes":[],"categories_segments":[],"categories_sizes":[],"default_left":[0,0,0,0,0,0,0,0,0,0,0,0,0,0,0,0,0,0,0,0,0,0,0,0,0,0,0,0,0,0,0,0,0,0,0,0,0,0,0,0,0,0,0,0,0,0,0,0,0,0,0,0,0,0,0,0,0,0,0,0,0],"id":5,"left_children":[1,3,5,7,9,11,13,15,17,19,21,23,25,27,29,31,33,35,37,39,41,43,45,47,49,51,53,55,57,59,-1,-1,-1,-1,-1,-1,-1,-1,-1,-1,-1,-1,-1,-1,-1,-1,-1,-1,-1,-1,-1,-1,-1,-1,-1,-1,-1,-1,-1,-1,-1],"loss_changes":[1.349681E4,9.414546E2,6.8858936E2,6.705859E1,1.6522842E2,2.7064212E2,1.3716406E2,1.690332E1,1.9798645E1,3.527249E1,8.456647E1,3.535583E1,7.231244E1,3.4245544E1,1.792871E1,6.6757812E0,1.1528412E1,7.4473267E0,1.10960655E1,1.0989502E1,1.8621567E1,3.877577E1,2.487772E1,5.9645596E1,2.764692E1,3.737083E1,4.358777E1,1.558017E1,8.29657E0,1.5877686E1,0E0,0E0,0E0,0E0,0E0,0E0,0E0,0E0,0E0,0E0,0E0,0E0,0E0,0E0,0E0,0E0,0E0,0E0,0E0,0E0,0E0,0E0,0E0,0E0,0E0,0E0,0E0,0E0,0E0,0E0,0E0],"parents":[2147483647,0,0,1,1,2,2,3,3,4,4,5,5,6,6,7,7,8,8,9,9,10,10,11,11,12,12,13,13,14,14,15,15,16,16,17,17,18,18,19,19,20,20,21,21,22,22,23,23,24,24,25,25,26,26,27,27,28,28,29,29],"right_children":[2,4,6,8,10,12,14,16,18,20,22,24,26,28,30,32,34,36,38,40,42,44,46,48,50,52,54,56,58,60,-1,-1,-1,-1,-1,-1,-1,-1,-1,-1,-1,-1,-1,-1,-1,-1,-1,-1,-1,-1,-1,-1,-1,-1,-1,-1,-1,-1,-1,-1,-1],"split_conditions":[7.716049E-2,5.0925925E-2,1.1574074E-1,4.3209877E-2,5.1463836E-1,5.086459E-1,4.9831676E-1,4.533167E-1,4.7362992E-1,5.8080807E-2,6.5972224E-2,4.6631828E-1,4.230655E-1,2.013889E-1,5.4731727E-1,3.1746034E-2,5.633006E-1,3.9396134E-1,5.318893E-1,4.2465225E-1,1.23534255E-1,5.784865E-1,2.04576E-1,5.379673E-1,2.2727273E-1,5.494853E-1,5.728535E-1,4.59015E-1,4.1240966E-1,1.7777778E-1,1.396405E-1,-1.3974573E-1,-1.2833612E-1,-1.1809873E-1,-5.2458744E-2,-1.301549E-1,-9.82956E-2,-7.518325E-2,3.087082E-3,-1.119092E-1,-7.6229E-2,-1.1419977E-2,-5.9944134E-2,-4.5298394E-2,5.7044156E-2,8.580926E-2,1.9423075E-2,2.1091696E-2,-5.3215068E-2,5.369829E-2,-2.573906E-3,3.9480504E-2,-1.0788393E-1,8.216324E-2,1.3262728E-1,5.057319E-2,8.640274E-2,4.7748793E-2,1.2208362E-1,1.1164099E-1,1.347417E-1],"split_indices":[0,0,0,0,2,2,2,1,1,0,0,1,1,0,2,0,2,1,2,1,7,2,6,3,8,3,2,2,2,0,0,0,0,0,0,0,0,0,0,0,0,0,0,0,0,0,0,0,0,0,0,0,0,0,0,0,0,0,0,0,0],"split_type":[0,0,0,0,0,0,0,0,0,0,0,0,0,0,0,0,0,0,0,0,0,0,0,0,0,0,0,0,0,0,0,0,0,0,0,0,0,0,0,0,0,0,0,0,0,0,0,0,0,0,0,0,0,0,0,0,0,0,0,0,0],"sum_hessian":[1.2303314E4,6.118676E3,6.1846387E3,4.379717E3,1.7389589E3,1.8072523E3,4.3773867E3,3.8086042E3,5.711127E2,1.0803895E3,6.585693E2,8.1207556E2,9.9517676E2,8.0087775E2,3.5765088E3,3.4861511E3,3.2245322E2,4.8231924E2,8.879342E1,3.774671E2,7.029225E2,3.793923E2,2.7917697E2,4.4345862E2,3.6861694E2,8.258051E1,9.125962E2,5.3313824E2,2.6773947E2,1.3126721E3,2.2638367E3,2.6096611E3,8.764899E2,2.9044885E2,3.2004387E1,1.0778497E2,3.7453427E2,6.3753986E1,2.5039429E1,1.6154184E2,2.1592528E2,9.142546E1,6.11497E2,3.3870294E2,4.0689365E1,7.794233E1,2.0123463E2,2.6020584E2,1.8325276E2,2.2743643E2,1.4118053E2,5.9536476E1,2.3044037E1,6.783914E2,2.3420482E2,2.0005078E2,3.330875E2,1.7808516E1,2.4993097E2,6.0215326E2,7.105188E2],"tree_param":{"num_deleted":"0","num_feature":"10","num_nodes":"61","size_leaf_vector":"1"}},{"base_weights":[1.5071395E-4,-1.0524564E0,9.216313E-1,-1.2614436E0,-5.3984565E-1,2.2458693E-1,1.1315354E0,-1.3282111E0,-1.1196992E0,-8.125348E-1,-2.9547918E-1,-5.1903196E-2,7.179851E-1,7.456857E-1,1.260855E0,-1.3295745E0,4.372596E-2,-1.2079264E0,-9.8284495E-1,-6.2666285E-1,-1.0960072E0,-4.0015292E-1,5.898655E-1,-3.0044568E-1,1.3281481E-1,5.5992126E-1,1.0691328E0,4.7287595E-1,9.92605E-1,1.1073838E0,1.3229599E0,-1.3339543E-1,-9.35404E-2,6.782155E-2,-4.9733423E-2,-1.0853144E-1,-1.2874044E-1,-1.0240205E-1,-2.7658004E-2,-9.8516114E-2,-3.169219E-2,-8.566258E-2,-1.2639216E-1,-1.3248714E-2,-6.0350683E-2,1.069827E-1,8.300442E-3,-4.292413E-2,-8.008708E-4,3.749988E-2,-1.7486153E-2,7.8360185E-2,2.736117E-2,-4.965702E-2,1.0959715E-1,5.7662923E-2,3.8909453E-3,1.1080936E-1,7.694232E-2,9.092375E-2,1.2478169E-1,1.2475953E-1,1.3487175E-1],"categories":[],"categories_nodes":[],"categories_segments":[],"categories_sizes":[],"default_left":[0,0,0,0,0,0,0,0,0,0,0,0,0,0,0,0,0,0,0,0,0,0,0,0,0,0,0,0,0,0,0,0,0,0,0,0,0,0,0,0,0,0,0,0,0,0,0,0,0,0,0,0,0,0,0,0,0,0,0,0,0,0,0],"id":6,"left_children":[1,3,5,7,9,11,13,15,17,19,21,23,25,27,29,31,33,35,37,39,41,43,45,47,49,51,53,55,57,59,61,-1,-1,-1,-1,-1,-1,-1,-1,-1,-1,-1,-1,-1,-1,-1,-1,-1,-1,-1,-1,-1,-1,-1,-1,-1,-1,-1,-1,-1,-1,-1,-1],"loss_changes":[1.1462788E4,5.902876E2,9.217207E2,3.559326E1,1.06337616E2,1.9916174E2,2.4070361E2,5.029785E0,1.4037964E1,3.911081E1,7.855121E1,4.3029156E1,2.8500305E1,8.158386E1,3.3092285E1,3.3364258E0,1.5756333E0,6.031494E0,1.4246613E1,5.0603867E1,1.08871765E1,4.108734E1,2.174582E1,1.5044491E1,4.0143147E1,2.3073265E1,7.3365326E0,2.6120102E1,1.5604126E1,2.8101074E1,3.317871E0,0E0,0E0,0E0,0E0,0E0,0E0,0E0,0E0,0E0,0E0,0E0,0E0,0E0,0E0,0E0,0E0,0E0,0E0,0E0,0E0,0E0,0E0,0E0,0E0,0E0,0E0,0E0,0E0,0E0,0E0,0E0,0E0],"parents":[2147483647,0,0,1,1,2,2,3,3,4,4,5,5,6,6,7,7,8,8,9,9,10,10,11,11,12,12,13,13,14,14,15,15,16,16,17,17,18,18,19,19,20,20,21,21,22,22,23,23,24,24,25,25,26,26,27,27,28,28,29,29,30,30],"right_children":[2,4,6,8,10,12,14,16,18,20,22,24,26,28,30,32,34,36,38,40,42,44,46,48,50,52,54,56,58,60,62,-1,-1,-1,-1,-1,-1,-1,-1,-1,-1,-1,-1,-1,-1,-1,-1,-1,-1,-1,-1,-1,-1,-1,-1,-1,-1,-1,-1,-1,-1,-1,-1],"split_conditions":[7.1428575E-2,4.761905E-2,9.920635E-2,3.3333335E-2,4.4067597E-1,5.2701104E-1,5.0759375E-1,6.3255244E-1,4.3078876E-1,5.4642004E-1,5.63943E-1,4.7793448E-1,5.694269E-1,1.4351852E-1,1.4583333E-1,4.8051575E-1,5.893789E-1,5.182307E-1,5.710831E-1,3.9828107E-1,4.5454547E-2,5.8160913E-1,1.6250204E-1,9.0277776E-2,5.719917E-1,5.850707E-1,4.0176556E-1,2.7272728E-1,1.6339035E-1,5.4429096E-1,5.421356E-1,-1.3339543E-1,-9.35404E-2,6.782155E-2,-4.9733423E-2,-1.0853144E-1,-1.2874044E-1,-1.0240205E-1,-2.7658004E-2,-9.8516114E-2,-3.169219E-2,-8.566258E-2,-1.2639216E-1,-1.3248714E-2,-6.0350683E-2,1.069827E-1,8.300442E-3,-4.292413E-2,-8.008708E-4,3.749988E-2,-1.7486153E-2,7.8360185E-2,2.736117E-2,-4.965702E-2,1.0959715E-1,5.7662923E-2,3.8909453E-3,1.1080936E-1,7.694232E-2,9.092375E-2,1.2478169E-1,1.2475953E-1,1.3487175E-1],"split_indices":[0,0,0,0,1,2,2,2,1,3,2,2,2,0,0,1,3,3,2,1,8,3,7,0,3,3,1,8,7,2,2,0,0,0,0,0,0,0,0,0,0,0,0,0,0,0,0,0,0,0,0,0,0,0,0,0,0,0,0,0,0,0,0],"split_type":[0,0,0,0,0,0,0,0,0,0,0,0,0,0,0,0,0,0,0,0,0,0,0,0,0,0,0,0,0,0,0,0,0,0,0,0,0,0,0,0,0,0,0,0,0,0,0,0,0,0,0,0,0,0,0,0,0,0,0,0,0,0,0],"sum_hessian":[1.181583E4,5.515422E3,6.300408E3,3.9170234E3,1.5983987E3,1.4586456E3,4.8417627E3,2.6570657E3,1.2599576E3,7.543228E2,8.4407587E2,9.3537537E2,5.232702E2,1.2170942E3,3.6246685E3,2.6544585E3,2.6071787E0,7.613222E2,4.9863544E2,4.575315E2,2.9679135E2,7.553226E2,8.8753296E1,3.9852454E2,5.368508E2,3.6263162E2,1.6063861E2,5.7961707E2,6.374772E2,1.0496489E3,2.5750195E3,2.6229292E3,3.1529373E1,1.0833106E0,1.5238682E0,3.051767E2,4.5614554E2,4.7074115E2,2.7894297E1,2.1106335E2,2.4646814E2,1.2487247E2,1.7191887E2,3.268093E2,4.2851328E2,4.501582E1,4.3737476E1,2.7634735E2,1.22177185E2,3.0027438E2,2.3657643E2,2.0260707E2,1.6002454E2,2.4122477E0,1.5822636E2,4.675144E2,1.1210266E2,4.1748065E2,2.1999654E2,4.3846457E2,6.111844E2,6.684958E2,1.9065237E3],"tree_param":{"num_deleted":"0","num_feature":"10","num_nodes":"63","size_leaf_vector":"1"}},{"base_weights":[1.3556606E-4,-9.3338954E-1,9.229697E-1,-1.1907692E0,-3.7568247E-1,4.3792188E-1,1.1380494E0,-1.2556629E0,-9.6022844E-1,-5.6660086E-1,4.6300187E-4,1.8012685E-1,9.10405E-1,7.575447E-1,1.2282047E0,-1.269972E0,-1.0240456E0,-1.0224355E0,-4.4617411E-1,-8.0194056E-1,-4.229389E-1,-4.3431652E-1,2.433495E-1,-4.0178474E-2,3.8919607E-1,2.2951062E-1,1.0076767E0,6.1479485E-1,1.0510327E0,1.1238762E0,1.2895142E0,-1.2709193E-1,1.8148927E-2,1.9742053E-2,-1.07015066E-1,-1.1204944E-1,-8.2800336E-2,6.1335903E-2,-6.1929327E-2,-9.721603E-2,-6.516299E-2,-7.043421E-2,-3.2076534E-2,-1.1783271E-2,-8.6167194E-2,6.047968E-2,6.701236E-5,-1.6053945E-2,3.660269E-2,5.2557863E-2,-4.163983E-3,6.413798E-2,-8.109096E-2,1.1378062E-1,7.627911E-2,3.3463147E-2,7.155313E-2,3.5724014E-2,1.1009146E-1,9.921021E-2,1.2371337E-1,1.16709046E-1,1.2980255E-1],"categories":[],"categories_nodes":[],"categories_segments":[],"categories_sizes":[],"default_left":[0,0,0,0,0,0,0,0,0,0,0,0,0,0,0,0,0,0,0,0,0,0,0,0,0,0,0,0,0,0,0,0,0,0,0,0,0,0,0,0,0,0,0,0,0,0,0,0,0,0,0,0,0,0,0,0,0,0,0,0,0,0,0],"id":7,"left_children":[1,3,5,7,9,11,13,15,17,19,21,23,25,27,29,31,33,35,37,39,41,43,45,47,49,51,53,55,57,59,61,-1,-1,-1,-1,-1,-1,-1,-1,-1,-1,-1,-1,-1,-1,-1,-1,-1,-1,-1,-1,-1,-1,-1,-1,-1,-1,-1,-1,-1,-1,-1,-1],"loss_changes":[9.756543E3,8.076958E2,5.936489E2,5.6419434E1,1.2777313E2,2.1313882E2,1.3440186E2,8.650391E0,2.6734863E1,3.9562958E1,6.3470333E1,5.2258442E1,4.069629E1,3.1122314E1,1.8939941E1,4.1123047E0,1.0340179E1,1.3519226E1,1.754197E1,1.0784088E1,2.09057E1,2.903431E1,3.382384E1,2.710512E1,3.4223015E1,3.4175247E1,1.6353027E1,1.4226364E1,8.145172E0,1.6498291E1,5.703125E-1,0E0,0E0,0E0,0E0,0E0,0E0,0E0,0E0,0E0,0E0,0E0,0E0,0E0,0E0,0E0,0E0,0E0,0E0,0E0,0E0,0E0,0E0,0E0,0E0,0E0,0E0,0E0,0E0,0E0,0E0,0E0,0E0],"parents":[2147483647,0,0,1,1,2,2,3,3,4,4,5,5,6,6,7,7,8,8,9,9,10,10,11,11,12,12,13,13,14,14,15,15,16,16,17,17,18,18,19,19,20,20,21,21,22,22,23,23,24,24,25,25,26,26,27,27,28,28,29,29,30,30],"right_children":[2,4,6,8,10,12,14,16,18,20,22,24,26,28,30,32,34,36,38,40,42,44,46,48,50,52,54,56,58,60,62,-1,-1,-1,-1,-1,-1,-1,-1,-1,-1,-1,-1,-1,-1,-1,-1,-1,-1,-1,-1,-1,-1,-1,-1,-1,-1,-1,-1,-1,-1,-1,-1],"split_conditions":[7.716049E-2,5E-2,1.1574074E-1,3.8194444E-2,5.19687E-1,5.3361034E-1,4.9831676E-1,4.5691553E-1,4.7810143E-1,5.8080807E-2,5.952381E-2,4.8955566E-1,4.393372E-1,2.013889E-1,5.4731727E-1,6.3255244E-1,1.0044298E-1,5.1306593E-1,1.3420087E-1,4.29262E-1,4.192584E-1,2.5144786E-1,2.3278634E-1,4.950811E-1,6.126965E-1,5.657023E-1,6.167833E-1,4.4719085E-1,4.1240966E-1,1.7777778E-1,1.2777779E-1,-1.2709193E-1,1.8148927E-2,1.9742053E-2,-1.07015066E-1,-1.1204944E-1,-8.2800336E-2,6.1335903E-2,-6.1929327E-2,-9.721603E-2,-6.516299E-2,-7.043421E-2,-3.2076534E-2,-1.1783271E-2,-8.6167194E-2,6.047968E-2,6.701236E-5,-1.6053945E-2,3.660269E-2,5.2557863E-2,-4.163983E-3,6.413798E-2,-8.109096E-2,1.1378062E-1,7.627911E-2,3.3463147E-2,7.155313E-2,3.5724014E-2,1.1009146E-1,9.921021E-2,1.2371337E-1,1.16709046E-1,1.2980255E-1],"split_indices":[0,0,0,0,2,2,2,1,1,0,0,2,1,0,2,2,7,2,7,1,1,6,6,1,3,3,3,2,2,0,0,0,0,0,0,0,0,0,0,0,0,0,0,0,0,0,0,0,0,0,0,0,0,0,0,0,0,0,0,0,0,0,0],"split_type":[0,0,0,0,0,0,0,0,0,0,0,0,0,0,0,0,0,0,0,0,0,0,0,0,0,0,0,0,0,0,0,0,0,0,0,0,0,0,0,0,0,0,0,0,0,0,0,0,0,0,0,0,0,0,0,0,0,0,0,0,0,0,0],"sum_hessian":[1.1323211E4,5.6289937E3,5.694217E3,3.8507517E3,1.7782418E3,1.7502002E3,3.9440168E3,3.0014443E3,8.493075E2,1.1792096E3,5.990322E2,1.1332567E3,6.169434E2,7.572813E2,3.1867354E3,2.8225852E3,1.7885919E2,7.56743E2,9.256453E1,4.4524683E2,7.3396277E2,2.1442038E2,3.8461185E2,5.521939E2,5.8106287E2,7.753866E1,5.394048E2,5.115587E2,2.457226E2,1.1866985E3,2.000037E3,2.8208687E3,1.7165868E0,6.38622E0,1.7247296E2,4.9987567E2,2.5686728E2,1.2643026E1,7.99215E1,2.0623161E2,2.3901523E2,1.9393626E2,5.400265E2,1.2392314E2,9.049723E1,1.5390025E2,2.307116E2,4.264416E2,1.257523E2,4.4118454E2,1.3987833E2,5.5823467E1,2.1715189E1,3.498515E2,1.8955325E2,1.3643478E2,3.751239E2,1.702927E1,2.2869333E2,5.530217E2,6.336767E2,1.3898909E2,1.861048E3],"tree_param":{"num_deleted":"0","num_feature":"10","num_nodes":"63","size_leaf_vector":"1"}},{"base_weights":[1.5043677E-4,-9.422569E-1,8.163372E-1,-1.1591647E0,-4.549018E-1,3.2924584E-1,1.0878556E0,-1.2344041E0,-1.0043381E0,-5.8139145E-1,-2.1043735E-2,1.07246116E-1,8.1972903E-1,7.037034E-1,1.182052E0,-1.2358652E0,6.1558545E-2,-1.1460168E0,-9.058732E-1,-6.891452E-1,-2.7324188E-1,-2.7041304E-1,3.9220858E-1,-1.313882E-1,3.0281678E-1,4.977642E-1,9.970428E-1,5.6549007E-1,9.9602616E-1,1.0036288E0,1.2223815E0,-1.24075465E-1,-8.188411E-2,6.2303483E-2,-4.4478204E-2,-1.1556981E-1,3.288927E-2,-9.3522124E-2,-3.4151603E-2,-5.7259884E-2,-9.849884E-2,-1.3069915E-2,-7.1162134E-2,1.3258862E-2,-6.23202E-2,-5.7534967E-3,6.91792E-2,-2.0988103E-2,4.2183835E-2,6.5941135E-3,5.0421488E-2,8.0822565E-2,1.8591365E-2,6.874644E-2,1.0962011E-1,8.0872886E-2,4.432538E-2,3.2751348E-2,1.04604006E-1,8.414335E-2,1.15672484E-1,1.15027726E-1,1.2597479E-1],"categories":[],"categories_nodes":[],"categories_segments":[],"categories_sizes":[],"default_left":[0,0,0,0,0,0,0,0,0,0,0,0,0,0,0,0,0,0,0,0,0,0,0,0,0,0,0,0,0,0,0,0,0,0,0,0,0,0,0,0,0,0,0,0,0,0,0,0,0,0,0,0,0,0,0,0,0,0,0,0,0,0,0],"id":8,"left_children":[1,3,5,7,9,11,13,15,17,19,21,23,25,27,29,31,33,35,37,39,41,43,45,47,49,51,53,55,57,59,61,-1,-1,-1,-1,-1,-1,-1,-1,-1,-1,-1,-1,-1,-1,-1,-1,-1,-1,-1,-1,-1,-1,-1,-1,-1,-1,-1,-1,-1,-1,-1,-1],"loss_changes":[8.332551E3,5.309619E2,7.674138E2,3.9282715E1,8.5058075E1,2.2631378E2,1.3403369E2,4.5004883E0,1.490686E1,3.966327E1,3.6273407E1,6.689548E1,3.648065E1,2.9189453E1,2.0300293E1,3.7436523E0,1.2960676E0,7.0180664E0,1.0928467E1,3.0074005E1,1.944117E1,3.1286089E1,1.7890629E1,2.813724E1,3.754032E1,2.231377E1,1.2037476E1,1.4576523E1,7.5176544E0,1.2861023E1,5.1132812E0,0E0,0E0,0E0,0E0,0E0,0E0,0E0,0E0,0E0,0E0,0E0,0E0,0E0,0E0,0E0,0E0,0E0,0E0,0E0,0E0,0E0,0E0,0E0,0E0,0E0,0E0,0E0,0E0,0E0,0E0,0E0,0E0],"parents":[2147483647,0,0,1,1,2,2,3,3,4,4,5,5,6,6,7,7,8,8,9,9,10,10,11,11,12,12,13,13,14,14,15,15,16,16,17,17,18,18,19,19,20,20,21,21,22,22,23,23,24,24,25,25,26,26,27,27,28,28,29,29,30,30],"right_children":[2,4,6,8,10,12,14,16,18,20,22,24,26,28,30,32,34,36,38,40,42,44,46,48,50,52,54,56,58,60,62,-1,-1,-1,-1,-1,-1,-1,-1,-1,-1,-1,-1,-1,-1,-1,-1,-1,-1,-1,-1,-1,-1,-1,-1,-1,-1,-1,-1,-1,-1,-1,-1],"split_conditions":[7.1428575E-2,4.761905E-2,1.1574074E-1,3.3333335E-2,5.330929E-1,5.3606004E-1,4.9831676E-1,6.3255244E-1,4.1074297E-1,4.6842462E-1,6.349207E-2,8.796296E-2,8.547009E-2,2.013889E-1,5.2648103E-1,4.8051575E-1,5.893789E-1,3.1643552E-1,5.710831E-1,5.76292E-1,3.8449284E-1,2.2809216E-1,4.5389766E-1,6E-1,4.8909825E-1,5.836592E-1,4.6480536E-1,1.3324316E-1,4.1240966E-1,1.7777778E-1,1.736111E-1,-1.24075465E-1,-8.188411E-2,6.2303483E-2,-4.4478204E-2,-1.1556981E-1,3.288927E-2,-9.3522124E-2,-3.4151603E-2,-5.7259884E-2,-9.849884E-2,-1.3069915E-2,-7.1162134E-2,1.3258862E-2,-6.23202E-2,-5.7534967E-3,6.91792E-2,-2.0988103E-2,4.2183835E-2,6.5941135E-3,5.0421488E-2,8.0822565E-2,1.8591365E-2,6.874644E-2,1.0962011E-1,8.0872886E-2,4.432538E-2,3.2751348E-2,1.04604006E-1,8.414335E-2,1.15672484E-1,1.15027726E-1,1.2597479E-1],"split_indices":[0,0,0,0,2,2,2,2,1,1,0,0,0,0,2,1,3,7,2,3,6,6,1,9,2,3,1,7,2,0,0,0,0,0,0,0,0,0,0,0,0,0,0,0,0,0,0,0,0,0,0,0,0,0,0,0,0,0,0,0,0,0,0],"split_type":[0,0,0,0,0,0,0,0,0,0,0,0,0,0,0,0,0,0,0,0,0,0,0,0,0,0,0,0,0,0,0,0,0,0,0,0,0,0,0,0,0,0,0,0,0,0,0,0,0,0,0,0,0,0,0,0,0,0,0,0,0,0,0],"sum_hessian":[1.0831024E4,5.02675E3,5.8042744E3,3.4775942E3,1.5491556E3,2.0782327E3,3.7260417E3,2.33561E3,1.1419841E3,1.199195E3,3.499606E2,1.4315234E3,6.4670935E2,7.354005E2,2.9906414E3,2.3330261E3,2.5840986E0,4.6388013E2,6.7810406E2,8.875871E2,3.116079E2,2.184729E2,1.314877E2,6.449216E2,7.866018E2,2.3102437E2,4.1568494E2,5.0131015E2,2.3409032E2,5.5612964E2,2.4345117E3,2.304037E3,2.8988855E1,1.1160526E0,1.4680461E0,4.610701E2,2.8100088E0,6.4395935E2,3.4144684E1,6.3885E2,2.4873712E2,2.361273E2,7.548061E1,1.0227042E2,1.1620248E2,5.2892246E1,7.859545E1,5.6533185E2,7.958972E1,3.6207382E2,4.2452798E2,1.149724E2,1.1605198E2,1.02768486E2,3.1291647E2,1.6578911E2,3.3552106E2,1.6819574E1,2.1727075E2,2.7319415E2,2.8293546E2,8.418393E2,1.5926724E3],"tree_param":{"num_deleted":"0","num_feature":"10","num_nodes":"63","size_leaf_vector":"1"}},{"base_weights":[1.9274847E-4,-8.9322764E-1,7.6926243E-1,-1.1469668E0,-4.7242618E-1,3.0130276E-1,1.0420356E0,-1.1735023E0,-8.7650305E-1,-7.2939175E-1,-2.7208126E-1,9.709498E-2,7.6686066E-1,7.3933303E-1,1.1703908E0,-1.2097443E0,-1.0685496E0,-3.0369428E-1,-9.593297E-1,-4.9737686E-1,-9.7002536E-1,-3.4977978E-1,4.7845882E-1,-9.2670046E-2,3.1030792E-1,4.5624936E-1,9.4329107E-1,6.0137665E-1,1.012669E0,1.0325568E0,1.2036898E0,-1.21146284E-1,-1.0015695E-2,-9.631211E-2,-1.1231506E-1,-7.6769404E-2,9.353529E-2,-9.692692E-2,3.824463E-2,-8.439896E-2,-1.1796592E-2,-7.721808E-2,-1.1216935E-1,-5.5206843E-2,-1.2455223E-2,7.093561E-2,-4.418015E-2,1.8923072E-2,-4.2852942E-2,5.0506383E-2,-6.6002705E-3,-9.859892E-2,5.17496E-2,6.3743874E-2,1.0438867E-1,4.015897E-2,7.622361E-2,6.705247E-2,1.0999377E-1,9.076187E-2,1.1805946E-1,1.1434682E-1,1.23194076E-1],"categories":[],"categories_nodes":[],"categories_segments":[],"categories_sizes":[],"default_left":[0,0,0,0,0,0,0,0,0,0,0,0,0,0,0,0,0,0,0,0,0,0,0,0,0,0,0,0,0,0,0,0,0,0,0,0,0,0,0,0,0,0,0,0,0,0,0,0,0,0,0,0,0,0,0,0,0,0,0,0,0,0,0],"id":9,"left_children":[1,3,5,7,9,11,13,15,17,19,21,23,25,27,29,31,33,35,37,39,41,43,45,47,49,51,53,55,57,59,61,-1,-1,-1,-1,-1,-1,-1,-1,-1,-1,-1,-1,-1,-1,-1,-1,-1,-1,-1,-1,-1,-1,-1,-1,-1,-1,-1,-1,-1,-1,-1,-1],"loss_changes":[7.113342E3,5.1081445E2,7.0985034E2,2.0408203E1,9.263428E1,1.9483507E2,1.3567993E2,9.042236E0,1.2557419E1,4.3589203E1,5.934823E1,5.7734146E1,3.3816895E1,3.8953857E1,1.0075928E1,3.7155762E0,2.9822998E0,2.1228832E1,3.52005E0,5.3022163E1,1.0729736E1,4.1856804E1,2.063246E1,7.159911E1,4.9272125E1,2.0678207E1,1.1568268E1,2.2181335E1,9.7265625E0,7.93396E0,1.9604492E0,0E0,0E0,0E0,0E0,0E0,0E0,0E0,0E0,0E0,0E0,0E0,0E0,0E0,0E0,0E0,0E0,0E0,0E0,0E0,0E0,0E0,0E0,0E0,0E0,0E0,0E0,0E0,0E0,0E0,0E0,0E0,0E0],"parents":[2147483647,0,0,1,1,2,2,3,3,4,4,5,5,6,6,7,7,8,8,9,9,10,10,11,11,12,12,13,13,14,14,15,15,16,16,17,17,18,18,19,19,20,20,21,21,22,22,23,23,24,24,25,25,26,26,27,27,28,28,29,29,30,30],"right_children":[2,4,6,8,10,12,14,16,18,20,22,24,26,28,30,32,34,36,38,40,42,44,46,48,50,52,54,56,58,60,62,-1,-1,-1,-1,-1,-1,-1,-1,-1,-1,-1,-1,-1,-1,-1,-1,-1,-1,-1,-1,-1,-1,-1,-1,-1,-1,-1,-1,-1,-1,-1,-1],"split_conditions":[7.1428575E-2,4.3209877E-2,1.1574074E-1,4.533167E-1,4.354241E-1,5.3606004E-1,5.1749516E-1,3.1746034E-2,1.2621143E-1,5.288426E-1,5.664697E-1,4.6631828E-1,8.547009E-2,2.013889E-1,1.4583333E-1,6.215733E-1,5.182307E-1,5.3703004E-1,6.120249E-1,3.9653066E-1,1.4754818E-1,5.8641974E-2,3.2242784E-1,5.3729075E-1,2.2727273E-1,4.0428013E-1,4.6480536E-1,4.791845E-1,4.5688406E-1,5.6257427E-1,5.532663E-1,-1.21146284E-1,-1.0015695E-2,-9.631211E-2,-1.1231506E-1,-7.6769404E-2,9.353529E-2,-9.692692E-2,3.824463E-2,-8.439896E-2,-1.1796592E-2,-7.721808E-2,-1.1216935E-1,-5.5206843E-2,-1.2455223E-2,7.093561E-2,-4.418015E-2,1.8923072E-2,-4.2852942E-2,5.0506383E-2,-6.6002705E-3,-9.859892E-2,5.17496E-2,6.3743874E-2,1.0438867E-1,4.015897E-2,7.622361E-2,6.705247E-2,1.0999377E-1,9.076187E-2,1.1805946E-1,1.1434682E-1,1.23194076E-1],"split_indices":[0,0,0,1,1,2,2,0,7,3,2,1,0,0,0,2,3,2,2,1,7,0,6,3,8,1,1,2,2,2,2,0,0,0,0,0,0,0,0,0,0,0,0,0,0,0,0,0,0,0,0,0,0,0,0,0,0,0,0,0,0,0,0],"split_type":[0,0,0,0,0,0,0,0,0,0,0,0,0,0,0,0,0,0,0,0,0,0,0,0,0,0,0,0,0,0,0,0,0,0,0,0,0,0,0,0,0,0,0,0,0,0,0,0,0,0,0,0,0,0,0,0,0,0,0,0,0,0,0],"sum_hessian":[1.0350665E4,4.788154E3,5.5625107E3,2.9859375E3,1.8022163E3,2.0491567E3,3.5133542E3,2.7161174E3,2.698202E2,7.8838293E2,1.0138334E3,1.4252205E3,6.239363E2,1.0481781E3,2.465176E3,2.0111167E3,7.050006E2,3.467601E1,2.3514417E2,4.0294092E2,3.8544202E2,9.192077E2,9.462562E1,7.5437366E2,6.708468E2,2.2731937E2,3.9661694E2,6.987231E2,3.4945502E2,4.8590076E2,1.9792753E3,2.007915E3,3.20169E0,2.4690112E2,4.5809946E2,2.5505207E1,9.170803E0,2.3369067E2,1.4534965E0,2.0993202E2,1.930089E2,1.699026E2,2.1553941E2,4.835E2,4.3570773E2,7.582898E1,1.8796633E1,4.1036978E2,3.440039E2,4.4183646E2,2.2901031E2,8.645114E0,2.1867426E2,9.997821E1,2.9663873E2,3.1321167E2,3.855114E2,7.2783775E1,2.7667123E2,2.6737665E2,2.1852411E2,6.452619E2,1.3340134E3],"tree_param":{"num_deleted":"0","num_feature":"10","num_nodes":"63","size_leaf_vector":"1"}},{"base_weights":[1.7799847E-4,-9.06278E-1,6.8047744E-1,-1.1094828E0,-5.150955E-1,1.0068926E-1,9.3384767E-1,-1.1743016E0,-9.827685E-1,-7.221147E-1,-3.4267542E-1,-9.859206E-2,4.981408E-1,6.0739315E-1,1.1077267E0,-1.1767589E0,-3.873968E-1,-1.0773792E0,-8.6347014E-1,-5.1198655E-1,-9.387256E-1,6.805346E-1,-4.169568E-1,-4.5776448E-1,-5.3710705E-3,1.3740484E-1,6.930336E-1,3.782739E-1,8.293144E-1,9.5239437E-1,1.1711763E0,-1.2054449E-1,-1.1239357E-1,-8.215805E-2,5.965842E-2,7.057404E-2,-1.08400226E-1,-4.4966374E-2,-8.993512E-2,-8.325347E-2,-2.0382816E-2,-6.781471E-2,-1.0517688E-1,1.2342496E-1,3.2982256E-3,8.741217E-3,-5.1947117E-2,-9.2568883E-4,-8.817086E-2,2.784115E-2,-1.9655533E-2,4.3814357E-2,-5.284958E-2,8.0673516E-2,2.0494431E-2,4.7296904E-2,-2.8526348E-3,9.4690464E-2,5.8833946E-2,-1.0813455E-2,9.801044E-2,1.10497594E-1,1.20124936E-1],"categories":[],"categories_nodes":[],"categories_segments":[],"categories_sizes":[],"default_left":[0,0,0,0,0,0,0,0,0,0,0,0,0,0,0,0,0,0,0,0,0,0,0,0,0,0,0,0,0,0,0,0,0,0,0,0,0,0,0,0,0,0,0,0,0,0,0,0,0,0,0,0,0,0,0,0,0,0,0,0,0,0,0],"id":10,"left_children":[1,3,5,7,9,11,13,15,17,19,21,23,25,27,29,31,33,35,37,39,41,43,45,47,49,51,53,55,57,59,61,-1,-1,-1,-1,-1,-1,-1,-1,-1,-1,-1,-1,-1,-1,-1,-1,-1,-1,-1,-1,-1,-1,-1,-1,-1,-1,-1,-1,-1,-1,-1,-1],"loss_changes":[6.0989673E3,3.3649292E2,8.298928E2,2.176001E1,5.1563477E1,1.362275E2,2.2250171E2,3.1030273E0,9.795227E0,2.9499817E1,6.0620018E1,3.83678E1,4.028363E1,6.927289E1,2.4155518E1,1.4245605E0,3.5749106E0,6.975952E0,5.9108276E0,3.30738E1,8.805267E0,1.936072E1,3.8345E1,4.4890377E1,4.9472748E1,4.0825325E1,2.051471E1,2.6023582E1,1.9118591E1,2.211615E1,2.288086E0,0E0,0E0,0E0,0E0,0E0,0E0,0E0,0E0,0E0,0E0,0E0,0E0,0E0,0E0,0E0,0E0,0E0,0E0,0E0,0E0,0E0,0E0,0E0,0E0,0E0,0E0,0E0,0E0,0E0,0E0,0E0,0E0],"parents":[2147483647,0,0,1,1,2,2,3,3,4,4,5,5,6,6,7,7,8,8,9,9,10,10,11,11,12,12,13,13,14,14,15,15,16,16,17,17,18,18,19,19,20,20,21,21,22,22,23,23,24,24,25,25,26,26,27,27,28,28,29,29,30,30],"right_children":[2,4,6,8,10,12,14,16,18,20,22,24,26,28,30,32,34,36,38,40,42,44,46,48,50,52,54,56,58,60,62,-1,-1,-1,-1,-1,-1,-1,-1,-1,-1,-1,-1,-1,-1,-1,-1,-1,-1,-1,-1,-1,-1,-1,-1,-1,-1,-1,-1,-1,-1,-1,-1],"split_conditions":[6.5972224E-2,4.3209877E-2,9.920635E-2,4.1230702E-1,4.354241E-1,5.2701104E-1,5.1909804E-1,3.1643552E-1,3.2828283E-2,5.288426E-1,1.5803733E-1,4.1777533E-1,4.6323353E-1,1.4351852E-1,1.4583333E-1,2.5641026E-2,3.4188036E-2,5.5645578E-2,1.4233404E-1,3.9396134E-1,1.8662304E-1,6.150637E-1,5.2970874E-1,4.8361602E-1,5.572445E-1,5.836592E-1,6.511897E-1,2.7272728E-1,1.6527657E-1,4.0916932E-1,5.532663E-1,-1.2054449E-1,-1.1239357E-1,-8.215805E-2,5.965842E-2,7.057404E-2,-1.08400226E-1,-4.4966374E-2,-8.993512E-2,-8.325347E-2,-2.0382816E-2,-6.781471E-2,-1.0517688E-1,1.2342496E-1,3.2982256E-3,8.741217E-3,-5.1947117E-2,-9.2568883E-4,-8.817086E-2,2.784115E-2,-1.9655533E-2,4.3814357E-2,-5.284958E-2,8.0673516E-2,2.0494431E-2,4.7296904E-2,-2.8526348E-3,9.4690464E-2,5.8833946E-2,-1.0813455E-2,9.801044E-2,1.10497594E-1,1.20124936E-1],"split_indices":[0,0,0,1,1,2,2,7,0,3,6,1,1,0,0,0,0,7,6,1,6,3,3,3,3,3,3,8,7,1,2,0,0,0,0,0,0,0,0,0,0,0,0,0,0,0,0,0,0,0,0,0,0,0,0,0,0,0,0,0,0,0,0],"split_type":[0,0,0,0,0,0,0,0,0,0,0,0,0,0,0,0,0,0,0,0,0,0,0,0,0,0,0,0,0,0,0,0,0,0,0,0,0,0,0,0,0,0,0,0,0,0,0,0,0,0,0,0,0,0,0,0,0,0,0,0,0,0,0],"sum_hessian":[9.888299E3,4.239329E3,5.64897E3,2.7888098E3,1.4505194E3,1.7183226E3,3.9306475E3,1.839549E3,9.492608E2,6.576782E2,7.928411E2,1.1449828E3,5.7333984E2,1.3675645E3,2.563083E3,1.8333285E3,6.220419E0,5.249294E2,4.2433142E2,3.3554208E2,3.2213614E2,5.3109386E1,7.3973175E2,2.3513138E2,9.098514E2,2.017032E2,3.7163666E2,6.742008E2,6.9336365E2,7.4797046E2,1.8151127E3,1.1739741E3,6.593545E2,4.430497E0,1.7899218E0,1.5518904E0,5.233775E2,3.4937523E1,3.893939E2,1.6363078E2,1.719113E2,9.958328E1,2.2255284E2,2.8140623E1,2.4968763E1,1.2497991E2,6.1475183E2,1.1475222E2,1.2037915E2,3.660509E2,5.438005E2,1.3918536E2,6.251784E1,3.0089062E2,7.0746025E1,5.467625E2,1.2743825E2,4.6400864E2,2.2935504E2,1.8971804E1,7.2899866E2,5.787794E2,1.2363333E3],"tree_param":{"num_deleted":"0","num_feature":"10","num_nodes":"63","size_leaf_vector":"1"}},{"base_weights":[1.2801128E-4,-8.628861E-1,6.3988906E-1,-1.0749348E0,-4.7425315E-1,1.3823675E-1,9.16431E-1,-1.1055343E0,-7.763565E-1,-5.251218E-1,1.6421682E-1,-1.0055319E-1,4.5052156E-1,6.139212E-1,1.0858445E0,-1.147863E0,-9.8639613E-1,-2.0353076E-1,-8.6364454E-1,-7.4305195E-1,-4.1755256E-1,5.0454575E-1,-3.5334378E-1,3.384184E-2,-3.2816958E-1,1.1860486E-1,6.238841E-1,4.5137963E-1,8.722974E-1,9.21484E-1,1.1441846E0,-1.14984356E-1,-8.053776E-4,-8.691059E-2,-1.0476398E-1,-6.632166E-2,9.2414305E-2,-8.770666E-2,2.4004878E-2,-3.710275E-2,-8.929355E-2,4.2206716E-2,-4.735932E-2,9.848049E-3,1.0654888E-1,-5.7958543E-2,3.6024965E-2,-1.7711697E-2,3.551453E-2,-5.266128E-2,1.9739022E-2,3.5424422E-2,-5.333939E-2,9.119885E-2,4.4300653E-2,2.9213017E-2,6.591266E-2,5.3518634E-2,9.5664926E-2,-5.367362E-2,9.410896E-2,1.0737934E-1,1.17436446E-1],"categories":[],"categories_nodes":[],"categories_segments":[],"categories_sizes":[],"default_left":[0,0,0,0,0,0,0,0,0,0,0,0,0,0,0,0,0,0,0,0,0,0,0,0,0,0,0,0,0,0,0,0,0,0,0,0,0,0,0,0,0,0,0,0,0,0,0,0,0,0,0,0,0,0,0,0,0,0,0,0,0,0,0],"id":11,"left_children":[1,3,5,7,9,11,13,15,17,19,21,23,25,27,29,31,33,35,37,39,41,43,45,47,49,51,53,55,57,59,61,-1,-1,-1,-1,-1,-1,-1,-1,-1,-1,-1,-1,-1,-1,-1,-1,-1,-1,-1,-1,-1,-1,-1,-1,-1,-1,-1,-1,-1,-1,-1,-1],"loss_changes":[5.2170674E3,3.3099536E2,7.526714E2,2.2912598E1,4.6265137E1,1.439317E2,1.7859814E2,1.075708E1,1.2085251E1,3.0567413E1,1.8793682E1,3.3484867E1,4.8047302E1,5.243814E1,2.0433105E1,3.9040527E0,3.5802002E0,1.8099644E1,3.3582153E0,2.3869019E1,4.180197E1,1.4511902E1,7.0724163E0,4.6759354E1,4.248162E1,4.446169E1,2.821138E1,2.5423416E1,1.3271332E1,1.743518E1,2.2436523E0,0E0,0E0,0E0,0E0,0E0,0E0,0E0,0E0,0E0,0E0,0E0,0E0,0E0,0E0,0E0,0E0,0E0,0E0,0E0,0E0,0E0,0E0,0E0,0E0,0E0,0E0,0E0,0E0,0E0,0E0,0E0,0E0],"parents":[2147483647,0,0,1,1,2,2,3,3,4,4,5,5,6,6,7,7,8,8,9,9,10,10,11,11,12,12,13,13,14,14,15,15,16,16,17,17,18,18,19,19,20,20,21,21,22,22,23,23,24,24,25,25,26,26,27,27,28,28,29,29,30,30],"right_children":[2,4,6,8,10,12,14,16,18,20,22,24,26,28,30,32,34,36,38,40,42,44,46,48,50,52,54,56,58,60,62,-1,-1,-1,-1,-1,-1,-1,-1,-1,-1,-1,-1,-1,-1,-1,-1,-1,-1,-1,-1,-1,-1,-1,-1,-1,-1,-1,-1,-1,-1,-1,-1],"split_conditions":[6.5972224E-2,4.3209877E-2,1.0555556E-1,4.533167E-1,5.63943E-1,5.1463836E-1,5.2175874E-1,3.1746034E-2,1.2621143E-1,4.2073056E-1,1.7125098E-1,1.8181819E-1,4.6078497E-1,1.7592593E-1,1.4583333E-1,6.215733E-1,5.182307E-1,5.3703004E-1,6.0390735E-1,4.7645468E-1,1.5318769E-1,4.5998836E-1,4.924418E-1,4.533167E-1,6E-1,5.836592E-1,5.782792E-1,1.1013407E-1,4.5805636E-1,3.9566886E-1,5.532663E-1,-1.14984356E-1,-8.053776E-4,-8.691059E-2,-1.0476398E-1,-6.632166E-2,9.2414305E-2,-8.770666E-2,2.4004878E-2,-3.710275E-2,-8.929355E-2,4.2206716E-2,-4.735932E-2,9.848049E-3,1.0654888E-1,-5.7958543E-2,3.6024965E-2,-1.7711697E-2,3.551453E-2,-5.266128E-2,1.9739022E-2,3.5424422E-2,-5.333939E-2,9.119885E-2,4.4300653E-2,2.9213017E-2,6.591266E-2,5.3518634E-2,9.5664926E-2,-5.367362E-2,9.410896E-2,1.0737934E-1,1.17436446E-1],"split_indices":[0,0,0,1,2,2,2,0,7,1,7,8,1,0,0,2,3,2,2,3,6,1,1,1,9,3,3,4,2,1,2,0,0,0,0,0,0,0,0,0,0,0,0,0,0,0,0,0,0,0,0,0,0,0,0,0,0,0,0,0,0,0,0],"split_type":[0,0,0,0,0,0,0,0,0,0,0,0,0,0,0,0,0,0,0,0,0,0,0,0,0,0,0,0,0,0,0,0,0,0,0,0,0,0,0,0,0,0,0,0,0,0,0,0,0,0,0,0,0,0,0,0,0,0,0,0,0,0,0],"sum_hessian":[9.447107E3,4.0216716E3,5.425436E3,2.6008245E3,1.4208473E3,1.9285358E3,3.4969001E3,2.3566082E3,2.4421634E2,1.3161625E3,1.0468477E2,1.093253E3,8.352827E2,1.2569955E3,2.2399045E3,1.7324495E3,6.241585E2,3.273372E1,2.1148262E2,4.3300583E2,8.831567E2,6.3170982E1,4.1513786E1,6.879233E2,4.0532977E2,2.871653E2,5.481174E2,7.732804E2,4.8371506E2,5.9118E2,1.6487246E3,1.7294355E3,3.0140173E0,2.1932016E2,4.0483835E2,2.354691E1,9.186809E0,2.0914453E2,2.3380818E0,1.2535037E2,3.0765546E2,5.4849636E1,8.28307E2,3.73262E1,2.5844782E1,3.1662973E1,9.850813E0,4.1554007E2,2.723832E2,2.9423077E2,1.11098976E2,2.1126761E2,7.589771E1,2.0983969E2,3.3827768E2,4.390956E2,3.3418478E2,9.828097E1,3.8543408E2,7.492965E0,5.83687E2,5.057337E2,1.142991E3],"tree_param":{"num_deleted":"0","num_feature":"10","num_nodes":"63","size_leaf_vector":"1"}},{"base_weights":[1.2022775E-4,-6.350458E-1,7.820448E-1,-1.0081372E0,-2.0209363E-1,4.2167398E-1,9.959374E-1,-1.1045153E0,-8.267881E-1,-3.5912216E-1,8.545885E-2,1.944195E-1,6.8088526E-1,7.9695666E-1,1.1117569E0,-1.1143831E0,-7.41194E-1,-9.8889863E-1,-7.200999E-1,-2.1144176E-1,-6.710695E-1,-2.7766356E-2,6.8129796E-1,4.1563225E-1,4.0083177E-2,3.841017E-1,7.85976E-1,6.693976E-1,1.0904738E0,1.0134009E0,1.1424365E-1,-1.11684896E-1,-8.731699E-3,6.461328E-2,-8.471772E-2,-8.4718935E-2,-1.1322587E-1,-4.6858E-2,-7.994768E-2,-6.609415E-2,-2.7280354E-3,-4.1276388E-2,-9.0103395E-2,3.3276472E-2,-1.6770726E-2,9.9789105E-2,2.6897151E-2,7.3110834E-3,5.8935326E-2,-1.2954875E-2,3.5291728E-2,4.8780404E-2,-3.093848E-2,6.463483E-2,9.781609E-2,-4.009595E-2,6.976689E-2,1.3048983E-2,1.09555915E-1,8.095324E-2,1.08255945E-1],"categories":[],"categories_nodes":[],"categories_segments":[],"categories_sizes":[],"default_left":[0,0,0,0,0,0,0,0,0,0,0,0,0,0,0,0,0,0,0,0,0,0,0,0,0,0,0,0,0,0,0,0,0,0,0,0,0,0,0,0,0,0,0,0,0,0,0,0,0,0,0,0,0,0,0,0,0,0,0,0,0],"id":12,"left_children":[1,3,5,7,9,11,13,15,17,19,21,23,25,27,29,31,33,35,37,39,41,43,45,47,49,51,53,55,57,59,-1,-1,-1,-1,-1,-1,-1,-1,-1,-1,-1,-1,-1,-1,-1,-1,-1,-1,-1,-1,-1,-1,-1,-1,-1,-1,-1,-1,-1,-1,-1],"loss_changes":[4.48493E3,8.0466614E2,3.115686E2,4.586133E1,1.04228485E2,8.877615E1,5.76333E1,5.4282227E0,1.5418701E1,6.862654E1,5.5060745E1,2.7488367E1,2.1676422E1,3.4380493E1,3.6777344E0,4.1987305E0,7.768675E0,6.5068054E0,1.0928741E1,8.396924E1,2.8091003E1,3.4694355E1,1.6743439E1,1.9650982E1,2.5286957E1,1.3543884E1,1.3306854E1,2.013858E1,1.236084E0,4.6204224E0,0E0,0E0,0E0,0E0,0E0,0E0,0E0,0E0,0E0,0E0,0E0,0E0,0E0,0E0,0E0,0E0,0E0,0E0,0E0,0E0,0E0,0E0,0E0,0E0,0E0,0E0,0E0,0E0,0E0,0E0,0E0],"parents":[2147483647,0,0,1,1,2,2,3,3,4,4,5,5,6,6,7,7,8,8,9,9,10,10,11,11,12,12,13,13,14,14,15,15,16,16,17,17,18,18,19,19,20,20,21,21,22,22,23,23,24,24,25,25,26,26,27,27,28,28,29,29],"right_children":[2,4,6,8,10,12,14,16,18,20,22,24,26,28,30,32,34,36,38,40,42,44,46,48,50,52,54,56,58,60,-1,-1,-1,-1,-1,-1,-1,-1,-1,-1,-1,-1,-1,-1,-1,-1,-1,-1,-1,-1,-1,-1,-1,-1,-1,-1,-1,-1,-1,-1,-1],"split_conditions":[8.796296E-2,4.761905E-2,5.1559246E-1,3.3333335E-2,4.6842462E-1,1.3333334E-1,1.4583333E-1,4.6776515E-1,4.1074297E-1,5.726262E-1,5.596876E-1,1.5159759E-1,4.59015E-1,5.719149E-1,5.432714E-1,6.163474E-1,1.0044298E-1,5.182307E-1,1.8561554E-1,4.0176556E-1,2.3100604E-1,1.3636364E-1,1.7375222E-1,4.3078876E-1,4.950811E-1,2.1315186E-1,2.013889E-1,3.9653066E-1,4.0176556E-1,1.736111E-1,1.1424365E-1,-1.11684896E-1,-8.731699E-3,6.461328E-2,-8.471772E-2,-8.4718935E-2,-1.1322587E-1,-4.6858E-2,-7.994768E-2,-6.609415E-2,-2.7280354E-3,-4.1276388E-2,-9.0103395E-2,3.3276472E-2,-1.6770726E-2,9.9789105E-2,2.6897151E-2,7.3110834E-3,5.8935326E-2,-1.2954875E-2,3.5291728E-2,4.8780404E-2,-3.093848E-2,6.463483E-2,9.781609E-2,-4.009595E-2,6.976689E-2,1.3048983E-2,1.09555915E-1,8.095324E-2,1.08255945E-1],"split_indices":[0,0,2,0,1,0,0,1,1,3,2,7,2,2,2,2,7,3,6,1,6,8,7,1,1,7,0,1,1,0,0,0,0,0,0,0,0,0,0,0,0,0,0,0,0,0,0,0,0,0,0,0,0,0,0,0,0,0,0,0,0],"split_type":[0,0,0,0,0,0,0,0,0,0,0,0,0,0,0,0,0,0,0,0,0,0,0,0,0,0,0,0,0,0,0,0,0,0,0,0,0,0,0,0,0,0,0,0,0,0,0,0,0,0,0,0,0,0,0,0,0,0,0,0,0],"sum_hessian":[9.028327E3,4.9817686E3,4.0465586E3,2.6751565E3,2.3066123E3,1.508305E3,2.5382534E3,1.7434874E3,9.31669E2,1.4917428E3,8.148695E2,8.0462665E2,7.036784E2,9.367596E2,1.6014939E3,1.6953741E3,4.811325E1,3.6650446E2,5.6516455E2,1.013578E3,4.7816473E2,6.855502E2,1.2931929E2,3.2997504E2,4.7465158E2,1.8523024E2,5.184482E2,6.552684E2,2.8149118E2,3.888632E2,1.2126307E3,1.6912263E3,4.147825E0,3.052981E0,4.506027E1,1.8778816E2,1.7871628E2,1.3723001E2,4.2793457E2,2.938245E2,7.1975354E2,2.265214E2,2.5164336E2,1.9130678E2,4.942434E2,7.234846E1,5.6970837E1,1.1151822E2,2.1845683E2,3.0814706E2,1.6650452E2,1.6139256E2,2.3837671E1,3.028108E2,2.1563736E2,1.652294E1,6.387455E2,1.6237681E0,2.7986743E2,1.0171845E2,2.8714474E2],"tree_param":{"num_deleted":"0","num_feature":"10","num_nodes":"61","size_leaf_vector":"1"}},{"base_weights":[1.5135006E-4,-7.858015E-1,5.6813693E-1,-1.0134479E0,-4.0956524E-1,1.7574608E-1,8.882096E-1,-1.0928717E0,-8.644734E-1,-5.4931104E-1,-1.8670833E-1,3.381141E-2,6.1875314E-1,5.667779E-1,1.0469006E0,-1.0958883E0,-2.1843141E-1,-9.449872E-1,-6.849909E-1,-5.8887005E-1,-5.6785617E-2,2.3535885E-1,-3.703025E-1,-6.6099E-2,3.7293735E-1,6.8333015E-2,7.1382827E-1,4.3683824E-1,8.552002E-1,9.29535E-1,1.1148417E0,-1.120829E-1,-9.958563E-2,-7.018658E-2,6.968704E-2,7.123429E-2,-9.509681E-2,-7.279207E-2,4.7729216E-3,-3.9851774E-2,-7.192304E-2,4.4145443E-2,-3.2162253E-2,8.196759E-2,-1.4131806E-2,1.8984545E-2,-4.8107084E-2,3.2861473E-3,-5.6784224E-2,7.6341465E-2,1.5777487E-2,7.823069E-2,-6.470701E-2,8.2453154E-2,3.2591995E-2,2.4105141E-2,6.031061E-2,5.0297152E-2,9.555862E-2,7.520233E-2,1.0429968E-1,1.0603143E-1,1.1382549E-1],"categories":[],"categories_nodes":[],"categories_segments":[],"categories_sizes":[],"default_left":[0,0,0,0,0,0,0,0,0,0,0,0,0,0,0,0,0,0,0,0,0,0,0,0,0,0,0,0,0,0,0,0,0,0,0,0,0,0,0,0,0,0,0,0,0,0,0,0,0,0,0,0,0,0,0,0,0,0,0,0,0,0,0],"id":13,"left_children":[1,3,5,7,9,11,13,15,17,19,21,23,25,27,29,31,33,35,37,39,41,43,45,47,49,51,53,55,57,59,61,-1,-1,-1,-1,-1,-1,-1,-1,-1,-1,-1,-1,-1,-1,-1,-1,-1,-1,-1,-1,-1,-1,-1,-1,-1,-1,-1,-1,-1,-1,-1,-1],"loss_changes":[3.8560237E3,3.0994507E2,6.29598E2,2.5759766E1,4.2491684E1,1.4169833E2,1.4025806E2,3.633789E0,1.0763428E1,1.633429E1,4.104908E1,5.789665E1,2.8568008E1,3.391327E1,1.3695435E1,2.5338135E0,3.2753782E0,6.054474E0,7.8407135E0,1.9006683E1,8.52933E0,3.5518864E1,2.2971954E1,6.556978E1,3.2548683E1,4.221128E1,1.9750687E1,2.0452911E1,9.529617E0,1.297937E1,2.8063965E-1,0E0,0E0,0E0,0E0,0E0,0E0,0E0,0E0,0E0,0E0,0E0,0E0,0E0,0E0,0E0,0E0,0E0,0E0,0E0,0E0,0E0,0E0,0E0,0E0,0E0,0E0,0E0,0E0,0E0,0E0,0E0,0E0],"parents":[2147483647,0,0,1,1,2,2,3,3,4,4,5,5,6,6,7,7,8,8,9,9,10,10,11,11,12,12,13,13,14,14,15,15,16,16,17,17,18,18,19,19,20,20,21,21,22,22,23,23,24,24,25,25,26,26,27,27,28,28,29,29,30,30],"right_children":[2,4,6,8,10,12,14,16,18,20,22,24,26,28,30,32,34,36,38,40,42,44,46,48,50,52,54,56,58,60,62,-1,-1,-1,-1,-1,-1,-1,-1,-1,-1,-1,-1,-1,-1,-1,-1,-1,-1,-1,-1,-1,-1,-1,-1,-1,-1,-1,-1,-1,-1,-1,-1],"split_conditions":[6.5972224E-2,4.3209877E-2,1.1574074E-1,4.1230702E-1,5.125636E-1,5.4147345E-1,5.1749516E-1,3.1643552E-1,3.6111113E-2,5.0003153E-1,1.4444225E-1,4.9584252E-1,4.3853736E-1,2.013889E-1,1.736111E-1,3.1746034E-2,3.4188036E-2,5.5645578E-2,5.710831E-1,5.288426E-1,2.9398006E-1,5.726262E-1,5.151462E-1,6.08653E-1,1.8181819E-1,5.395429E-1,1.9435865E-1,4.791845E-1,4.5688406E-1,5.488557E-1,5.532663E-1,-1.120829E-1,-9.958563E-2,-7.018658E-2,6.968704E-2,7.123429E-2,-9.509681E-2,-7.279207E-2,4.7729216E-3,-3.9851774E-2,-7.192304E-2,4.4145443E-2,-3.2162253E-2,8.196759E-2,-1.4131806E-2,1.8984545E-2,-4.8107084E-2,3.2861473E-3,-5.6784224E-2,7.6341465E-2,1.5777487E-2,7.823069E-2,-6.470701E-2,8.2453154E-2,3.2591995E-2,2.4105141E-2,6.031061E-2,5.0297152E-2,9.555862E-2,7.520233E-2,1.0429968E-1,1.0603143E-1,1.1382549E-1],"split_indices":[0,0,0,1,2,2,2,7,0,1,7,1,1,0,0,0,0,7,2,3,6,3,3,3,8,3,7,2,2,2,2,0,0,0,0,0,0,0,0,0,0,0,0,0,0,0,0,0,0,0,0,0,0,0,0,0,0,0,0,0,0,0,0],"split_type":[0,0,0,0,0,0,0,0,0,0,0,0,0,0,0,0,0,0,0,0,0,0,0,0,0,0,0,0,0,0,0,0,0,0,0,0,0,0,0,0,0,0,0,0,0,0,0,0,0,0,0,0,0,0,0,0,0,0,0,0,0,0,0],"sum_hessian":[8.6358545E3,3.622634E3,5.0132207E3,2.2559497E3,1.3666842E3,2.2528743E3,2.7603464E3,1.4673273E3,7.8862244E2,8.3906866E2,5.2761554E2,1.7070349E3,5.458392E2,9.138654E2,1.8464811E3,1.4620305E3,5.296819E0,5.414633E2,2.4715907E2,7.765052E2,6.2563465E1,1.5985066E2,3.677649E2,1.3191912E3,3.878438E2,8.064991E1,4.651893E2,6.317602E2,2.8210522E2,6.823797E2,1.1641014E3,1.1620857E3,2.9994482E2,3.6187127E0,1.6781065E0,1.522321E0,5.3994104E2,2.3348578E2,1.36732855E1,3.172758E2,4.592294E2,2.1482103E1,4.108136E1,6.2195038E1,9.765563E1,6.060016E1,3.0716473E2,1.102647E3,2.1654419E2,1.36882E2,2.5096182E2,4.031847E1,4.0331436E1,3.610309E2,1.0415837E2,2.9125082E2,3.4050937E2,6.3901546E1,2.1820369E2,2.690606E2,4.1331912E2,3.6359753E2,8.0050385E2],"tree_param":{"num_deleted":"0","num_feature":"10","num_nodes":"63","size_leaf_vector":"1"}},{"base_weights":[1.9339373E-4,-5.652042E-1,7.0761555E-1,-9.452536E-1,-1.725882E-1,3.6088687E-1,9.3303925E-1,-1.0553149E0,-7.494258E-1,-5.294671E-1,-5.8498576E-2,1.8819463E-1,6.456809E-1,7.21868E-1,1.0645946E0,-1.0669478E0,-6.502216E-1,-9.233989E-1,-6.3915735E-1,-1.3895148E-1,-7.5214726E-1,1.6191122E-1,-2.6720506E-1,6.348334E-1,1.08477265E-1,7.811248E-1,3.890069E-1,5.938287E-1,1.0344219E0,9.5120126E-1,1.1009437E0,-1.06982745E-1,1.7481878E-4,-8.438323E-2,2.627219E-2,-7.702874E-2,-1.08308725E-1,-4.0102538E-2,-7.3583744E-2,-5.5356473E-2,2.1401776E-2,-4.8361667E-2,-9.797383E-2,4.3395758E-2,-5.7007717E-3,1.6778192E-2,-3.8304444E-2,-3.823548E-2,7.0126586E-2,1.6414149E-2,-4.6078462E-2,5.6452896E-2,9.0370454E-2,4.3072563E-2,-1.4266802E-1,8.581751E-2,4.5751516E-2,8.088165E-2,1.0774076E-1,7.343341E-2,1.0285312E-1,9.237592E-2,1.1073232E-1],"categories":[],"categories_nodes":[],"categories_segments":[],"categories_sizes":[],"default_left":[0,0,0,0,0,0,0,0,0,0,0,0,0,0,0,0,0,0,0,0,0,0,0,0,0,0,0,0,0,0,0,0,0,0,0,0,0,0,0,0,0,0,0,0,0,0,0,0,0,0,0,0,0,0,0,0,0,0,0,0,0,0,0],"id":14,"left_children":[1,3,5,7,9,11,13,15,17,19,21,23,25,27,29,31,33,35,37,39,41,43,45,47,49,51,53,55,57,59,61,-1,-1,-1,-1,-1,-1,-1,-1,-1,-1,-1,-1,-1,-1,-1,-1,-1,-1,-1,-1,-1,-1,-1,-1,-1,-1,-1,-1,-1,-1,-1,-1],"loss_changes":[3.307983E3,6.857207E2,2.8681226E2,4.95459E1,9.207611E1,7.1147095E1,6.1063843E1,6.340576E0,1.5596588E1,4.7538757E1,7.8948616E1,3.2099995E1,1.8698318E1,3.3700287E1,4.5966797E0,4.4626465E0,8.039482E0,7.114105E0,1.1669556E1,2.941482E1,2.0836426E1,4.9747E1,4.4477657E1,9.500793E0,2.4407421E1,8.962921E0,1.5066748E1,2.1610367E1,1.5320129E0,4.94223E0,1.4196777E-1,0E0,0E0,0E0,0E0,0E0,0E0,0E0,0E0,0E0,0E0,0E0,0E0,0E0,0E0,0E0,0E0,0E0,0E0,0E0,0E0,0E0,0E0,0E0,0E0,0E0,0E0,0E0,0E0,0E0,0E0,0E0,0E0],"parents":[2147483647,0,0,1,1,2,2,3,3,4,4,5,5,6,6,7,7,8,8,9,9,10,10,11,11,12,12,13,13,14,14,15,15,16,16,17,17,18,18,19,19,20,20,21,21,22,22,23,23,24,24,25,25,26,26,27,27,28,28,29,29,30,30],"right_children":[2,4,6,8,10,12,14,16,18,20,22,24,26,28,30,32,34,36,38,40,42,44,46,48,50,52,54,56,58,60,62,-1,-1,-1,-1,-1,-1,-1,-1,-1,-1,-1,-1,-1,-1,-1,-1,-1,-1,-1,-1,-1,-1,-1,-1,-1,-1,-1,-1,-1,-1,-1,-1],"split_conditions":[8.796296E-2,4.761905E-2,5.1559246E-1,3.3333335E-2,4.2073056E-1,1.4351852E-1,1.4583333E-1,4.6776515E-1,4.1074297E-1,4.8361602E-1,2.7163625E-1,1.1274186E-1,1.6527657E-1,5.719149E-1,5.432714E-1,6.163474E-1,5.588442E-1,5.182307E-1,5.572445E-1,4.600139E-1,4.5454547E-2,5.76292E-1,5.2460444E-1,2E-1,6.511897E-1,4.728687E-1,7.338952E-1,5.516411E-1,4.669776E-1,1.736111E-1,4.4007787E-1,-1.06982745E-1,1.7481878E-4,-8.438323E-2,2.627219E-2,-7.702874E-2,-1.08308725E-1,-4.0102538E-2,-7.3583744E-2,-5.5356473E-2,2.1401776E-2,-4.8361667E-2,-9.797383E-2,4.3395758E-2,-5.7007717E-3,1.6778192E-2,-3.8304444E-2,-3.823548E-2,7.0126586E-2,1.6414149E-2,-4.6078462E-2,5.6452896E-2,9.0370454E-2,4.3072563E-2,-1.4266802E-1,8.581751E-2,4.5751516E-2,8.088165E-2,1.0774076E-1,7.343341E-2,1.0285312E-1,9.237592E-2,1.1073232E-1],"split_indices":[0,0,2,0,1,0,0,1,1,3,6,7,7,2,2,2,2,3,3,2,8,3,3,9,3,2,3,3,1,0,1,0,0,0,0,0,0,0,0,0,0,0,0,0,0,0,0,0,0,0,0,0,0,0,0,0,0,0,0,0,0,0,0],"split_type":[0,0,0,0,0,0,0,0,0,0,0,0,0,0,0,0,0,0,0,0,0,0,0,0,0,0,0,0,0,0,0,0,0,0,0,0,0,0,0,0,0,0,0,0,0,0,0,0,0,0,0,0,0,0,0,0,0,0,0,0,0,0,0],"sum_hessian":[8.268479E3,4.5956606E3,3.6728184E3,2.3344868E3,2.2611738E3,1.4480873E3,2.2247312E3,1.4917106E3,8.427762E2,5.4687537E2,1.7142983E3,9.024962E2,5.4559106E2,8.5645135E2,1.3682798E3,1.4484812E3,4.3229378E1,3.240852E2,5.18691E2,1.9918587E2,3.476895E2,8.3388116E2,8.804172E2,1.3562968E2,7.668665E2,3.5579764E2,1.8979346E2,6.0961816E2,2.4683318E2,3.3873697E2,1.0295428E3,1.4445876E3,3.893585E0,3.572811E1,7.501267E0,1.684227E2,1.5566252E2,1.5126328E2,3.674277E2,9.133336E1,1.07852516E2,1.6093275E2,1.8675676E2,3.7138538E2,4.6249576E2,1.8505835E2,6.953588E2,8.02337E0,1.2760631E2,6.9920746E2,6.765905E1,1.306129E2,2.2518472E2,1.862762E2,3.5172575E0,2.0560413E2,4.0401404E2,4.26749E1,2.0415828E2,9.179615E1,2.4694081E2,4.08471E1,9.8869574E2],"tree_param":{"num_deleted":"0","num_feature":"10","num_nodes":"63","size_leaf_vector":"1"}},{"base_weights":[1.8267595E-4,-7.9633313E-1,4.528131E-1,-9.933078E-1,-5.115663E-1,1.07539706E-1,8.2088464E-1,-1.0191995E0,-6.451394E-1,-7.143445E-1,-3.4157783E-1,-1.3222237E-1,3.143039E-1,4.9476263E-1,9.9660295E-1,-1.0803343E0,-9.226624E-1,-7.522824E-1,8.988428E-2,-6.201607E-1,-1.0679712E0,1.5752135E-1,-4.3679538E-1,-2.0331758E-1,2.4901025E-1,2.1726197E-1,7.7093416E-1,7.4381363E-1,3.4451145E-1,8.65687E-1,1.0754259E0,-1.0820786E-1,2.870207E-2,-9.252604E-2,2.6933387E-2,-8.511187E-2,-2.0138888E-2,9.5843025E-2,-6.8269536E-2,-7.491229E-2,-2.4701236E-2,-1.9182688E-2,-1.0831993E-1,6.478347E-2,-2.7248088E-2,-2.3142312E-2,-5.8885045E-2,-8.1920335E-3,-4.6940755E-2,5.1543903E-2,-7.625842E-3,6.6724986E-2,1.1283094E-2,-2.3930674E-2,8.242231E-2,5.267483E-2,9.220835E-2,1.6332379E-2,5.6706972E-2,6.774052E-2,9.9235095E-2,1.01054005E-1,1.1037643E-1],"categories":[],"categories_nodes":[],"categories_segments":[],"categories_sizes":[],"default_left":[0,0,0,0,0,0,0,0,0,0,0,0,0,0,0,0,0,0,0,0,0,0,0,0,0,0,0,0,0,0,0,0,0,0,0,0,0,0,0,0,0,0,0,0,0,0,0,0,0,0,0,0,0,0,0,0,0,0,0,0,0,0,0],"id":15,"left_children":[1,3,5,7,9,11,13,15,17,19,21,23,25,27,29,31,33,35,37,39,41,43,45,47,49,51,53,55,57,59,61,-1,-1,-1,-1,-1,-1,-1,-1,-1,-1,-1,-1,-1,-1,-1,-1,-1,-1,-1,-1,-1,-1,-1,-1,-1,-1,-1,-1,-1,-1,-1,-1],"loss_changes":[2.8596506E3,1.6070667E2,6.426752E2,1.46484375E1,4.0335236E1,1.2947183E2,1.3978516E2,8.319946E0,9.537571E0,1.7187134E1,3.0593315E1,3.283687E1,6.1966522E1,3.1891846E1,1.5474365E1,2.6020508E0,2.1659546E0,5.548794E0,1.1519317E1,2.029535E1,1.2775803E0,2.20279E1,1.6716438E1,3.2912624E1,1.6555012E1,5.4333656E1,1.3406525E1,1.1990219E1,2.1590183E1,1.3698639E1,7.015381E-1,0E0,0E0,0E0,0E0,0E0,0E0,0E0,0E0,0E0,0E0,0E0,0E0,0E0,0E0,0E0,0E0,0E0,0E0,0E0,0E0,0E0,0E0,0E0,0E0,0E0,0E0,0E0,0E0,0E0,0E0,0E0,0E0],"parents":[2147483647,0,0,1,1,2,2,3,3,4,4,5,5,6,6,7,7,8,8,9,9,10,10,11,11,12,12,13,13,14,14,15,15,16,16,17,17,18,18,19,19,20,20,21,21,22,22,23,23,24,24,25,25,26,26,27,27,28,28,29,29,30,30],"right_children":[2,4,6,8,10,12,14,16,18,20,22,24,26,28,30,32,34,36,38,40,42,44,46,48,50,52,54,56,58,60,62,-1,-1,-1,-1,-1,-1,-1,-1,-1,-1,-1,-1,-1,-1,-1,-1,-1,-1,-1,-1,-1,-1,-1,-1,-1,-1,-1,-1,-1,-1,-1,-1],"split_conditions":[5.8080807E-2,3.8194444E-2,1.1574074E-1,4.5691553E-1,4.2996645E-1,5.009326E-1,5.1749516E-1,2.5925925E-2,5.633006E-1,5.749008E-1,4.5454547E-2,5.0180256E-1,5.694269E-1,1.3275966E-1,1.736111E-1,6.3255244E-1,6.191504E-1,1.22258015E-1,4.5454547E-2,5.1463836E-1,3.8340807E-2,6.094323E-1,5.76292E-1,1.8181819E-1,2.2727273E-1,5.182307E-1,4.192584E-1,4E-1,4.9328053E-1,5.488557E-1,5.532663E-1,-1.0820786E-1,2.870207E-2,-9.252604E-2,2.6933387E-2,-8.511187E-2,-2.0138888E-2,9.5843025E-2,-6.8269536E-2,-7.491229E-2,-2.4701236E-2,-1.9182688E-2,-1.0831993E-1,6.478347E-2,-2.7248088E-2,-2.3142312E-2,-5.8885045E-2,-8.1920335E-3,-4.6940755E-2,5.1543903E-2,-7.625842E-3,6.6724986E-2,1.1283094E-2,-2.3930674E-2,8.242231E-2,5.267483E-2,9.220835E-2,1.6332379E-2,5.6706972E-2,6.774052E-2,9.9235095E-2,1.01054005E-1,1.1037643E-1],"split_indices":[0,0,0,1,1,2,2,0,2,3,8,1,2,7,0,2,2,4,8,2,4,3,3,8,8,3,1,9,1,2,2,0,0,0,0,0,0,0,0,0,0,0,0,0,0,0,0,0,0,0,0,0,0,0,0,0,0,0,0,0,0,0,0],"split_type":[0,0,0,0,0,0,0,0,0,0,0,0,0,0,0,0,0,0,0,0,0,0,0,0,0,0,0,0,0,0,0,0,0,0,0,0,0,0,0,0,0,0,0,0,0,0,0,0,0,0,0,0,0,0,0,0,0,0,0,0,0,0,0],"sum_hessian":[7.9298555E3,2.8731223E3,5.056733E3,1.6968883E3,1.1762341E3,2.6098386E3,2.4468945E3,1.577639E3,1.1924927E2,5.3492395E2,6.413102E2,1.2086539E3,1.4011847E3,8.5811096E2,1.5887834E3,9.596952E2,6.1794385E2,1.0405752E2,1.5191749E1,4.2459293E2,1.1033102E2,1.0264169E2,5.3866846E2,1.0190755E3,1.8957841E2,1.1568167E3,2.4436804E2,3.214073E2,5.367037E2,6.015908E2,9.871926E2,9.5868085E2,1.0143456E0,6.1682324E2,1.1206326E0,8.7766304E1,1.6291214E1,7.0384526E0,8.153296E0,3.147916E2,1.0980133E2,2.1171596E0,1.0821386E2,4.7720943E1,5.492075E1,2.3023073E2,3.084377E2,7.007038E2,3.183717E2,1.0389389E2,8.5684525E1,2.1688426E2,9.399324E2,1.2069322E1,2.3229872E2,1.4671664E2,1.7469066E2,2.9680475E2,2.3989893E2,2.4449898E2,3.570919E2,3.112323E2,6.759603E2],"tree_param":{"num_deleted":"0","num_feature":"10","num_nodes":"63","size_leaf_vector":"1"}},{"base_weights":[1.5314466E-4,-5.6560946E-1,5.6862694E-1,-9.315003E-1,-2.3203553E-1,3.184489E-1,8.8988864E-1,-1.028847E0,-7.588464E-1,-3.7195706E-1,-8.211863E-3,1.5631743E-1,6.560844E-1,4.1002092E-1,9.773231E-1,-1.0635906E0,-8.929666E-1,-8.8446486E-1,-6.207268E-1,-5.331074E-1,-2.3866959E-1,2.2642264E-1,-2.547069E-1,3.9362016E-1,3.5478123E-2,3.5319793E-1,7.7627945E-1,-2.1041119E-1,5.4009485E-1,8.051339E-1,1.0510173E0,-1.06529646E-1,-1.6343439E-2,-9.101265E-2,4.127803E-2,-9.0577774E-2,7.546728E-3,-7.501051E-2,-4.3725897E-2,-5.7853837E-2,3.5189495E-3,-1.2391864E-2,-5.240759E-2,-5.288982E-2,3.3835378E-2,-6.335158E-2,-3.065975E-3,6.545046E-3,5.526944E-2,-1.935394E-2,2.1196421E-2,2.585018E-2,8.894544E-2,6.279309E-2,9.4978474E-2,1.711868E-2,-1.0400362E-1,8.4225096E-2,2.8513134E-2,6.530594E-2,1.0357773E-1,9.143053E-2,1.0749564E-1],"categories":[],"categories_nodes":[],"categories_segments":[],"categories_sizes":[],"default_left":[0,0,0,0,0,0,0,0,0,0,0,0,0,0,0,0,0,0,0,0,0,0,0,0,0,0,0,0,0,0,0,0,0,0,0,0,0,0,0,0,0,0,0,0,0,0,0,0,0,0,0,0,0,0,0,0,0,0,0,0,0,0,0],"id":16,"left_children":[1,3,5,7,9,11,13,15,17,19,21,23,25,27,29,31,33,35,37,39,41,43,45,47,49,51,53,55,57,59,61,-1,-1,-1,-1,-1,-1,-1,-1,-1,-1,-1,-1,-1,-1,-1,-1,-1,-1,-1,-1,-1,-1,-1,-1,-1,-1,-1,-1,-1,-1,-1,-1],"loss_changes":[2.449048E3,4.6558777E2,3.0499194E2,2.9803955E1,6.256108E1,1.16875336E2,6.934546E1,4.5305176E0,1.0900513E1,2.627594E1,4.456173E1,4.1421734E1,2.4952423E1,2.0928822E1,1.6987427E1,1.2373047E0,5.8117065E0,7.090576E0,7.2123184E0,1.4366165E1,2.2028347E1,3.3553165E1,3.1869026E1,2.5410248E1,3.8783604E1,9.86001E0,1.2150726E1,1.4557923E1,1.620794E1,1.4247589E1,2.227539E0,0E0,0E0,0E0,0E0,0E0,0E0,0E0,0E0,0E0,0E0,0E0,0E0,0E0,0E0,0E0,0E0,0E0,0E0,0E0,0E0,0E0,0E0,0E0,0E0,0E0,0E0,0E0,0E0,0E0,0E0,0E0,0E0],"parents":[2147483647,0,0,1,1,2,2,3,3,4,4,5,5,6,6,7,7,8,8,9,9,10,10,11,11,12,12,13,13,14,14,15,15,16,16,17,17,18,18,19,19,20,20,21,21,22,22,23,23,24,24,25,25,26,26,27,27,28,28,29,29,30,30],"right_children":[2,4,6,8,10,12,14,16,18,20,22,24,26,28,30,32,34,36,38,40,42,44,46,48,50,52,54,56,58,60,62,-1,-1,-1,-1,-1,-1,-1,-1,-1,-1,-1,-1,-1,-1,-1,-1,-1,-1,-1,-1,-1,-1,-1,-1,-1,-1,-1,-1,-1,-1,-1,-1],"split_conditions":[7.87037E-2,4.3209877E-2,5.341081E-1,4.1230702E-1,5.1463836E-1,1.4583333E-1,9.920635E-2,3.2051284E-2,3.2828283E-2,5.8080807E-2,2.4827439E-1,1.4013231E-1,4.735151E-1,4.393372E-1,1.4351852E-1,6.215733E-1,2.9665327E-1,5.915266E-1,5.1306593E-1,4.950811E-1,1.8181819E-1,4.0428013E-1,4.547117E-1,4.3078876E-1,4.655508E-1,3.1944445E-1,2.1296297E-1,2.53571E-1,5.893789E-1,5.728535E-1,4.7213405E-1,-1.06529646E-1,-1.6343439E-2,-9.101265E-2,4.127803E-2,-9.0577774E-2,7.546728E-3,-7.501051E-2,-4.3725897E-2,-5.7853837E-2,3.5189495E-3,-1.2391864E-2,-5.240759E-2,-5.288982E-2,3.3835378E-2,-6.335158E-2,-3.065975E-3,6.545046E-3,5.526944E-2,-1.935394E-2,2.1196421E-2,2.585018E-2,8.894544E-2,6.279309E-2,9.4978474E-2,1.711868E-2,-1.0400362E-1,8.4225096E-2,2.8513134E-2,6.530594E-2,1.0357773E-1,9.143053E-2,1.0749564E-1],"split_indices":[0,0,2,1,2,0,0,0,0,0,6,7,2,1,0,2,7,2,2,1,8,1,1,1,1,0,0,6,3,2,1,0,0,0,0,0,0,0,0,0,0,0,0,0,0,0,0,0,0,0,0,0,0,0,0,0,0,0,0,0,0,0,0],"split_type":[0,0,0,0,0,0,0,0,0,0,0,0,0,0,0,0,0,0,0,0,0,0,0,0,0,0,0,0,0,0,0,0,0,0,0,0,0,0,0,0,0,0,0,0,0,0,0,0,0,0,0,0,0,0,0,0,0,0,0,0,0,0,0],"sum_hessian":[7.6126973E3,3.8154497E3,3.7972478E3,1.8187286E3,1.996721E3,2.1359207E3,1.6613271E3,1.1598287E3,6.588999E2,1.2282369E3,7.68484E2,1.4439861E3,6.9193445E2,2.569262E2,1.404401E3,9.182189E2,2.4160982E2,3.4223587E2,3.16664E2,5.5464606E2,6.735909E2,3.9375586E2,3.7472818E2,4.864481E2,9.57538E2,1.976935E2,4.9424094E2,4.4422123E1,2.1250407E2,4.244898E2,9.799112E2,9.162991E2,1.9197998E0,2.3877487E2,2.8349462E0,3.3485764E2,7.3782425E0,1.8389566E2,1.3276836E2,5.1357196E2,4.107414E1,4.8145175E2,1.9213913E2,5.0338978E1,3.4341687E2,1.3858583E2,2.3614235E2,1.5927519E2,3.2717288E2,4.1670428E2,5.4083374E2,1.6928241E2,2.8411089E1,2.6892596E2,2.2531497E2,3.0970469E1,1.3451655E1,9.619748E1,1.16306595E2,2.5812607E2,1.6636375E2,1.5185997E2,8.280512E2],"tree_param":{"num_deleted":"0","num_feature":"10","num_nodes":"63","size_leaf_vector":"1"}},{"base_weights":[1.6070822E-4,-7.2929E-1,3.9553976E-1,-9.4517124E-1,-4.457399E-1,1.2191057E-1,8.037118E-1,-9.7508925E-1,-5.66535E-1,-6.432985E-1,-2.8780833E-1,1.7428713E-2,5.335845E-1,4.697064E-1,9.688951E-1,-1.0465816E0,-8.6538595E-1,-6.7699015E-1,1.3188231E-1,-3.3849227E-1,-7.701308E-1,3.4015188E-1,-3.6214015E-1,-6.912001E-2,3.0833128E-1,2.3729587E-1,6.923858E-1,5.702557E-1,6.004531E-2,8.307999E-1,1.0529443E0,-1.0485863E-1,2.7479703E-2,-7.3416054E-2,-9.063775E-2,-7.825465E-2,-1.1995154E-2,9.003181E-2,-6.1910518E-2,-6.0009908E-2,2.918826E-2,-6.6503994E-2,-1.0219703E-1,8.3221095E-3,1.1214178E-1,-1.3834474E-2,-5.2161958E-2,1.9379208E-3,-6.185735E-2,3.6731567E-2,-6.008324E-2,7.307386E-2,-1.3693641E-2,8.410057E-2,3.833447E-2,5.0273914E-2,9.919622E-2,-1.604508E-2,7.408149E-2,6.2633604E-2,9.725372E-2,3.7206616E-2,1.0564424E-1],"categories":[],"categories_nodes":[],"categories_segments":[],"categories_sizes":[],"default_left":[0,0,0,0,0,0,0,0,0,0,0,0,0,0,0,0,0,0,0,0,0,0,0,0,0,0,0,0,0,0,0,0,0,0,0,0,0,0,0,0,0,0,0,0,0,0,0,0,0,0,0,0,0,0,0,0,0,0,0,0,0,0,0],"id":17,"left_children":[1,3,5,7,9,11,13,15,17,19,21,23,25,27,29,31,33,35,37,39,41,43,45,47,49,51,53,55,57,59,61,-1,-1,-1,-1,-1,-1,-1,-1,-1,-1,-1,-1,-1,-1,-1,-1,-1,-1,-1,-1,-1,-1,-1,-1,-1,-1,-1,-1,-1,-1,-1,-1],"loss_changes":[2.109911E3,1.5698657E2,5.297721E2,1.5975708E1,3.4554382E1,1.2220543E2,1.0458301E2,9.688721E0,8.5158E0,1.8830933E1,2.9090134E1,5.7104496E1,2.6896042E1,2.5995468E1,1.3899536E1,2.4418335E0,2.232605E0,5.4613647E0,9.648214E0,2.4399635E1,8.529175E0,1.3194813E1,1.9749733E1,8.502002E1,2.8109623E1,3.7440453E1,1.6851517E1,1.3944397E1,1.898037E1,1.3485291E1,1.482727E0,0E0,0E0,0E0,0E0,0E0,0E0,0E0,0E0,0E0,0E0,0E0,0E0,0E0,0E0,0E0,0E0,0E0,0E0,0E0,0E0,0E0,0E0,0E0,0E0,0E0,0E0,0E0,0E0,0E0,0E0,0E0,0E0],"parents":[2147483647,0,0,1,1,2,2,3,3,4,4,5,5,6,6,7,7,8,8,9,9,10,10,11,11,12,12,13,13,14,14,15,15,16,16,17,17,18,18,19,19,20,20,21,21,22,22,23,23,24,24,25,25,26,26,27,27,28,28,29,29,30,30],"right_children":[2,4,6,8,10,12,14,16,18,20,22,24,26,28,30,32,34,36,38,40,42,44,46,48,50,52,54,56,58,60,62,-1,-1,-1,-1,-1,-1,-1,-1,-1,-1,-1,-1,-1,-1,-1,-1,-1,-1,-1,-1,-1,-1,-1,-1,-1,-1,-1,-1,-1,-1,-1,-1],"split_conditions":[5.8080807E-2,3.8194444E-2,1.2962963E-1,4.5691553E-1,4.2996645E-1,5.4483557E-1,5.1463836E-1,2.5925925E-2,5.633006E-1,4.9249148E-1,1.6282031E-1,4.950811E-1,4.6842462E-1,1.9175562E-1,5.532663E-1,6.3255244E-1,5.024968E-1,1.22258015E-1,4.5454547E-2,3.9738107E-1,5.749008E-1,5.549418E-1,5.76292E-1,6.150637E-1,7.002434E-1,5.494853E-1,6.294561E-1,3.1944445E-1,5.383733E-1,1.736111E-1,4.0011102E-1,-1.0485863E-1,2.7479703E-2,-7.3416054E-2,-9.063775E-2,-7.825465E-2,-1.1995154E-2,9.003181E-2,-6.1910518E-2,-6.0009908E-2,2.918826E-2,-6.6503994E-2,-1.0219703E-1,8.3221095E-3,1.1214178E-1,-1.3834474E-2,-5.2161958E-2,1.9379208E-3,-6.185735E-2,3.6731567E-2,-6.008324E-2,7.307386E-2,-1.3693641E-2,8.410057E-2,3.833447E-2,5.0273914E-2,9.919622E-2,-1.604508E-2,7.408149E-2,6.2633604E-2,9.725372E-2,3.7206616E-2,1.0564424E-1],"split_indices":[0,0,0,1,1,2,2,0,2,3,6,1,1,7,2,2,3,4,8,1,3,2,3,3,3,3,3,0,1,0,1,0,0,0,0,0,0,0,0,0,0,0,0,0,0,0,0,0,0,0,0,0,0,0,0,0,0,0,0,0,0,0,0],"split_type":[0,0,0,0,0,0,0,0,0,0,0,0,0,0,0,0,0,0,0,0,0,0,0,0,0,0,0,0,0,0,0,0,0,0,0,0,0,0,0,0,0,0,0,0,0,0,0,0,0,0,0,0,0,0,0,0,0,0,0,0,0,0,0],"sum_hessian":[7.3136777E3,2.57047E3,4.7432075E3,1.458049E3,1.1124209E3,2.8403801E3,1.9028274E3,1.3498176E3,1.0823137E2,4.9284348E2,6.1957745E2,2.266253E3,5.7412726E2,6.309243E2,1.2719032E3,8.1206433E2,5.377533E2,9.3478386E1,1.4752987E1,1.4589479E2,3.469487E2,6.519866E1,5.5437885E2,1.7471937E3,5.190591E2,2.0120917E2,3.729181E2,5.062706E2,1.24653694E2,4.8534763E2,7.8655554E2,8.110404E2,1.0239311E0,1.3249857E2,4.0525473E2,7.824624E1,1.5232144E1,7.1935043E0,7.559483E0,1.0313965E2,4.2755135E1,2.4736546E2,9.958323E1,4.989611E1,1.5302549E1,2.314523E2,3.229265E2,1.5056473E3,2.4154645E2,4.879951E2,3.1063988E1,8.637158E1,1.14837585E2,2.5065508E2,1.2226303E2,4.3829092E2,6.7979675E1,9.473429E1,2.9919409E1,2.0092343E2,2.844242E2,4.569155E0,7.819863E2],"tree_param":{"num_deleted":"0","num_feature":"10","num_nodes":"63","size_leaf_vector":"1"}},{"base_weights":[1.524021E-4,-4.4652814E-1,5.761002E-1,-8.801526E-1,-1.6007113E-1,2.8835496E-1,8.4311575E-1,-9.912038E-1,-6.916556E-1,-3.481635E-1,-4.3959E-3,1.857121E-1,6.2210256E-1,6.225903E-1,9.9563843E-1,-1.0328805E0,-8.4015876E-1,-8.273086E-1,-5.5007035E-1,-1.4476262E-1,-6.421322E-1,2.91915E-1,-1.7933618E-1,3.630717E-1,3.5728833E-3,5.1194435E-1,9.6831816E-1,4.941914E-1,9.474734E-1,8.791566E-1,1.0500865E0,-1.0348888E-1,-1.211236E-2,-8.5848354E-2,3.9937705E-2,-8.753067E-2,-3.5348803E-2,-4.008145E-3,-5.9827186E-2,-5.187853E-2,1.0200058E-2,-2.6849596E-2,-8.849328E-2,4.4774204E-2,-1.9420411E-2,-2.5415769E-2,4.9104862E-2,1.4350975E-2,5.1307566E-2,-1.4799289E-2,4.023884E-2,1.9579785E-2,6.460801E-2,1.0386406E-3,9.8718606E-2,-6.2419146E-2,5.248904E-2,1.0001361E-1,6.701529E-2,5.6389373E-2,9.393839E-2,1.6580475E-2,1.0515616E-1],"categories":[],"categories_nodes":[],"categories_segments":[],"categories_sizes":[],"default_left":[0,0,0,0,0,0,0,0,0,0,0,0,0,0,0,0,0,0,0,0,0,0,0,0,0,0,0,0,0,0,0,0,0,0,0,0,0,0,0,0,0,0,0,0,0,0,0,0,0,0,0,0,0,0,0,0,0,0,0,0,0,0,0],"id":18,"left_children":[1,3,5,7,9,11,13,15,17,19,21,23,25,27,29,31,33,35,37,39,41,43,45,47,49,51,53,55,57,59,61,-1,-1,-1,-1,-1,-1,-1,-1,-1,-1,-1,-1,-1,-1,-1,-1,-1,-1,-1,-1,-1,-1,-1,-1,-1,-1,-1,-1,-1,-1,-1,-1],"loss_changes":[1.8119904E3,4.9259515E2,2.3613086E2,3.234265E1,6.998043E1,5.066279E1,5.3034912E1,5.367981E0,1.084317E1,6.462109E1,6.78907E1,3.6665947E1,1.2784882E1,2.6849686E1,5.046875E0,1.288147E0,5.3302765E0,6.4777527E0,7.1249466E0,5.9211914E1,3.988893E1,3.691688E1,4.1430546E1,1.8866295E1,3.3969963E1,1.1165932E1,1.4886551E0,1.651445E1,2.0230103E0,5.280319E0,6.557617E-1,0E0,0E0,0E0,0E0,0E0,0E0,0E0,0E0,0E0,0E0,0E0,0E0,0E0,0E0,0E0,0E0,0E0,0E0,0E0,0E0,0E0,0E0,0E0,0E0,0E0,0E0,0E0,0E0,0E0,0E0,0E0,0E0],"parents":[2147483647,0,0,1,1,2,2,3,3,4,4,5,5,6,6,7,7,8,8,9,9,10,10,11,11,12,12,13,13,14,14,15,15,16,16,17,17,18,18,19,19,20,20,21,21,22,22,23,23,24,24,25,25,26,26,27,27,28,28,29,29,30,30],"right_children":[2,4,6,8,10,12,14,16,18,20,22,24,26,28,30,32,34,36,38,40,42,44,46,48,50,52,54,56,58,60,62,-1,-1,-1,-1,-1,-1,-1,-1,-1,-1,-1,-1,-1,-1,-1,-1,-1,-1,-1,-1,-1,-1,-1,-1,-1,-1,-1,-1,-1,-1,-1,-1],"split_conditions":[8.796296E-2,4.3209877E-2,5.2175874E-1,4.1230702E-1,4.451549E-1,1.7592593E-1,1.4583333E-1,3.1746034E-2,3.2828283E-2,5.441929E-1,1.3636364E-1,3.0177018E-1,3.1944445E-1,5.728535E-1,5.532663E-1,6.215733E-1,2.9665327E-1,5.633006E-1,1.4233404E-1,3.9828107E-1,4.5454547E-2,6.448056E-1,5.3422236E-1,4.393372E-1,5.156307E-1,4.6697092E-1,4.0059417E-1,3.9653066E-1,1.9495131E-1,8.131793E-2,3.6980292E-1,-1.0348888E-1,-1.211236E-2,-8.5848354E-2,3.9937705E-2,-8.753067E-2,-3.5348803E-2,-4.008145E-3,-5.9827186E-2,-5.187853E-2,1.0200058E-2,-2.6849596E-2,-8.849328E-2,4.4774204E-2,-1.9420411E-2,-2.5415769E-2,4.9104862E-2,1.4350975E-2,5.1307566E-2,-1.4799289E-2,4.023884E-2,1.9579785E-2,6.460801E-2,1.0386406E-3,9.8718606E-2,-6.2419146E-2,5.248904E-2,1.0001361E-1,6.701529E-2,5.6389373E-2,9.393839E-2,1.6580475E-2,1.0515616E-1],"split_indices":[0,0,2,1,1,0,0,0,0,3,8,6,0,2,2,2,7,2,6,1,8,3,1,1,1,2,2,1,7,4,1,0,0,0,0,0,0,0,0,0,0,0,0,0,0,0,0,0,0,0,0,0,0,0,0,0,0,0,0,0,0,0,0],"split_type":[0,0,0,0,0,0,0,0,0,0,0,0,0,0,0,0,0,0,0,0,0,0,0,0,0,0,0,0,0,0,0,0,0,0,0,0,0,0,0,0,0,0,0,0,0,0,0,0,0,0,0,0,0,0,0,0,0,0,0,0,0,0,0],"sum_hessian":[7.0412935E3,3.9658071E3,3.0754863E3,1.5768208E3,2.3889863E3,1.4812838E3,1.5942025E3,9.8956805E2,5.8725275E2,1.081293E3,1.3076932E3,1.1340631E3,3.472206E2,6.53876E2,9.4032654E2,7.7099475E2,2.1857329E2,2.9743585E2,2.8981693E2,6.399769E2,4.413161E2,4.8520038E2,8.2249286E2,5.74067E2,5.599961E2,2.6528992E2,8.193071E1,4.7046277E2,1.8341318E2,3.0499377E2,6.3533276E2,7.691656E2,1.829162E0,2.1569202E2,2.8812761E0,2.6930762E2,2.8128239E1,2.5184763E1,2.6463214E2,2.5395348E2,3.8602344E2,1.7465392E2,2.666622E2,3.6748184E2,1.1771855E2,7.4047003E2,8.2022835E1,2.3380354E2,3.402635E2,4.0623828E2,1.5375781E2,7.976061E1,1.855293E2,1.6125221E0,8.0318184E1,1.2052428E1,4.5841034E2,1.5195142E2,3.1461775E1,5.058207E1,2.5441171E2,1.2469306E0,6.340858E2],"tree_param":{"num_deleted":"0","num_feature":"10","num_nodes":"63","size_leaf_vector":"1"}},{"base_weights":[1.6008798E-4,-6.6690457E-1,3.453418E-1,-8.986751E-1,-3.922503E-1,1.0370357E-1,7.441416E-1,-1.0039408E0,-7.6030993E-1,-4.515012E-1,8.918968E-2,-1.4448008E-1,2.532469E-1,4.5526746E-1,9.5917124E-1,-1.0163934E0,-6.024349E-1,-8.0937266E-1,-4.500342E-1,-7.4169374E-1,-3.8254824E-1,-2.9422185E-1,6.166349E-1,-2.8941946E-2,-3.274836E-1,4.625438E-1,8.601693E-2,5.5310106E-1,5.256685E-2,8.141172E-1,1.0242381E0,-1.0187159E-1,2.712226E-2,1.058049E-1,-7.455265E-2,-6.626483E-2,-8.557152E-2,4.028932E-2,-5.8161486E-2,-2.5026334E-2,-9.5258586E-2,-3.029912E-3,-4.8900034E-2,2.5043717E-2,-6.1856527E-2,-2.0454597E-2,9.551313E-2,-1.2694284E-2,4.0308665E-2,-4.8319228E-2,8.541288E-3,-4.4112555E-3,5.858139E-2,-1.9064544E-2,4.0938444E-2,3.532547E-2,6.845603E-2,-1.5102803E-2,6.72059E-2,-1.7946674E-2,8.373671E-2,6.958863E-2,1.0357582E-1],"categories":[],"categories_nodes":[],"categories_segments":[],"categories_sizes":[],"default_left":[0,0,0,0,0,0,0,0,0,0,0,0,0,0,0,0,0,0,0,0,0,0,0,0,0,0,0,0,0,0,0,0,0,0,0,0,0,0,0,0,0,0,0,0,0,0,0,0,0,0,0,0,0,0,0,0,0,0,0,0,0,0,0],"id":19,"left_children":[1,3,5,7,9,11,13,15,17,19,21,23,25,27,29,31,33,35,37,39,41,43,45,47,49,51,53,55,57,59,61,-1,-1,-1,-1,-1,-1,-1,-1,-1,-1,-1,-1,-1,-1,-1,-1,-1,-1,-1,-1,-1,-1,-1,-1,-1,-1,-1,-1,-1,-1,-1,-1],"loss_changes":[1.5635729E3,1.4705115E2,4.3114856E2,1.7516846E1,3.032132E1,1.0349914E2,1.04430176E2,2.935913E0,7.9536133E0,1.8632797E1,2.3874899E1,2.2166023E1,6.0857582E1,2.8428497E1,8.291992E0,2.3303223E0,6.444541E0,2.6324158E0,8.859747E0,1.846202E1,2.870591E1,1.2259651E1,1.3993788E1,2.7317465E1,2.6130379E1,4.8274216E1,8.671163E1,1.5022781E1,1.8047619E1,7.179611E0,1.7894897E0,0E0,0E0,0E0,0E0,0E0,0E0,0E0,0E0,0E0,0E0,0E0,0E0,0E0,0E0,0E0,0E0,0E0,0E0,0E0,0E0,0E0,0E0,0E0,0E0,0E0,0E0,0E0,0E0,0E0,0E0,0E0,0E0],"parents":[2147483647,0,0,1,1,2,2,3,3,4,4,5,5,6,6,7,7,8,8,9,9,10,10,11,11,12,12,13,13,14,14,15,15,16,16,17,17,18,18,19,19,20,20,21,21,22,22,23,23,24,24,25,25,26,26,27,27,28,28,29,29,30,30],"right_children":[2,4,6,8,10,12,14,16,18,20,22,24,26,28,30,32,34,36,38,40,42,44,46,48,50,52,54,56,58,60,62,-1,-1,-1,-1,-1,-1,-1,-1,-1,-1,-1,-1,-1,-1,-1,-1,-1,-1,-1,-1,-1,-1,-1,-1,-1,-1,-1,-1,-1,-1,-1,-1],"split_conditions":[5.8080807E-2,3.8194444E-2,1.2962963E-1,2.7777778E-2,5.549418E-1,4.9010566E-1,5.2648103E-1,4.5691553E-1,4.5691553E-1,3.9738107E-1,1.02753565E-1,1.8181819E-1,5.657023E-1,1.9175562E-1,5.532663E-1,6.3255244E-1,1.10673554E-1,5.024968E-1,1.2462869E-1,4.526153E-1,5.272485E-1,1.5292661E-1,4.3156624E-1,4.7810143E-1,6E-1,4.1615376E-1,4.8987365E-1,4E-1,5.383733E-1,2E-1,4.4007787E-1,-1.0187159E-1,2.712226E-2,1.058049E-1,-7.455265E-2,-6.626483E-2,-8.557152E-2,4.028932E-2,-5.8161486E-2,-2.5026334E-2,-9.5258586E-2,-3.029912E-3,-4.8900034E-2,2.5043717E-2,-6.1856527E-2,-2.0454597E-2,9.551313E-2,-1.2694284E-2,4.0308665E-2,-4.8319228E-2,8.541288E-3,-4.4112555E-3,5.858139E-2,-1.9064544E-2,4.0938444E-2,3.532547E-2,6.845603E-2,-1.5102803E-2,6.72059E-2,-1.7946674E-2,8.373671E-2,6.958863E-2,1.0357582E-1],"split_indices":[0,0,0,0,2,2,2,1,1,1,4,8,3,7,2,2,6,3,7,3,3,7,1,1,9,1,1,9,1,9,1,0,0,0,0,0,0,0,0,0,0,0,0,0,0,0,0,0,0,0,0,0,0,0,0,0,0,0,0,0,0,0,0],"split_type":[0,0,0,0,0,0,0,0,0,0,0,0,0,0,0,0,0,0,0,0,0,0,0,0,0,0,0,0,0,0,0,0,0,0,0,0,0,0,0,0,0,0,0,0,0,0,0,0,0,0,0,0,0,0,0,0,0,0,0,0,0,0,0],"sum_hessian":[6.78851E3,2.3146023E3,4.4739077E3,1.2540685E3,1.0605338E3,2.78668E3,1.6872275E3,7.086696E2,5.453989E2,9.4437195E2,1.1616185E2,1.0477903E3,1.7388896E3,7.2131683E2,9.6591064E2,6.8586615E2,2.2803478E1,4.6954318E2,7.585571E1,1.7943839E2,7.649336E2,6.75213E1,4.8640545E1,6.429966E2,4.0479373E2,7.7152313E2,9.673665E2,5.8002893E2,1.412879E2,3.0329166E2,6.62619E2,6.848397E2,1.0264193E0,1.301875E0,2.1501604E1,1.16378334E2,3.5316486E2,9.862624E0,6.5993095E1,5.4538036E1,1.24900345E2,1.7781844E2,5.871152E2,2.5286463E1,4.223484E1,1.4313118E1,3.4327427E1,5.24684E2,1.18312584E2,2.938201E2,1.10973656E2,1.5110474E2,6.204184E2,5.215534E2,4.4581314E2,2.3161356E2,3.4841537E2,1.0690875E2,3.4379143E1,6.781127E0,2.9651053E2,2.4541035E1,6.3807794E2],"tree_param":{"num_deleted":"0","num_feature":"10","num_nodes":"63","size_leaf_vector":"1"}},{"base_weights":[1.2538639E-4,-6.3472354E-1,3.2034925E-1,-8.9855313E-1,-3.858082E-1,9.421597E-2,7.133264E-1,-9.785587E-1,-7.255577E-1,-6.481037E-1,-2.8504205E-1,4.156592E-2,7.235939E-1,4.236709E-1,9.399769E-1,-1.0035506E0,-7.299504E-1,9.3529984E-2,-7.346421E-1,-2.070355E-1,-8.090393E-1,-8.0534205E-2,-4.5781797E-1,3.93992E-1,-4.423771E-2,8.221159E-1,3.4425738E-1,4.7123533E-2,5.243506E-1,8.1316185E-1,1.0263323E0,-1.0058763E-1,-8.381887E-3,-4.524732E-2,-8.736875E-2,-7.482866E-2,2.7071333E-2,-7.3567115E-2,4.438544E-2,-9.60058E-2,-6.597925E-2,6.4574726E-2,-2.2185778E-2,-6.3251354E-2,-3.461819E-3,-1.0584312E-2,5.0350796E-2,-2.1114655E-2,1.2631409E-2,-2.1631964E-2,8.786726E-2,-1.0160333E-2,7.696401E-2,8.562771E-2,-6.012566E-3,3.845348E-2,7.8203976E-2,6.9210336E-2,1.020359E-1,6.349685E-2,1.0381498E-1],"categories":[],"categories_nodes":[],"categories_segments":[],"categories_sizes":[],"default_left":[0,0,0,0,0,0,0,0,0,0,0,0,0,0,0,0,0,0,0,0,0,0,0,0,0,0,0,0,0,0,0,0,0,0,0,0,0,0,0,0,0,0,0,0,0,0,0,0,0,0,0,0,0,0,0,0,0,0,0,0,0],"id":20,"left_children":[1,3,5,7,9,11,13,15,17,19,21,23,25,27,29,31,33,-1,35,37,39,41,43,45,47,49,51,53,55,57,59,-1,-1,-1,-1,-1,-1,-1,-1,-1,-1,-1,-1,-1,-1,-1,-1,-1,-1,-1,-1,-1,-1,-1,-1,-1,-1,-1,-1,-1,-1],"loss_changes":[1.3329442E3,1.4402441E2,3.8723825E2,1.4050659E1,2.9758926E1,9.1678955E1,1.041015E2,3.7804565E0,5.8338165E0,2.209665E1,2.8946533E1,7.7279305E1,7.6993713E0,2.653466E1,8.935791E0,1.3217163E0,2.397213E0,0E0,4.8640594E0,2.964023E1,4.5383453E0,3.8823723E1,3.2834274E1,2.7443E1,5.8543854E1,1.010556E1,8.756436E0,1.2973035E1,1.9611755E1,8.480118E0,1.7778931E0,0E0,0E0,0E0,0E0,0E0,0E0,0E0,0E0,0E0,0E0,0E0,0E0,0E0,0E0,0E0,0E0,0E0,0E0,0E0,0E0,0E0,0E0,0E0,0E0,0E0,0E0,0E0,0E0,0E0,0E0],"parents":[2147483647,0,0,1,1,2,2,3,3,4,4,5,5,6,6,7,7,8,8,9,9,10,10,11,11,12,12,13,13,14,14,15,15,16,16,18,18,19,19,20,20,21,21,22,22,23,23,24,24,25,25,26,26,27,27,28,28,29,29,30,30],"right_children":[2,4,6,8,10,12,14,16,18,20,22,24,26,28,30,32,34,-1,36,38,40,42,44,46,48,50,52,54,56,58,60,-1,-1,-1,-1,-1,-1,-1,-1,-1,-1,-1,-1,-1,-1,-1,-1,-1,-1,-1,-1,-1,-1,-1,-1,-1,-1,-1,-1,-1,-1],"split_conditions":[5.8080807E-2,3.6111113E-2,1.2962963E-1,4.1230702E-1,4.1074297E-1,5.728535E-1,5.2648103E-1,3.2051284E-2,5.5645578E-2,4.6583602E-1,5.76292E-1,1.2524056E-1,1.9435865E-1,4.5363513E-1,5.6193024E-1,6.215733E-1,4.8663577E-1,9.3529984E-2,6.0390735E-1,3.606613E-1,3.930885E-1,4.5454547E-2,4.7735372E-1,4.0753287E-1,4.6631828E-1,4.192584E-1,5.146048E-1,1.4519534E-1,2.013889E-1,2.2916667E-1,4.4007787E-1,-1.0058763E-1,-8.381887E-3,-4.524732E-2,-8.736875E-2,-7.482866E-2,2.7071333E-2,-7.3567115E-2,4.438544E-2,-9.60058E-2,-6.597925E-2,6.4574726E-2,-2.2185778E-2,-6.3251354E-2,-3.461819E-3,-1.0584312E-2,5.0350796E-2,-2.1114655E-2,1.2631409E-2,-2.1631964E-2,8.786726E-2,-1.0160333E-2,7.696401E-2,8.562771E-2,-6.012566E-3,3.845348E-2,7.8203976E-2,6.9210336E-2,1.020359E-1,6.349685E-2,1.0381498E-1],"split_indices":[0,0,0,1,1,2,2,0,7,3,3,7,7,2,2,2,3,0,2,1,1,8,1,1,1,1,1,5,0,0,1,0,0,0,0,0,0,0,0,0,0,0,0,0,0,0,0,0,0,0,0,0,0,0,0,0,0,0,0,0,0],"split_type":[0,0,0,0,0,0,0,0,0,0,0,0,0,0,0,0,0,0,0,0,0,0,0,0,0,0,0,0,0,0,0,0,0,0,0,0,0,0,0,0,0,0,0,0,0,0,0,0,0,0,0,0,0,0,0,0,0,0,0,0,0],"sum_hessian":[6.5547393E3,2.197392E3,4.357347E3,1.0654712E3,1.131921E3,2.7665908E3,1.5907566E3,7.253572E2,3.4011395E2,3.1265207E2,8.192689E2,2.554004E3,2.1258685E2,6.995775E2,8.91179E2,6.5634033E2,6.901686E1,1.2955637E0,3.388184E2,8.419353E1,2.2845854E2,3.7585306E2,4.434159E2,4.9936053E2,2.0546433E3,1.6783038E2,4.4756466E1,1.4789827E2,5.5167926E2,3.6523636E2,5.259427E2,6.5459143E2,1.7488843E0,2.4967085E1,4.404978E1,3.3453384E2,4.284543E0,4.6388084E1,3.7805443E1,1.1085489E2,1.1760365E2,6.064104E1,3.15212E2,3.135067E2,1.2990918E2,8.97539E1,4.0960663E2,1.0382915E3,1.0163518E3,8.522593E0,1.593078E2,2.2223879E1,2.2532587E1,1.6491592E1,1.3140666E2,3.5925082E2,1.9242842E2,2.3327925E2,1.319571E2,1.7020016E1,5.0892267E2],"tree_param":{"num_deleted":"0","num_feature":"10","num_nodes":"61","size_leaf_vector":"1"}},{"base_weights":[1.2339196E-4,-3.6513522E-1,4.9596018E-1,-8.044543E-1,-1.2724614E-1,3.0339816E-1,8.759191E-1,-9.377289E-1,-5.9592855E-1,1.6745846E-1,-2.1417408E-1,1.9597194E-1,6.371993E-1,6.428252E-1,9.815821E-1,-9.903838E-1,-7.609001E-1,-6.944972E-1,-3.7338707E-1,-1.16410375E-1,4.29913E-1,-4.222841E-1,-5.108757E-2,2.9935026E-1,-1.2594932E-1,2.7633756E-1,7.612447E-1,3.7655443E-1,7.9892224E-1,5.9958977E-1,9.988161E-1,-9.929111E-2,-7.874469E-3,-4.89998E-2,-8.844202E-2,-4.027116E-2,-8.116492E-2,2.906841E-2,-4.964296E-2,-1.8847886E-2,1.1808496E-1,6.2205125E-2,-5.578065E-3,-1.9473597E-2,-6.61948E-2,2.3323832E-2,-1.8589312E-2,-1.5684058E-3,4.289725E-2,-7.6890245E-2,1.2142415E-2,6.2184494E-2,8.449343E-3,6.339919E-2,9.3539566E-2,6.2477507E-2,-4.5531478E-2,8.7276064E-2,1.4076914E-2,-7.781165E-2,7.7516094E-2,8.486476E-2,1.0181724E-1],"categories":[],"categories_nodes":[],"categories_segments":[],"categories_sizes":[],"default_left":[0,0,0,0,0,0,0,0,0,0,0,0,0,0,0,0,0,0,0,0,0,0,0,0,0,0,0,0,0,0,0,0,0,0,0,0,0,0,0,0,0,0,0,0,0,0,0,0,0,0,0,0,0,0,0,0,0,0,0,0,0,0,0],"id":21,"left_children":[1,3,5,7,9,11,13,15,17,19,21,23,25,27,29,31,33,35,37,39,41,43,45,47,49,51,53,55,57,59,61,-1,-1,-1,-1,-1,-1,-1,-1,-1,-1,-1,-1,-1,-1,-1,-1,-1,-1,-1,-1,-1,-1,-1,-1,-1,-1,-1,-1,-1,-1,-1,-1],"loss_changes":[1.14868E3,3.8157996E2,1.9657568E2,3.5089783E1,6.0761112E1,6.3955444E1,2.1642456E1,6.5166626E0,1.0772232E1,4.031803E1,6.211962E1,4.5077293E1,1.924556E1,1.1543907E1,3.4851685E0,1.300354E0,5.706085E0,1.1547379E1,1.293469E1,2.4571447E1,2.6262493E1,4.373268E1,3.9431263E1,4.1850708E1,5.2527073E1,7.4213686E0,6.5625E0,2.2422283E1,8.564514E0,7.6861153E0,8.569946E-1,0E0,0E0,0E0,0E0,0E0,0E0,0E0,0E0,0E0,0E0,0E0,0E0,0E0,0E0,0E0,0E0,0E0,0E0,0E0,0E0,0E0,0E0,0E0,0E0,0E0,0E0,0E0,0E0,0E0,0E0,0E0,0E0],"parents":[2147483647,0,0,1,1,2,2,3,3,4,4,5,5,6,6,7,7,8,8,9,9,10,10,11,11,12,12,13,13,14,14,15,15,16,16,17,17,18,18,19,19,20,20,21,21,22,22,23,23,24,24,25,25,26,26,27,27,28,28,29,29,30,30],"right_children":[2,4,6,8,10,12,14,16,18,20,22,24,26,28,30,32,34,36,38,40,42,44,46,48,50,52,54,56,58,60,62,-1,-1,-1,-1,-1,-1,-1,-1,-1,-1,-1,-1,-1,-1,-1,-1,-1,-1,-1,-1,-1,-1,-1,-1,-1,-1,-1,-1,-1,-1,-1,-1],"split_conditions":[9.0277776E-2,4.3209877E-2,5.4429096E-1,4.1230702E-1,1.9575615E-1,1.7592593E-1,1.3333334E-1,3.1746034E-2,4.533167E-1,5.0911266E-1,4.5024487E-1,6.134665E-1,4.735151E-1,4.8130882E-1,4.4007787E-1,6.215733E-1,4.8361602E-1,5.572445E-1,1.2621143E-1,6E-1,6.182837E-1,5.330991E-1,1.3636364E-1,4.3236122E-1,4.8513564E-1,5.0797766E-1,2.5925925E-1,6.0550517E-1,6.784131E-1,7.1505375E-2,5.532663E-1,-9.929111E-2,-7.874469E-3,-4.89998E-2,-8.844202E-2,-4.027116E-2,-8.116492E-2,2.906841E-2,-4.964296E-2,-1.8847886E-2,1.1808496E-1,6.2205125E-2,-5.578065E-3,-1.9473597E-2,-6.61948E-2,2.3323832E-2,-1.8589312E-2,-1.5684058E-3,4.289725E-2,-7.6890245E-2,1.2142415E-2,6.2184494E-2,8.449343E-3,6.339919E-2,9.3539566E-2,6.2477507E-2,-4.5531478E-2,8.7276064E-2,1.4076914E-2,-7.781165E-2,7.7516094E-2,8.486476E-2,1.0181724E-1],"split_indices":[0,0,2,1,6,0,0,0,1,2,1,3,2,1,1,2,3,3,7,9,3,3,8,1,1,3,0,3,3,4,2,0,0,0,0,0,0,0,0,0,0,0,0,0,0,0,0,0,0,0,0,0,0,0,0,0,0,0,0,0,0,0,0],"split_type":[0,0,0,0,0,0,0,0,0,0,0,0,0,0,0,0,0,0,0,0,0,0,0,0,0,0,0,0,0,0,0,0,0,0,0,0,0,0,0,0,0,0,0,0,0,0,0,0,0,0,0,0,0,0,0,0,0,0,0,0,0,0,0],"sum_hessian":[6.3404917E3,3.65114E3,2.689352E3,1.2817325E3,2.3694072E3,1.7860074E3,9.0334454E2,7.798269E2,5.0190567E2,5.394906E2,1.8299166E3,1.3523663E3,4.3364102E2,2.8397534E2,6.193692E2,5.973507E2,1.824762E2,3.4636987E2,1.5553581E2,2.594394E2,2.800512E2,8.032821E2,1.0266345E3,1.0236974E3,3.28669E2,1.11756584E2,3.2188446E2,1.0621161E2,1.7776373E2,2.8282251E1,5.91087E2,5.956104E2,1.7403159E0,5.8701035E1,1.2377517E2,1.0049891E2,2.4587096E2,2.4100557E1,1.3143524E2,2.4659468E2,1.2844706E1,2.0046672E2,7.958449E1,4.1298624E2,3.9029584E2,3.2996237E2,6.966722E2,2.9867523E2,7.2502216E2,9.073352E1,2.3793549E2,3.9098877E1,7.26577E1,1.886659E2,1.3321855E2,8.199435E1,2.4217258E1,1.5953894E2,1.8224798E1,2.8089006E0,2.547335E1,7.261055E1,5.184764E2],"tree_param":{"num_deleted":"0","num_feature":"10","num_nodes":"63","size_leaf_vector":"1"}},{"base_weights":[1.6705733E-4,-5.757514E-1,2.7806205E-1,-8.955004E-1,-3.6532107E-1,1.0925729E-1,7.233284E-1,-9.417859E-1,-6.235882E-1,-6.136204E-1,-2.6724017E-1,5.6923345E-2,7.059615E-1,3.7355646E-1,9.161421E-1,-9.4653034E-1,2.8677005E-1,-7.1582407E-1,5.535809E-2,-2.2666755E-1,-7.588747E-1,-7.881193E-2,-4.2852774E-1,3.77072E-1,-2.4232386E-2,5.009967E-1,9.2047596E-1,2.8595898E-1,9.0092796E-1,7.779655E-1,1.0024753E0,-9.854288E-2,-8.302662E-2,-6.733935E-2,1.0749501E-1,-9.651408E-2,-5.3647906E-2,1.2091034E-1,-4.538849E-2,-7.0348315E-2,3.178978E-2,-9.119096E-2,-6.0454544E-2,5.5072427E-2,-2.1468975E-2,-5.795265E-2,-4.7561224E-3,-3.8226426E-3,4.6932712E-2,1.7843451E-2,-1.4553887E-2,6.545511E-2,2.166202E-3,-4.340499E-3,9.333013E-2,1.0939444E-2,5.4515608E-2,9.313508E-2,-1.0460546E-2,4.2374585E-2,8.488261E-2,3.461988E-2,1.00643806E-1],"categories":[],"categories_nodes":[],"categories_segments":[],"categories_sizes":[],"default_left":[0,0,0,0,0,0,0,0,0,0,0,0,0,0,0,0,0,0,0,0,0,0,0,0,0,0,0,0,0,0,0,0,0,0,0,0,0,0,0,0,0,0,0,0,0,0,0,0,0,0,0,0,0,0,0,0,0,0,0,0,0,0,0],"id":22,"left_children":[1,3,5,7,9,11,13,15,17,19,21,23,25,27,29,31,33,35,37,39,41,43,45,47,49,51,53,55,57,59,61,-1,-1,-1,-1,-1,-1,-1,-1,-1,-1,-1,-1,-1,-1,-1,-1,-1,-1,-1,-1,-1,-1,-1,-1,-1,-1,-1,-1,-1,-1,-1,-1],"loss_changes":[9.8345526E2,1.3424292E2,3.1146213E2,9.394592E0,2.9252075E1,9.385101E1,7.6487976E1,4.2105103E0,7.449711E0,1.9008606E1,2.6334515E1,7.1856834E1,1.0194359E1,1.8522331E1,7.972534E0,2.227356E0,3.2721179E0,4.1435165E0,9.409221E0,2.4777649E1,5.2985535E0,3.4451702E1,2.6851631E1,2.1446106E1,5.4284943E1,9.269232E0,1.4895935E0,1.5961918E1,1.8546219E0,6.834076E0,8.1695557E-1,0E0,0E0,0E0,0E0,0E0,0E0,0E0,0E0,0E0,0E0,0E0,0E0,0E0,0E0,0E0,0E0,0E0,0E0,0E0,0E0,0E0,0E0,0E0,0E0,0E0,0E0,0E0,0E0,0E0,0E0,0E0,0E0],"parents":[2147483647,0,0,1,1,2,2,3,3,4,4,5,5,6,6,7,7,8,8,9,9,10,10,11,11,12,12,13,13,14,14,15,15,16,16,17,17,18,18,19,19,20,20,21,21,22,22,23,23,24,24,25,25,26,26,27,27,28,28,29,29,30,30],"right_children":[2,4,6,8,10,12,14,16,18,20,22,24,26,28,30,32,34,36,38,40,42,44,46,48,50,52,54,56,58,60,62,-1,-1,-1,-1,-1,-1,-1,-1,-1,-1,-1,-1,-1,-1,-1,-1,-1,-1,-1,-1,-1,-1,-1,-1,-1,-1,-1,-1,-1,-1,-1,-1],"split_conditions":[5.8080807E-2,3.3333335E-2,1.4583333E-1,4.3316585E-1,4.1074297E-1,5.719149E-1,5.1463836E-1,6.215733E-1,5.633006E-1,4.6583602E-1,5.76292E-1,1.2524056E-1,9.920635E-2,3.1944445E-1,5.532663E-1,2.5925925E-2,3.895221E-1,3.5183975E-1,1.6532983E-1,3.606613E-1,3.930885E-1,4.5454547E-2,4.7810143E-1,4.0753287E-1,5.402829E-1,3.1815737E-1,4.154416E-1,1.1102311E-1,5.1356924E-1,8.131793E-2,4.0011102E-1,-9.854288E-2,-8.302662E-2,-6.733935E-2,1.0749501E-1,-9.651408E-2,-5.3647906E-2,1.2091034E-1,-4.538849E-2,-7.0348315E-2,3.178978E-2,-9.119096E-2,-6.0454544E-2,5.5072427E-2,-2.1468975E-2,-5.795265E-2,-4.7561224E-3,-3.8226426E-3,4.6932712E-2,1.7843451E-2,-1.4553887E-2,6.545511E-2,2.166202E-3,-4.340499E-3,9.333013E-2,1.0939444E-2,5.4515608E-2,9.313508E-2,-1.0460546E-2,4.2374585E-2,8.488261E-2,3.461988E-2,1.00643806E-1],"split_indices":[0,0,0,1,1,2,2,2,2,3,3,7,0,0,2,0,1,5,6,1,1,8,1,1,3,6,1,4,2,4,1,0,0,0,0,0,0,0,0,0,0,0,0,0,0,0,0,0,0,0,0,0,0,0,0,0,0,0,0,0,0,0,0],"split_type":[0,0,0,0,0,0,0,0,0,0,0,0,0,0,0,0,0,0,0,0,0,0,0,0,0,0,0,0,0,0,0,0,0,0,0,0,0,0,0,0,0,0,0,0,0,0,0,0,0,0,0,0,0,0,0,0,0,0,0,0,0,0,0],"sum_hessian":[6.1428726E3,1.999003E3,4.1438696E3,7.921203E2,1.2068827E3,3.0056458E3,1.1382239E3,6.747922E2,1.1732812E2,3.4025208E2,8.666307E2,2.7642983E3,2.4134738E2,4.0552408E2,7.326998E2,6.72425E2,2.3672237E0,1.0324748E2,1.4080638E1,9.356318E1,2.4668889E2,4.0037323E2,4.6625742E2,5.582863E2,2.2060122E3,1.25126595E2,1.1622079E2,3.4908292E2,5.6441162E1,2.8560263E2,4.4709717E2,4.9825003E2,1.7417494E2,1.132835E0,1.2343887E0,4.13639E1,6.1883583E1,3.8909512E0,1.0189687E1,4.9729095E1,4.3834084E1,1.2139911E2,1.2528978E2,7.053306E1,3.2984018E2,3.3353665E2,1.3272078E2,1.0158297E2,4.5670334E2,8.258285E2,1.3801836E3,9.4490974E1,3.063562E1,1.494806E0,1.1472598E2,2.0848524E2,1.4059766E2,5.4855267E1,1.5858947E0,4.8773327E1,2.3682932E2,3.2138395E0,4.438833E2],"tree_param":{"num_deleted":"0","num_feature":"10","num_nodes":"63","size_leaf_vector":"1"}},{"base_weights":[1.4285636E-4,-2.9691923E-1,4.7627676E-1,-7.5401E-1,-9.545996E-2,2.9191896E-1,8.544878E-1,-9.02028E-1,-5.371658E-1,8.586568E-2,-2.3936792E-1,4.2607095E-2,4.2728972E-1,5.650124E-1,9.359326E-1,-9.63244E-1,-7.0747876E-1,-6.3895905E-1,-3.17876E-1,-3.079165E-1,1.9182019E-1,-4.0122545E-1,-5.3757835E-2,-9.386657E-2,2.8688034E-1,6.858058E-1,2.698532E-1,7.2193605E-1,-3.462639E-1,8.123807E-1,1.0084839E0,-9.66162E-2,-7.1131135E-3,-5.2598525E-2,-9.151547E-2,-4.687669E-2,-8.5836E-2,2.9817957E-2,-4.395487E-2,2.316085E-2,-5.795428E-2,6.123277E-2,7.900398E-3,-1.1530074E-2,-6.1896604E-2,4.4908267E-3,-5.0187018E-2,2.5253871E-2,-4.392287E-2,-6.885923E-3,4.5462485E-2,4.324351E-2,7.772254E-2,-1.1247846E-1,3.7734594E-2,7.955008E-2,8.3365915E-3,3.75605E-2,-1.4800504E-1,8.694205E-2,4.5195308E-2,1.0109816E-1,3.6407344E-2],"categories":[],"categories_nodes":[],"categories_segments":[],"categories_sizes":[],"default_left":[0,0,0,0,0,0,0,0,0,0,0,0,0,0,0,0,0,0,0,0,0,0,0,0,0,0,0,0,0,0,0,0,0,0,0,0,0,0,0,0,0,0,0,0,0,0,0,0,0,0,0,0,0,0,0,0,0,0,0,0,0,0,0],"id":23,"left_children":[1,3,5,7,9,11,13,15,17,19,21,23,25,27,29,31,33,35,37,39,41,43,45,47,49,51,53,55,57,59,61,-1,-1,-1,-1,-1,-1,-1,-1,-1,-1,-1,-1,-1,-1,-1,-1,-1,-1,-1,-1,-1,-1,-1,-1,-1,-1,-1,-1,-1,-1,-1,-1],"loss_changes":[8.445984E2,3.385407E2,1.5971637E2,3.5616394E1,6.664996E1,5.2087524E1,1.7184265E1,7.261963E0,1.0037491E1,4.722948E1,4.2754486E1,1.8175886E1,4.05345E1,2.42014E1,4.4229126E0,1.244812E0,5.677704E0,1.126017E1,1.1182147E1,3.531868E1,4.2243263E1,4.7271683E1,2.9398712E1,4.198657E1,1.1690487E1,8.420227E0,9.388837E1,6.661171E0,2.1247149E1,4.160904E0,2.1829224E-1,0E0,0E0,0E0,0E0,0E0,0E0,0E0,0E0,0E0,0E0,0E0,0E0,0E0,0E0,0E0,0E0,0E0,0E0,0E0,0E0,0E0,0E0,0E0,0E0,0E0,0E0,0E0,0E0,0E0,0E0,0E0,0E0],"parents":[2147483647,0,0,1,1,2,2,3,3,4,4,5,5,6,6,7,7,8,8,9,9,10,10,11,11,12,12,13,13,14,14,15,15,16,16,17,17,18,18,19,19,20,20,21,21,22,22,23,23,24,24,25,25,26,26,27,27,28,28,29,29,30,30],"right_children":[2,4,6,8,10,12,14,16,18,20,22,24,26,28,30,32,34,36,38,40,42,44,46,48,50,52,54,56,58,60,62,-1,-1,-1,-1,-1,-1,-1,-1,-1,-1,-1,-1,-1,-1,-1,-1,-1,-1,-1,-1,-1,-1,-1,-1,-1,-1,-1,-1,-1,-1,-1,-1],"split_conditions":[9.375E-2,4.3209877E-2,5.4429096E-1,4.1230702E-1,2.492937E-1,4.797898E-1,4.7587308E-1,3.1746034E-2,4.533167E-1,4.0586856E-1,4.6842462E-1,4.87508E-1,5.494853E-1,6.1756545E-1,1.5555556E-1,6.215733E-1,5.182307E-1,5.9726554E-1,1.2621143E-1,4.4574708E-1,4.5454547E-2,5.280843E-1,6.5369433E-1,5.112362E-1,8.671628E-2,4.2159423E-1,4.393372E-1,1.8928814E-1,1.3919848E-1,6.6854525E-1,5.689237E-1,-9.66162E-2,-7.1131135E-3,-5.2598525E-2,-9.151547E-2,-4.687669E-2,-8.5836E-2,2.9817957E-2,-4.395487E-2,2.316085E-2,-5.795428E-2,6.123277E-2,7.900398E-3,-1.1530074E-2,-6.1896604E-2,4.4908267E-3,-5.0187018E-2,2.5253871E-2,-4.392287E-2,-6.885923E-3,4.5462485E-2,4.324351E-2,7.772254E-2,-1.1247846E-1,3.7734594E-2,7.955008E-2,8.3365915E-3,3.75605E-2,-1.4800504E-1,8.694205E-2,4.5195308E-2,1.0109816E-1,3.6407344E-2],"split_indices":[0,0,2,1,6,2,1,0,1,1,1,1,3,3,0,2,3,3,7,3,8,3,3,3,4,1,1,7,7,3,5,0,0,0,0,0,0,0,0,0,0,0,0,0,0,0,0,0,0,0,0,0,0,0,0,0,0,0,0,0,0,0,0],"split_type":[0,0,0,0,0,0,0,0,0,0,0,0,0,0,0,0,0,0,0,0,0,0,0,0,0,0,0,0,0,0,0,0,0,0,0,0,0,0,0,0,0,0,0,0,0,0,0,0,0,0,0,0,0,0,0,0,0,0,0,0,0,0,0],"sum_hessian":[5.96937E3,3.6761685E3,2.2932017E3,1.12375E3,2.5524185E3,1.5428944E3,7.503072E2,6.6598694E2,4.5776303E2,1.1295615E3,1.4228569E3,5.4341095E2,9.9948346E2,1.6649156E2,5.838156E2,5.035812E2,1.6240576E2,3.11331E2,1.4643205E2,2.3908627E2,8.904752E2,7.594405E2,6.6341644E2,3.4902756E2,1.9438339E2,3.7703055E2,6.224529E2,1.4221042E2,2.428115E1,2.2050383E2,3.633118E2,5.018567E2,1.7245166E0,8.855121E1,7.385455E1,1.7709369E2,1.342373E2,2.3911613E1,1.2252044E2,8.0111E1,1.5897527E2,1.8742938E2,7.0304584E2,3.2897653E2,4.3046396E2,5.444404E2,1.1897599E2,1.7438481E2,1.7464275E2,6.2476845E1,1.3190656E2,1.0148728E2,2.7554327E2,4.38656E1,5.785873E2,1.2729946E2,1.4910951E1,1.5244114E1,9.037036E0,1.8915646E2,3.1347353E1,3.6134244E2,1.9693722E0],"tree_param":{"num_deleted":"0","num_feature":"10","num_nodes":"63","size_leaf_vector":"1"}},{"base_weights":[1.2565425E-4,-6.1954576E-1,2.0341668E-1,-8.666492E-1,-4.1099674E-1,6.1394677E-2,6.7088366E-1,-9.4945294E-1,-6.640427E-1,-7.1678424E-1,-3.3641732E-1,1.3610678E-2,5.8632416E-1,3.2680634E-1,8.811604E-1,-9.525942E-1,-6.6815265E-3,-7.341045E-1,-9.580248E-2,-4.9873465E-1,-8.9391154E-1,-1.3073339E-2,-4.2071804E-1,-1.1533898E-1,1.6509835E-1,2.1081306E-1,7.1583027E-1,2.4237195E-1,8.670867E-1,7.30885E-1,9.808654E-1,-8.105965E-2,-9.756745E-2,3.5753172E-2,-7.5566016E-2,9.581118E-2,-3.0282006E-2,-5.8127772E-2,1.4313425E-1,2.398326E-2,-9.481152E-2,8.641025E-2,-2.2314575E-2,-8.392028E-2,-3.4535028E-2,2.4232147E-2,-1.8713616E-2,-7.705565E-3,2.7369116E-2,4.6155874E-2,-8.422675E-2,8.86587E-2,3.439249E-2,9.1315E-3,5.340582E-2,