{"learner":{"attributes":{"scikit_learn":"{\"_estimator_type\": \"classifier\"}"},"feature_names":[],"feature_types":[],"gradient_booster":{"model":{"gbtree_model_param":{"num_parallel_tree":"1","num_trees":"100"},"iteration_indptr":[0,1,2,3,4,5,6,7,8,9,10,11,12,13,14,15,16,17,18,19,20,21,22,23,24,25,26,27,28,29,30,31,32,33,34,35,36,37,38,39,40,41,42,43,44,45,46,47,48,49,50,51,52,53,54,55,56,57,58,59,60,61,62,63,64,65,66,67,68,69,70,71,72,73,74,75,76,77,78,79,80,81,82,83,84,85,86,87,88,89,90,91,92,93,94,95,96,97,98,99,100],"tree_info":[0,0,0,0,0,0,0,0,0,0,0,0,0,0,0,0,0,0,0,0,0,0,0,0,0,0,0,0,0,0,0,0,0,0,0,0,0,0,0,0,0,0,0,0,0,0,0,0,0,0,0,0,0,0,0,0,0,0,0,0,0,0,0,0,0,0,0,0,0,0,0,0,0,0,0,0,0,0,0,0,0,0,0,0,0,0,0,0,0,0,0,0,0,0,0,0,0,0,0,0],"trees":[{"base_weights":[-1.06121995E-7,-1.5648538E0,1.4817752E0,-1.8476051E0,-7.391123E-1,5.742463E-1,1.761198E0,-1.9219074E0,-1.5418926E0,-9.838984E-1,-1.7917548E-1,6.4125885E-3,1.1056813E0,1.1847955E0,1.8785318E0,-1.9754764E-1,-1.8399135E0,-1.4433665E0,-1.6894537E0,-1.2104026E0,-6.8704003E-1,-5.9208214E-1,4.203264E-1,2.1602668E-1,-5.6794494E-1,7.785063E-1,1.435611E0,8.332772E-1,1.5275481E0,1.6259526E0,1.9250803E0,-1.9341499E-1,-1.7687067E-1,-1.6392082E-1,-1.2000158E-1,-1.7011034E-1,7.920287E-2,-1.0400038E-1,-1.5406828E-1,-7.7364887E-3,-9.643751E-2,-3.349718E-2,-8.287785E-2,8.940217E-2,4.8646987E-3,-4.3258592E-2,5.3492155E-2,-1.0102208E-1,-2.8832728E-2,9.652162E-2,3.034327E-2,1.6193435E-1,1.06427066E-1,1.02793E-1,4.2302895E-2,1.1319027E-1,1.6288213E-1,1.3583793E-1,1.7821787E-1,1.7893565E-1,1.9538812E-1],"categories":[],"categories_nodes":[],"categories_segments":[],"categories_sizes":[],"default_left":[0,0,0,0,0,0,0,0,0,0,0,0,0,0,0,0,0,0,0,0,0,0,0,0,0,0,0,0,0,0,0,0,0,0,0,0,0,0,0,0,0,0,0,0,0,0,0,0,0,0,0,0,0,0,0,0,0,0,0,0,0],"id":0,"left_children":[1,3,5,7,9,11,13,15,17,19,21,23,25,27,29,-1,31,33,35,37,39,41,43,45,47,49,51,53,55,57,59,-1,-1,-1,-1,-1,-1,-1,-1,-1,-1,-1,-1,-1,-1,-1,-1,-1,-1,-1,-1,-1,-1,-1,-1,-1,-1,-1,-1,-1,-1],"loss_changes":[3.2119797E4,1.5716328E3,1.8032256E3,1.11021484E2,2.3559882E2,5.0588226E2,3.6565625E2,1.4079102E1,1.1899414E1,7.963403E1,1.3007698E2,9.781763E1,9.23584E1,1.0989856E2,4.998828E1,0E0,7.370117E0,2.6543213E1,1.2592407E1,3.6525208E1,8.788759E1,1.8648102E1,3.7720306E1,1.23346985E2,2.6574448E1,3.8467773E1,2.7613037E1,3.6117615E1,1.682727E1,2.7236328E1,1.1393555E1,0E0,0E0,0E0,0E0,0E0,0E0,0E0,0E0,0E0,0E0,0E0,0E0,0E0,0E0,0E0,0E0,0E0,0E0,0E0,0E0,0E0,0E0,0E0,0E0,0E0,0E0,0E0,0E0,0E0,0E0],"parents":[2147483647,0,0,1,1,2,2,3,3,4,4,5,5,6,6,7,7,8,8,9,9,10,10,11,11,12,12,13,13,14,14,16,16,17,17,18,18,19,19,20,20,21,21,22,22,23,23,24,24,25,25,26,26,27,27,28,28,29,29,30,30],"right_children":[2,4,6,8,10,12,14,16,18,20,22,24,26,28,30,-1,32,34,36,38,40,42,44,46,48,50,52,54,56,58,60,-1,-1,-1,-1,-1,-1,-1,-1,-1,-1,-1,-1,-1,-1,-1,-1,-1,-1,-1,-1,-1,-1,-1,-1,-1,-1,-1,-1,-1,-1],"split_conditions":[8.4821425E-2,5.8035713E-2,1.2142857E-1,4.761905E-2,7.5E-2,4.875617E-1,4.7929466E-1,3.021978E-2,1.1764706E-1,3.4831363E-1,4.91252E-1,1.764706E-1,5.245977E-1,1.7142858E-1,1.4880952E-1,-1.9754764E-1,3.174486E-1,3.2597527E-1,6.21966E-1,5.882353E-2,5.882353E-2,5.882353E-2,1.1764706E-1,3.2263768E-1,3.606314E-1,1.764706E-1,1.764706E-1,1.764706E-1,4.3540442E-1,5.158937E-1,5.091356E-1,-1.9341499E-1,-1.7687067E-1,-1.6392082E-1,-1.2000158E-1,-1.7011034E-1,7.920287E-2,-1.0400038E-1,-1.5406828E-1,-7.7364887E-3,-9.643751E-2,-3.349718E-2,-8.287785E-2,8.940217E-2,4.8646987E-3,-4.3258592E-2,5.3492155E-2,-1.0102208E-1,-2.8832728E-2,9.652162E-2,3.034327E-2,1.6193435E-1,1.06427066E-1,1.02793E-1,4.2302895E-2,1.1319027E-1,1.6288213E-1,1.3583793E-1,1.7821787E-1,1.7893565E-1,1.9538812E-1],"split_indices":[0,0,0,0,0,2,2,0,8,1,2,8,2,0,0,0,1,1,2,8,8,8,8,1,1,8,8,8,2,2,2,0,0,0,0,0,0,0,0,0,0,0,0,0,0,0,0,0,0,0,0,0,0,0,0,0,0,0,0,0,0],"split_type":[0,0,0,0,0,0,0,0,0,0,0,0,0,0,0,0,0,0,0,0,0,0,0,0,0,0,0,0,0,0,0,0,0,0,0,0,0,0,0,0,0,0,0,0,0,0,0,0,0,0,0,0,0,0,0,0,0,0,0,0,0],"sum_hessian":[1.3850136E4,6.736201E3,7.1139346E3,5.0170273E3,1.7191737E3,1.6754257E3,5.438509E3,4.0318213E3,9.852063E2,1.195697E3,5.234768E2,8.1046405E2,8.649617E2,9.217091E2,4.5168E3,2.4246426E3,1.6071787E3,5.972235E2,3.879828E2,6.7647E2,5.19227E2,3.0998627E2,2.1349054E2,5.9422363E2,2.1624042E2,4.3598065E2,4.28981E2,4.5672974E2,4.6497937E2,7.0846857E2,3.808331E3,6.8046985E2,9.267089E2,3.2773547E2,2.6948804E2,3.8648285E2,1.4999335E0,4.489801E2,2.2748991E2,1.6274278E2,3.564842E2,1.4974336E2,1.6024289E2,9.3245865E1,1.2024467E2,1.9574132E2,3.9848233E2,8.274633E1,1.3349408E2,3.1223615E2,1.23744514E2,2.8473737E2,1.442436E2,3.087363E2,1.4799344E2,9.724569E1,3.677337E2,2.6473825E2,4.4373032E2,6.7772E2,3.130611E3],"tree_param":{"num_deleted":"0","num_feature":"10","num_nodes":"61","size_leaf_vector":"1"}},{"base_weights":[9.4269926E-5,-1.3985407E0,1.3635831E0,-1.6313866E0,-4.8148566E-1,6.2773526E-1,1.6279553E0,-1.7216746E0,-1.2241105E0,-7.3900473E-1,5.300845E-2,7.735112E-2,1.0760068E0,1.0679965E0,1.7128738E0,-1.7706674E0,-1.5735813E0,-1.261297E0,-5.3307724E-1,-9.322158E-1,-4.8018947E-1,-3.351006E-1,4.5901397E-1,-4.1515186E-1,2.9102612E-1,7.573767E-1,1.3281574E0,8.270646E-1,1.4529119E0,1.5399532E0,1.7611203E0,-1.8057531E-1,-1.7259149E-1,-1.6698578E-1,-1.508416E-1,-1.1296014E-1,-1.4300822E-1,8.946822E-3,-9.147006E-2,-1.2047284E-1,-8.0625005E-2,-8.751102E-2,-3.1691365E-2,1.621843E-2,-7.2146975E-2,9.4866775E-2,1.0863051E-2,-1.0289591E-2,-7.033546E-2,5.172014E-2,-2.7217869E-2,9.4856046E-2,3.5100076E-2,1.481579E-1,1.0263858E-1,1.0040452E-1,4.8978902E-2,1.2961279E-1,1.6976862E-1,1.3591908E-1,1.6782327E-1,1.6750528E-1,1.7940769E-1],"categories":[],"categories_nodes":[],"categories_segments":[],"categories_sizes":[],"default_left":[0,0,0,0,0,0,0,0,0,0,0,0,0,0,0,0,0,0,0,0,0,0,0,0,0,0,0,0,0,0,0,0,0,0,0,0,0,0,0,0,0,0,0,0,0,0,0,0,0,0,0,0,0,0,0,0,0,0,0,0,0,0,0],"id":1,"left_children":[1,3,5,7,9,11,13,15,17,19,21,23,25,27,29,31,33,35,37,39,41,43,45,47,49,51,53,55,57,59,61,-1,-1,-1,-1,-1,-1,-1,-1,-1,-1,-1,-1,-1,-1,-1,-1,-1,-1,-1,-1,-1,-1,-1,-1,-1,-1,-1,-1,-1,-1,-1,-1],"loss_changes":[2.6237232E4,1.4494365E3,1.3542529E3,1.970459E2,1.8952588E2,4.5462653E2,2.4185059E2,2.9362305E1,2.4670776E1,4.601349E1,7.083332E1,8.729352E1,8.059424E1,6.1626343E1,3.439746E1,2.0976562E0,4.447754E0,1.9171143E1,1.2458174E1,1.7253662E1,2.5463211E1,4.4290066E1,3.758002E1,2.2520931E1,7.380654E1,3.4706787E1,2.4667725E1,2.4518219E1,7.7578125E0,2.2172363E1,6.8398438E0,0E0,0E0,0E0,0E0,0E0,0E0,0E0,0E0,0E0,0E0,0E0,0E0,0E0,0E0,0E0,0E0,0E0,0E0,0E0,0E0,0E0,0E0,0E0,0E0,0E0,0E0,0E0,0E0,0E0,0E0,0E0,0E0],"parents":[2147483647,0,0,1,1,2,2,3,3,4,4,5,5,6,6,7,7,8,8,9,9,10,10,11,11,12,12,13,13,14,14,15,15,16,16,17,17,18,18,19,19,20,20,21,21,22,22,23,23,24,24,25,25,26,26,27,27,28,28,29,29,30,30],"right_children":[2,4,6,8,10,12,14,16,18,20,22,24,26,28,30,32,34,36,38,40,42,44,46,48,50,52,54,56,58,60,62,-1,-1,-1,-1,-1,-1,-1,-1,-1,-1,-1,-1,-1,-1,-1,-1,-1,-1,-1,-1,-1,-1,-1,-1,-1,-1,-1,-1,-1,-1,-1,-1],"split_conditions":[8.630952E-2,6.428572E-2,1.2857144E-1,5.102041E-2,4.9777246E-1,4.8549408E-1,4.7174004E-1,3.8961038E-2,5.4480034E-1,7.5E-2,7.539683E-2,9.6938774E-2,5.185515E-1,2E-1,5.091356E-1,2.6785715E-2,3.2092357E-1,5.882353E-2,1.7301899E-1,3.1688145E-1,3.232444E-1,1.7301899E-1,1.1764706E-1,1.1764706E-1,1.764706E-1,4.860132E-1,1.764706E-1,1.764706E-1,2.9464287E-1,1.875E-1,1.8571429E-1,-1.8057531E-1,-1.7259149E-1,-1.6698578E-1,-1.508416E-1,-1.1296014E-1,-1.4300822E-1,8.946822E-3,-9.147006E-2,-1.2047284E-1,-8.0625005E-2,-8.751102E-2,-3.1691365E-2,1.621843E-2,-7.2146975E-2,9.4866775E-2,1.0863051E-2,-1.0289591E-2,-7.033546E-2,5.172014E-2,-2.7217869E-2,9.4856046E-2,3.5100076E-2,1.481579E-1,1.0263858E-1,1.0040452E-1,4.8978902E-2,1.2961279E-1,1.6976862E-1,1.3591908E-1,1.6782327E-1,1.6750528E-1,1.7940769E-1],"split_indices":[0,0,0,0,2,2,2,0,2,0,0,0,2,0,2,0,1,8,6,1,1,6,8,8,8,3,8,8,0,0,0,0,0,0,0,0,0,0,0,0,0,0,0,0,0,0,0,0,0,0,0,0,0,0,0,0,0,0,0,0,0,0,0],"split_type":[0,0,0,0,0,0,0,0,0,0,0,0,0,0,0,0,0,0,0,0,0,0,0,0,0,0,0,0,0,0,0,0,0,0,0,0,0,0,0,0,0,0,0,0,0,0,0,0,0,0,0,0,0,0,0,0,0,0,0,0,0,0,0],"sum_hessian":[1.3756213E4,6.7905747E3,6.9656387E3,5.4149155E3,1.3756592E3,1.8420082E3,5.1236304E3,4.4296846E3,9.852309E2,9.281123E2,4.475468E2,8.273577E2,1.0146505E3,6.764755E2,4.447155E3,3.320293E3,1.1093914E3,9.3413715E2,5.1093792E1,5.2991656E2,3.9819577E2,2.2890575E2,2.1864108E2,2.500562E2,5.773015E2,4.5000525E2,5.6464526E2,4.1798984E2,2.5848572E2,9.773062E2,3.4698486E3,1.8391013E3,1.4811918E3,4.3786203E2,6.715293E2,5.290417E2,4.050954E2,1.970858E1,3.1385212E1,1.648084E2,3.6510812E2,1.1519942E2,2.8299637E2,1.0034051E2,1.2856525E2,9.048401E1,1.2815707E2,1.20671036E2,1.2938516E2,4.1194983E2,1.6535167E2,3.0512283E2,1.4488242E2,3.7174133E2,1.9290393E2,2.728426E2,1.4514726E2,1.6140004E2,9.708567E1,4.2827863E2,5.490276E2,9.7511475E2,2.494734E3],"tree_param":{"num_deleted":"0","num_feature":"10","num_nodes":"63","size_leaf_vector":"1"}},{"base_weights":[1.7476304E-4,-1.2323408E0,1.3035737E0,-1.5001425E0,-3.6602384E-1,6.7031705E-1,1.5005785E0,-1.5865083E0,-1.1149645E0,-5.736676E-1,2.7811405E-1,1.8236002E-1,1.0808837E0,9.7278655E-1,1.5817288E0,-1.6337762E0,-1.4443883E0,-1.4252739E0,-1.0327771E0,-9.906718E-1,-4.3864346E-1,-2.0736429E-1,5.914971E-1,5.467743E-1,-8.194133E-2,8.6508524E-1,1.367367E0,6.4669037E-1,1.2303789E0,1.4515097E0,1.6419623E0,-1.6677691E-1,-1.5905365E-1,-1.4540651E-1,-8.757586E-2,-1.4375882E-1,1.4430851E-2,-4.2647503E-2,-1.1290474E-1,-6.950847E-2,-1.3162786E-1,-3.2462378E-3,-7.003342E-2,3.9908025E-2,-5.3449858E-2,1.07565366E-1,2.6806554E-2,-4.8372433E-2,7.567291E-2,-6.766524E-2,1.4674912E-2,1.0462733E-1,4.4200607E-2,1.4810826E-1,1.0222117E-1,8.263349E-2,2.9339591E-2,1.1110192E-1,1.5633418E-1,1.2209629E-1,1.5446676E-1,1.5232532E-1,1.6547745E-1],"categories":[],"categories_nodes":[],"categories_segments":[],"categories_sizes":[],"default_left":[0,0,0,0,0,0,0,0,0,0,0,0,0,0,0,0,0,0,0,0,0,0,0,0,0,0,0,0,0,0,0,0,0,0,0,0,0,0,0,0,0,0,0,0,0,0,0,0,0,0,0,0,0,0,0,0,0,0,0,0,0,0,0],"id":2,"left_children":[1,3,5,7,9,11,13,15,17,19,21,23,25,27,29,31,33,35,37,39,41,43,45,47,49,51,53,55,57,59,61,-1,-1,-1,-1,-1,-1,-1,-1,-1,-1,-1,-1,-1,-1,-1,-1,-1,-1,-1,-1,-1,-1,-1,-1,-1,-1,-1,-1,-1,-1,-1,-1],"loss_changes":[2.171591E4,1.6113613E3,8.186338E2,1.7477246E2,2.1977019E2,3.124803E2,2.1305371E2,2.674414E1,2.3403076E1,6.9496826E1,6.1121513E1,6.884854E1,5.120453E1,5.5508423E1,3.166504E1,2.1152344E0,4.724121E0,4.1040955E0,4.473999E1,2.8246674E1,9.98938E1,3.156329E1,3.7906563E1,6.536763E1,5.653107E1,3.6795715E1,1.2707764E1,1.8665634E1,1.3101685E1,2.77854E1,1.9819336E0,0E0,0E0,0E0,0E0,0E0,0E0,0E0,0E0,0E0,0E0,0E0,0E0,0E0,0E0,0E0,0E0,0E0,0E0,0E0,0E0,0E0,0E0,0E0,0E0,0E0,0E0,0E0,0E0,0E0,0E0,0E0,0E0],"parents":[2147483647,0,0,1,1,2,2,3,3,4,4,5,5,6,6,7,7,8,8,9,9,10,10,11,11,12,12,13,13,14,14,15,15,16,16,17,17,18,18,19,19,20,20,21,21,22,22,23,23,24,24,25,25,26,26,27,27,28,28,29,29,30,30],"right_children":[2,4,6,8,10,12,14,16,18,20,22,24,26,28,30,32,34,36,38,40,42,44,46,48,50,52,54,56,58,60,62,-1,-1,-1,-1,-1,-1,-1,-1,-1,-1,-1,-1,-1,-1,-1,-1,-1,-1,-1,-1,-1,-1,-1,-1,-1,-1,-1,-1,-1,-1,-1,-1],"split_conditions":[9.2857145E-2,6.428572E-2,1.2857144E-1,5.102041E-2,5.1081926E-1,4.875617E-1,4.7174004E-1,3.8961038E-2,3.0845556E-1,3.1801337E-1,7.417583E-2,5.882353E-2,5.3175706E-1,1.6836734E-1,5.218604E-1,2.6785715E-2,4.7861663E-1,5.904509E-1,1.0547218E-1,3.7326315E-1,5.882353E-2,1.5518327E-1,5.882353E-2,3.0386966E-1,3.4205705E-1,1.764706E-1,5.7227266E-1,1.764706E-1,2.9464287E-1,1.6666667E-1,1.4880952E-1,-1.6677691E-1,-1.5905365E-1,-1.4540651E-1,-8.757586E-2,-1.4375882E-1,1.4430851E-2,-4.2647503E-2,-1.1290474E-1,-6.950847E-2,-1.3162786E-1,-3.2462378E-3,-7.003342E-2,3.9908025E-2,-5.3449858E-2,1.07565366E-1,2.6806554E-2,-4.8372433E-2,7.567291E-2,-6.766524E-2,1.4674912E-2,1.0462733E-1,4.4200607E-2,1.4810826E-1,1.0222117E-1,8.263349E-2,2.9339591E-2,1.1110192E-1,1.5633418E-1,1.2209629E-1,1.5446676E-1,1.5232532E-1,1.6547745E-1],"split_indices":[0,0,0,0,2,2,2,0,1,1,0,8,2,0,2,0,4,4,6,3,8,6,8,1,1,8,3,8,0,0,0,0,0,0,0,0,0,0,0,0,0,0,0,0,0,0,0,0,0,0,0,0,0,0,0,0,0,0,0,0,0,0,0],"split_type":[0,0,0,0,0,0,0,0,0,0,0,0,0,0,0,0,0,0,0,0,0,0,0,0,0,0,0,0,0,0,0,0,0,0,0,0,0,0,0,0,0,0,0,0,0,0,0,0,0,0,0,0,0,0,0,0,0,0,0,0,0,0,0],"sum_hessian":[1.3515868E4,6.946859E3,6.56901E3,5.305925E3,1.6409338E3,1.5597421E3,5.0092676E3,4.331567E3,9.743579E2,1.2409966E3,3.9993723E2,7.1336017E2,8.4638184E2,6.6928766E2,4.33998E3,3.2426091E3,1.0889579E3,2.0060507E2,7.737528E2,3.0199323E2,9.390034E2,1.5702293E2,2.4291428E2,2.9943518E2,4.1392502E2,4.8503802E2,3.6134378E2,2.9691806E2,3.723696E2,1.3805203E3,2.9594597E3,1.7943855E3,1.4482235E3,1.0692051E3,1.9752848E1,1.9912692E2,1.4781601E0,1.0676789E2,6.669849E2,1.5993675E2,1.4205647E2,3.6836804E2,5.706354E2,5.4945164E1,1.02077774E2,9.635348E1,1.465608E2,5.0460632E1,2.4897455E2,1.14418945E2,2.9950607E2,3.385692E2,1.4646881E2,2.6932156E2,9.202224E1,1.9594453E2,1.0097354E2,2.7730035E2,9.506924E1,4.0135477E2,9.7916547E2,2.9997797E2,2.659482E3],"tree_param":{"num_deleted":"0","num_feature":"10","num_nodes":"63","size_leaf_vector":"1"}},{"base_weights":[2.6342273E-4,-1.1381694E0,1.2076346E0,-1.3816767E0,-2.8705058E-1,6.1015666E-1,1.3977305E0,-1.4765767E0,-9.942556E-1,-5.4640895E-1,1.6177654E-1,1.263792E-1,9.6328574E-1,8.903671E-1,1.4773136E0,-1.5261064E0,-1.3346565E0,-9.280755E-1,-1.3750595E0,-8.390048E-1,-3.9192978E-1,3.437304E-1,-4.4274494E-1,3.0561227E-1,-3.4077886E-1,7.307848E-1,1.2259274E0,5.6478244E-1,1.117443E0,1.3049861E0,1.5233394E0,-1.5494214E-1,-1.463509E-1,-1.4285487E-1,-1.2726738E-1,-1.06139995E-1,-5.513189E-2,-1.4258319E-1,-8.022994E-2,-4.9742885E-2,-1.07640065E-1,3.3369602E-3,-6.273837E-2,-6.151102E-2,4.8144247E-2,5.5559196E-2,-6.13659E-2,-6.919063E-2,4.351249E-2,-7.6917835E-2,-6.1143786E-3,5.1597115E-2,1.0246066E-1,1.3055298E-1,7.505436E-2,8.002196E-3,6.7353845E-2,1.00713685E-1,1.4558928E-1,1.13124944E-1,1.4421333E-1,1.4399266E-1,1.5557091E-1],"categories":[],"categories_nodes":[],"categories_segments":[],"categories_sizes":[],"default_left":[0,0,0,0,0,0,0,0,0,0,0,0,0,0,0,0,0,0,0,0,0,0,0,0,0,0,0,0,0,0,0,0,0,0,0,0,0,0,0,0,0,0,0,0,0,0,0,0,0,0,0,0,0,0,0,0,0,0,0,0,0,0,0],"id":3,"left_children":[1,3,5,7,9,11,13,15,17,19,21,23,25,27,29,31,33,35,37,39,41,43,45,47,49,51,53,55,57,59,61,-1,-1,-1,-1,-1,-1,-1,-1,-1,-1,-1,-1,-1,-1,-1,-1,-1,-1,-1,-1,-1,-1,-1,-1,-1,-1,-1,-1,-1,-1,-1,-1],"loss_changes":[1.8110777E4,1.4051328E3,7.2541895E2,1.9239258E2,1.7585109E2,2.63854E2,1.9452637E2,2.7719727E1,2.4946655E1,4.29346E1,6.1060844E1,5.4791832E1,5.3638245E1,4.8175964E1,3.1254883E1,2.3017578E0,4.602051E0,4.4097107E1,3.2757568E0,2.6211868E1,6.2938286E1,5.65724E1,2.227486E1,6.135219E1,2.1705166E1,2.952681E1,1.4833191E1,1.4352852E1,1.3014893E1,1.9584595E1,6.6748047E0,0E0,0E0,0E0,0E0,0E0,0E0,0E0,0E0,0E0,0E0,0E0,0E0,0E0,0E0,0E0,0E0,0E0,0E0,0E0,0E0,0E0,0E0,0E0,0E0,0E0,0E0,0E0,0E0,0E0,0E0,0E0,0E0],"parents":[2147483647,0,0,1,1,2,2,3,3,4,4,5,5,6,6,7,7,8,8,9,9,10,10,11,11,12,12,13,13,14,14,15,15,16,16,17,17,18,18,19,19,20,20,21,21,22,22,23,23,24,24,25,25,26,26,27,27,28,28,29,29,30,30],"right_children":[2,4,6,8,10,12,14,16,18,20,22,24,26,28,30,32,34,36,38,40,42,44,46,48,50,52,54,56,58,60,62,-1,-1,-1,-1,-1,-1,-1,-1,-1,-1,-1,-1,-1,-1,-1,-1,-1,-1,-1,-1,-1,-1,-1,-1,-1,-1,-1,-1,-1,-1,-1,-1],"split_conditions":[9.2857145E-2,6.4935066E-2,1.2857144E-1,5.1587302E-2,4.9507284E-1,4.8267955E-1,4.7174004E-1,3.8961038E-2,1.764706E-1,3.2380822E-1,2.5506413E-1,1.764706E-1,5.245977E-1,1.6428572E-1,5.0785875E-1,3.021978E-2,3.2092357E-1,3.546109E-1,5.354457E-1,3.6411425E-1,5.882353E-2,3.3705992E-1,4.404264E-1,3.0186063E-1,3.606314E-1,1.1111111E-1,3.1109604E-1,3.174486E-1,2.9464287E-1,1.875E-1,1.8571429E-1,-1.5494214E-1,-1.463509E-1,-1.4285487E-1,-1.2726738E-1,-1.06139995E-1,-5.513189E-2,-1.4258319E-1,-8.022994E-2,-4.9742885E-2,-1.07640065E-1,3.3369602E-3,-6.273837E-2,-6.151102E-2,4.8144247E-2,5.5559196E-2,-6.13659E-2,-6.919063E-2,4.351249E-2,-7.6917835E-2,-6.1143786E-3,5.1597115E-2,1.0246066E-1,1.3055298E-1,7.505436E-2,8.002196E-3,6.7353845E-2,1.00713685E-1,1.4558928E-1,1.13124944E-1,1.4421333E-1,1.4399266E-1,1.5557091E-1],"split_indices":[0,0,0,0,2,2,2,0,8,1,6,8,2,0,2,0,1,1,2,3,8,1,3,1,1,0,6,1,0,0,0,0,0,0,0,0,0,0,0,0,0,0,0,0,0,0,0,0,0,0,0,0,0,0,0,0,0,0,0,0,0,0,0],"split_type":[0,0,0,0,0,0,0,0,0,0,0,0,0,0,0,0,0,0,0,0,0,0,0,0,0,0,0,0,0,0,0,0,0,0,0,0,0,0,0,0,0,0,0,0,0,0,0,0,0,0,0,0,0,0,0,0,0,0,0,0,0,0,0],"sum_hessian":[1.317416E4,6.78069E3,6.3934697E3,5.2717935E3,1.5088969E3,1.5442009E3,4.8492686E3,4.2322734E3,1.0395198E3,9.5615656E2,5.5274023E2,6.5214185E2,8.9205914E2,6.5915784E2,4.190111E3,3.1301199E3,1.1021536E3,8.885375E2,1.5098227E2,3.2885257E2,6.27304E2,4.2519342E2,1.2754681E2,4.7156412E2,1.8057773E2,4.7518683E2,4.168723E2,2.7226605E2,3.8689175E2,8.89402E2,3.3007087E3,2.2633538E3,8.667662E2,4.2949777E2,6.726558E2,6.549502E2,2.3358728E2,1.373201E2,1.3662174E1,1.3610861E2,1.9274394E2,2.2384038E2,4.0346365E2,5.2963142E1,3.722303E2,1.8315025E1,1.0923178E2,5.3690704E1,4.178734E2,7.062695E1,1.0995077E2,2.7609174E2,1.9909506E2,3.5558395E2,6.128835E1,5.020813E1,2.2205794E2,2.947905E2,9.210125E1,3.9644193E2,4.9296005E2,9.3550793E2,2.365201E3],"tree_param":{"num_deleted":"0","num_feature":"10","num_nodes":"63","size_leaf_vector":"1"}},{"base_weights":[2.9987027E-4,-1.1551664E0,1.0340215E0,-1.36722E0,-5.9811544E-1,2.339362E-1,1.261732E0,-1.4321669E0,-1.1880032E0,-7.987491E-1,-3.1828323E-1,1.4778363E-2,8.865553E-1,6.86555E-1,1.3583742E0,-1.4629133E-1,-1.3666316E0,-1.110634E0,-1.3199927E0,-6.335439E-1,-1.0968479E0,2.2190614E-1,-5.6049114E-1,-5.454171E-1,1.5963982E-1,1.0908781E0,4.2711776E-1,3.784852E-1,9.954612E-1,1.12433E0,1.4223273E0,-1.4453246E-1,-1.2844728E-1,-1.2761362E-1,-9.499434E-2,-1.3299869E-1,9.213619E-2,-1.0099912E-1,-4.2636327E-2,-9.154074E-2,-1.2896693E-1,7.4412175E-2,-9.481443E-3,-8.509136E-2,-3.3316206E-2,-1.6586492E-2,-8.1680484E-2,4.1009143E-2,-4.0806007E-2,1.1959802E-1,7.4066155E-2,7.080735E-3,1.24479525E-1,5.6090485E-2,1.6803684E-4,8.8954225E-2,1.3655582E-1,8.998453E-2,1.306986E-1,1.24104895E-1,1.4494836E-1],"categories":[],"categories_nodes":[],"categories_segments":[],"categories_sizes":[],"default_left":[0,0,0,0,0,0,0,0,0,0,0,0,0,0,0,0,0,0,0,0,0,0,0,0,0,0,0,0,0,0,0,0,0,0,0,0,0,0,0,0,0,0,0,0,0,0,0,0,0,0,0,0,0,0,0,0,0,0,0,0,0],"id":4,"left_children":[1,3,5,7,9,11,13,15,17,19,21,23,25,27,29,-1,31,33,35,37,39,41,43,45,47,49,51,53,55,57,59,-1,-1,-1,-1,-1,-1,-1,-1,-1,-1,-1,-1,-1,-1,-1,-1,-1,-1,-1,-1,-1,-1,-1,-1,-1,-1,-1,-1,-1,-1],"loss_changes":[1.5250124E4,7.1133545E2,1.2274434E3,4.9114746E1,9.316986E1,2.137027E2,2.9065332E2,4.447754E0,1.0453125E1,4.7000854E1,9.125639E1,9.0944664E1,3.4795105E1,7.162613E1,6.5606445E1,0E0,4.8477783E0,1.8524658E1,1.0768677E1,4.8354813E1,1.0853729E1,3.585251E1,3.148497E1,2.3582993E1,1.26758804E2,8.660553E0,3.4078117E1,2.614872E1,1.3570831E1,3.8530396E1,1.5542969E1,0E0,0E0,0E0,0E0,0E0,0E0,0E0,0E0,0E0,0E0,0E0,0E0,0E0,0E0,0E0,0E0,0E0,0E0,0E0,0E0,0E0,0E0,0E0,0E0,0E0,0E0,0E0,0E0,0E0,0E0],"parents":[2147483647,0,0,1,1,2,2,3,3,4,4,5,5,6,6,7,7,8,8,9,9,10,10,11,11,12,12,13,13,14,14,16,16,17,17,18,18,19,19,20,20,21,21,22,22,23,23,24,24,25,25,26,26,27,27,28,28,29,29,30,30],"right_children":[2,4,6,8,10,12,14,16,18,20,22,24,26,28,30,-1,32,34,36,38,40,42,44,46,48,50,52,54,56,58,60,-1,-1,-1,-1,-1,-1,-1,-1,-1,-1,-1,-1,-1,-1,-1,-1,-1,-1,-1,-1,-1,-1,-1,-1,-1,-1,-1,-1,-1,-1],"split_conditions":[8.163265E-2,5.5194806E-2,1.14285715E-1,4.2207792E-2,3.5239074E-1,5.199251E-1,4.6898606E-1,3.021978E-2,1.1764706E-1,5.882353E-2,1.6409944E-1,3.220621E-1,1.764706E-1,1.6071428E-1,1.5178572E-1,-1.4629133E-1,3.2263768E-1,3.2092357E-1,6.21966E-1,3.0973274E-1,4.0398344E-1,5.882353E-2,6.696428E-2,3.6040923E-1,1.764706E-1,5.5415696E-1,5.613481E-1,1.764706E-1,2.9464287E-1,5.158937E-1,4.9726796E-1,-1.4453246E-1,-1.2844728E-1,-1.2761362E-1,-9.499434E-2,-1.3299869E-1,9.213619E-2,-1.0099912E-1,-4.2636327E-2,-9.154074E-2,-1.2896693E-1,7.4412175E-2,-9.481443E-3,-8.509136E-2,-3.3316206E-2,-1.6586492E-2,-8.1680484E-2,4.1009143E-2,-4.0806007E-2,1.1959802E-1,7.4066155E-2,7.080735E-3,1.24479525E-1,5.6090485E-2,1.6803684E-4,8.8954225E-2,1.3655582E-1,8.998453E-2,1.306986E-1,1.24104895E-1,1.4494836E-1],"split_indices":[0,0,0,0,1,2,2,0,8,8,6,1,8,0,0,0,1,1,2,1,3,8,0,3,8,3,2,8,0,2,2,0,0,0,0,0,0,0,0,0,0,0,0,0,0,0,0,0,0,0,0,0,0,0,0,0,0,0,0,0,0],"split_type":[0,0,0,0,0,0,0,0,0,0,0,0,0,0,0,0,0,0,0,0,0,0,0,0,0,0,0,0,0,0,0,0,0,0,0,0,0,0,0,0,0,0,0,0,0,0,0,0,0,0,0,0,0,0,0,0,0,0,0,0,0],"sum_hessian":[1.2765694E4,6.02783E3,6.737864E3,4.364814E3,1.6630162E3,1.493238E3,5.244626E3,3.1986533E3,1.1661605E3,9.674916E2,6.9552466E2,1.1186154E3,3.7462268E2,7.556133E2,4.4890127E3,2.162692E3,1.0359614E3,7.4113715E2,4.2502335E2,6.245138E2,3.4297778E2,2.1534059E2,4.8018408E2,2.2926335E2,8.8935205E2,2.5835272E2,1.16269966E2,3.7943295E2,3.7618033E2,9.673723E2,3.5216404E3,5.2066754E2,5.1529395E2,3.6168274E2,3.7945438E2,4.2354138E2,1.4819719E0,2.2031909E2,4.0419473E2,1.7966478E2,1.6331299E2,8.078731E1,1.3455328E2,2.0962997E2,2.7055414E2,9.625547E1,1.3300787E2,6.1729724E2,2.720548E2,1.9685919E2,6.1493523E1,8.1738335E1,3.4531628E1,2.553323E2,1.2410065E2,2.951221E2,8.105825E1,4.3665198E2,5.3072034E2,4.6490805E2,3.0567322E3],"tree_param":{"num_deleted":"0","num_feature":"10","num_nodes":"61","size_leaf_vector":"1"}},{"base_weights":[3.3131646E-4,-9.911167E-1,1.0546732E0,-1.2752979E0,-3.77149E-1,5.100858E-1,1.2399865E0,-1.3420765E0,-1.0161631E0,-6.2675923E-1,-4.5298703E-2,9.825684E-2,8.2350165E-1,8.2953006E-1,1.3362695E0,-1.3919017E-1,-1.2678341E0,-9.3157095E-1,-1.1971511E0,-7.6582634E-1,-3.5423917E-1,-3.330229E-1,3.5713938E-1,4.0991226E-1,-1.4343272E-1,7.181074E-1,1.3095708E0,6.3976747E-1,1.1345032E0,1.2161834E0,1.3902675E0,-1.3627571E-1,-1.19774856E-1,-1.0764815E-1,-6.75158E-2,-1.2975995E-1,-7.7313356E-2,-6.047417E-2,-1.0404499E-1,1.9274237E-2,-5.7098556E-2,-8.513215E-3,-5.5694558E-2,1.6532924E-2,8.433051E-2,-4.3671813E-2,5.6902297E-2,-9.153504E-2,-8.0961775E-4,8.248859E-2,7.899728E-3,2.1838149E-2,1.3208456E-1,6.733899E-3,7.321657E-2,1.0097351E-1,1.3234852E-1,1.0477994E-1,1.3170995E-1,1.0807295E-1,1.3947372E-1],"categories":[],"categories_nodes":[],"categories_segments":[],"categories_sizes":[],"default_left":[0,0,0,0,0,0,0,0,0,0,0,0,0,0,0,0,0,0,0,0,0,0,0,0,0,0,0,0,0,0,0,0,0,0,0,0,0,0,0,0,0,0,0,0,0,0,0,0,0,0,0,0,0,0,0,0,0,0,0,0,0],"id":5,"left_children":[1,3,5,7,9,11,13,15,17,19,21,23,25,27,29,-1,31,33,35,37,39,41,43,45,47,49,51,53,55,57,59,-1,-1,-1,-1,-1,-1,-1,-1,-1,-1,-1,-1,-1,-1,-1,-1,-1,-1,-1,-1,-1,-1,-1,-1,-1,-1,-1,-1,-1,-1],"loss_changes":[1.287628E4,1.1071636E3,6.0181885E2,7.3726074E1,1.6647302E2,1.9576523E2,1.7488672E2,1.098584E1,1.2560059E1,4.3202606E1,1.0015881E2,4.9535137E1,4.3191956E1,4.839569E1,2.1689453E1,0E0,7.6518555E0,2.2058533E1,1.0964996E1,3.2932373E1,4.6281433E1,2.7945614E1,3.3493145E1,3.893081E1,3.871823E1,4.839975E1,1.5852051E0,2.7746048E1,6.309601E0,1.7759766E1,1.9233398E0,0E0,0E0,0E0,0E0,0E0,0E0,0E0,0E0,0E0,0E0,0E0,0E0,0E0,0E0,0E0,0E0,0E0,0E0,0E0,0E0,0E0,0E0,0E0,0E0,0E0,0E0,0E0,0E0,0E0,0E0],"parents":[2147483647,0,0,1,1,2,2,3,3,4,4,5,5,6,6,7,7,8,8,9,9,10,10,11,11,12,12,13,13,14,14,16,16,17,17,18,18,19,19,20,20,21,21,22,22,23,23,24,24,25,25,26,26,27,27,28,28,29,29,30,30],"right_children":[2,4,6,8,10,12,14,16,18,20,22,24,26,28,30,-1,32,34,36,38,40,42,44,46,48,50,52,54,56,58,60,-1,-1,-1,-1,-1,-1,-1,-1,-1,-1,-1,-1,-1,-1,-1,-1,-1,-1,-1,-1,-1,-1,-1,-1,-1,-1,-1,-1,-1,-1],"split_conditions":[9.126984E-2,5.8035713E-2,1.2857144E-1,4.761905E-2,7.5E-2,4.8267955E-1,4.8318884E-1,3.021978E-2,1.8995741E-1,3.5883597E-1,4.91252E-1,1.1764706E-1,5.5999565E-1,2E-1,1.875E-1,-1.3919017E-1,3.174486E-1,3.3433706E-1,3.8876292E-1,5.882353E-2,5.882353E-2,5.882353E-2,5.405433E-1,3.0186063E-1,3.2652345E-1,2.3529412E-1,3.4893933E-1,3.174486E-1,2.9464287E-1,5.218604E-1,3.3767608E-1,-1.3627571E-1,-1.19774856E-1,-1.0764815E-1,-6.75158E-2,-1.2975995E-1,-7.7313356E-2,-6.047417E-2,-1.0404499E-1,1.9274237E-2,-5.7098556E-2,-8.513215E-3,-5.5694558E-2,1.6532924E-2,8.433051E-2,-4.3671813E-2,5.6902297E-2,-9.153504E-2,-8.0961775E-4,8.248859E-2,7.899728E-3,2.1838149E-2,1.3208456E-1,6.733899E-3,7.321657E-2,1.0097351E-1,1.3234852E-1,1.0477994E-1,1.3170995E-1,1.0807295E-1,1.3947372E-1],"split_indices":[0,0,0,0,0,2,2,0,6,1,2,8,2,0,0,0,1,1,1,8,8,8,2,1,1,8,1,1,0,2,1,0,0,0,0,0,0,0,0,0,0,0,0,0,0,0,0,0,0,0,0,0,0,0,0,0,0,0,0,0,0],"split_type":[0,0,0,0,0,0,0,0,0,0,0,0,0,0,0,0,0,0,0,0,0,0,0,0,0,0,0,0,0,0,0,0,0,0,0,0,0,0,0,0,0,0,0,0,0,0,0,0,0,0,0,0,0,0,0,0,0,0,0,0,0],"sum_hessian":[1.2315966E4,6.347329E3,5.9686367E3,4.338249E3,2.0090801E3,1.5163206E3,4.4523164E3,3.4460327E3,8.922163E2,1.146112E3,8.629681E2,6.558482E2,8.604724E2,8.4778906E2,3.6045273E3,2.0514985E3,1.3945342E3,6.1221796E2,2.7999838E2,7.5766504E2,3.88447E2,5.0330283E2,3.5966522E2,2.8615683E2,3.6969138E2,7.091787E2,1.5129369E2,5.2451764E2,3.2327142E2,1.1253617E3,2.4791655E3,5.844785E2,8.1005566E2,3.8911392E2,2.23104E2,2.2470602E2,5.5292362E1,4.7956873E2,2.7809628E2,1.102729E2,2.781741E2,2.3952257E2,2.6378024E2,2.5887115E2,1.00794075E2,4.4994682E1,2.4116214E2,5.4287693E1,3.154037E2,6.074064E2,1.01772316E2,1.7555653E0,1.4953812E2,7.313819E1,4.5137943E2,1.9853757E2,1.2473386E2,4.2597736E2,6.993844E2,3.874424E1,2.4404214E3],"tree_param":{"num_deleted":"0","num_feature":"10","num_nodes":"61","size_leaf_vector":"1"}},{"base_weights":[3.6512924E-4,-8.9356035E-1,1.0309521E0,-1.1677063E0,-2.0932138E-1,5.7885784E-1,1.2145259E0,-1.279935E0,-8.7774956E-1,-4.1396394E-1,1.7719202E-1,3.2008335E-1,9.6671766E-1,9.394667E-1,1.3141831E0,-1.332532E-1,-1.2023152E0,-7.6249284E-1,-1.0316796E0,-6.6529524E-1,-2.880636E-1,3.5489744E-1,-4.0205055E-1,2.9277673E-2,4.9602258E-1,5.6233734E-1,1.0433942E0,7.2861844E-1,1.1071161E0,1.2300977E0,1.3489659E-1,-1.2998615E-1,-1.13101564E-1,-8.7993406E-2,-2.0753339E-2,-1.0402366E-1,1.03146695E-1,-3.4497958E-2,-9.047555E-2,-1.2313058E-2,-7.186921E-2,1.401815E-2,7.893935E-2,-5.771013E-2,3.4854602E-2,3.366456E-2,-1.8438775E-2,6.0515434E-2,-2.3010962E-4,4.0237773E-2,1.1645881E-1,1.11653544E-1,6.700846E-2,8.318029E-2,-7.204804E-3,1.1785833E-1,7.997183E-2,1.2576441E-1,9.2484765E-2],"categories":[],"categories_nodes":[],"categories_segments":[],"categories_sizes":[],"default_left":[0,0,0,0,0,0,0,0,0,0,0,0,0,0,0,0,0,0,0,0,0,0,0,0,0,0,0,0,0,0,0,0,0,0,0,0,0,0,0,0,0,0,0,0,0,0,0,0,0,0,0,0,0,0,0,0,0,0,0],"id":6,"left_children":[1,3,5,7,9,11,13,15,17,19,21,23,25,27,29,-1,31,33,35,37,39,41,43,45,47,49,51,53,55,57,-1,-1,-1,-1,-1,-1,-1,-1,-1,-1,-1,-1,-1,-1,-1,-1,-1,-1,-1,-1,-1,-1,-1,-1,-1,-1,-1,-1,-1],"loss_changes":[1.0913239E4,1.1896846E3,4.5595215E2,1.4624902E2,1.4369685E2,1.593692E2,1.0601123E2,1.1719238E1,2.169043E1,3.7384354E1,6.4917114E1,4.8885834E1,1.9138733E1,3.609839E1,6.73291E0,0E0,7.76709E0,4.7284332E1,1.0599426E1,3.00289E1,5.6230247E1,4.4863773E1,1.9673738E1,2.3792286E1,3.238214E1,9.508884E0,1.3821594E1,3.8506363E1,1.1792053E1,5.9924316E0,0E0,0E0,0E0,0E0,0E0,0E0,0E0,0E0,0E0,0E0,0E0,0E0,0E0,0E0,0E0,0E0,0E0,0E0,0E0,0E0,0E0,0E0,0E0,0E0,0E0,0E0,0E0,0E0,0E0],"parents":[2147483647,0,0,1,1,2,2,3,3,4,4,5,5,6,6,7,7,8,8,9,9,10,10,11,11,12,12,13,13,14,14,16,16,17,17,18,18,19,19,20,20,21,21,22,22,23,23,24,24,25,25,26,26,27,27,28,28,29,29],"right_children":[2,4,6,8,10,12,14,16,18,20,22,24,26,28,30,-1,32,34,36,38,40,42,44,46,48,50,52,54,56,58,-1,-1,-1,-1,-1,-1,-1,-1,-1,-1,-1,-1,-1,-1,-1,-1,-1,-1,-1,-1,-1,-1,-1,-1,-1,-1,-1,-1,-1],"split_conditions":[9.6938774E-2,6.428572E-2,4.9026653E-1,4.761905E-2,4.9777246E-1,1.5714286E-1,1.4880952E-1,3.021978E-2,5.882353E-2,3.2380822E-1,2.5506413E-1,4.4995257E-1,4.3540442E-1,5.245977E-1,5.2860653E-1,-1.332532E-1,3.174486E-1,3.5348123E-1,6.21966E-1,3.6536455E-1,1.764706E-1,3.879549E-1,5.575671E-1,5.882353E-2,4.889787E-1,2.9464287E-1,4.605306E-1,3.1109604E-1,2.3529412E-1,5.522312E-1,1.3489659E-1,-1.2998615E-1,-1.13101564E-1,-8.7993406E-2,-2.0753339E-2,-1.0402366E-1,1.03146695E-1,-3.4497958E-2,-9.047555E-2,-1.2313058E-2,-7.186921E-2,1.401815E-2,7.893935E-2,-5.771013E-2,3.4854602E-2,3.366456E-2,-1.8438775E-2,6.0515434E-2,-2.3010962E-4,4.0237773E-2,1.1645881E-1,1.11653544E-1,6.700846E-2,8.318029E-2,-7.204804E-3,1.1785833E-1,7.997183E-2,1.2576441E-1,9.2484765E-2],"split_indices":[0,0,2,0,2,0,0,0,8,1,6,2,2,2,2,0,1,1,2,3,8,1,2,8,3,0,5,6,8,3,0,0,0,0,0,0,0,0,0,0,0,0,0,0,0,0,0,0,0,0,0,0,0,0,0,0,0,0,0],"split_type":[0,0,0,0,0,0,0,0,0,0,0,0,0,0,0,0,0,0,0,0,0,0,0,0,0,0,0,0,0,0,0,0,0,0,0,0,0,0,0,0,0,0,0,0,0,0,0,0,0,0,0,0,0,0,0,0,0,0,0],"sum_hessian":[1.1843892E4,6.34254E3,5.5013516E3,4.527753E3,1.8147874E3,1.5899285E3,3.9114229E3,3.261834E3,1.2659188E3,1.1865095E3,6.282778E2,9.54755E2,6.3517346E2,1.04303E3,2.868393E3,1.934678E3,1.3271559E3,7.2729926E2,5.3861957E2,3.945654E2,7.9194415E2,4.8107608E2,1.472017E2,3.6033405E2,5.94421E2,1.02569916E2,5.326036E2,4.6436124E2,5.786687E2,8.499793E2,2.0184137E3,5.5315045E2,7.7400543E2,5.997862E2,1.2751306E2,5.368887E2,1.7309415E0,1.6983075E2,2.2473465E2,5.7355536E2,2.1838881E2,3.2285345E2,1.5822266E2,1.1955157E2,2.7650135E1,1.475298E2,2.1280424E2,4.8745508E2,1.06965935E2,8.236235E1,2.0207565E1,4.436834E2,8.892016E1,4.1131488E2,5.3046356E1,4.6721228E2,1.1145644E2,7.767624E2,7.321691E1],"tree_param":{"num_deleted":"0","num_feature":"10","num_nodes":"59","size_leaf_vector":"1"}},{"base_weights":[4.297402E-4,-1.0170442E0,8.0612814E-1,-1.1982688E0,-6.12108E-1,1.24940865E-1,1.0703464E0,-1.2550558E0,-1.044136E0,-9.818619E-1,-5.329086E-1,-6.5580793E-3,7.829905E-1,6.7603654E-1,1.2096395E0,-1.2970123E-1,-1.2030917E0,-9.804695E-1,-1.1549276E0,-5.2490395E-1,-1.0633218E0,-3.1305188E-1,-7.774255E-1,1.2499634E-1,-3.884817E-1,1.0094222E0,4.682599E-1,5.201111E-1,1.036273E0,9.9479425E-1,1.2636366E0,-1.2566854E-1,-1.13587774E-1,-1.10246554E-1,-8.098664E-2,-1.9414345E-2,-1.172063E-1,-9.489151E-2,-1.3127497E-2,-1.3444684E-1,-9.438421E-2,-4.441368E-2,8.099118E-3,-9.1593824E-2,-3.6371607E-2,-2.6449313E-2,3.892931E-2,-7.640522E-2,-2.2906449E-2,1.1301513E-1,5.5918764E-2,-5.5508217E-4,7.653686E-2,8.338881E-3,6.396779E-2,9.040212E-2,1.23348966E-1,1.076823E-1,6.450684E-2,1.1755226E-1,1.3004158E-1],"categories":[],"categories_nodes":[],"categories_segments":[],"categories_sizes":[],"default_left":[0,0,0,0,0,0,0,0,0,0,0,0,0,0,0,0,0,0,0,0,0,0,0,0,0,0,0,0,0,0,0,0,0,0,0,0,0,0,0,0,0,0,0,0,0,0,0,0,0,0,0,0,0,0,0,0,0,0,0,0,0],"id":7,"left_children":[1,3,5,7,9,11,13,15,17,19,21,23,25,27,29,-1,31,33,35,37,39,41,43,45,47,49,51,53,55,57,59,-1,-1,-1,-1,-1,-1,-1,-1,-1,-1,-1,-1,-1,-1,-1,-1,-1,-1,-1,-1,-1,-1,-1,-1,-1,-1,-1,-1,-1,-1],"loss_changes":[9.320616E3,3.6798682E2,1.1418862E3,2.9062012E1,4.5027893E1,1.5355415E2,2.5028271E2,3.9575195E0,5.4995117E0,9.611908E0,6.874347E1,7.440507E1,2.0589233E1,6.662256E1,3.792041E1,0E0,2.6947021E0,1.1672119E1,5.328827E0,7.1041403E0,6.4873657E0,3.5024826E1,3.4443848E1,1.13493706E2,2.2540676E1,8.663956E0,1.7674932E1,4.362616E1,8.279541E0,1.8898315E1,7.205078E0,0E0,0E0,0E0,0E0,0E0,0E0,0E0,0E0,0E0,0E0,0E0,0E0,0E0,0E0,0E0,0E0,0E0,0E0,0E0,0E0,0E0,0E0,0E0,0E0,0E0,0E0,0E0,0E0,0E0,0E0],"parents":[2147483647,0,0,1,1,2,2,3,3,4,4,5,5,6,6,7,7,8,8,9,9,10,10,11,11,12,12,13,13,14,14,16,16,17,17,18,18,19,19,20,20,21,21,22,22,23,23,24,24,25,25,26,26,27,27,28,28,29,29,30,30],"right_children":[2,4,6,8,10,12,14,16,18,20,22,24,26,28,30,-1,32,34,36,38,40,42,44,46,48,50,52,54,56,58,60,-1,-1,-1,-1,-1,-1,-1,-1,-1,-1,-1,-1,-1,-1,-1,-1,-1,-1,-1,-1,-1,-1,-1,-1,-1,-1,-1,-1,-1,-1],"split_conditions":[7.5E-2,5.1587302E-2,1.14285715E-1,3.8961038E-2,3.0845556E-1,5.334189E-1,4.9026653E-1,2.6785715E-2,1.1764706E-1,3.1354284E-1,1.7301899E-1,1.764706E-1,2.2097859E-1,2E-1,1.4880952E-1,-1.2970123E-1,3.2263768E-1,3.271075E-1,3.0316743E-1,2.8283575E-1,2.903496E-1,3.5883597E-1,3.879549E-1,3.3594173E-1,3.606314E-1,1.764706E-1,5.528978E-1,4.3540442E-1,2.9464287E-1,2.3529412E-1,5.2860653E-1,-1.2566854E-1,-1.13587774E-1,-1.10246554E-1,-8.098664E-2,-1.9414345E-2,-1.172063E-1,-9.489151E-2,-1.3127497E-2,-1.3444684E-1,-9.438421E-2,-4.441368E-2,8.099118E-3,-9.1593824E-2,-3.6371607E-2,-2.6449313E-2,3.892931E-2,-7.640522E-2,-2.2906449E-2,1.1301513E-1,5.5918764E-2,-5.5508217E-4,7.653686E-2,8.338881E-3,6.396779E-2,9.040212E-2,1.23348966E-1,1.076823E-1,6.450684E-2,1.1755226E-1,1.3004158E-1],"split_indices":[0,0,0,0,1,2,2,0,8,3,6,8,6,0,0,0,1,1,3,1,1,1,1,1,1,8,2,2,0,8,2,0,0,0,0,0,0,0,0,0,0,0,0,0,0,0,0,0,0,0,0,0,0,0,0,0,0,0,0,0,0],"split_type":[0,0,0,0,0,0,0,0,0,0,0,0,0,0,0,0,0,0,0,0,0,0,0,0,0,0,0,0,0,0,0,0,0,0,0,0,0,0,0,0,0,0,0,0,0,0,0,0,0,0,0,0,0,0,0,0,0,0,0,0,0],"sum_hessian":[1.1367695E4,5.023509E3,6.344186E3,3.4690269E3,1.554482E3,1.7734596E3,4.5707266E3,2.5298223E3,9.392046E2,2.7221393E2,1.2822682E3,1.4789159E3,2.945437E2,1.1946833E3,3.3760432E3,1.3864377E3,1.1433844E3,6.027076E2,3.36497E2,4.2310818E1,2.2990312E2,6.7638165E2,6.058865E2,1.100514E3,3.7840176E2,1.7001784E2,1.2452587E2,8.354915E2,3.591919E2,6.8197986E2,2.6940635E3,6.263009E2,5.1708356E2,3.4823038E2,2.5447719E2,6.1122246E0,3.3038477E2,1.9690178E1,2.2620642E1,6.550689E1,1.6439622E2,5.0744473E2,1.6893694E2,4.530038E2,1.5288268E2,4.4488864E2,6.556254E2,1.1162708E2,2.667747E2,1.3287708E2,3.7140762E1,4.8369873E1,7.6156E1,1.7994243E2,6.555491E2,2.1835124E2,1.4084065E2,5.50727E2,1.312529E2,8.030704E2,1.890993E3],"tree_param":{"num_deleted":"0","num_feature":"10","num_nodes":"61","size_leaf_vector":"1"}},{"base_weights":[4.2008262E-4,-9.0735084E-1,8.031823E-1,-1.1245247E0,-4.190998E-1,2.853751E-1,1.0724287E0,-1.2007958E0,-9.2948806E-1,-5.941134E-1,-2.2086884E-1,9.3895175E-2,7.570601E-1,6.83105E-1,1.1838663E0,-1.2543567E-1,-1.1440868E0,-8.4307516E-1,-1.0674864E0,-4.472565E-1,-8.8709605E-1,1.9792499E-1,-4.290108E-1,-3.600506E-1,2.0340624E-1,6.3570476E-1,1.1430817E0,5.163687E-1,9.681349E-1,1.0519844E0,1.2441003E0,-1.20817244E-1,-1.07090436E-1,-1.0682591E-1,-7.0461094E-2,-1.0967713E-1,-1.7654721E-3,-7.709394E-2,-2.6323382E-2,-6.9908485E-2,-1.0963601E-1,-2.3490326E-2,4.665009E-2,-5.8828667E-3,-5.7478614E-2,-1.7037624E-2,-9.181027E-2,4.0598292E-2,-2.2565937E-2,8.375265E-2,2.3150514E-4,1.2736859E-2,1.15462594E-1,-3.3433717E-3,6.0255926E-2,8.384188E-2,1.1744191E-1,8.977058E-2,1.1776443E-1,8.55127E-2,1.2495798E-1],"categories":[],"categories_nodes":[],"categories_segments":[],"categories_sizes":[],"default_left":[0,0,0,0,0,0,0,0,0,0,0,0,0,0,0,0,0,0,0,0,0,0,0,0,0,0,0,0,0,0,0,0,0,0,0,0,0,0,0,0,0,0,0,0,0,0,0,0,0,0,0,0,0,0,0,0,0,0,0,0,0],"id":8,"left_children":[1,3,5,7,9,11,13,15,17,19,21,23,25,27,29,-1,31,33,35,37,39,41,43,45,47,49,51,53,55,57,59,-1,-1,-1,-1,-1,-1,-1,-1,-1,-1,-1,-1,-1,-1,-1,-1,-1,-1,-1,-1,-1,-1,-1,-1,-1,-1,-1,-1,-1,-1],"loss_changes":[7.939314E3,5.416865E2,8.057822E2,5.1518555E1,5.4534485E1,1.7869475E2,1.642085E2,6.2802734E0,1.1014465E1,3.5584686E1,6.462723E1,7.011448E1,2.6038757E1,3.98385E1,2.2170898E1,0E0,4.5461426E0,1.855252E1,1.1693268E1,3.3097572E1,1.0179062E1,2.8765285E1,2.6674004E1,2.8866745E1,9.880879E1,5.5853836E1,1.4406433E0,2.5498795E1,7.3673096E0,1.703418E1,3.244629E0,0E0,0E0,0E0,0E0,0E0,0E0,0E0,0E0,0E0,0E0,0E0,0E0,0E0,0E0,0E0,0E0,0E0,0E0,0E0,0E0,0E0,0E0,0E0,0E0,0E0,0E0,0E0,0E0,0E0,0E0],"parents":[2147483647,0,0,1,1,2,2,3,3,4,4,5,5,6,6,7,7,8,8,9,9,10,10,11,11,12,12,13,13,14,14,16,16,17,17,18,18,19,19,20,20,21,21,22,22,23,23,24,24,25,25,26,26,27,27,28,28,29,29,30,30],"right_children":[2,4,6,8,10,12,14,16,18,20,22,24,26,28,30,-1,32,34,36,38,40,42,44,46,48,50,52,54,56,58,60,-1,-1,-1,-1,-1,-1,-1,-1,-1,-1,-1,-1,-1,-1,-1,-1,-1,-1,-1,-1,-1,-1,-1,-1,-1,-1,-1,-1,-1,-1],"split_conditions":[8.163265E-2,5.5194806E-2,1.2857144E-1,4.2207792E-2,3.4831363E-1,5.152649E-1,4.8652568E-1,2.6785715E-2,5.882353E-2,5.882353E-2,1.6409944E-1,3.220621E-1,5.6587636E-1,2E-1,1.875E-1,-1.2543567E-1,3.2263768E-1,3.121943E-1,6.1214274E-1,3.0973274E-1,3.3583868E-1,6.4935066E-2,5.882353E-2,5.882353E-2,1.764706E-1,5.446085E-1,3.4893933E-1,3.174486E-1,2.9464287E-1,5.301771E-1,3.3767608E-1,-1.20817244E-1,-1.07090436E-1,-1.0682591E-1,-7.0461094E-2,-1.0967713E-1,-1.7654721E-3,-7.709394E-2,-2.6323382E-2,-6.9908485E-2,-1.0963601E-1,-2.3490326E-2,4.665009E-2,-5.8828667E-3,-5.7478614E-2,-1.7037624E-2,-9.181027E-2,4.0598292E-2,-2.2565937E-2,8.375265E-2,2.3150514E-4,1.2736859E-2,1.15462594E-1,-3.3433717E-3,6.0255926E-2,8.384188E-2,1.1744191E-1,8.977058E-2,1.1776443E-1,8.55127E-2,1.2495798E-1],"split_indices":[0,0,0,0,1,2,2,0,8,8,6,1,2,0,0,0,1,1,3,1,5,0,8,8,8,3,1,1,0,2,1,0,0,0,0,0,0,0,0,0,0,0,0,0,0,0,0,0,0,0,0,0,0,0,0,0,0,0,0,0,0],"split_type":[0,0,0,0,0,0,0,0,0,0,0,0,0,0,0,0,0,0,0,0,0,0,0,0,0,0,0,0,0,0,0,0,0,0,0,0,0,0,0,0,0,0,0,0,0,0,0,0,0,0,0,0,0,0,0,0,0,0,0,0,0],"sum_hessian":[1.08928125E4,5.111993E3,5.7808193E3,3.5373E3,1.5746934E3,1.9782892E3,3.8025303E3,2.5391738E3,9.9812616E2,8.352623E2,7.394311E2,1.4079379E3,5.7035144E2,8.477872E2,2.9547432E3,1.2949728E3,1.244201E3,6.181544E2,3.799717E2,5.5806177E2,2.7720056E2,2.4550656E2,4.9392453E2,2.7319617E2,1.1347417E3,4.3594742E2,1.34404E2,5.366628E2,3.1112442E2,9.3219025E2,2.0225529E3,6.550591E2,5.89142E2,2.3281427E2,3.8534015E2,3.6961664E2,1.0355085E1,2.0111877E2,3.5694296E2,1.4830132E2,1.2889925E2,9.405536E1,1.514512E2,1.3994684E2,3.539777E2,2.048692E2,6.832696E1,7.708504E2,3.6389124E2,3.3036002E2,1.0558738E2,1.6456412E0,1.3275836E2,7.2812164E1,4.6385062E2,1.9412111E2,1.17003296E2,4.2210068E2,5.1008957E2,3.027735E1,1.9922755E3],"tree_param":{"num_deleted":"0","num_feature":"10","num_nodes":"61","size_leaf_vector":"1"}},{"base_weights":[4.2011117E-4,-7.4561316E-1,8.7643176E-1,-1.0788991E0,-2.6316267E-1,4.5630646E-1,1.0677375E0,-1.1695498E0,-8.9770764E-1,-4.6995643E-1,-2.3550434E-2,2.4329776E-1,8.048616E-1,7.8173935E-1,1.1816092E0,-1.2173919E-1,-1.1113182E0,-8.245699E-1,-1.026655E0,-3.9508936E-1,-8.2932013E-1,-2.3495375E-1,2.7999982E-1,4.9727765E-1,7.8340925E-2,7.087262E-1,1.1394656E0,8.5913634E-1,3.034233E-1,1.0823008E0,1.22386254E-1,-1.1702006E-1,-1.03890695E-1,-9.69746E-2,-6.37651E-2,-1.03595875E-1,8.765113E-2,-6.562807E-2,-2.0684225E-2,-9.786441E-2,-5.1317334E-2,-2.8613643E-3,-4.3533985E-2,6.672158E-2,5.738408E-3,5.8124205E-3,7.6461844E-2,-5.4674245E-2,2.1874834E-2,8.3044715E-2,3.1370085E-2,9.324182E-3,1.15348615E-1,2.2687359E-2,9.208543E-2,-1.2828891E-1,4.7209155E-2,1.1343477E-1,8.632525E-2],"categories":[],"categories_nodes":[],"categories_segments":[],"categories_sizes":[],"default_left":[0,0,0,0,0,0,0,0,0,0,0,0,0,0,0,0,0,0,0,0,0,0,0,0,0,0,0,0,0,0,0,0,0,0,0,0,0,0,0,0,0,0,0,0,0,0,0,0,0,0,0,0,0,0,0,0,0,0,0],"id":9,"left_children":[1,3,5,7,9,11,13,15,17,19,21,23,25,27,29,-1,31,33,35,37,39,41,43,45,47,49,51,53,55,57,-1,-1,-1,-1,-1,-1,-1,-1,-1,-1,-1,-1,-1,-1,-1,-1,-1,-1,-1,-1,-1,-1,-1,-1,-1,-1,-1,-1,-1],"loss_changes":[6.8158037E3,9.0537744E2,3.8503662E2,5.3660156E1,1.14081985E2,1.1136163E2,1.0639014E2,4.822754E0,9.669312E0,3.292285E1,6.858163E1,3.909365E1,1.7511871E1,3.458734E1,8.556641E0,0E0,3.0961914E0,1.8826538E1,7.9813232E0,5.0247253E1,9.514008E0,2.6033321E1,3.7784473E1,4.3112587E1,4.992281E1,2.1138489E1,1.7327728E0,3.138617E1,3.6097332E1,7.1326904E0,0E0,0E0,0E0,0E0,0E0,0E0,0E0,0E0,0E0,0E0,0E0,0E0,0E0,0E0,0E0,0E0,0E0,0E0,0E0,0E0,0E0,0E0,0E0,0E0,0E0,0E0,0E0,0E0,0E0],"parents":[2147483647,0,0,1,1,2,2,3,3,4,4,5,5,6,6,7,7,8,8,9,9,10,10,11,11,12,12,13,13,14,14,16,16,17,17,18,18,19,19,20,20,21,21,22,22,23,23,24,24,25,25,26,26,27,27,28,28,29,29],"right_children":[2,4,6,8,10,12,14,16,18,20,22,24,26,28,30,-1,32,34,36,38,40,42,44,46,48,50,52,54,56,58,-1,-1,-1,-1,-1,-1,-1,-1,-1,-1,-1,-1,-1,-1,-1,-1,-1,-1,-1,-1,-1,-1,-1,-1,-1,-1,-1,-1,-1],"split_conditions":[9.6938774E-2,5.5194806E-2,4.9026653E-1,3.8961038E-2,7.5E-2,1.5714286E-1,1.4880952E-1,2.6785715E-2,1.1764706E-1,1.764706E-1,4.9227884E-1,5.882353E-2,2.9464287E-1,3.1109604E-1,5.2860653E-1,-1.2173919E-1,3.2263768E-1,3.271075E-1,6.21966E-1,3.3042058E-1,3.879549E-1,1.1764706E-1,1.5990084E-1,3.220621E-1,3.354131E-1,2.3529412E-1,2.938516E-1,3.436994E-1,3.7630522E-1,5.1363087E-1,1.22386254E-1,-1.1702006E-1,-1.03890695E-1,-9.69746E-2,-6.37651E-2,-1.03595875E-1,8.765113E-2,-6.562807E-2,-2.0684225E-2,-9.786441E-2,-5.1317334E-2,-2.8613643E-3,-4.3533985E-2,6.672158E-2,5.738408E-3,5.8124205E-3,7.6461844E-2,-5.4674245E-2,2.1874834E-2,8.3044715E-2,3.1370085E-2,9.324182E-3,1.15348615E-1,2.2687359E-2,9.208543E-2,-1.2828891E-1,4.7209155E-2,1.1343477E-1,8.632525E-2],"split_indices":[0,0,2,0,0,0,0,0,8,8,2,8,0,6,2,0,1,1,2,1,1,8,6,1,1,8,1,1,1,3,0,0,0,0,0,0,0,0,0,0,0,0,0,0,0,0,0,0,0,0,0,0,0,0,0,0,0,0,0],"split_type":[0,0,0,0,0,0,0,0,0,0,0,0,0,0,0,0,0,0,0,0,0,0,0,0,0,0,0,0,0,0,0,0,0,0,0,0,0,0,0,0,0,0,0,0,0,0,0,0,0,0,0,0,0,0,0,0,0,0,0],"sum_hessian":[1.0427152E4,5.631433E3,4.795719E3,3.3298633E3,2.3015696E3,1.501553E3,3.2941663E3,2.2158247E3,1.1140386E3,1.2348712E3,1.0666984E3,9.330477E2,5.6850525E2,9.4032513E2,2.353841E3,1.2055017E3,1.0103231E3,7.155689E2,3.9846964E2,1.0237007E3,2.111706E2,6.289211E2,4.3777728E2,3.6659543E2,5.6645233E2,4.440445E2,1.2446073E2,8.0867596E2,1.316492E2,7.1051953E2,1.6433215E3,5.4885376E2,4.6146942E2,4.0039917E2,3.1516974E2,3.969846E2,1.4850287E0,4.2773526E2,5.959654E2,1.4200334E2,6.9167244E1,3.1042023E2,3.185009E2,1.5907916E2,2.7869812E2,1.3918216E2,2.2741327E2,1.0336868E2,4.6308365E2,3.3860608E2,1.0543842E2,1.747025E0,1.2271371E2,7.2333954E1,7.36342E2,1.20176935E1,1.1963151E2,5.7073236E2,1.3978712E2],"tree_param":{"num_deleted":"0","num_feature":"10","num_nodes":"59","size_leaf_vector":"1"}},{"base_weights":[4.4922493E-4,-7.0127577E-1,8.303926E-1,-1.0369319E0,-2.3974223E-1,4.8520797E-1,1.063613E0,-1.1234016E0,-8.2589626E-1,-4.4289201E-1,-2.8783841E-2,2.7010655E-1,8.1101644E-1,5.0747925E-1,1.1159463E0,-1.1677728E0,-1.0341209E0,-7.4010086E-1,-9.663352E-1,-2.7603197E-1,-7.6826113E-1,1.6271058E-1,-4.2439216E-1,3.565713E-1,-2.4679217E-1,3.4966335E-1,8.770858E-1,-7.093872E-1,6.0130805E-1,9.5398647E-1,1.1766316E0,-1.11052595E-1,-1.18670106E-1,-1.16034985E-1,-9.52517E-2,-9.7239636E-2,-6.0294967E-2,-9.96893E-2,5.1865894E-3,-6.2341925E-2,-8.511294E-3,-5.400896E-2,-1.0387593E-1,4.83288E-2,-9.396532E-3,-7.482202E-2,-1.7889876E-2,-1.184849E-2,4.7727045E-2,-3.3046264E-2,1.3794586E-1,7.573391E-2,8.363802E-3,9.441566E-2,5.5479933E-2,9.235163E-2,-9.4562754E-2,8.194693E-2,1.9421965E-2,1.0274289E-1,6.453939E-2,1.073751E-1,1.1905052E-1],"categories":[],"categories_nodes":[],"categories_segments":[],"categories_sizes":[],"default_left":[0,0,0,0,0,0,0,0,0,0,0,0,0,0,0,0,0,0,0,0,0,0,0,0,0,0,0,0,0,0,0,0,0,0,0,0,0,0,0,0,0,0,0,0,0,0,0,0,0,0,0,0,0,0,0,0,0,0,0,0,0,0,0],"id":10,"left_children":[1,3,5,7,9,11,13,15,17,19,21,23,25,27,29,31,33,35,37,39,41,43,45,47,49,51,53,55,57,59,61,-1,-1,-1,-1,-1,-1,-1,-1,-1,-1,-1,-1,-1,-1,-1,-1,-1,-1,-1,-1,-1,-1,-1,-1,-1,-1,-1,-1,-1,-1,-1,-1],"loss_changes":[5.8120576E3,8.374656E2,3.6755713E2,5.6196533E1,9.761928E1,1.291081E2,7.8822754E1,7.5776367E0,1.029303E1,6.2791443E1,8.481494E1,4.9833237E1,2.2046509E1,2.7422882E1,2.3373291E1,2.791748E-1,6.5689697E0,1.7618835E1,1.0730133E1,5.092591E1,2.368428E1,6.2129845E1,2.8894554E1,5.4754204E1,2.2239618E1,1.0079914E1,1.3328064E1,7.579694E0,1.9384346E1,1.4852417E1,1.3032227E0,0E0,0E0,0E0,0E0,0E0,0E0,0E0,0E0,0E0,0E0,0E0,0E0,0E0,0E0,0E0,0E0,0E0,0E0,0E0,0E0,0E0,0E0,0E0,0E0,0E0,0E0,0E0,0E0,0E0,0E0,0E0,0E0],"parents":[2147483647,0,0,1,1,2,2,3,3,4,4,5,5,6,6,7,7,8,8,9,9,10,10,11,11,12,12,13,13,14,14,15,15,16,16,17,17,18,18,19,19,20,20,21,21,22,22,23,23,24,24,25,25,26,26,27,27,28,28,29,29,30,30],"right_children":[2,4,6,8,10,12,14,16,18,20,22,24,26,28,30,32,34,36,38,40,42,44,46,48,50,52,54,56,58,60,62,-1,-1,-1,-1,-1,-1,-1,-1,-1,-1,-1,-1,-1,-1,-1,-1,-1,-1,-1,-1,-1,-1,-1,-1,-1,-1,-1,-1,-1,-1,-1,-1],"split_conditions":[9.6938774E-2,5.5194806E-2,5.033254E-1,4.2207792E-2,3.5004264E-1,1.5714286E-1,1.1309524E-1,3.021978E-2,5.882353E-2,5.882353E-2,1.764706E-1,2.3529412E-1,4.3540442E-1,3.414638E-1,1.6666667E-1,4.4913474E-1,3.1399426E-1,3.121943E-1,6.1214274E-1,3.1150123E-1,4.0398344E-1,1.7704347E-1,3.8449866E-1,3.220621E-1,4.6893132E-1,3.1890774E-1,4.605306E-1,2.9068676E-1,1.764706E-1,2.8823054E-1,1.8571429E-1,-1.11052595E-1,-1.18670106E-1,-1.16034985E-1,-9.52517E-2,-9.7239636E-2,-6.0294967E-2,-9.96893E-2,5.1865894E-3,-6.2341925E-2,-8.511294E-3,-5.400896E-2,-1.0387593E-1,4.83288E-2,-9.396532E-3,-7.482202E-2,-1.7889876E-2,-1.184849E-2,4.7727045E-2,-3.3046264E-2,1.3794586E-1,7.573391E-2,8.363802E-3,9.441566E-2,5.5479933E-2,9.235163E-2,-9.4562754E-2,8.194693E-2,1.9421965E-2,1.0274289E-1,6.453939E-2,1.073751E-1,1.1905052E-1],"split_indices":[0,0,2,0,1,0,0,0,8,8,8,8,2,1,0,2,1,1,3,1,3,6,1,1,1,5,5,5,8,6,0,0,0,0,0,0,0,0,0,0,0,0,0,0,0,0,0,0,0,0,0,0,0,0,0,0,0,0,0,0,0,0,0],"split_type":[0,0,0,0,0,0,0,0,0,0,0,0,0,0,0,0,0,0,0,0,0,0,0,0,0,0,0,0,0,0,0,0,0,0,0,0,0,0,0,0,0,0,0,0,0,0,0,0,0,0,0,0,0,0,0,0,0,0,0,0,0,0,0],"sum_hessian":[9.977631E3,5.406521E3,4.5711094E3,3.1293877E3,2.2771335E3,1.8443727E3,2.7267368E3,2.2167654E3,9.1262225E2,1.159476E3,1.1176575E3,1.1120303E3,7.3234247E2,2.354424E2,2.4912944E3,1.4727512E3,7.440143E2,5.7041846E2,3.422038E2,7.676487E2,3.918273E2,7.535095E2,3.6414795E2,9.5293695E2,1.590933E2,9.252756E1,6.3981494E2,1.638499E1,2.1905742E2,6.835967E2,1.8076978E3,3.8078076E2,1.0919705E3,2.8694098E2,4.5707333E2,2.0949797E2,3.6092047E2,3.322533E2,9.950488E0,2.7145557E2,4.9619308E2,2.1416812E2,1.7765916E2,3.346557E2,4.188538E2,1.5613884E2,2.0800912E2,1.930673E2,7.598696E2,1.520663E2,7.027004E0,3.5807217E1,5.6720345E1,5.280031E2,1.1181182E2,1.7031969E0,1.4681794E1,1.4196465E2,7.709276E1,5.5030054E2,1.3329613E2,2.2411908E2,1.5835787E3],"tree_param":{"num_deleted":"0","num_feature":"10","num_nodes":"63","size_leaf_vector":"1"}},{"base_weights":[4.5457567E-4,-8.2732636E-1,6.3341546E-1,-1.0326151E0,-4.552566E-1,1.436919E-1,9.2022324E-1,-1.1008093E0,-8.5498726E-1,-3.1965894E-1,-6.392081E-1,3.541459E-2,6.8744904E-1,5.964593E-1,1.0949349E0,-1.1566947E-1,-1.0340298E0,-8.6855173E-1,-1.368333E-1,-6.6847295E-1,-1.4405155E-1,-7.638102E-1,-2.3870662E-1,2.4973774E-1,-1.2720554E-1,8.901193E-1,4.1765067E-1,4.4964576E-1,8.8490146E-1,9.601602E-1,1.1621702E0,-1.1006572E-1,-9.5383786E-2,-9.8806374E-2,-7.9454996E-2,5.9435338E-2,-5.6145098E-2,-4.129699E-2,-9.595673E-2,8.379339E-3,-3.7443653E-2,3.273556E-2,-7.8558296E-2,4.6078138E-2,-3.935888E-2,-2.4886992E-2,4.415646E-2,-5.9973624E-2,4.1620405E-3,6.47188E-2,1.07082956E-1,1.2684221E-2,8.195851E-2,5.3840052E-2,3.836849E-3,7.745274E-2,1.1453561E-1,8.3376326E-2,1.11066096E-1,1.2570473E-2,1.1634489E-1],"categories":[],"categories_nodes":[],"categories_segments":[],"categories_sizes":[],"default_left":[0,0,0,0,0,0,0,0,0,0,0,0,0,0,0,0,0,0,0,0,0,0,0,0,0,0,0,0,0,0,0,0,0,0,0,0,0,0,0,0,0,0,0,0,0,0,0,0,0,0,0,0,0,0,0,0,0,0,0,0,0],"id":11,"left_children":[1,3,5,7,9,11,13,15,17,19,21,23,25,27,29,-1,31,33,35,37,39,41,43,45,47,49,51,53,55,57,59,-1,-1,-1,-1,-1,-1,-1,-1,-1,-1,-1,-1,-1,-1,-1,-1,-1,-1,-1,-1,-1,-1,-1,-1,-1,-1,-1,-1,-1,-1],"loss_changes":[5.0051646E3,3.1569873E2,7.602117E2,3.1361572E1,3.6552002E1,1.17763306E2,1.9244897E2,5.9821777E0,7.1313477E0,5.1987396E1,3.0972473E1,5.8216568E1,1.779103E1,5.03638E1,1.8965332E1,0E0,3.6827393E0,5.673645E0,4.9858723E0,2.0759941E1,2.9785686E1,1.1558899E1,1.6388313E1,6.902844E1,7.58009E1,7.5951233E0,1.6770784E1,2.9050476E1,1.0706543E1,1.3214294E1,1.8070068E0,0E0,0E0,0E0,0E0,0E0,0E0,0E0,0E0,0E0,0E0,0E0,0E0,0E0,0E0,0E0,0E0,0E0,0E0,0E0,0E0,0E0,0E0,0E0,0E0,0E0,0E0,0E0,0E0,0E0,0E0],"parents":[2147483647,0,0,1,1,2,2,3,3,4,4,5,5,6,6,7,7,8,8,9,9,10,10,11,11,12,12,13,13,14,14,16,16,17,17,18,18,19,19,20,20,21,21,22,22,23,23,24,24,25,25,26,26,27,27,28,28,29,29,30,30],"right_children":[2,4,6,8,10,12,14,16,18,20,22,24,26,28,30,-1,32,34,36,38,40,42,44,46,48,50,52,54,56,58,60,-1,-1,-1,-1,-1,-1,-1,-1,-1,-1,-1,-1,-1,-1,-1,-1,-1,-1,-1,-1,-1,-1,-1,-1,-1,-1,-1,-1,-1,-1],"split_conditions":[7.5E-2,5.102041E-2,1.2142857E-1,3.8961038E-2,1.7301899E-1,5.334189E-1,5.0261647E-1,2.6785715E-2,4.7861663E-1,3.1688145E-1,3.879549E-1,5.882353E-2,2.2097859E-1,2E-1,1.875E-1,-1.1566947E-1,3.2263768E-1,3.2092357E-1,3.39145E-1,3.764771E-1,4.4596583E-1,3.091694E-1,5.882353E-2,3.186357E-1,3.471247E-1,3.8723826E-1,5.647861E-1,2.3529412E-1,3.3333334E-1,5.4656386E-1,3.232444E-1,-1.1006572E-1,-9.5383786E-2,-9.8806374E-2,-7.9454996E-2,5.9435338E-2,-5.6145098E-2,-4.129699E-2,-9.595673E-2,8.379339E-3,-3.7443653E-2,3.273556E-2,-7.8558296E-2,4.6078138E-2,-3.935888E-2,-2.4886992E-2,4.415646E-2,-5.9973624E-2,4.1620405E-3,6.47188E-2,1.07082956E-1,1.2684221E-2,8.195851E-2,5.3840052E-2,3.836849E-3,7.745274E-2,1.1453561E-1,8.3376326E-2,1.11066096E-1,1.2570473E-2,1.1634489E-1],"split_indices":[0,0,0,0,6,2,2,0,4,1,1,8,6,0,0,0,1,1,7,3,3,3,8,1,1,1,2,8,0,2,1,0,0,0,0,0,0,0,0,0,0,0,0,0,0,0,0,0,0,0,0,0,0,0,0,0,0,0,0,0,0],"split_type":[0,0,0,0,0,0,0,0,0,0,0,0,0,0,0,0,0,0,0,0,0,0,0,0,0,0,0,0,0,0,0,0,0,0,0,0,0,0,0,0,0,0,0,0,0,0,0,0,0,0,0,0,0,0,0,0,0,0,0,0,0],"sum_hessian":[9.550699E3,4.138325E3,5.412374E3,2.6657356E3,1.4725895E3,1.9995865E3,3.4127876E3,1.9224703E3,7.4326514E2,8.492861E2,6.233034E2,1.668422E3,3.3116452E2,1.1977015E3,2.215086E3,1.0377202E3,8.847502E2,7.2928107E2,1.3984056E1,2.8345154E2,5.6583453E2,4.7470755E2,1.4859589E2,7.195562E2,9.488658E2,1.8779517E2,1.4336934E2,7.9540753E2,4.02294E2,7.423355E2,1.4727504E3,4.7629578E2,4.084544E2,2.741616E2,4.5511948E2,4.9905863E0,8.993469E0,1.5224222E2,1.3120932E2,2.8480542E2,2.810291E2,9.012266E0,4.6569528E2,2.6579763E1,1.2201613E2,1.9983525E2,5.19721E2,2.491005E2,6.997653E2,8.206086E1,1.057343E2,8.3947235E1,5.9422108E1,6.539699E2,1.4143764E2,2.8534555E2,1.16948456E2,4.070323E2,3.3530322E2,1.937263E0,1.4708131E3],"tree_param":{"num_deleted":"0","num_feature":"10","num_nodes":"61","size_leaf_vector":"1"}},{"base_weights":[4.754284E-4,-7.8494644E-1,5.9507287E-1,-1.0323217E0,-4.6855003E-1,1.8977277E-1,9.268119E-1,-1.1106356E0,-9.262322E-1,-5.783364E-1,-2.4239457E-1,5.408693E-2,6.000262E-1,5.288709E-1,1.0538707E0,-1.04565E0,-1.1322502E0,-1.0710838E0,-8.4405345E-1,-5.2238977E-1,-9.5000654E-1,-3.3811966E-1,1.03525326E-1,2.667688E-1,-8.8334344E-2,9.0161496E-1,4.292014E-1,3.7619898E-1,7.8384596E-1,9.0110004E-1,1.1204305E0,-1.058717E-1,-2.1385863E-2,-1.13702275E-1,-6.78574E-2,-6.4479485E-2,-1.08954825E-1,-8.362054E-3,-8.904559E-2,-7.09923E-2,-3.837831E-2,-1.0110191E-1,-3.837025E-2,-1.5511508E-2,-6.5451704E-2,6.1510254E-2,-6.586971E-3,-5.3677667E-2,3.9879266E-2,-3.7997086E-2,7.000492E-3,9.831396E-2,5.119272E-2,2.444726E-2,8.927842E-2,5.3010672E-2,1.1819406E-2,6.450709E-2,1.0263633E-1,7.391675E-2,1.0490244E-1,6.414236E-2,1.1277356E-1],"categories":[],"categories_nodes":[],"categories_segments":[],"categories_sizes":[],"default_left":[0,0,0,0,0,0,0,0,0,0,0,0,0,0,0,0,0,0,0,0,0,0,0,0,0,0,0,0,0,0,0,0,0,0,0,0,0,0,0,0,0,0,0,0,0,0,0,0,0,0,0,0,0,0,0,0,0,0,0,0,0,0,0],"id":12,"left_children":[1,3,5,7,9,11,13,15,17,19,21,23,25,27,29,31,33,35,37,39,41,43,45,47,49,51,53,55,57,59,61,-1,-1,-1,-1,-1,-1,-1,-1,-1,-1,-1,-1,-1,-1,-1,-1,-1,-1,-1,-1,-1,-1,-1,-1,-1,-1,-1,-1,-1,-1,-1,-1],"loss_changes":[4.2709805E3,3.0792505E2,6.9965405E2,1.7337402E1,4.2833984E1,1.304479E2,1.4415015E2,5.95459E-1,1.03428955E1,2.3717224E1,1.8822014E1,5.3411423E1,2.9621292E1,2.6746323E1,2.1038574E1,3.3520508E0,1.260498E0,1.9602356E0,2.1363281E1,2.6093506E1,4.833847E0,2.5642849E1,1.0763511E1,7.52334E1,4.8807808E1,6.1591034E0,3.1789322E1,1.7266953E1,8.062698E0,1.5109009E1,4.547119E0,0E0,0E0,0E0,0E0,0E0,0E0,0E0,0E0,0E0,0E0,0E0,0E0,0E0,0E0,0E0,0E0,0E0,0E0,0E0,0E0,0E0,0E0,0E0,0E0,0E0,0E0,0E0,0E0,0E0,0E0,0E0,0E0],"parents":[2147483647,0,0,1,1,2,2,3,3,4,4,5,5,6,6,7,7,8,8,9,9,10,10,11,11,12,12,13,13,14,14,15,15,16,16,17,17,18,18,19,19,20,20,21,21,22,22,23,23,24,24,25,25,26,26,27,27,28,28,29,29,30,30],"right_children":[2,4,6,8,10,12,14,16,18,20,22,24,26,28,30,32,34,36,38,40,42,44,46,48,50,52,54,56,58,60,62,-1,-1,-1,-1,-1,-1,-1,-1,-1,-1,-1,-1,-1,-1,-1,-1,-1,-1,-1,-1,-1,-1,-1,-1,-1,-1,-1,-1,-1,-1,-1,-1],"split_conditions":[7.5E-2,4.761905E-2,1.3265306E-1,3.021978E-2,6.4935066E-2,5.191344E-1,4.8652568E-1,4.4913474E-1,3.1399426E-1,1.764706E-1,3.7972632E-1,1.515739E-1,1.1764706E-1,2E-1,1.875E-1,3.4485042E-1,4.659115E-1,3.8575885E-1,8.115003E-2,3.271075E-1,5.354457E-1,1.7301899E-1,1.1764706E-1,3.0449024E-1,3.5063365E-1,5.678089E-1,5.647861E-1,1.764706E-1,2.9464287E-1,5.3175706E-1,3.3767608E-1,-1.058717E-1,-2.1385863E-2,-1.13702275E-1,-6.78574E-2,-6.4479485E-2,-1.08954825E-1,-8.362054E-3,-8.904559E-2,-7.09923E-2,-3.837831E-2,-1.0110191E-1,-3.837025E-2,-1.5511508E-2,-6.5451704E-2,6.1510254E-2,-6.586971E-3,-5.3677667E-2,3.9879266E-2,-3.7997086E-2,7.000492E-3,9.831396E-2,5.119272E-2,2.444726E-2,8.927842E-2,5.3010672E-2,1.1819406E-2,6.450709E-2,1.0263633E-1,7.391675E-2,1.0490244E-1,6.414236E-2,1.1277356E-1],"split_indices":[0,0,0,0,0,2,2,2,1,8,1,6,8,0,0,1,4,2,6,1,2,6,8,1,1,3,2,8,0,2,1,0,0,0,0,0,0,0,0,0,0,0,0,0,0,0,0,0,0,0,0,0,0,0,0,0,0,0,0,0,0,0,0],"split_type":[0,0,0,0,0,0,0,0,0,0,0,0,0,0,0,0,0,0,0,0,0,0,0,0,0,0,0,0,0,0,0,0,0,0,0,0,0,0,0,0,0,0,0,0,0,0,0,0,0,0,0,0,0,0,0,0,0,0,0,0,0,0,0],"sum_hessian":[9.143375E3,3.939392E3,5.2039834E3,2.2095715E3,1.7298207E3,2.3430042E3,2.8609792E3,1.2657443E3,9.438272E2,1.163464E3,5.6635675E2,1.7615326E3,5.8147156E2,6.9365485E2,2.1673242E3,3.2824088E2,9.3750336E2,3.3728387E2,6.0654333E2,1.0133346E3,1.5012935E2,4.4361847E2,1.22738304E2,7.0614795E2,1.0553845E3,2.0871324E2,3.7275833E2,4.3541565E2,2.582392E2,6.621258E2,1.5051985E3,3.2289557E2,5.345322E0,9.262532E2,1.1250153E1,1.5494032E1,3.2178983E2,3.5044502E1,5.7149884E2,4.2890686E2,5.8442773E2,1.3481891E2,1.5310442E1,2.819998E2,1.616187E2,2.9877213E1,9.286109E1,9.92162E1,6.0693176E2,3.7088037E2,6.845042E2,1.7134427E2,3.736898E1,2.6763736E2,1.05120964E2,2.7206564E2,1.6335E2,1.6657837E2,9.166084E1,3.189588E2,3.43167E2,2.3944237E1,1.4812543E3],"tree_param":{"num_deleted":"0","num_feature":"10","num_nodes":"63","size_leaf_vector":"1"}},{"base_weights":[4.8396297E-4,-5.8878213E-1,7.1202356E-1,-9.2759657E-1,-1.9029379E-1,4.335934E-1,1.0065063E0,-1.0428822E0,-7.2101235E-1,-3.1151107E-1,4.90217E-2,2.4352667E-1,7.697599E-1,7.489104E-1,1.0995765E0,-1.1080215E0,-9.668237E-1,-6.3914675E-1,-8.6945385E-1,-1.4422879E-1,-5.7834864E-1,3.245847E-1,-3.1673124E-1,3.2622036E-1,-2.3040743E-1,3.564458E-1,8.655426E-1,8.8285077E-1,5.0492996E-1,9.953786E-1,1.1250993E0,-1.0023607E-1,-1.1231442E-1,-1.04228176E-1,-8.782883E-2,-7.967435E-2,-4.51228E-2,-9.302339E-2,-4.2293094E-2,-5.0210584E-2,-2.165119E-4,-4.4955052E-2,-9.353976E-2,5.134089E-2,-6.2734606E-3,-7.63519E-2,-1.6664226E-2,6.2267478E-3,4.9274165E-2,-7.367483E-2,-7.8142306E-4,6.925484E-2,1.2837245E-2,9.316881E-2,5.8516473E-2,-6.635226E-2,8.970807E-2,9.138602E-3,7.875924E-2,1.0722744E-1,7.801264E-2,3.1113306E-2,1.12591974E-1],"categories":[],"categories_nodes":[],"categories_segments":[],"categories_sizes":[],"default_left":[0,0,0,0,0,0,0,0,0,0,0,0,0,0,0,0,0,0,0,0,0,0,0,0,0,0,0,0,0,0,0,0,0,0,0,0,0,0,0,0,0,0,0,0,0,0,0,0,0,0,0,0,0,0,0,0,0,0,0,0,0,0,0],"id":13,"left_children":[1,3,5,7,9,11,13,15,17,19,21,23,25,27,29,31,33,35,37,39,41,43,45,47,49,51,53,55,57,59,61,-1,-1,-1,-1,-1,-1,-1,-1,-1,-1,-1,-1,-1,-1,-1,-1,-1,-1,-1,-1,-1,-1,-1,-1,-1,-1,-1,-1,-1,-1,-1,-1],"loss_changes":[3.6748765E3,6.4711E2,3.2510596E2,6.0952637E1,6.396199E1,1.3032043E2,4.54187E1,7.156128E0,1.0760773E1,6.523657E1,7.4888306E1,5.127038E1,2.887909E1,1.6385773E1,2.642456E0,2.927246E-1,4.255188E0,1.752771E1,8.514877E0,4.5796898E1,2.5495651E1,3.1017662E1,2.1286705E1,4.8873924E1,2.193295E1,1.0674639E1,1.0542664E1,7.882721E0,2.1539265E1,3.9143677E0,4.0356445E-1,0E0,0E0,0E0,0E0,0E0,0E0,0E0,0E0,0E0,0E0,0E0,0E0,0E0,0E0,0E0,0E0,0E0,0E0,0E0,0E0,0E0,0E0,0E0,0E0,0E0,0E0,0E0,0E0,0E0,0E0,0E0,0E0],"parents":[2147483647,0,0,1,1,2,2,3,3,4,4,5,5,6,6,7,7,8,8,9,9,10,10,11,11,12,12,13,13,14,14,15,15,16,16,17,17,18,18,19,19,20,20,21,21,22,22,23,23,24,24,25,25,26,26,27,27,28,28,29,29,30,30],"right_children":[2,4,6,8,10,12,14,16,18,20,22,24,26,28,30,32,34,36,38,40,42,44,46,48,50,52,54,56,58,60,62,-1,-1,-1,-1,-1,-1,-1,-1,-1,-1,-1,-1,-1,-1,-1,-1,-1,-1,-1,-1,-1,-1,-1,-1,-1,-1,-1,-1,-1,-1,-1,-1],"split_conditions":[9.6938774E-2,5.5194806E-2,5.152649E-1,3.8961038E-2,3.6650982E-1,1.6428572E-1,1.4880952E-1,2.6785715E-2,1.1764706E-1,5.882353E-2,2.2995159E-1,2.3529412E-1,4.5129785E-1,2.3412777E-1,5.3407204E-1,6.425445E-2,3.2263768E-1,3.271075E-1,3.9567247E-1,3.1150123E-1,4.5006263E-1,1.764706E-1,6.696428E-2,3.414638E-1,3.7433496E-1,3.2372653E-1,4.5898613E-1,3.2431877E-1,5.440319E-1,5.112209E-1,3.3324438E-1,-1.0023607E-1,-1.1231442E-1,-1.04228176E-1,-8.782883E-2,-7.967435E-2,-4.51228E-2,-9.302339E-2,-4.2293094E-2,-5.0210584E-2,-2.165119E-4,-4.4955052E-2,-9.353976E-2,5.134089E-2,-6.2734606E-3,-7.63519E-2,-1.6664226E-2,6.2267478E-3,4.9274165E-2,-7.367483E-2,-7.8142306E-4,6.925484E-2,1.2837245E-2,9.316881E-2,5.8516473E-2,-6.635226E-2,8.970807E-2,9.138602E-3,7.875924E-2,1.0722744E-1,7.801264E-2,3.1113306E-2,1.12591974E-1],"split_indices":[0,0,2,0,1,0,0,0,8,8,6,8,2,6,2,6,1,1,1,1,3,8,0,1,1,5,5,1,2,3,1,0,0,0,0,0,0,0,0,0,0,0,0,0,0,0,0,0,0,0,0,0,0,0,0,0,0,0,0,0,0,0,0],"split_type":[0,0,0,0,0,0,0,0,0,0,0,0,0,0,0,0,0,0,0,0,0,0,0,0,0,0,0,0,0,0,0,0,0,0,0,0,0,0,0,0,0,0,0,0,0,0,0,0,0,0,0,0,0,0,0,0,0,0,0,0,0,0,0],"sum_hessian":[8.762604E3,4.793231E3,3.9693723E3,2.5898687E3,2.203362E3,2.0415668E3,1.9278055E3,1.6596448E3,9.302238E2,1.4623539E3,7.4100824E2,1.3052882E3,7.362785E2,5.1405884E2,1.4137467E3,8.8668634E2,7.7295844E2,6.029835E2,3.2724033E2,8.998023E2,5.6255164E2,4.2267328E2,3.1833496E2,1.1116375E3,1.9365076E2,1.394135E2,5.96865E2,3.301788E2,1.8388002E2,2.8602835E2,1.1277184E3,1.19441376E2,7.6724493E2,4.1148282E2,3.6147565E2,3.261883E2,2.7679523E2,2.8708014E2,4.01602E1,2.5496858E2,6.4483374E2,4.150793E2,1.474723E2,2.8392828E2,1.3874501E2,7.901991E1,2.3931505E2,4.3054868E2,6.810888E2,5.842941E1,1.3522134E2,5.553591E1,8.3877594E1,4.8105402E2,1.1581099E2,2.5945837E0,3.2758423E2,7.5193245E1,1.08686775E2,2.0780978E2,7.8218575E1,1.5183874E0,1.1262E3],"tree_param":{"num_deleted":"0","num_feature":"10","num_nodes":"63","size_leaf_vector":"1"}},{"base_weights":[4.7771816E-4,-5.371029E-1,6.946042E-1,-9.293949E-1,-1.9342864E-1,4.23871E-1,9.8531383E-1,-1.0162697E0,-7.2888047E-1,-4.530114E-1,-7.058974E-2,2.4435756E-1,7.301788E-1,7.2324955E-1,1.0777234E0,-1.0866616E0,-9.3518615E-1,-8.2869226E-1,-6.0716057E-1,-3.6648056E-1,-7.47903E-1,-2.743748E-1,6.555077E-2,4.7547206E-1,9.367417E-2,3.279079E-1,8.270135E-1,8.2855046E-1,3.7325624E-1,9.665393E-1,1.1052916E0,-9.750669E-2,-1.1027893E-1,-1.0153615E-1,-8.4253706E-2,-2.2396578E-2,-8.5466094E-2,-7.343969E-2,-4.1504737E-2,-4.5553204E-2,1.3811171E-2,-1.0181778E-1,-6.1533023E-2,-6.816628E-3,-6.0781926E-2,4.303177E-2,-1.22644855E-2,-3.7126668E-2,5.7195105E-2,-4.2895157E-2,2.2781057E-2,5.001855E-2,-1.1006309E-2,7.534628E-2,1.1031895E-1,9.048924E-2,4.8448186E-2,-1.7583853E-2,9.293548E-2,1.0474602E-1,7.450527E-2,1.1112052E-1,8.589112E-2],"categories":[],"categories_nodes":[],"categories_segments":[],"categories_sizes":[],"default_left":[0,0,0,0,0,0,0,0,0,0,0,0,0,0,0,0,0,0,0,0,0,0,0,0,0,0,0,0,0,0,0,0,0,0,0,0,0,0,0,0,0,0,0,0,0,0,0,0,0,0,0,0,0,0,0,0,0,0,0,0,0,0,0],"id":14,"left_children":[1,3,5,7,9,11,13,15,17,19,21,23,25,27,29,31,33,35,37,39,41,43,45,47,49,51,53,55,57,59,61,-1,-1,-1,-1,-1,-1,-1,-1,-1,-1,-1,-1,-1,-1,-1,-1,-1,-1,-1,-1,-1,-1,-1,-1,-1,-1,-1,-1,-1,-1,-1,-1],"loss_changes":[3.1360366E3,6.383579E2,2.8827502E2,3.778125E1,8.050784E1,1.0435257E2,4.203711E1,7.775635E0,7.661255E0,2.0423828E1,4.761634E1,4.1748924E1,2.7072021E1,1.6789566E1,2.9317627E0,3.97583E-1,4.5150757E0,5.5640564E0,7.1877365E0,2.8330406E1,5.9325867E0,4.721793E1,7.071486E1,3.888507E1,5.111188E1,1.0455794E1,1.0647461E1,8.908096E0,3.34843E1,4.0097046E0,5.5908203E-1,0E0,0E0,0E0,0E0,0E0,0E0,0E0,0E0,0E0,0E0,0E0,0E0,0E0,0E0,0E0,0E0,0E0,0E0,0E0,0E0,0E0,0E0,0E0,0E0,0E0,0E0,0E0,0E0,0E0,0E0,0E0,0E0],"parents":[2147483647,0,0,1,1,2,2,3,3,4,4,5,5,6,6,7,7,8,8,9,9,10,10,11,11,12,12,13,13,14,14,15,15,16,16,17,17,18,18,19,19,20,20,21,21,22,22,23,23,24,24,25,25,26,26,27,27,28,28,29,29,30,30],"right_children":[2,4,6,8,10,12,14,16,18,20,22,24,26,28,30,32,34,36,38,40,42,44,46,48,50,52,54,56,58,60,62,-1,-1,-1,-1,-1,-1,-1,-1,-1,-1,-1,-1,-1,-1,-1,-1,-1,-1,-1,-1,-1,-1,-1,-1,-1,-1,-1,-1,-1,-1,-1,-1],"split_conditions":[9.920635E-2,5.1587302E-2,5.152649E-1,3.8961038E-2,6.4935066E-2,1.6428572E-1,1.4880952E-1,2.6785715E-2,1.5844785E-1,2.1628149E-1,3.436994E-1,1.1764706E-1,4.5129785E-1,5.678089E-1,5.3407204E-1,6.425445E-2,3.2263768E-1,3.3250898E-2,3.354131E-1,3.6724925E-1,3.4831363E-1,4.0889013E-1,1.6409944E-1,3.0252287E-1,3.436994E-1,4.431483E-1,3.3333334E-1,2.3529412E-1,5.6350935E-1,5.112209E-1,4.7218665E-1,-9.750669E-2,-1.1027893E-1,-1.0153615E-1,-8.4253706E-2,-2.2396578E-2,-8.5466094E-2,-7.343969E-2,-4.1504737E-2,-4.5553204E-2,1.3811171E-2,-1.0181778E-1,-6.1533023E-2,-6.816628E-3,-6.0781926E-2,4.303177E-2,-1.22644855E-2,-3.7126668E-2,5.7195105E-2,-4.2895157E-2,2.2781057E-2,5.001855E-2,-1.1006309E-2,7.534628E-2,1.1031895E-1,9.048924E-2,4.8448186E-2,-1.7583853E-2,9.293548E-2,1.0474602E-1,7.450527E-2,1.1112052E-1,8.589112E-2],"split_indices":[0,0,2,0,0,0,0,0,4,6,1,8,2,3,2,6,1,4,1,1,1,3,6,1,1,7,0,8,2,3,6,0,0,0,0,0,0,0,0,0,0,0,0,0,0,0,0,0,0,0,0,0,0,0,0,0,0,0,0,0,0,0,0],"split_type":[0,0,0,0,0,0,0,0,0,0,0,0,0,0,0,0,0,0,0,0,0,0,0,0,0,0,0,0,0,0,0,0,0,0,0,0,0,0,0,0,0,0,0,0,0,0,0,0,0,0,0,0,0,0,0,0,0,0,0,0,0,0,0],"sum_hessian":[8.40225E3,4.735201E3,3.6670483E3,2.2104016E3,2.5247998E3,1.9000347E3,1.7670137E3,1.5393817E3,6.710198E2,8.101357E2,1.7146642E3,1.1990955E3,7.0093915E2,4.629527E2,1.3040609E3,8.173795E2,7.2200226E2,3.6549844E2,3.0552136E2,6.2807947E2,1.8205626E2,6.8631793E2,1.0283462E3,4.723939E2,7.267016E2,1.3684474E2,5.6409436E2,3.548294E2,1.08123276E2,2.662642E2,1.0377968E3,1.10972595E2,7.064069E2,3.817177E2,3.4028455E2,1.5445557E1,3.500529E2,1.8209645E2,1.23424904E2,5.3394495E2,9.413448E1,5.77144E1,1.2434186E2,4.24811E2,2.6150693E2,3.495501E2,6.787961E2,4.8028465E1,4.2436542E2,1.479719E2,5.7872974E2,9.811053E1,3.873422E1,4.4840442E2,1.1568998E2,2.8906232E2,6.5767105E1,5.4748302E1,5.337497E1,1.9228352E2,7.3980675E1,1.01004376E3,2.7752995E1],"tree_param":{"num_deleted":"0","num_feature":"10","num_nodes":"63","size_leaf_vector":"1"}},{"base_weights":[5.2254944E-4,-6.727677E-1,4.9414277E-1,-9.4406474E-1,-3.7306324E-1,1.9146356E-1,8.83175E-1,-1.0412093E0,-8.200795E-1,-2.4686027E-1,-5.309803E-1,9.54417E-2,6.6535956E-1,4.3143195E-1,9.980493E-1,-1.1060995E-1,-1.0052837E0,-9.9150574E-1,-7.2748446E-1,-6.276452E-1,-1.1770374E-1,-6.558707E-1,-2.1764642E-1,-3.5630684E-2,3.3812264E-1,5.076632E-1,9.136369E-1,3.4533778E-1,9.0954053E-1,8.5357994E-1,1.0816195E0,-7.53594E-2,-1.025702E-1,-5.0598603E-2,-1.0137427E-1,1.612833E-2,-7.758056E-2,-4.1553546E-2,-9.162555E-2,7.2314054E-2,-2.0091204E-2,-1.09308265E-1,-5.9676576E-2,5.006019E-3,-4.8722666E-2,2.2760865E-3,-5.3652633E-2,6.379146E-3,4.840136E-2,7.063692E-2,-2.6514053E-2,9.705627E-2,5.9019744E-2,3.848773E-2,-1.0141654E-1,1.0316048E-1,5.2429166E-2,9.292471E-2,5.2415937E-2,1.0873341E-1,8.3433636E-2],"categories":[],"categories_nodes":[],"categories_segments":[],"categories_sizes":[],"default_left":[0,0,0,0,0,0,0,0,0,0,0,0,0,0,0,0,0,0,0,0,0,0,0,0,0,0,0,0,0,0,0,0,0,0,0,0,0,0,0,0,0,0,0,0,0,0,0,0,0,0,0,0,0,0,0,0,0,0,0,0,0],"id":15,"left_children":[1,3,5,7,9,11,13,15,17,19,21,23,25,27,29,-1,31,33,35,37,39,41,43,45,47,49,51,53,55,57,59,-1,-1,-1,-1,-1,-1,-1,-1,-1,-1,-1,-1,-1,-1,-1,-1,-1,-1,-1,-1,-1,-1,-1,-1,-1,-1,-1,-1,-1,-1],"loss_changes":[2.681544E3,2.7716064E2,5.4801E2,2.071521E1,3.2220413E1,1.1913749E2,1.0526758E2,1.2202148E0,1.1841064E1,4.4391033E1,2.8039505E1,6.933499E1,1.68096E1,1.6755966E1,1.867334E1,0E0,2.5922852E0,2.453949E0,2.2354736E1,1.3623253E1,4.7466293E1,1.2641434E1,1.4944592E1,4.1427013E1,3.056157E1,4.196518E1,2.559494E0,1.936723E1,2.4061508E0,1.4458038E1,5.4052734E-1,0E0,0E0,0E0,0E0,0E0,0E0,0E0,0E0,0E0,0E0,0E0,0E0,0E0,0E0,0E0,0E0,0E0,0E0,0E0,0E0,0E0,0E0,0E0,0E0,0E0,0E0,0E0,0E0,0E0,0E0],"parents":[2147483647,0,0,1,1,2,2,3,3,4,4,5,5,6,6,7,7,8,8,9,9,10,10,11,11,12,12,13,13,14,14,16,16,17,17,18,18,19,19,20,20,21,21,22,22,23,23,24,24,25,25,26,26,27,27,28,28,29,29,30,30],"right_children":[2,4,6,8,10,12,14,16,18,20,22,24,26,28,30,-1,32,34,36,38,40,42,44,46,48,50,52,54,56,58,60,-1,-1,-1,-1,-1,-1,-1,-1,-1,-1,-1,-1,-1,-1,-1,-1,-1,-1,-1,-1,-1,-1,-1,-1,-1,-1,-1,-1,-1,-1],"split_conditions":[7.5E-2,4.761905E-2,1.4880952E-1,3.021978E-2,5.882353E-2,5.347814E-1,4.7929466E-1,1.5873017E-2,3.1399426E-1,3.0845556E-1,3.8044217E-1,1.1309524E-1,5.6587636E-1,2.9464287E-1,5.2860653E-1,-1.1060995E-1,6.425445E-2,3.8575885E-1,7.863307E-2,3.764771E-1,3.7015206E-1,9.152394E-2,2.3412777E-1,2.3529412E-1,4.6331358E-1,5.7227266E-1,3.4115067E-1,4.117647E-1,4.1528684E-1,5.1363087E-1,4.7218665E-1,-7.53594E-2,-1.025702E-1,-5.0598603E-2,-1.0137427E-1,1.612833E-2,-7.758056E-2,-4.1553546E-2,-9.162555E-2,7.2314054E-2,-2.0091204E-2,-1.09308265E-1,-5.9676576E-2,5.006019E-3,-4.8722666E-2,2.2760865E-3,-5.3652633E-2,6.379146E-3,4.840136E-2,7.063692E-2,-2.6514053E-2,9.705627E-2,5.9019744E-2,3.848773E-2,-1.0141654E-1,1.0316048E-1,5.2429166E-2,9.292471E-2,5.2415937E-2,1.0873341E-1,8.3433636E-2],"split_indices":[0,0,0,0,8,2,2,0,1,1,1,0,2,0,2,0,6,2,6,3,3,4,6,8,2,3,6,8,5,3,6,0,0,0,0,0,0,0,0,0,0,0,0,0,0,0,0,0,0,0,0,0,0,0,0,0,0,0,0,0,0],"split_type":[0,0,0,0,0,0,0,0,0,0,0,0,0,0,0,0,0,0,0,0,0,0,0,0,0,0,0,0,0,0,0,0,0,0,0,0,0,0,0,0,0,0,0,0,0,0,0,0,0,0,0,0,0,0,0,0,0,0,0,0,0],"sum_hessian":[8.066441E3,3.4120693E3,4.6543716E3,1.7897816E3,1.6222877E3,2.61855E3,2.0358217E3,9.993646E2,7.9041693E2,9.0311017E2,7.191775E2,2.1783662E3,4.4018402E2,4.1370068E2,1.622121E3,3.4550702E2,6.538576E2,2.738027E2,5.166142E2,2.2775966E2,6.753505E2,5.134361E2,2.0574142E2,1.414984E3,7.6338214E2,2.710611E2,1.6912294E2,3.5203177E2,6.166892E1,5.985716E2,1.0235493E3,5.1908302E1,6.0194934E2,1.3031339E1,2.6077136E2,2.6518766E1,4.9009543E2,1.3268478E2,9.5074875E1,6.0120857E1,6.152297E2,5.906029E1,4.543758E2,1.03638016E2,1.0210341E2,1.2681096E3,1.468744E2,2.655268E2,4.9785532E2,2.1568849E2,5.5372597E1,1.4211055E2,2.7012392E1,3.4277933E2,9.252424E0,4.555673E1,1.6112188E1,4.8528247E2,1.1328912E2,9.9710956E2,2.6439749E1],"tree_param":{"num_deleted":"0","num_feature":"10","num_nodes":"61","size_leaf_vector":"1"}},{"base_weights":[5.10319E-4,-4.722422E-1,6.239129E-1,-8.690119E-1,-1.6126904E-1,3.6212856E-1,9.324542E-1,-1.013493E0,-7.226061E-1,-3.8892746E-1,-5.6858096E-2,2.445895E-1,7.667109E-1,6.5483296E-1,1.0385617E0,-1.0487221E0,-9.223154E-1,-8.7122476E-1,-6.229461E-1,-3.234093E-1,-8.101964E-1,1.12033874E-1,-2.0087706E-1,3.256231E-1,-1.6110583E-1,5.463794E-1,9.158324E-1,7.52782E-1,2.4708484E-1,9.12169E-1,1.0709342E0,-9.2223465E-2,-1.0673674E-1,-9.339631E-2,-4.811713E-3,-4.951508E-2,-9.1928065E-2,4.0409215E-2,-6.749451E-2,-8.358489E-2,-2.535373E-2,-8.743722E-2,-2.259207E-2,-2.6443226E-2,2.6583333E-2,-5.613423E-2,-5.2567846E-3,-4.7616288E-4,4.6362042E-2,-8.329582E-2,1.8524427E-4,6.5547965E-2,1.0900092E-2,5.0259918E-2,9.489072E-2,7.922987E-2,1.0540686E-2,-1.293505E-1,4.3189522E-2,9.815136E-2,4.8473384E-2,1.07295096E-1,6.32872E-2],"categories":[],"categories_nodes":[],"categories_segments":[],"categories_sizes":[],"default_left":[0,0,0,0,0,0,0,0,0,0,0,0,0,0,0,0,0,0,0,0,0,0,0,0,0,0,0,0,0,0,0,0,0,0,0,0,0,0,0,0,0,0,0,0,0,0,0,0,0,0,0,0,0,0,0,0,0,0,0,0,0,0,0],"id":16,"left_children":[1,3,5,7,9,11,13,15,17,19,21,23,25,27,29,31,33,35,37,39,41,43,45,47,49,51,53,55,57,59,61,-1,-1,-1,-1,-1,-1,-1,-1,-1,-1,-1,-1,-1,-1,-1,-1,-1,-1,-1,-1,-1,-1,-1,-1,-1,-1,-1,-1,-1,-1,-1,-1],"loss_changes":[2.285976E3,5.441461E2,2.6986414E2,4.0262573E1,5.8791008E1,8.595207E1,4.453369E1,2.15802E0,1.3766357E1,2.1205772E1,4.1310883E1,4.624462E1,1.2882263E1,1.6872742E1,3.5596924E0,6.5356445E-1,2.800583E0,6.5078735E0,3.1344162E1,2.3948517E1,3.7028885E0,4.5342896E1,4.8969658E1,5.3413055E1,2.5686079E1,7.891777E0,2.8228302E0,8.714294E0,2.453719E1,6.425125E0,9.5703125E-2,0E0,0E0,0E0,0E0,0E0,0E0,0E0,0E0,0E0,0E0,0E0,0E0,0E0,0E0,0E0,0E0,0E0,0E0,0E0,0E0,0E0,0E0,0E0,0E0,0E0,0E0,0E0,0E0,0E0,0E0,0E0,0E0],"parents":[2147483647,0,0,1,1,2,2,3,3,4,4,5,5,6,6,7,7,8,8,9,9,10,10,11,11,12,12,13,13,14,14,15,15,16,16,17,17,18,18,19,19,20,20,21,21,22,22,23,23,24,24,25,25,26,26,27,27,28,28,29,29,30,30],"right_children":[2,4,6,8,10,12,14,16,18,20,22,24,26,28,30,32,34,36,38,40,42,44,46,48,50,52,54,56,58,60,62,-1,-1,-1,-1,-1,-1,-1,-1,-1,-1,-1,-1,-1,-1,-1,-1,-1,-1,-1,-1,-1,-1,-1,-1,-1,-1,-1,-1,-1,-1,-1,-1],"split_conditions":[9.920635E-2,5.1587302E-2,5.152649E-1,3.1746034E-2,6.4935066E-2,2E-1,1.4880952E-1,2.6785715E-2,3.2092357E-1,1.764706E-1,5.882353E-2,2.3529412E-1,4.760216E-1,2.940208E-1,1.904762E-1,6.425445E-2,5.109513E-1,4.0609083E-1,7.863307E-2,2.9776052E-1,5.354457E-1,3.186357E-1,3.5004264E-1,3.3433706E-1,3.6372802E-1,4.45997E-1,3.3767608E-1,2.9411766E-1,3.9482772E-1,2.9411766E-1,5.904509E-1,-9.2223465E-2,-1.0673674E-1,-9.339631E-2,-4.811713E-3,-4.951508E-2,-9.1928065E-2,4.0409215E-2,-6.749451E-2,-8.358489E-2,-2.535373E-2,-8.743722E-2,-2.259207E-2,-2.6443226E-2,2.6583333E-2,-5.613423E-2,-5.2567846E-3,-4.7616288E-4,4.6362042E-2,-8.329582E-2,1.8524427E-4,6.5547965E-2,1.0900092E-2,5.0259918E-2,9.489072E-2,7.922987E-2,1.0540686E-2,-1.293505E-1,4.3189522E-2,9.815136E-2,4.8473384E-2,1.07295096E-1,6.32872E-2],"split_indices":[0,0,2,0,0,0,0,0,1,8,8,8,2,6,0,6,4,2,6,1,2,1,1,1,1,5,1,8,1,8,4,0,0,0,0,0,0,0,0,0,0,0,0,0,0,0,0,0,0,0,0,0,0,0,0,0,0,0,0,0,0,0,0],"split_type":[0,0,0,0,0,0,0,0,0,0,0,0,0,0,0,0,0,0,0,0,0,0,0,0,0,0,0,0,0,0,0,0,0,0,0,0,0,0,0,0,0,0,0,0,0,0,0,0,0,0,0,0,0,0,0,0,0,0,0,0,0,0,0],"sum_hessian":[7.754562E3,4.410293E3,3.3442693E3,1.9370378E3,2.4732551E3,1.8103972E3,1.533872E3,9.7194635E2,9.650915E2,7.767967E2,1.6964585E3,1.404087E3,4.0631012E2,4.2612463E2,1.1077473E3,6.934929E2,2.784534E2,3.84284E2,5.808075E2,6.73775E2,1.0302168E2,7.8090643E2,9.15552E2,1.1704906E3,2.3359645E2,1.658806E2,2.404295E2,3.429058E2,8.3218834E1,2.3182054E2,8.759268E2,9.5576805E1,5.9791614E2,2.7472464E2,3.728764E0,4.4821915E1,3.394621E2,2.7662928E1,5.5314453E2,7.953136E1,5.9424365E2,9.2378494E1,1.0643192E1,2.2628725E2,5.546192E2,2.660742E2,6.4947784E2,3.4514096E2,8.253497E2,4.4796356E1,1.888001E2,1.3236473E2,3.3515877E1,1.9017872E1,2.2141164E2,3.2296756E2,1.993825E1,8.27113E0,7.494771E1,1.9834578E2,3.3474754E1,8.704699E2,5.45687E0],"tree_param":{"num_deleted":"0","num_feature":"10","num_nodes":"63","size_leaf_vector":"1"}},{"base_weights":[4.8722627E-4,-6.0287356E-1,4.332141E-1,-8.895686E-1,-3.1674552E-1,1.5914328E-1,8.2404727E-1,-1.0007774E0,-7.543298E-1,-1.9853082E-1,-4.867143E-1,7.441694E-2,6.003231E-1,4.6638808E-1,9.8827404E-1,-1.0768502E-1,-9.5922E-1,-9.428791E-1,-6.5671396E-1,-3.9526358E-1,4.658585E-2,-6.083786E-1,-7.260352E-2,1.6646342E-1,-1.9645098E-1,4.427337E-1,8.5717124E-1,8.47555E-3,5.6001556E-1,8.4031355E-1,1.0489327E0,-6.8161905E-2,-9.825029E-2,-4.4383816E-2,-9.6750505E-2,8.691435E-3,-7.098769E-2,-1.8999377E-2,-6.580648E-2,3.9060332E-2,-1.6789606E-2,-5.0514407E-2,-8.8073686E-2,5.5215597E-2,-2.193922E-2,-1.0734605E-2,3.393263E-2,-6.721707E-2,3.2633808E-3,6.9723785E-2,-1.3305207E-2,9.599396E-2,6.56654E-2,2.3113608E-2,-4.3823514E-2,6.725106E-2,2.4088642E-2,1.8544765E-2,8.892967E-2,1.0556034E-1,7.697439E-2],"categories":[],"categories_nodes":[],"categories_segments":[],"categories_sizes":[],"default_left":[0,0,0,0,0,0,0,0,0,0,0,0,0,0,0,0,0,0,0,0,0,0,0,0,0,0,0,0,0,0,0,0,0,0,0,0,0,0,0,0,0,0,0,0,0,0,0,0,0,0,0,0,0,0,0,0,0,0,0,0,0],"id":17,"left_children":[1,3,5,7,9,11,13,15,17,19,21,23,25,27,29,-1,31,33,35,37,39,41,43,45,47,49,51,53,55,57,59,-1,-1,-1,-1,-1,-1,-1,-1,-1,-1,-1,-1,-1,-1,-1,-1,-1,-1,-1,-1,-1,-1,-1,-1,-1,-1,-1,-1,-1,-1],"loss_changes":[1.9488429E3,2.5544946E2,4.654771E2,2.2656738E1,3.1285019E1,9.5508156E1,1.04765625E2,1.6577759E0,1.2384064E1,4.4520473E1,3.2199905E1,5.352765E1,1.6284302E1,2.4245872E1,1.0129639E1,0E0,2.9472046E0,2.504074E0,1.8594559E1,2.7497993E1,3.044984E1,1.3459442E1,1.3553003E1,7.585896E1,5.9377884E1,3.7784824E1,2.5735245E0,9.752934E0,1.6696854E1,1.1438995E1,8.004761E-1,0E0,0E0,0E0,0E0,0E0,0E0,0E0,0E0,0E0,0E0,0E0,0E0,0E0,0E0,0E0,0E0,0E0,0E0,0E0,0E0,0E0,0E0,0E0,0E0,0E0,0E0,0E0,0E0,0E0,0E0],"parents":[2147483647,0,0,1,1,2,2,3,3,4,4,5,5,6,6,7,7,8,8,9,9,10,10,11,11,12,12,13,13,14,14,16,16,17,17,18,18,19,19,20,20,21,21,22,22,23,23,24,24,25,25,26,26,27,27,28,28,29,29,30,30],"right_children":[2,4,6,8,10,12,14,16,18,20,22,24,26,28,30,-1,32,34,36,38,40,42,44,46,48,50,52,54,56,58,60,-1,-1,-1,-1,-1,-1,-1,-1,-1,-1,-1,-1,-1,-1,-1,-1,-1,-1,-1,-1,-1,-1,-1,-1,-1,-1,-1,-1,-1,-1],"split_conditions":[7.5E-2,4.761905E-2,1.4880952E-1,3.021978E-2,1.7301899E-1,5.347814E-1,4.9726796E-1,1.5873017E-2,3.1399426E-1,3.3433706E-1,3.895231E-1,4.7934744E-1,5.6587636E-1,4.3540442E-1,5.2860653E-1,-1.0768502E-1,6.425445E-2,3.8575885E-1,8.115003E-2,4.01686E-1,4.4510302E-1,4.899174E-1,5.882353E-2,3.3594173E-1,3.73638E-1,5.446085E-1,2.6087156E-1,4.431483E-1,4.666406E-1,8.883206E-2,4.7218665E-1,-6.8161905E-2,-9.825029E-2,-4.4383816E-2,-9.6750505E-2,8.691435E-3,-7.098769E-2,-1.8999377E-2,-6.580648E-2,3.9060332E-2,-1.6789606E-2,-5.0514407E-2,-8.8073686E-2,5.5215597E-2,-2.193922E-2,-1.0734605E-2,3.393263E-2,-6.721707E-2,3.2633808E-3,6.9723785E-2,-1.3305207E-2,9.599396E-2,6.56654E-2,2.3113608E-2,-4.3823514E-2,6.725106E-2,2.4088642E-2,1.8544765E-2,8.892967E-2,1.0556034E-1,7.697439E-2],"split_indices":[0,0,0,0,6,2,2,0,1,1,1,3,2,2,2,0,6,2,6,3,3,3,8,1,1,3,6,7,3,4,6,0,0,0,0,0,0,0,0,0,0,0,0,0,0,0,0,0,0,0,0,0,0,0,0,0,0,0,0,0,0],"split_type":[0,0,0,0,0,0,0,0,0,0,0,0,0,0,0,0,0,0,0,0,0,0,0,0,0,0,0,0,0,0,0,0,0,0,0,0,0,0,0,0,0,0,0,0,0,0,0,0,0,0,0,0,0,0,0,0,0,0,0,0,0],"sum_hessian":[7.462245E3,3.1164773E3,4.3457676E3,1.5556427E3,1.5608347E3,2.5552864E3,1.7904811E3,8.501513E2,7.054914E2,9.2184906E2,6.3898566E2,2.1445962E3,4.1069012E2,5.646359E2,1.2258452E3,2.915478E2,5.586035E2,2.3770145E2,4.6778992E2,5.110574E2,4.1079166E2,4.9352164E2,1.45464E2,1.600947E3,5.436492E2,2.562137E2,1.5447641E2,9.603572E1,4.686002E2,3.6074838E2,8.650968E2,4.556859E1,5.13035E2,1.207275E1,2.256287E2,3.1169147E1,4.366208E2,2.8790353E2,2.2315387E2,1.57442E2,2.5334964E2,3.5994357E2,1.3357808E2,2.7149443E1,1.1831456E2,6.1971564E2,9.8123145E2,1.7607532E2,3.6757388E2,1.7753168E2,7.868204E1,9.962808E1,5.4848335E1,6.441232E1,3.1623394E1,3.4564932E2,1.2295085E2,2.5438715E1,3.3530966E2,8.4219324E2,2.2903578E1],"tree_param":{"num_deleted":"0","num_feature":"10","num_nodes":"61","size_leaf_vector":"1"}},{"base_weights":[4.885162E-4,-3.6368963E-1,6.436347E-1,-8.158597E-1,-1.0389178E-1,3.447222E-1,9.053762E-1,-9.732373E-1,-6.614793E-1,-2.5899345E-1,2.7069423E-2,2.865616E-1,9.207724E-1,7.2153443E-1,1.0330329E0,-1.0148607E0,-8.678736E-1,-8.586176E-1,-5.713204E-1,-1.3894865E-1,-6.923726E-1,1.8419394E-1,-2.9012197E-1,3.776328E-1,-7.421203E-2,5.3890496E-1,9.948425E-1,7.64276E-1,-1.5759426E-1,1.9250037E-1,1.0352236E0,-8.7097995E-2,-1.03657976E-1,-7.039289E-2,-9.6673645E-2,-4.7298532E-2,-9.132459E-2,2.2359496E-2,-6.219854E-2,1.6799538E-3,-4.5803387E-2,-2.1080209E-2,-8.651551E-2,4.775338E-2,-1.3386698E-3,-4.8606332E-2,-8.444402E-3,6.1901803E-3,5.1816233E-2,-5.3386033E-2,1.8465184E-2,7.670234E-2,-1.9225337E-1,2.9402543E-2,1.013061E-1,6.3359685E-2,9.360881E-2,-2.2831486E-1,2.0063506E-2,6.428188E-2,-4.2916648E-2,1.038469E-1,4.949079E-2],"categories":[],"categories_nodes":[],"categories_segments":[],"categories_sizes":[],"default_left":[0,0,0,0,0,0,0,0,0,0,0,0,0,0,0,0,0,0,0,0,0,0,0,0,0,0,0,0,0,0,0,0,0,0,0,0,0,0,0,0,0,0,0,0,0,0,0,0,0,0,0,0,0,0,0,0,0,0,0,0,0,0,0],"id":18,"left_children":[1,3,5,7,9,11,13,15,17,19,21,23,25,27,29,31,33,35,37,39,41,43,45,47,49,51,53,55,57,59,61,-1,-1,-1,-1,-1,-1,-1,-1,-1,-1,-1,-1,-1,-1,-1,-1,-1,-1,-1,-1,-1,-1,-1,-1,-1,-1,-1,-1,-1,-1,-1,-1],"loss_changes":[1.6868281E3,5.4007855E2,2.03396E2,4.0118652E1,5.9348526E1,4.0515015E1,3.1818604E1,2.753479E0,1.4618195E1,6.948992E1,7.904268E1,3.6399284E1,2.6082458E0,2.1611877E1,1.3043823E0,9.350586E-1,3.2348938E0,5.1459045E0,2.3751236E1,5.2123524E1,2.3937805E1,6.14706E1,2.1133484E1,3.9192078E1,2.6746E1,1.2840479E1,8.758316E-1,1.1657013E1,2.12812E1,1.2140238E0,9.1381836E-1,0E0,0E0,0E0,0E0,0E0,0E0,0E0,0E0,0E0,0E0,0E0,0E0,0E0,0E0,0E0,0E0,0E0,0E0,0E0,0E0,0E0,0E0,0E0,0E0,0E0,0E0,0E0,0E0,0E0,0E0,0E0,0E0],"parents":[2147483647,0,0,1,1,2,2,3,3,4,4,5,5,6,6,7,7,8,8,9,9,10,10,11,11,12,12,13,13,14,14,15,15,16,16,17,17,18,18,19,19,20,20,21,21,22,22,23,23,24,24,25,25,26,26,27,27,28,28,29,29,30,30],"right_children":[2,4,6,8,10,12,14,16,18,20,22,24,26,28,30,32,34,36,38,40,42,44,46,48,50,52,54,56,58,60,62,-1,-1,-1,-1,-1,-1,-1,-1,-1,-1,-1,-1,-1,-1,-1,-1,-1,-1,-1,-1,-1,-1,-1,-1,-1,-1,-1,-1,-1,-1,-1,-1],"split_conditions":[1.1111111E-1,5.102041E-2,5.0559443E-1,3.1746034E-2,3.471247E-1,2.9464287E-1,1.8571429E-1,2.6785715E-2,3.1399426E-1,4.42059E-1,1.764706E-1,2.3529412E-1,3.3647865E-1,4.1643062E-1,3.2762873E-1,6.425445E-2,4.6331358E-1,4.0361586E-1,7.863307E-2,5.882353E-2,2E-1,1.6653511E-1,3.9170766E-1,3.354131E-1,3.8044217E-1,4.6309382E-1,6.28645E-2,5.456522E-1,4.1063434E-1,3.8130617E-1,5.904509E-1,-8.7097995E-2,-1.03657976E-1,-7.039289E-2,-9.6673645E-2,-4.7298532E-2,-9.132459E-2,2.2359496E-2,-6.219854E-2,1.6799538E-3,-4.5803387E-2,-2.1080209E-2,-8.651551E-2,4.775338E-2,-1.3386698E-3,-4.8606332E-2,-8.444402E-3,6.1901803E-3,5.1816233E-2,-5.3386033E-2,1.8465184E-2,7.670234E-2,-1.9225337E-1,2.9402543E-2,1.013061E-1,6.3359685E-2,9.360881E-2,-2.2831486E-1,2.0063506E-2,6.428188E-2,-4.2916648E-2,1.038469E-1,4.949079E-2],"split_indices":[0,0,2,0,1,0,0,0,1,3,8,8,1,6,1,6,2,2,6,8,9,6,1,1,1,3,4,2,1,3,4,0,0,0,0,0,0,0,0,0,0,0,0,0,0,0,0,0,0,0,0,0,0,0,0,0,0,0,0,0,0,0,0],"split_type":[0,0,0,0,0,0,0,0,0,0,0,0,0,0,0,0,0,0,0,0,0,0,0,0,0,0,0,0,0,0,0,0,0,0,0,0,0,0,0,0,0,0,0,0,0,0,0,0,0,0,0,0,0,0,0,0,0,0,0,0,0,0,0],"sum_hessian":[7.199904E3,4.5971987E3,2.602705E3,1.6767417E3,2.920457E3,1.2161554E3,1.3865497E3,8.276842E2,8.4905756E2,1.3365542E3,1.5839027E3,1.1059874E3,1.1016797E2,5.709549E2,8.155948E2,5.871148E2,2.4056944E2,2.6377423E2,5.852833E2,1.0476726E3,2.8888168E2,1.0594907E3,5.24412E2,8.830339E2,2.2295363E2,1.9241966E1,9.0926E1,5.446077E2,2.6347176E1,2.351149E0,8.132436E2,8.2392845E1,5.0472192E2,9.355196E1,1.4701747E2,3.3927986E1,2.2984625E2,3.4864132E1,5.504192E2,7.046663E2,3.4300623E2,7.686565E1,2.1201604E2,4.258427E2,6.33648E2,2.6786462E2,2.5654736E2,2.7242056E2,6.106133E2,7.9942474E1,1.4301115E2,1.8239931E1,1.0020353E0,2.7380795E0,8.818792E1,3.1199435E2,2.3261334E2,3.0249863E0,2.332219E1,1.3437493E0,1.0073997E0,8.074716E2,5.7720203E0],"tree_param":{"num_deleted":"0","num_feature":"10","num_nodes":"63","size_leaf_vector":"1"}},{"base_weights":[4.6076122E-4,-3.3755332E-1,6.1016595E-1,-7.812775E-1,-9.1267414E-2,3.3046553E-1,8.928399E-1,-8.985993E-1,-5.4661024E-1,-6.503592E-1,-5.4622784E-2,2.2410093E-1,6.418682E-1,7.038283E-1,1.0250375E0,-9.987005E-1,-7.93622E-1,-6.6597766E-1,-4.040593E-1,-1.1318831E-1,-8.3113587E-1,2.9267573E-1,-1.4491367E-1,5.4108244E-1,1.0649303E-1,5.1885396E-1,9.7165126E-1,7.516528E-1,-2.0500596E-1,1.0287099E-1,4.3316394E-1,-8.458986E-2,-1.0221374E-1,-9.003001E-2,-6.79167E-2,-6.9255784E-2,1.7453507E-2,-4.5111002E-3,-4.9976062E-2,-5.990385E-2,2.1741495E-2,-1.1830669E-1,-6.488981E-2,-3.6742047E-3,4.571521E-2,-2.4134243E-2,1.4623289E-2,6.989679E-3,6.751722E-2,-5.236069E-2,1.859943E-2,5.5873014E-2,-9.482207E-2,1.02016926E-1,4.806397E-2,8.01188E-2,2.9128922E-2,-8.0521666E-2,1.0091174E-1,-5.1533617E-2,8.563652E-2],"categories":[],"categories_nodes":[],"categories_segments":[],"categories_sizes":[],"default_left":[0,0,0,0,0,0,0,0,0,0,0,0,0,0,0,0,0,0,0,0,0,0,0,0,0,0,0,0,0,0,0,0,0,0,0,0,0,0,0,0,0,0,0,0,0,0,0,0,0,0,0,0,0,0,0,0,0,0,0,0,0],"id":19,"left_children":[1,3,5,7,9,11,13,15,17,19,21,23,25,27,29,31,33,35,37,39,41,43,45,47,49,51,53,55,57,-1,59,-1,-1,-1,-1,-1,-1,-1,-1,-1,-1,-1,-1,-1,-1,-1,-1,-1,-1,-1,-1,-1,-1,-1,-1,-1,-1,-1,-1,-1,-1],"loss_changes":[1.4338469E3,4.8907755E2,1.9589728E2,4.3490112E1,5.89588E1,4.122136E1,3.0101624E1,1.0382751E1,8.8346405E0,1.7097E1,8.481746E1,3.470323E1,1.2373276E1,2.235936E1,1.1273804E0,1.0709839E0,5.7860107E0,6.591736E0,8.440735E0,7.4760904E0,7.717201E0,3.0258518E1,6.0292755E1,1.5880135E1,3.422867E1,1.4180283E1,1.5367966E0,1.0839386E1,1.999661E1,0E0,2.9259632E0,0E0,0E0,0E0,0E0,0E0,0E0,0E0,0E0,0E0,0E0,0E0,0E0,0E0,0E0,0E0,0E0,0E0,0E0,0E0,0E0,0E0,0E0,0E0,0E0,0E0,0E0,0E0,0E0,0E0,0E0],"parents":[2147483647,0,0,1,1,2,2,3,3,4,4,5,5,6,6,7,7,8,8,9,9,10,10,11,11,12,12,13,13,14,14,15,15,16,16,17,17,18,18,19,19,20,20,21,21,22,22,23,23,24,24,25,25,26,26,27,27,28,28,30,30],"right_children":[2,4,6,8,10,12,14,16,18,20,22,24,26,28,30,32,34,36,38,40,42,44,46,48,50,52,54,56,58,-1,60,-1,-1,-1,-1,-1,-1,-1,-1,-1,-1,-1,-1,-1,-1,-1,-1,-1,-1,-1,-1,-1,-1,-1,-1,-1,-1,-1,-1,-1,-1],"split_conditions":[1.1111111E-1,5.1587302E-2,5.091356E-1,3.8961038E-2,2.9776052E-1,2E-1,1.8571429E-1,2.6785715E-2,1.5844785E-1,3.1354284E-1,1.2050524E-1,3.1981283E-1,3.3333334E-1,4.1643062E-1,5.904509E-1,6.425445E-2,3.2263768E-1,6.0123533E-1,1.0395219E-1,6.696428E-2,2.8530586E-1,3.232444E-1,3.8876292E-1,1.3995622E-1,3.2652345E-1,4.7058824E-1,4.9849087E-1,2.9411766E-1,5.8291984E-1,1.0287099E-1,5.3407204E-1,-8.458986E-2,-1.0221374E-1,-9.003001E-2,-6.79167E-2,-6.9255784E-2,1.7453507E-2,-4.5111002E-3,-4.9976062E-2,-5.990385E-2,2.1741495E-2,-1.1830669E-1,-6.488981E-2,-3.6742047E-3,4.571521E-2,-2.4134243E-2,1.4623289E-2,6.989679E-3,6.751722E-2,-5.236069E-2,1.859943E-2,5.5873014E-2,-9.482207E-2,1.02016926E-1,4.806397E-2,8.01188E-2,2.9128922E-2,-8.0521666E-2,1.0091174E-1,-5.1533617E-2,8.563652E-2],"split_indices":[0,0,2,0,1,0,0,0,4,3,6,5,0,6,4,6,1,5,6,0,1,1,1,4,1,8,7,8,2,0,2,0,0,0,0,0,0,0,0,0,0,0,0,0,0,0,0,0,0,0,0,0,0,0,0,0,0,0,0,0,0],"split_type":[0,0,0,0,0,0,0,0,0,0,0,0,0,0,0,0,0,0,0,0,0,0,0,0,0,0,0,0,0,0,0,0,0,0,0,0,0,0,0,0,0,0,0,0,0,0,0,0,0,0,0,0,0,0,0,0,0,0,0,0,0],"sum_hessian":[6.9554185E3,4.4749824E3,2.4804363E3,1.596484E3,2.878498E3,1.247866E3,1.2325703E3,1.062472E3,5.3401196E2,1.760305E2,2.7024678E3,9.314379E2,3.1642804E2,5.098823E2,7.22688E2,5.395092E2,5.229628E2,2.8864148E2,2.4537048E2,4.4733307E1,1.312972E2,5.5715656E2,2.145311E3,2.5108984E2,6.803481E2,2.3233632E2,8.409171E1,4.8455698E2,2.5325329E1,7.1749817E2,5.1898546E0,7.6678795E1,4.6283044E2,2.6712363E2,2.5583923E2,2.79964E2,8.677477E0,5.1958908E1,1.9341158E2,1.7784899E1,2.6948408E1,4.2919926E1,8.837727E1,1.8580263E2,3.7135397E2,1.6116862E3,5.3362494E2,5.596223E1,1.9512761E2,7.5598E1,6.047501E2,2.2679112E2,5.545198E0,7.554887E1,8.542842E0,4.3681525E2,4.774171E1,1.7172682E1,8.152647E0,1.5340204E0,3.6558344E0],"tree_param":{"num_deleted":"0","num_feature":"10","num_nodes":"61","size_leaf_vector":"1"}},{"base_weights":[4.7739188E-4,-6.074665E-1,3.0238786E-1,-8.551966E-1,-3.7725005E-1,9.977344E-2,7.70134E-1,-9.829223E-1,-7.443592E-1,-2.5475493E-1,-5.6081635E-1,1.906725E-2,4.185124E-1,4.151844E-1,9.411015E-1,-8.2075226E-1,-1.0082299E0,-8.716762E-1,-6.221566E-1,-7.1112835E-1,-1.3967025E-1,-4.6996439E-1,-7.8202206E-1,1.0593922E-1,-2.5818568E-1,6.129741E-1,1.6042028E-1,3.209395E-1,8.537462E-1,7.920505E-1,1.0203663E0,-1.0007292E-1,-4.26823E-2,-9.365422E-2,-1.0492897E-1,-7.4379124E-2,-1.01471834E-1,6.2203117E-2,-6.537213E-2,-7.7599786E-2,4.8991214E-2,3.634482E-2,-2.6376402E-2,-5.601139E-2,-9.667335E-3,-8.43712E-2,-2.7396975E-2,-6.2669017E-3,3.162406E-2,-1.0058798E-1,-1.3962671E-2,2.5432942E-2,7.2281905E-2,-6.7777894E-2,3.897908E-2,4.2016353E-2,-9.681024E-3,-3.8454205E-2,8.758257E-2,8.5713424E-2,1.9354451E-2,6.7979353E-3,1.0219287E-1],"categories":[],"categories_nodes":[],"categories_segments":[],"categories_sizes":[],"default_left":[0,0,0,0,0,0,0,0,0,0,0,0,0,0,0,0,0,0,0,0,0,0,0,0,0,0,0,0,0,0,0,0,0,0,0,0,0,0,0,0,0,0,0,0,0,0,0,0,0,0,0,0,0,0,0,0,0,0,0,0,0,0,0],"id":20,"left_children":[1,3,5,7,9,11,13,15,17,19,21,23,25,27,29,31,33,35,37,39,41,43,45,47,49,51,53,55,57,59,61,-1,-1,-1,-1,-1,-1,-1,-1,-1,-1,-1,-1,-1,-1,-1,-1,-1,-1,-1,-1,-1,-1,-1,-1,-1,-1,-1,-1,-1,-1,-1,-1],"loss_changes":[1.2363423E3,1.2715045E2,4.2647232E2,1.4498596E1,2.59478E1,8.080686E1,8.215289E1,1.211029E0,8.483307E0,3.6547577E1,8.948578E0,6.043117E1,3.1756454E1,1.8076248E1,1.0028442E1,4.7079506E0,2.69104E-1,4.3968964E0,1.2168549E1,1.1309036E1,3.496365E1,1.1088188E1,3.9515228E0,6.775536E1,5.2924454E1,1.4062073E1,5.2958805E1,1.5254818E1,2.4674225E0,1.2412247E1,8.163452E-1,0E0,0E0,0E0,0E0,0E0,0E0,0E0,0E0,0E0,0E0,0E0,0E0,0E0,0E0,0E0,0E0,0E0,0E0,0E0,0E0,0E0,0E0,0E0,0E0,0E0,0E0,0E0,0E0,0E0,0E0,0E0,0E0],"parents":[2147483647,0,0,1,1,2,2,3,3,4,4,5,5,6,6,7,7,8,8,9,9,10,10,11,11,12,12,13,13,14,14,15,15,16,16,17,17,18,18,19,19,20,20,21,21,22,22,23,23,24,24,25,25,26,26,27,27,28,28,29,29,30,30],"right_children":[2,4,6,8,10,12,14,16,18,20,22,24,26,28,30,32,34,36,38,40,42,44,46,48,50,52,54,56,58,60,62,-1,-1,-1,-1,-1,-1,-1,-1,-1,-1,-1,-1,-1,-1,-1,-1,-1,-1,-1,-1,-1,-1,-1,-1,-1,-1,-1,-1,-1,-1,-1,-1],"split_conditions":[6.4935066E-2,4.2207792E-2,1.5714286E-1,2.6785715E-2,5.882353E-2,5.238102E-1,4.9726796E-1,6.425445E-2,3.2263768E-1,3.0186063E-1,1.764706E-1,4.7934744E-1,5.244865E-1,2.9464287E-1,5.347814E-1,3.01199E-1,4.6621653E-1,3.98439E-1,6.425445E-2,4.396518E-1,1.0395219E-1,3.8044217E-1,5.367006E-1,4.695331E-1,3.5063365E-1,1.1353118E-1,3.9567247E-1,4.605306E-1,2.938516E-1,5.562729E-1,3.3488342E-1,-1.0007292E-1,-4.26823E-2,-9.365422E-2,-1.0492897E-1,-7.4379124E-2,-1.01471834E-1,6.2203117E-2,-6.537213E-2,-7.7599786E-2,4.8991214E-2,3.634482E-2,-2.6376402E-2,-5.601139E-2,-9.667335E-3,-8.43712E-2,-2.7396975E-2,-6.2669017E-3,3.162406E-2,-1.0058798E-1,-1.3962671E-2,2.5432942E-2,7.2281905E-2,-6.7777894E-2,3.897908E-2,4.2016353E-2,-9.681024E-3,-3.8454205E-2,8.758257E-2,8.5713424E-2,1.9354451E-2,6.7979353E-3,1.0219287E-1],"split_indices":[0,0,0,0,8,2,2,6,1,1,8,3,3,0,2,1,2,3,6,4,6,1,2,2,1,4,1,5,1,3,1,0,0,0,0,0,0,0,0,0,0,0,0,0,0,0,0,0,0,0,0,0,0,0,0,0,0,0,0,0,0,0,0],"split_type":[0,0,0,0,0,0,0,0,0,0,0,0,0,0,0,0,0,0,0,0,0,0,0,0,0,0,0,0,0,0,0,0,0,0,0,0,0,0,0,0,0,0,0,0,0,0,0,0,0,0,0,0,0,0,0,0,0,0,0,0,0,0,0],"sum_hessian":[6.733921E3,2.234133E3,4.499788E3,1.0748257E3,1.1593074E3,3.1405874E3,1.3592006E3,4.9571286E2,5.791128E2,6.967493E2,4.62558E2,2.5068906E3,6.3369653E2,4.4296964E2,9.1623096E2,7.142896E1,4.242839E2,2.806176E2,2.984952E2,1.3927379E2,5.574756E2,3.301045E2,1.3245354E2,1.9092738E3,5.9761694E2,3.6061395E2,2.7308258E2,3.6604095E2,7.6928696E1,3.2190564E2,5.943253E2,4.7971527E1,2.3457432E1,1.6318445E2,2.6109946E2,1.5143175E2,1.2918587E2,6.9225407E0,2.9157266E2,1.3247269E2,6.8011045E0,1.0991478E2,4.475608E2,2.6548868E2,6.461581E1,1.1752273E2,1.4930802E1,1.0600696E3,8.4920416E2,8.0768005E1,5.1684894E2,8.532911E1,2.7528482E2,5.825257E1,2.1483002E2,2.9578116E2,7.0259796E1,1.0600742E0,7.586862E1,2.8994394E2,3.1961697E1,1.0462685E0,5.9327905E2],"tree_param":{"num_deleted":"0","num_feature":"10","num_nodes":"63","size_leaf_vector":"1"}},{"base_weights":[3.8927805E-4,-2.9353812E-1,5.515499E-1,-7.842836E-1,-1.0363499E-1,2.8628266E-1,8.4767395E-1,-9.2619085E-1,-6.2984234E-1,-3.1190786E-1,-1.0992572E-2,1.0780185E-1,4.5172593E-1,6.46607E-1,9.9893296E-1,-1.0311451E0,-8.705482E-1,-8.547626E-1,-5.225644E-1,-1.9074707E-1,-4.8795456E-1,1.5313926E-1,-1.425712E-1,4.2663494E-1,-5.1197372E-2,5.287442E-1,-6.786967E-2,6.9486094E-1,-2.1390656E-1,1.003228E0,3.609039E-1,-1.03555575E-1,-4.70109E-2,-5.303512E-2,-9.0120696E-2,-8.797494E-2,-1.3039048E-2,-1.7549432E-3,-6.093834E-2,-2.6712114E-2,3.9901372E-2,-5.7254523E-2,-2.4865834E-2,-7.0698285E-3,3.5898015E-2,-4.632109E-2,-4.121741E-3,-4.660275E-3,6.260075E-2,-2.7467897E-2,1.9623052E-2,-7.983088E-2,5.6496054E-2,-9.1049574E-2,3.288652E-2,7.483378E-2,2.1351127E-2,-7.2437674E-2,9.7508155E-2,9.019526E-2,1.0217249E-1,-5.212328E-2,8.140937E-2],"categories":[],"categories_nodes":[],"categories_segments":[],"categories_sizes":[],"default_left":[0,0,0,0,0,0,0,0,0,0,0,0,0,0,0,0,0,0,0,0,0,0,0,0,0,0,0,0,0,0,0,0,0,0,0,0,0,0,0,0,0,0,0,0,0,0,0,0,0,0,0,0,0,0,0,0,0,0,0,0,0,0,0],"id":21,"left_children":[1,3,5,7,9,11,13,15,17,19,21,23,25,27,29,31,33,35,37,39,41,43,45,47,49,51,53,55,57,59,61,-1,-1,-1,-1,-1,-1,-1,-1,-1,-1,-1,-1,-1,-1,-1,-1,-1,-1,-1,-1,-1,-1,-1,-1,-1,-1,-1,-1,-1,-1,-1,-1],"loss_changes":[1.058136E3,3.969164E2,1.7820813E2,2.5461426E1,5.9280685E1,3.5380142E1,3.1985413E1,2.706726E0,1.3359467E1,2.0082909E1,4.5970615E1,2.9347532E1,2.4940834E1,1.9393082E1,1.310791E0,2.8915405E-2,3.7959595E0,3.2012177E0,1.7087845E1,2.5417353E1,7.6502304E0,4.3666927E1,3.8375465E1,1.8200874E1,2.1446898E1,2.6505524E1,2.745299E1,1.1142838E1,1.6106705E1,2.1331787E-1,2.680636E0,0E0,0E0,0E0,0E0,0E0,0E0,0E0,0E0,0E0,0E0,0E0,0E0,0E0,0E0,0E0,0E0,0E0,0E0,0E0,0E0,0E0,0E0,0E0,0E0,0E0,0E0,0E0,0E0,0E0,0E0,0E0,0E0],"parents":[2147483647,0,0,1,1,2,2,3,3,4,4,5,5,6,6,7,7,8,8,9,9,10,10,11,11,12,12,13,13,14,14,15,15,16,16,17,17,18,18,19,19,20,20,21,21,22,22,23,23,24,24,25,25,26,26,27,27,28,28,29,29,30,30],"right_children":[2,4,6,8,10,12,14,16,18,20,22,24,26,28,30,32,34,36,38,40,42,44,46,48,50,52,54,56,58,60,62,-1,-1,-1,-1,-1,-1,-1,-1,-1,-1,-1,-1,-1,-1,-1,-1,-1,-1,-1,-1,-1,-1,-1,-1,-1,-1,-1,-1,-1,-1,-1,-1],"split_conditions":[1.1309524E-1,4.761905E-2,5.091356E-1,3.021978E-2,6.4935066E-2,4.6898606E-1,1.8571429E-1,1.5873017E-2,3.1399426E-1,5.882353E-2,5.882353E-2,3.1981283E-1,5.2030927E-1,4.1643062E-1,5.904509E-1,3.1493902E-1,6.425445E-2,4.5918368E-2,2E-1,3.6724925E-1,3.8044217E-1,3.3433706E-1,3.471247E-1,1.5236889E-1,3.5830924E-1,3.145693E-1,3.9243796E-1,2.9411766E-1,5.8291984E-1,5.26621E-1,5.3407204E-1,-1.03555575E-1,-4.70109E-2,-5.303512E-2,-9.0120696E-2,-8.797494E-2,-1.3039048E-2,-1.7549432E-3,-6.093834E-2,-2.6712114E-2,3.9901372E-2,-5.7254523E-2,-2.4865834E-2,-7.0698285E-3,3.5898015E-2,-4.632109E-2,-4.121741E-3,-4.660275E-3,6.260075E-2,-2.7467897E-2,1.9623052E-2,-7.983088E-2,5.6496054E-2,-9.1049574E-2,3.288652E-2,7.483378E-2,2.1351127E-2,-7.2437674E-2,9.7508155E-2,9.019526E-2,1.0217249E-1,-5.212328E-2,8.140937E-2],"split_indices":[0,0,2,0,0,2,0,0,1,8,8,5,3,6,4,6,6,0,9,1,1,1,1,4,1,1,1,8,2,2,2,0,0,0,0,0,0,0,0,0,0,0,0,0,0,0,0,0,0,0,0,0,0,0,0,0,0,0,0,0,0,0,0],"split_type":[0,0,0,0,0,0,0,0,0,0,0,0,0,0,0,0,0,0,0,0,0,0,0,0,0,0,0,0,0,0,0,0,0,0,0,0,0,0,0,0,0,0,0,0,0,0,0,0,0,0,0,0,0,0,0,0,0,0,0,0,0,0,0],"sum_hessian":[6.5296553E3,4.2589014E3,2.270754E3,1.1873738E3,3.0715273E3,1.1988203E3,1.0719337E3,6.161926E2,5.711812E2,9.4489874E2,2.1266287E3,5.7748206E2,6.2133826E2,4.6246234E2,6.094714E2,2.0742067E2,4.0877194E2,1.8220341E2,3.889778E2,5.6093164E2,3.8396704E2,9.461867E2,1.180442E3,1.9159767E2,3.8588437E2,5.411129E2,8.022533E1,4.3808868E2,2.4373682E1,6.0482745E2,4.6439285E0,2.0496356E2,2.4571097E0,3.530602E1,3.734659E2,1.7592064E2,6.282776E0,5.723739E1,3.3174042E2,4.9710376E2,6.382791E1,2.826561E2,1.0131094E2,4.535928E2,4.925939E2,2.8265933E2,8.9778265E2,5.7019768E1,1.3457791E2,2.0269565E2,1.8318872E2,1.3816083E1,5.272968E2,2.5266588E1,5.495874E1,3.9378537E2,4.43033E1,1.732589E1,7.0477905E0,1.0109044E2,5.03737E2,1.5251238E0,3.1188045E0],"tree_param":{"num_deleted":"0","num_feature":"10","num_nodes":"63","size_leaf_vector":"1"}},{"base_weights":[4.0951424E-4,-3.1845614E-1,4.451769E-1,-7.571825E-1,-1.2894025E-1,2.5229743E-1,8.237998E-1,-9.0749043E-1,-5.983842E-1,9.8200515E-2,-2.0120119E-1,1.5934353E-1,6.2217605E-1,5.1642996E-1,9.64673E-1,-7.6967937E-1,-9.5481914E-1,-8.098317E-1,-4.8069352E-1,-3.9161912E-1,2.987941E-1,-2.8444532E-1,1.01390086E-1,2.6450893E-1,-1.3771799E-1,3.6684656E-1,7.841401E-1,6.542574E-1,1.1162974E-1,8.168283E-1,1.0045166E0,-9.1939464E-2,-3.788448E-2,-9.65374E-2,-1.1129234E-2,-8.3583765E-2,-1.3179797E-2,7.619018E-2,-5.1479656E-2,-1.0579035E-3,-6.104626E-2,8.772706E-2,1.567535E-2,-2.1169638E-2,-7.7730566E-2,3.28034E-2,-1.649279E-2,3.9118207E-3,4.5649745E-2,-3.846846E-2,1.3829762E-2,5.6244966E-2,5.7323594E-3,6.784286E-2,1.00422226E-1,7.602476E-2,2.3183042E-2,-4.7136296E-2,7.146826E-2,8.534493E-2,-2.3891658E-2,5.5429097E-3,1.0064548E-1],"categories":[],"categories_nodes":[],"categories_segments":[],"categories_sizes":[],"default_left":[0,0,0,0,0,0,0,0,0,0,0,0,0,0,0,0,0,0,0,0,0,0,0,0,0,0,0,0,0,0,0,0,0,0,0,0,0,0,0,0,0,0,0,0,0,0,0,0,0,0,0,0,0,0,0,0,0,0,0,0,0,0,0],"id":22,"left_children":[1,3,5,7,9,11,13,15,17,19,21,23,25,27,29,31,33,35,37,39,41,43,45,47,49,51,53,55,57,59,61,-1,-1,-1,-1,-1,-1,-1,-1,-1,-1,-1,-1,-1,-1,-1,-1,-1,-1,-1,-1,-1,-1,-1,-1,-1,-1,-1,-1,-1,-1,-1,-1],"loss_changes":[8.9837006E2,3.0666483E2,1.9295807E2,2.6017029E1,4.2328617E1,6.0199913E1,3.813678E1,2.9811401E0,1.314917E1,6.131033E1,4.9295853E1,4.3864716E1,1.4264313E1,1.5692268E1,2.7767944E0,8.475624E0,3.6312866E0,3.2942276E0,1.5307068E1,1.5118711E1,3.62149E1,5.4843407E1,2.556939E1,4.483242E1,2.5101994E1,8.350431E0,4.3074646E0,9.252586E0,2.599431E1,5.4230576E0,8.2107544E-1,0E0,0E0,0E0,0E0,0E0,0E0,0E0,0E0,0E0,0E0,0E0,0E0,0E0,0E0,0E0,0E0,0E0,0E0,0E0,0E0,0E0,0E0,0E0,0E0,0E0,0E0,0E0,0E0,0E0,0E0,0E0,0E0],"parents":[2147483647,0,0,1,1,2,2,3,3,4,4,5,5,6,6,7,7,8,8,9,9,10,10,11,11,12,12,13,13,14,14,15,15,16,16,17,17,18,18,19,19,20,20,21,21,22,22,23,23,24,24,25,25,26,26,27,27,28,28,29,29,30,30],"right_children":[2,4,6,8,10,12,14,16,18,20,22,24,26,28,30,32,34,36,38,40,42,44,46,48,50,52,54,56,58,60,62,-1,-1,-1,-1,-1,-1,-1,-1,-1,-1,-1,-1,-1,-1,-1,-1,-1,-1,-1,-1,-1,-1,-1,-1,-1,-1,-1,-1,-1,-1,-1,-1],"split_conditions":[9.920635E-2,4.761905E-2,5.238102E-1,3.021978E-2,1.2050524E-1,2E-1,1.4880952E-1,4.4913474E-1,3.174486E-1,3.1028563E-1,3.8876292E-1,2.2856052E-1,4.760216E-1,5.7227266E-1,1.904762E-1,3.01199E-1,4.659115E-1,4.5918368E-2,6.425445E-2,3.4691322E-1,3.9001152E-1,5.112209E-1,2.532361E-1,3.4663284E-1,3.9243796E-1,4.1289E-1,3.3333334E-1,2.3529412E-1,5.6350935E-1,4.7218665E-1,3.3324438E-1,-9.1939464E-2,-3.788448E-2,-9.65374E-2,-1.1129234E-2,-8.3583765E-2,-1.3179797E-2,7.619018E-2,-5.1479656E-2,-1.0579035E-3,-6.104626E-2,8.772706E-2,1.567535E-2,-2.1169638E-2,-7.7730566E-2,3.28034E-2,-1.649279E-2,3.9118207E-3,4.5649745E-2,-3.846846E-2,1.3829762E-2,5.6244966E-2,5.7323594E-3,6.784286E-2,1.00422226E-1,7.602476E-2,2.3183042E-2,-4.7136296E-2,7.146826E-2,8.534493E-2,-2.3891658E-2,5.5429097E-3,1.0064548E-1],"split_indices":[0,0,2,0,6,0,0,2,1,1,1,6,2,3,0,1,4,0,6,3,3,3,6,1,1,7,0,8,2,6,1,0,0,0,0,0,0,0,0,0,0,0,0,0,0,0,0,0,0,0,0,0,0,0,0,0,0,0,0,0,0,0,0],"split_type":[0,0,0,0,0,0,0,0,0,0,0,0,0,0,0,0,0,0,0,0,0,0,0,0,0,0,0,0,0,0,0,0,0,0,0,0,0,0,0,0,0,0,0,0,0,0,0,0,0,0,0,0,0,0,0,0,0,0,0,0,0,0,0],"sum_hessian":[6.3325327E3,3.6884607E3,2.6440723E3,1.1117594E3,2.5767012E3,1.7528137E3,8.9125854E2,5.6872614E2,5.4303326E2,6.218031E2,1.9548981E3,1.4019274E3,3.508864E2,2.8156992E2,6.096886E2,1.498007E2,4.189254E2,1.9207077E2,3.5096252E2,1.8038281E2,4.4142026E2,1.5331752E3,4.2172296E2,1.0354633E3,3.6646408E2,1.3745671E2,2.1342972E2,2.0959145E2,7.1978485E1,1.3399278E2,4.7569583E2,1.0733281E2,4.2467888E1,4.1360565E2,5.3197775E0,1.8475188E2,7.3188963E0,8.8048E0,3.421577E2,6.618789E1,1.1419493E2,8.599986E1,3.554204E2,1.337223E3,1.9595207E2,2.2770662E2,1.9401634E2,4.7685205E2,5.586112E2,1.9320186E2,1.7326222E2,8.372778E1,5.372892E1,1.469353E2,6.649441E1,1.6691219E2,4.2679264E1,3.6708977E1,3.526951E1,1.2968593E2,4.306854E0,1.0297868E0,4.7466605E2],"tree_param":{"num_deleted":"0","num_feature":"10","num_nodes":"63","size_leaf_vector":"1"}},{"base_weights":[4.921928E-4,-5.015495E-1,2.4936293E-1,-8.057821E-1,-3.065495E-1,9.005546E-2,7.1232647E-1,-9.3750715E-1,-6.78963E-1,-1.9483835E-1,-4.753153E-1,4.2098224E-2,5.6074935E-1,3.3782282E-1,8.9674807E-1,-7.3828715E-1,-9.697461E-1,-4.4913277E-1,-7.5386196E-1,-7.22764E-1,-1.0795249E-1,3.8019055E-1,-5.009589E-1,1.4171417E-1,-2.0801553E-1,2.8352097E-1,7.00627E-1,2.5766382E-1,8.6993176E-1,7.478681E-1,9.85548E-1,-9.5866196E-2,-2.8875783E-2,-8.807403E-2,-1.0219091E-1,-5.2253474E-2,1.875645E-1,-7.7216715E-2,-2.1362768E-3,-5.407411E-2,-9.9456236E-2,2.7940392E-2,-2.026186E-2,1.00515485E-1,-1.8095348E-2,-6.131449E-2,-3.0866725E-2,-9.194147E-3,2.7771248E-2,-4.4045847E-2,1.2440592E-3,-1.26157915E-2,6.4671986E-2,8.4885016E-2,4.849201E-2,3.469533E-2,-2.9012043E-2,9.408539E-2,2.0800438E-2,8.0819294E-2,2.1760043E-2,3.9824867E-3,9.876297E-2],"categories":[],"categories_nodes":[],"categories_segments":[],"categories_sizes":[],"default_left":[0,0,0,0,0,0,0,0,0,0,0,0,0,0,0,0,0,0,0,0,0,0,0,0,0,0,0,0,0,0,0,0,0,0,0,0,0,0,0,0,0,0,0,0,0,0,0,0,0,0,0,0,0,0,0,0,0,0,0,0,0,0,0],"id":23,"left_children":[1,3,5,7,9,11,13,15,17,19,21,23,25,27,29,31,33,35,37,39,41,43,45,47,49,51,53,55,57,59,61,-1,-1,-1,-1,-1,-1,-1,-1,-1,-1,-1,-1,-1,-1,-1,-1,-1,-1,-1,-1,-1,-1,-1,-1,-1,-1,-1,-1,-1,-1,-1,-1],"loss_changes":[7.697522E2,1.20885925E2,3.0372388E2,1.2676331E1,2.3396614E1,6.917698E1,7.2517334E1,1.777832E0,6.7131653E0,3.4386925E1,1.1061745E1,6.937453E1,1.0790337E1,1.468298E1,8.594727E0,5.4958096E0,6.3674927E-1,1.8583899E1,4.106491E0,4.706856E0,2.3758465E1,5.4387903E0,1.0198952E1,6.3294926E1,4.0650364E1,1.4471914E1,5.588669E0,1.5026428E1,1.9325867E0,8.392578E0,8.2489014E-1,0E0,0E0,0E0,0E0,0E0,0E0,0E0,0E0,0E0,0E0,0E0,0E0,0E0,0E0,0E0,0E0,0E0,0E0,0E0,0E0,0E0,0E0,0E0,0E0,0E0,0E0,0E0,0E0,0E0,0E0,0E0,0E0],"parents":[2147483647,0,0,1,1,2,2,3,3,4,4,5,5,6,6,7,7,8,8,9,9,10,10,11,11,12,12,13,13,14,14,15,15,16,16,17,17,18,18,19,19,20,20,21,21,22,22,23,23,24,24,25,25,26,26,27,27,28,28,29,29,30,30],"right_children":[2,4,6,8,10,12,14,16,18,20,22,24,26,28,30,32,34,36,38,40,42,44,46,48,50,52,54,56,58,60,62,-1,-1,-1,-1,-1,-1,-1,-1,-1,-1,-1,-1,-1,-1,-1,-1,-1,-1,-1,-1,-1,-1,-1,-1,-1,-1,-1,-1,-1,-1,-1,-1],"split_conditions":[6.696428E-2,3.8961038E-2,1.6428572E-1,2.6785715E-2,1.7301899E-1,5.510132E-1,4.9399447E-1,6.425445E-2,9.900167E-2,2.970061E-1,4.0609083E-1,1.764706E-1,9.2857145E-2,3.3333334E-1,5.347814E-1,3.01199E-1,4.6621653E-1,3.6479717E-1,4.5110324E-1,4.3989533E-1,3.8130617E-1,4.0788049E-1,3.7042716E-1,3.3433706E-1,3.8449866E-1,4.0241644E-1,4.9837157E-1,2.9411766E-1,5.002917E-1,5.522312E-1,3.3594173E-1,-9.5866196E-2,-2.8875783E-2,-8.807403E-2,-1.0219091E-1,-5.2253474E-2,1.875645E-1,-7.7216715E-2,-2.1362768E-3,-5.407411E-2,-9.9456236E-2,2.7940392E-2,-2.026186E-2,1.00515485E-1,-1.8095348E-2,-6.131449E-2,-3.0866725E-2,-9.194147E-3,2.7771248E-2,-4.4045847E-2,1.2440592E-3,-1.26157915E-2,6.4671986E-2,8.4885016E-2,4.849201E-2,3.469533E-2,-2.9012043E-2,9.408539E-2,2.0800438E-2,8.0819294E-2,2.1760043E-2,3.9824867E-3,9.876297E-2],"split_indices":[0,0,0,0,6,2,2,6,6,1,2,8,0,0,2,1,2,1,4,2,3,7,1,1,1,1,5,8,7,3,1,0,0,0,0,0,0,0,0,0,0,0,0,0,0,0,0,0,0,0,0,0,0,0,0,0,0,0,0,0,0,0,0],"split_type":[0,0,0,0,0,0,0,0,0,0,0,0,0,0,0,0,0,0,0,0,0,0,0,0,0,0,0,0,0,0,0,0,0,0,0,0,0,0,0,0,0,0,0,0,0,0,0,0,0,0,0,0,0,0,0,0,0,0,0,0,0,0,0],"sum_hessian":[6.1588022E3,2.0408412E3,4.117961E3,7.95928E2,1.2449132E3,3.0646113E3,1.0533496E3,3.872769E2,4.086511E2,7.503733E2,4.9453998E2,2.7822297E3,2.8238147E2,3.4849506E2,7.0485455E2,5.7271183E1,3.300057E2,1.0216143E2,3.0648965E2,1.0500933E2,6.4536395E2,1.3989959E1,4.8055002E2,1.9900579E3,7.921719E2,9.571248E1,1.8666899E2,3.041595E2,4.4335575E1,2.6686188E2,4.379927E2,3.7670975E1,1.9600206E1,1.2854808E2,2.0145763E2,9.978604E1,2.3753884E0,2.989644E2,7.5252776E0,6.468163E1,4.03277E1,1.2636204E2,5.1900195E2,6.2442617E0,7.745697E0,3.0210733E2,1.7844269E2,7.3227563E2,1.2577822E3,3.8511703E2,4.0705484E2,4.528492E1,5.0427563E1,1.0890183E2,7.776715E1,2.6184503E2,4.2314438E1,3.9664356E1,4.6712184E0,2.3913326E2,2.7728611E1,1.0061742E0,4.3698654E2],"tree_param":{"num_deleted":"0","num_feature":"10","num_nodes":"63","size_leaf_vector":"1"}},{"base_weights":[4.922629E-4,-2.365526E-1,4.6779683E-1,-7.039859E-1,-8.319276E-2,2.2819124E-1,7.7874273E-1,-9.219003E-1,-5.786104E-1,4.0414494E-2,-2.0232749E-1,1.815881E-1,8.0215937E-1,5.641028E-1,9.613779E-1,-7.1273816E-1,-9.565586E-1,-7.6019293E-1,-4.6608192E-1,-4.734038E-2,4.8243377E-1,-4.058322E-1,-6.754684E-2,4.3206745E-1,4.6603646E-2,3.2356474E-1,8.9652795E-1,6.8161047E-1,1.5886244E-1,9.668705E-1,2.325707E-1,-9.439527E-2,-2.6797423E-2,-8.613784E-2,-1.01309456E-1,-1.627014E-2,-8.0689825E-2,9.511917E-3,-5.5579226E-2,1.9034249E-3,-8.422484E-2,1.0619948E-1,3.4332387E-2,-2.375097E-2,-7.686176E-2,1.3711141E-2,-2.821274E-2,5.7024336E-3,5.979082E-2,-4.7194485E-2,1.6855186E-2,8.329251E-2,-1.02322005E-1,1.1181057E-2,9.195117E-2,8.579091E-2,4.8900355E-2,-3.9789557E-2,6.5976866E-2,8.444828E-2,9.9057585E-2,7.597972E-2,-6.333238E-2],"categories":[],"categories_nodes":[],"categories_segments":[],"categories_sizes":[],"default_left":[0,0,0,0,0,0,0,0,0,0,0,0,0,0,0,0,0,0,0,0,0,0,0,0,0,0,0,0,0,0,0,0,0,0,0,0,0,0,0,0,0,0,0,0,0,0,0,0,0,0,0,0,0,0,0,0,0,0,0,0,0,0,0],"id":24,"left_children":[1,3,5,7,9,11,13,15,17,19,21,23,25,27,29,31,33,35,37,39,41,43,45,47,49,51,53,55,57,59,61,-1,-1,-1,-1,-1,-1,-1,-1,-1,-1,-1,-1,-1,-1,-1,-1,-1,-1,-1,-1,-1,-1,-1,-1,-1,-1,-1,-1,-1,-1,-1,-1],"loss_changes":[6.644827E2,2.852379E2,1.5023248E2,2.632428E1,4.415349E1,3.0391151E1,3.3883484E1,1.9086609E0,1.2451218E1,5.71252E1,4.1847176E1,3.572392E1,3.5687332E0,1.9231735E1,1.6687317E0,5.3739796E0,7.611389E-1,6.5157776E0,1.9662804E1,6.486945E1,1.9302402E1,3.694893E1,4.0424267E1,2.298452E1,4.3591576E1,1.1579133E1,1.1741714E0,1.0261185E1,2.6087101E1,5.2474976E-1,2.697686E0,0E0,0E0,0E0,0E0,0E0,0E0,0E0,0E0,