{"learner":{"attributes":{"scikit_learn":"{\"_estimator_type\": \"classifier\"}"},"feature_names":[],"feature_types":[],"gradient_booster":{"model":{"gbtree_model_param":{"num_parallel_tree":"1","num_trees":"100"},"iteration_indptr":[0,1,2,3,4,5,6,7,8,9,10,11,12,13,14,15,16,17,18,19,20,21,22,23,24,25,26,27,28,29,30,31,32,33,34,35,36,37,38,39,40,41,42,43,44,45,46,47,48,49,50,51,52,53,54,55,56,57,58,59,60,61,62,63,64,65,66,67,68,69,70,71,72,73,74,75,76,77,78,79,80,81,82,83,84,85,86,87,88,89,90,91,92,93,94,95,96,97,98,99,100],"tree_info":[0,0,0,0,0,0,0,0,0,0,0,0,0,0,0,0,0,0,0,0,0,0,0,0,0,0,0,0,0,0,0,0,0,0,0,0,0,0,0,0,0,0,0,0,0,0,0,0,0,0,0,0,0,0,0,0,0,0,0,0,0,0,0,0,0,0,0,0,0,0,0,0,0,0,0,0,0,0,0,0,0,0,0,0,0,0,0,0,0,0,0,0,0,0,0,0,0,0,0,0],"trees":[{"base_weights":[-1.4606821E-8,-1.5138018E0,1.4878587E0,-1.8084431E0,-5.467511E-1,6.556237E-1,1.7330474E0,-1.9106523E0,-1.4295751E0,-1.0163919E0,-9.885033E-2,2.1377763E-1,1.3831658E0,1.231408E0,1.8585205E0,-1.9529892E0,-1.7335297E0,-1.5714531E0,-1.0889504E0,-8.077305E-1,-1.307127E0,-3.7636906E-1,7.743473E-1,-8.841463E-2,5.17983E-1,2.8259212E-1,1.4674329E0,8.7327373E-1,1.5751269E0,1.6360337E0,1.921164E0,-1.9652587E-1,-1.6764571E-1,-1.7781839E-1,-1.3575302E-1,-1.4892937E-1,-1.7401999E-1,-5.3091485E-2,-1.2139144E-1,-1.094412E-1,-4.644377E-2,-1.0723008E-1,-1.5776427E-1,-7.325532E-2,-1.1300347E-2,3.9558697E-2,1.097067E-1,1.7116342E-2,-5.9855968E-2,7.455224E-2,1.5203943E-2,6.354923E-2,-1.2117149E-1,1.2384486E-1,1.70386E-1,9.502517E-2,2.8186888E-2,1.4376298E-1,1.8146013E-1,1.3483487E-1,1.832742E-1,1.7062423E-1,1.9415344E-1],"categories":[],"categories_nodes":[],"categories_segments":[],"categories_sizes":[],"default_left":[0,0,0,0,0,0,0,0,0,0,0,0,0,0,0,0,0,0,0,0,0,0,0,0,0,0,0,0,0,0,0,0,0,0,0,0,0,0,0,0,0,0,0,0,0,0,0,0,0,0,0,0,0,0,0,0,0,0,0,0,0,0,0],"id":0,"left_children":[1,3,5,7,9,11,13,15,17,19,21,23,25,27,29,31,33,35,37,39,41,43,45,47,49,51,53,55,57,59,61,-1,-1,-1,-1,-1,-1,-1,-1,-1,-1,-1,-1,-1,-1,-1,-1,-1,-1,-1,-1,-1,-1,-1,-1,-1,-1,-1,-1,-1,-1,-1,-1],"loss_changes":[3.1205145E4,1.9557773E3,1.4246348E3,2.0108203E2,3.3755313E2,5.113687E2,3.3737793E2,2.7675781E1,5.2521484E1,4.647339E1,1.9965872E2,9.1188965E1,5.5344116E1,1.3190247E2,5.699414E1,8.020508E0,1.1151611E1,8.360596E0,2.2593506E1,4.463794E1,1.9000366E1,5.8543823E1,2.3858856E1,6.607909E1,4.1039383E1,2.3972063E1,2.8111084E1,2.3973236E1,1.5541504E1,5.1555664E1,1.140332E1,0E0,0E0,0E0,0E0,0E0,0E0,0E0,0E0,0E0,0E0,0E0,0E0,0E0,0E0,0E0,0E0,0E0,0E0,0E0,0E0,0E0,0E0,0E0,0E0,0E0,0E0,0E0,0E0,0E0,0E0,0E0,0E0],"parents":[2147483647,0,0,1,1,2,2,3,3,4,4,5,5,6,6,7,7,8,8,9,9,10,10,11,11,12,12,13,13,14,14,15,15,16,16,17,17,18,18,19,19,20,20,21,21,22,22,23,23,24,24,25,25,26,26,27,27,28,28,29,29,30,30],"right_children":[2,4,6,8,10,12,14,16,18,20,22,24,26,28,30,32,34,36,38,40,42,44,46,48,50,52,54,56,58,60,62,-1,-1,-1,-1,-1,-1,-1,-1,-1,-1,-1,-1,-1,-1,-1,-1,-1,-1,-1,-1,-1,-1,-1,-1,-1,-1,-1,-1,-1,-1,-1,-1],"split_conditions":[8.4848486E-2,5.925926E-2,1.2E-1,4.5454547E-2,4.4317275E-1,5.6753147E-1,5.290313E-1,3.6666665E-2,4.529007E-1,5.329103E-1,5.889215E-1,4.5440623E-1,4.267169E-1,1.7777778E-1,5.6691676E-1,4.7051373E-1,4.735118E-1,5.630016E-1,2.0057148E-1,4.059825E-1,5E-2,7E-2,6.1351585E-1,1.5E-1,3.4594402E-1,5.8095634E-1,6.063153E-1,3E-1,2.75E-1,1.7333333E-1,4.499902E-1,-1.9652587E-1,-1.6764571E-1,-1.7781839E-1,-1.3575302E-1,-1.4892937E-1,-1.7401999E-1,-5.3091485E-2,-1.2139144E-1,-1.094412E-1,-4.644377E-2,-1.0723008E-1,-1.5776427E-1,-7.325532E-2,-1.1300347E-2,3.9558697E-2,1.097067E-1,1.7116342E-2,-5.9855968E-2,7.455224E-2,1.5203943E-2,6.354923E-2,-1.2117149E-1,1.2384486E-1,1.70386E-1,9.502517E-2,2.8186888E-2,1.4376298E-1,1.8146013E-1,1.3483487E-1,1.832742E-1,1.7062423E-1,1.9415344E-1],"split_indices":[0,0,0,0,1,2,2,0,1,3,2,1,1,0,2,1,1,3,6,1,8,0,2,8,6,3,2,8,0,0,1,0,0,0,0,0,0,0,0,0,0,0,0,0,0,0,0,0,0,0,0,0,0,0,0,0,0,0,0,0,0,0,0],"split_type":[0,0,0,0,0,0,0,0,0,0,0,0,0,0,0,0,0,0,0,0,0,0,0,0,0,0,0,0,0,0,0,0,0,0,0,0,0,0,0,0,0,0,0,0,0,0,0,0,0,0,0,0,0,0,0,0,0,0,0,0,0,0,0],"sum_hessian":[1.3852648E4,6.866452E3,6.986197E3,5.2622715E3,1.6041804E3,1.590681E3,5.3955156E3,4.1410703E3,1.1212013E3,7.8246606E2,8.2171436E2,9.9045703E2,6.0022394E2,1.081703E3,4.313813E3,3.3341052E3,8.0696497E2,7.8896576E2,3.322356E2,4.5773013E2,3.247359E2,6.239729E2,1.9774142E2,4.9722842E2,4.932286E2,4.2998135E1,5.572258E2,5.314769E2,5.5022614E2,9.537086E2,3.3601042E3,3.1866118E3,1.474936E2,7.179689E2,8.899614E1,5.372267E2,2.5173907E2,6.1747322E1,2.7048825E2,2.4823923E2,2.094909E2,1.7649234E2,1.4824356E2,2.6448853E2,3.594844E2,9.199601E1,1.05745415E2,3.299857E2,1.6724274E2,3.0348682E2,1.8974176E2,3.524847E1,7.749664E0,2.8623758E2,2.7098825E2,4.697296E2,6.1747322E1,3.5398465E2,1.9624149E2,3.9048306E2,5.632256E2,2.9823706E2,3.0618672E3],"tree_param":{"num_deleted":"0","num_feature":"10","num_nodes":"63","size_leaf_vector":"1"}},{"base_weights":[7.406672E-5,-1.4429986E0,1.283779E0,-1.661082E0,-6.794757E-1,4.7986105E-1,1.5745022E0,-1.7595223E0,-1.4142708E0,-8.3043534E-1,2.981921E-1,9.261424E-2,1.158633E0,1.1144648E0,1.6901401E0,-1.7842367E0,-1.6161183E0,-1.5443082E0,-1.1526242E0,-1.0054147E0,-3.836073E-1,-1.1553832E0,5.00405E-1,-1.8260293E-1,3.8967195E-1,5.792826E-1,1.3263184E0,7.8830385E-1,1.428975E0,1.3968521E0,1.7324419E0,-1.6871844E-1,-1.8016227E-1,1.0153712E-2,-1.6210613E-1,-1.4766952E-1,-1.7278813E-1,-1.2241639E-1,-2.676994E-2,-8.843311E-2,-1.3685964E-1,-2.1663796E-2,-9.079421E-2,-2.602427E-3,-1.3972436E-1,1.99604E-2,1.05715826E-1,1.2363463E-2,-5.7854354E-2,1.9178402E-2,7.848528E-2,9.0589575E-2,4.6550436E-3,9.813626E-2,1.4728038E-1,4.0791977E-2,8.8865496E-2,1.3024943E-1,1.6500418E-1,1.0641437E-1,1.613944E-1,1.5656641E-1,1.7656544E-1],"categories":[],"categories_nodes":[],"categories_segments":[],"categories_sizes":[],"default_left":[0,0,0,0,0,0,0,0,0,0,0,0,0,0,0,0,0,0,0,0,0,0,0,0,0,0,0,0,0,0,0,0,0,0,0,0,0,0,0,0,0,0,0,0,0,0,0,0,0,0,0,0,0,0,0,0,0,0,0,0,0,0,0],"id":1,"left_children":[1,3,5,7,9,11,13,15,17,19,21,23,25,27,29,31,33,35,37,39,41,43,45,47,49,51,53,55,57,59,61,-1,-1,-1,-1,-1,-1,-1,-1,-1,-1,-1,-1,-1,-1,-1,-1,-1,-1,-1,-1,-1,-1,-1,-1,-1,-1,-1,-1,-1,-1,-1,-1],"loss_changes":[2.5494879E4,1.0777178E3,1.7015186E3,1.1993848E2,2.1294519E2,5.0873166E2,2.8265137E2,9.869141E0,4.7276855E1,9.7241516E1,5.7453194E1,1.0093297E2,6.75401E1,1.0938745E2,5.058496E1,2.1220703E0,4.7457275E0,9.366455E0,3.0225952E1,3.8220703E1,3.0707222E1,6.500881E0,2.835374E1,7.780295E1,4.627215E1,2.7728886E1,2.6070251E1,1.9910706E1,1.3151855E1,3.7552612E1,1.7893555E1,0E0,0E0,0E0,0E0,0E0,0E0,0E0,0E0,0E0,0E0,0E0,0E0,0E0,0E0,0E0,0E0,0E0,0E0,0E0,0E0,0E0,0E0,0E0,0E0,0E0,0E0,0E0,0E0,0E0,0E0,0E0,0E0],"parents":[2147483647,0,0,1,1,2,2,3,3,4,4,5,5,6,6,7,7,8,8,9,9,10,10,11,11,12,12,13,13,14,14,15,15,16,16,17,17,18,18,19,19,20,20,21,21,22,22,23,23,24,24,25,25,26,26,27,27,28,28,29,29,30,30],"right_children":[2,4,6,8,10,12,14,16,18,20,22,24,26,28,30,32,34,36,38,40,42,44,46,48,50,52,54,56,58,60,62,-1,-1,-1,-1,-1,-1,-1,-1,-1,-1,-1,-1,-1,-1,-1,-1,-1,-1,-1,-1,-1,-1,-1,-1,-1,-1,-1,-1,-1,-1,-1,-1],"split_conditions":[7.878788E-2,5.666667E-2,1.2E-1,4.1666668E-2,5.940122E-1,5.6753147E-1,5.290313E-1,4.4108966E-1,4.424889E-1,4.6395242E-1,4.267169E-1,4.5440623E-1,4.551928E-1,1.7777778E-1,1.4E-1,5.008092E-1,1.2118108E-1,5.7118106E-1,6.2578064E-1,5.70436E-1,2E-1,5.0629085E-1,7.333333E-2,5.189008E-1,1.0555556E-1,5.681239E-1,9.259259E-2,4.5425949E-1,2.75E-1,5.763276E-1,4.6036077E-1,-1.6871844E-1,-1.8016227E-1,1.0153712E-2,-1.6210613E-1,-1.4766952E-1,-1.7278813E-1,-1.2241639E-1,-2.676994E-2,-8.843311E-2,-1.3685964E-1,-2.1663796E-2,-9.079421E-2,-2.602427E-3,-1.3972436E-1,1.99604E-2,1.05715826E-1,1.2363463E-2,-5.7854354E-2,1.9178402E-2,7.848528E-2,9.0589575E-2,4.6550436E-3,9.813626E-2,1.4728038E-1,4.0791977E-2,8.8865496E-2,1.3024943E-1,1.6500418E-1,1.0641437E-1,1.613944E-1,1.5656641E-1,1.7656544E-1],"split_indices":[0,0,0,0,2,2,2,1,1,1,1,1,1,0,0,2,7,3,2,3,8,3,0,3,0,3,0,2,0,2,1,0,0,0,0,0,0,0,0,0,0,0,0,0,0,0,0,0,0,0,0,0,0,0,0,0,0,0,0,0,0,0,0],"split_type":[0,0,0,0,0,0,0,0,0,0,0,0,0,0,0,0,0,0,0,0,0,0,0,0,0,0,0,0,0,0,0,0,0,0,0,0,0,0,0,0,0,0,0,0,0,0,0,0,0,0,0,0,0,0,0,0,0,0,0,0,0,0,0],"sum_hessian":[1.3760569E4,6.4781055E3,7.2824644E3,5.0379507E3,1.4401548E3,1.9348363E3,5.3476284E3,3.5971174E3,1.4408331E3,1.2476573E3,1.9249745E2,1.2327025E3,7.021338E2,1.0763337E3,4.2712944E3,3.0585598E3,5.385575E2,9.5920776E2,4.816253E2,8.9566266E2,3.5199466E2,2.2933064E1,1.6956439E2,6.400739E2,5.9262854E2,1.5860628E2,5.435275E2,5.3010144E2,5.462323E2,5.4269354E2,3.7286008E3,4.7956342E2,2.5789966E3,1.4892755E0,5.370682E2,7.076225E2,2.5158528E2,4.4524704E2,3.6378258E1,6.742911E2,2.213716E2,2.6804993E2,8.3944725E1,4.2403736E0,1.869269E1,1.1096893E2,5.859546E1,3.6130942E2,2.7876453E2,3.958772E2,1.9675134E2,9.789023E1,6.0716045E1,1.6430598E2,3.7922153E2,1.1171336E2,4.1838806E2,3.5182922E2,1.9440306E2,2.1661607E2,3.2607748E2,6.272057E2,3.1013953E3],"tree_param":{"num_deleted":"0","num_feature":"10","num_nodes":"63","size_leaf_vector":"1"}},{"base_weights":[1.3209519E-4,-1.2573091E0,1.2395229E0,-1.5094525E0,-4.4783697E-1,5.9590256E-1,1.467748E0,-1.5995203E0,-1.179967E0,-8.451887E-1,-7.059823E-2,2.5314227E-1,1.23716E0,1.0890527E0,1.5807081E0,-1.6173772E0,-1.2760147E0,-1.3586382E0,-9.730552E-1,-6.637646E-1,-1.0996715E0,-3.4460464E-1,5.480572E-1,-1.32086715E-2,5.082333E-1,2.9621837E-1,1.297875E0,7.800839E-1,1.3384721E0,1.435958E0,1.6387693E0,-1.6469243E-1,-1.4841656E-1,6.909679E-2,-1.3066654E-1,-1.236067E-1,-1.4946958E-1,-1.0158636E-1,-9.045965E-4,-7.585669E-2,2.4042195E-2,-1.3533689E-1,-8.6832084E-2,-1.9658277E-2,-8.265868E-2,2.6865905E-2,9.319898E-2,1.1787105E-2,-9.899775E-2,2.6431745E-2,7.956716E-2,1.1347405E-1,-4.288539E-2,1.1633374E-1,1.568434E-1,8.293103E-2,-2.094176E-3,1.126997E-1,1.4515956E-1,1.1898965E-1,1.559595E-1,1.3942863E-1,1.6480747E-1],"categories":[],"categories_nodes":[],"categories_segments":[],"categories_sizes":[],"default_left":[0,0,0,0,0,0,0,0,0,0,0,0,0,0,0,0,0,0,0,0,0,0,0,0,0,0,0,0,0,0,0,0,0,0,0,0,0,0,0,0,0,0,0,0,0,0,0,0,0,0,0,0,0,0,0,0,0,0,0,0,0,0,0],"id":2,"left_children":[1,3,5,7,9,11,13,15,17,19,21,23,25,27,29,31,33,35,37,39,41,43,45,47,49,51,53,55,57,59,61,-1,-1,-1,-1,-1,-1,-1,-1,-1,-1,-1,-1,-1,-1,-1,-1,-1,-1,-1,-1,-1,-1,-1,-1,-1,-1,-1,-1,-1,-1,-1,-1],"loss_changes":[2.1081668E4,1.3698193E3,9.998174E2,1.5003809E2,2.3920941E2,3.9202795E2,2.1338379E2,2.1145508E1,3.9449097E1,3.515747E1,1.3917967E2,7.912723E1,3.512207E1,8.8236084E1,3.0180664E1,1.2527344E1,1.38593445E1,7.9798584E0,2.1225372E1,3.9296906E1,1.7723358E1,4.0422386E1,2.6788834E1,7.317986E1,4.1494965E1,2.4178968E1,1.9416565E1,2.0517395E1,1.3666138E1,3.210376E1,3.9711914E0,0E0,0E0,0E0,0E0,0E0,0E0,0E0,0E0,0E0,0E0,0E0,0E0,0E0,0E0,0E0,0E0,0E0,0E0,0E0,0E0,0E0,0E0,0E0,0E0,0E0,0E0,0E0,0E0,0E0,0E0,0E0,0E0],"parents":[2147483647,0,0,1,1,2,2,3,3,4,4,5,5,6,6,7,7,8,8,9,9,10,10,11,11,12,12,13,13,14,14,15,15,16,16,17,17,18,18,19,19,20,20,21,21,22,22,23,23,24,24,25,25,26,26,27,27,28,28,29,29,30,30],"right_children":[2,4,6,8,10,12,14,16,18,20,22,24,26,28,30,32,34,36,38,40,42,44,46,48,50,52,54,56,58,60,62,-1,-1,-1,-1,-1,-1,-1,-1,-1,-1,-1,-1,-1,-1,-1,-1,-1,-1,-1,-1,-1,-1,-1,-1,-1,-1,-1,-1,-1,-1,-1,-1],"split_conditions":[8.4848486E-2,5.925926E-2,1.23809524E-1,4.5454547E-2,4.4317275E-1,5.726077E-1,5.374245E-1,4.735118E-1,4.3153998E-1,5.329103E-1,5.770636E-1,4.5440623E-1,4.267169E-1,1.7777778E-1,1.7333333E-1,3.6666665E-2,1.524752E-1,5.2460766E-1,6.357686E-1,5.6630343E-1,4.225496E-1,2E-1,6.1351585E-1,5.8173037E-1,1.0666667E-1,5.1983994E-1,6.2681323E-1,3.5E-1,4.8940244E-1,5.770636E-1,4.2806566E-1,-1.6469243E-1,-1.4841656E-1,6.909679E-2,-1.3066654E-1,-1.236067E-1,-1.4946958E-1,-1.0158636E-1,-9.045965E-4,-7.585669E-2,2.4042195E-2,-1.3533689E-1,-8.6832084E-2,-1.9658277E-2,-8.265868E-2,2.6865905E-2,9.319898E-2,1.1787105E-2,-9.899775E-2,2.6431745E-2,7.956716E-2,1.1347405E-1,-4.288539E-2,1.1633374E-1,1.568434E-1,8.293103E-2,-2.094176E-3,1.126997E-1,1.4515956E-1,1.1898965E-1,1.559595E-1,1.3942863E-1,1.6480747E-1],"split_indices":[0,0,0,0,1,2,2,1,1,3,2,1,1,0,0,0,7,3,2,2,1,8,2,3,0,3,2,8,2,2,1,0,0,0,0,0,0,0,0,0,0,0,0,0,0,0,0,0,0,0,0,0,0,0,0,0,0,0,0,0,0,0,0],"split_type":[0,0,0,0,0,0,0,0,0,0,0,0,0,0,0,0,0,0,0,0,0,0,0,0,0,0,0,0,0,0,0,0,0,0,0,0,0,0,0,0,0,0,0,0,0,0,0,0,0,0,0,0,0,0,0,0,0,0,0,0,0,0,0],"sum_hessian":[1.3525233E4,6.71372E3,6.8115127E3,5.118491E3,1.5952292E3,1.7840112E3,5.0275015E3,4.016649E3,1.1018423E3,7.7629974E2,8.1892957E2,1.1635002E3,6.20511E2,1.1575365E3,3.869965E3,3.802745E3,2.1390375E2,5.8828455E2,5.1355774E2,4.5531107E2,3.2098868E2,5.678626E2,2.5106696E2,5.6965186E2,5.9384845E2,3.796835E1,5.8254266E2,5.188893E2,6.3864716E2,1.1152668E3,2.754698E3,3.1030974E3,6.9964777E2,2.9514897E0,2.1095226E2,3.1478598E2,2.7349854E2,4.9167056E2,2.1887175E1,4.122486E2,4.3062466E1,1.50787E2,1.7020166E2,4.355182E2,1.3234442E2,1.4630013E2,1.0476683E2,5.030264E2,6.662545E1,3.222832E2,2.7156525E2,1.7344734E1,2.0623613E1,3.9261252E2,1.8993011E2,4.8881433E2,3.0074982E1,2.263906E2,4.122566E2,3.765278E2,7.387391E2,1.0653434E2,2.6481638E3],"tree_param":{"num_deleted":"0","num_feature":"10","num_nodes":"63","size_leaf_vector":"1"}},{"base_weights":[1.8326835E-4,-1.2259493E0,1.0886966E0,-1.4582366E0,-6.517014E-1,3.9830908E-1,1.3482835E0,-1.5294621E0,-1.2861425E0,-9.523972E-1,-3.1759283E-1,2.926423E-2,9.098019E-1,9.2928547E-1,1.4568304E0,-1.5376532E0,-1.2033259E0,-1.3371907E0,-9.5405775E-1,-8.574003E-1,-1.3053695E0,-4.8409617E-1,3.884026E-1,-2.839322E-1,2.1859269E-1,6.137175E-1,1.1747108E0,6.463601E-1,1.209948E0,1.256149E0,1.5142455E0,-1.0569193E-1,-1.5411498E-1,-1.6685106E-2,-1.2841392E-1,-8.0409944E-2,-1.3544415E-1,-1.0583357E-1,-4.543766E-3,-1.1140372E-1,-6.389909E-2,-1.3521174E-1,-6.4266995E-2,-6.562137E-2,-1.1873836E-2,1.1126922E-2,1.0516155E-1,-3.2702603E-3,-9.042999E-2,5.829159E-2,-1.0141358E-4,8.3893724E-2,-7.3998435E-3,1.0077832E-1,1.3787311E-1,9.985851E-2,5.3709984E-2,1.085658E-1,1.4307903E-1,1.0133537E-1,1.4272454E-1,1.316462E-1,1.5332924E-1],"categories":[],"categories_nodes":[],"categories_segments":[],"categories_sizes":[],"default_left":[0,0,0,0,0,0,0,0,0,0,0,0,0,0,0,0,0,0,0,0,0,0,0,0,0,0,0,0,0,0,0,0,0,0,0,0,0,0,0,0,0,0,0,0,0,0,0,0,0,0,0,0,0,0,0,0,0,0,0,0,0,0,0],"id":3,"left_children":[1,3,5,7,9,11,13,15,17,19,21,23,25,27,29,31,33,35,37,39,41,43,45,47,49,51,53,55,57,59,61,-1,-1,-1,-1,-1,-1,-1,-1,-1,-1,-1,-1,-1,-1,-1,-1,-1,-1,-1,-1,-1,-1,-1,-1,-1,-1,-1,-1,-1,-1,-1,-1],"loss_changes":[1.7606758E4,8.265762E2,1.2518447E3,5.216504E1,1.7938336E2,3.606959E2,2.2960449E2,6.4799805E0,2.074585E1,3.0428284E1,9.995329E1,6.594651E1,6.2096436E1,8.240698E1,4.4549805E1,3.477539E0,6.5700073E0,9.242432E0,1.6681915E1,4.100409E1,5.2526855E0,4.3135284E1,2.975329E1,6.528041E1,5.5449917E1,5.8962738E1,1.2968811E1,1.9624054E1,1.2850952E1,3.6053223E1,9.771973E0,0E0,0E0,0E0,0E0,0E0,0E0,0E0,0E0,0E0,0E0,0E0,0E0,0E0,0E0,0E0,0E0,0E0,0E0,0E0,0E0,0E0,0E0,0E0,0E0,0E0,0E0,0E0,0E0,0E0,0E0,0E0,0E0],"parents":[2147483647,0,0,1,1,2,2,3,3,4,4,5,5,6,6,7,7,8,8,9,9,10,10,11,11,12,12,13,13,14,14,15,15,16,16,17,17,18,18,19,19,20,20,21,21,22,22,23,23,24,24,25,25,26,26,27,27,28,28,29,29,30,30],"right_children":[2,4,6,8,10,12,14,16,18,20,22,24,26,28,30,32,34,36,38,40,42,44,46,48,50,52,54,56,58,60,62,-1,-1,-1,-1,-1,-1,-1,-1,-1,-1,-1,-1,-1,-1,-1,-1,-1,-1,-1,-1,-1,-1,-1,-1,-1,-1,-1,-1,-1,-1,-1,-1],"split_conditions":[7.878788E-2,5.1282052E-2,1.2E-1,3.6666665E-2,4.424889E-1,5.5678576E-1,5.290313E-1,4.8534313E-1,4.7192928E-1,5.70436E-1,5.9761375E-1,4.3511146E-1,4.8219028E-1,1.7777778E-1,5.6691676E-1,4.2569694E-1,2.1635053E-1,4.410066E-1,6.2681323E-1,4.0220237E-1,6.184501E-1,7E-2,7.333333E-2,5.262224E-1,1.5E-1,6.0551625E-1,6.1160445E-1,2.2002545E-1,2.75E-1,1.7333333E-1,4.499902E-1,-1.0569193E-1,-1.5411498E-1,-1.6685106E-2,-1.2841392E-1,-8.0409944E-2,-1.3544415E-1,-1.0583357E-1,-4.543766E-3,-1.1140372E-1,-6.389909E-2,-1.3521174E-1,-6.4266995E-2,-6.562137E-2,-1.1873836E-2,1.1126922E-2,1.0516155E-1,-3.2702603E-3,-9.042999E-2,5.829159E-2,-1.0141358E-4,8.3893724E-2,-7.3998435E-3,1.0077832E-1,1.3787311E-1,9.985851E-2,5.3709984E-2,1.085658E-1,1.4307903E-1,1.0133537E-1,1.4272454E-1,1.316462E-1,1.5332924E-1],"split_indices":[0,0,0,0,1,2,2,1,1,3,2,1,1,0,2,2,7,2,2,1,2,0,0,3,8,3,2,6,0,0,1,0,0,0,0,0,0,0,0,0,0,0,0,0,0,0,0,0,0,0,0,0,0,0,0,0,0,0,0,0,0,0,0],"split_type":[0,0,0,0,0,0,0,0,0,0,0,0,0,0,0,0,0,0,0,0,0,0,0,0,0,0,0,0,0,0,0,0,0,0,0,0,0,0,0,0,0,0,0,0,0,0,0,0,0,0,0,0,0,0,0,0,0,0,0,0,0,0,0],"sum_hessian":[1.3189924E4,6.2027935E3,6.9871304E3,4.415254E3,1.7875398E3,1.909973E3,5.077157E3,3.1172234E3,1.2980305E3,9.3983923E2,8.477005E2,1.1100924E3,7.9988055E2,1.0466354E3,4.030522E3,3.0372275E3,7.999574E1,1.1224587E3,1.755718E2,7.432377E2,1.9660156E2,6.8618384E2,1.6151665E2,4.180439E2,6.920485E2,3.7928104E2,4.2059952E2,5.228614E2,5.2377405E2,9.017042E2,3.1288179E3,2.4121513E1,3.0131062E3,6.00774E0,7.398801E1,3.6676537E1,1.0857821E3,1.5734885E2,1.8222937E1,3.3982898E2,4.0340872E2,1.8267508E2,1.3926481E1,4.6590375E2,2.202801E2,1.1473901E2,4.6777637E1,2.9829602E2,1.19747894E2,2.596463E2,4.3240225E2,2.855474E2,9.373364E1,2.3459532E2,1.860042E2,1.2186447E2,4.009969E2,3.3893665E2,1.848374E2,3.7561212E2,5.260921E2,2.8100012E2,2.8478176E3],"tree_param":{"num_deleted":"0","num_feature":"10","num_nodes":"63","size_leaf_vector":"1"}},{"base_weights":[2.0490598E-4,-1.0823833E0,1.068037E0,-1.3354936E0,-4.1782105E-1,5.901746E-1,1.3305916E0,-1.4425043E0,-1.1373903E0,-6.887706E-1,-3.8236618E-2,2.9164803E-1,1.1219335E0,8.7711054E-1,1.3958459E0,-1.466638E0,-1.3234563E0,-1.2462094E0,-9.158027E-1,-8.695548E-1,-4.4773614E-1,-2.9053748E-1,4.643786E-1,1.1147366E-2,5.1585954E-1,1.3767316E-2,1.164327E0,7.6628524E-1,1.2794896E0,1.2429382E0,1.4513257E0,-9.03763E-2,-1.4687668E-1,-6.0197856E-2,-1.3399692E-1,-9.951743E-2,-1.2875502E-1,-5.604852E-2,-1.04565196E-1,-3.6704667E-2,-9.3829356E-2,-9.229808E-3,-6.7239605E-2,-5.45061E-2,-5.4065385E-3,1.4322805E-2,8.181066E-2,-1.3930685E-2,3.679507E-2,2.3725232E-2,7.45677E-2,9.403393E-2,-1.1349423E-1,8.99223E-2,1.2983502E-1,5.5077966E-2,9.3820624E-2,1.3068172E-1,4.4896193E-2,1.0841495E-1,1.395408E-1,1.3017656E-1,1.4645727E-1],"categories":[],"categories_nodes":[],"categories_segments":[],"categories_sizes":[],"default_left":[0,0,0,0,0,0,0,0,0,0,0,0,0,0,0,0,0,0,0,0,0,0,0,0,0,0,0,0,0,0,0,0,0,0,0,0,0,0,0,0,0,0,0,0,0,0,0,0,0,0,0,0,0,0,0,0,0,0,0,0,0,0,0],"id":4,"left_children":[1,3,5,7,9,11,13,15,17,19,21,23,25,27,29,31,33,35,37,39,41,43,45,47,49,51,53,55,57,59,61,-1,-1,-1,-1,-1,-1,-1,-1,-1,-1,-1,-1,-1,-1,-1,-1,-1,-1,-1,-1,-1,-1,-1,-1,-1,-1,-1,-1,-1,-1,-1,-1],"loss_changes":[1.4788419E4,1.067957E3,8.0722656E2,9.587109E1,1.8032309E2,3.6248175E2,1.2174805E2,6.6289062E0,3.7873047E1,4.4193848E1,9.288619E1,9.213677E1,3.8572144E1,2.2451385E1,2.9000977E1,1.6328125E0,5.3051147E0,9.951294E0,2.4174011E1,1.9813263E1,3.5117653E1,2.9317173E1,2.769577E1,3.5045544E1,5.1957214E1,3.435718E1,2.6940918E1,1.4839493E1,1.9547424E0,2.2061157E1,3.3608398E0,0E0,0E0,0E0,0E0,0E0,0E0,0E0,0E0,0E0,0E0,0E0,0E0,0E0,0E0,0E0,0E0,0E0,0E0,0E0,0E0,0E0,0E0,0E0,0E0,0E0,0E0,0E0,0E0,0E0,0E0,0E0,0E0],"parents":[2147483647,0,0,1,1,2,2,3,3,4,4,5,5,6,6,7,7,8,8,9,9,10,10,11,11,12,12,13,13,14,14,15,15,16,16,17,17,18,18,19,19,20,20,21,21,22,22,23,23,24,24,25,25,26,26,27,27,28,28,29,29,30,30],"right_children":[2,4,6,8,10,12,14,16,18,20,22,24,26,28,30,32,34,36,38,40,42,44,46,48,50,52,54,56,58,60,62,-1,-1,-1,-1,-1,-1,-1,-1,-1,-1,-1,-1,-1,-1,-1,-1,-1,-1,-1,-1,-1,-1,-1,-1,-1,-1,-1,-1,-1,-1,-1,-1],"split_conditions":[8.4848486E-2,5.666667E-2,1.3809524E-1,3.6666665E-2,4.551928E-1,5.726077E-1,5.0886005E-1,4.3443322E-1,4.424889E-1,7E-2,5.770636E-1,1.04761906E-1,4.1768205E-1,2.75E-1,5.6691676E-1,4.1202566E-1,4.5674747E-1,4.5810127E-1,5E-2,1.4899002E-1,5E-2,7.2222225E-2,7.4074075E-2,4.78975E-1,5.159954E-1,5.1983994E-1,1.04166664E-1,4.7204563E-1,3.9240184E-1,2.0833333E-1,4.499902E-1,-9.03763E-2,-1.4687668E-1,-6.0197856E-2,-1.3399692E-1,-9.951743E-2,-1.2875502E-1,-5.604852E-2,-1.04565196E-1,-3.6704667E-2,-9.3829356E-2,-9.229808E-3,-6.7239605E-2,-5.45061E-2,-5.4065385E-3,1.4322805E-2,8.181066E-2,-1.3930685E-2,3.679507E-2,2.3725232E-2,7.45677E-2,9.403393E-2,-1.1349423E-1,8.99223E-2,1.2983502E-1,5.5077966E-2,9.3820624E-2,1.3068172E-1,4.4896193E-2,1.0841495E-1,1.395408E-1,1.3017656E-1,1.4645727E-1],"split_indices":[0,0,0,0,1,2,2,1,1,0,2,0,1,0,2,2,2,3,8,6,8,0,0,1,2,3,0,2,4,0,1,0,0,0,0,0,0,0,0,0,0,0,0,0,0,0,0,0,0,0,0,0,0,0,0,0,0,0,0,0,0,0,0],"split_type":[0,0,0,0,0,0,0,0,0,0,0,0,0,0,0,0,0,0,0,0,0,0,0,0,0,0,0,0,0,0,0,0,0,0,0,0,0,0,0,0,0,0,0,0,0,0,0,0,0,0,0,0,0,0,0,0,0,0,0,0,0,0,0],"sum_hessian":[1.2790503E4,6.351361E3,6.439142E3,4.598812E3,1.7525491E3,2.2844949E3,4.1546475E3,2.9818218E3,1.6169901E3,1.0221312E3,7.304178E2,1.4641036E3,8.203913E2,5.244511E2,3.6301963E3,2.4698167E3,5.12005E2,1.0813346E3,5.356556E2,5.825734E2,4.395578E2,4.8658542E2,2.4383235E2,6.508744E2,8.1322925E2,3.0276901E1,7.901144E2,4.1347427E2,1.10976814E2,9.727101E2,2.657486E3,1.0908788E1,2.458908E3,1.2294358E1,4.9971063E2,1.5644156E2,9.24893E2,1.447849E2,3.9087067E2,7.0864494E1,5.1170892E2,1.7077798E2,2.6877985E2,2.3371959E2,2.5286584E2,1.2853763E2,1.1529472E2,4.582517E2,1.9262267E2,3.6851343E2,4.447158E2,1.6859272E1,1.3417629E1,2.6790195E2,5.2221246E2,1.853451E2,2.281292E2,1.0688637E2,4.0904446E0,4.8045477E2,4.922553E2,2.2430757E2,2.4331785E3],"tree_param":{"num_deleted":"0","num_feature":"10","num_nodes":"63","size_leaf_vector":"1"}},{"base_weights":[2.3887615E-4,-1.0112586E0,9.97996E-1,-1.2833611E0,-4.2955995E-1,5.403714E-1,1.257231E0,-1.3706594E0,-1.0987104E0,-7.283777E-1,-1.3100843E-1,2.6399824E-1,1.0474591E0,8.092919E-1,1.3234345E0,-1.3826188E0,-1.1136518E0,-1.1549947E0,-7.6823705E-1,-5.8136344E-1,-1.0217062E0,-2.4569207E-1,5.880047E-1,1.1119231E-2,4.6932152E-1,7.589627E-1,1.2013297E0,5.8590305E-1,9.980326E-1,1.1664578E0,1.3811841E0,-8.89765E-2,-1.3862811E-1,-4.5478806E-2,-1.1786672E-1,-1.2629248E-1,-1.08180955E-1,-2.0932201E-2,-9.083631E-2,-9.295332E-2,-3.549656E-2,-1.2648256E-1,-8.204492E-2,-3.7242286E-3,-5.6872576E-2,2.6858537E-4,7.446275E-2,-6.4770095E-2,8.109121E-3,2.1350794E-2,6.812956E-2,3.1858607E-4,8.989458E-2,2.155583E-3,1.2158286E-1,2.483687E-2,7.317993E-2,8.6175404E-2,1.2053039E-1,1.0079994E-1,1.3213581E-1,1.22652344E-1,1.3950561E-1],"categories":[],"categories_nodes":[],"categories_segments":[],"categories_sizes":[],"default_left":[0,0,0,0,0,0,0,0,0,0,0,0,0,0,0,0,0,0,0,0,0,0,0,0,0,0,0,0,0,0,0,0,0,0,0,0,0,0,0,0,0,0,0,0,0,0,0,0,0,0,0,0,0,0,0,0,0,0,0,0,0,0,0],"id":5,"left_children":[1,3,5,7,9,11,13,15,17,19,21,23,25,27,29,31,33,35,37,39,41,43,45,47,49,51,53,55,57,59,61,-1,-1,-1,-1,-1,-1,-1,-1,-1,-1,-1,-1,-1,-1,-1,-1,-1,-1,-1,-1,-1,-1,-1,-1,-1,-1,-1,-1,-1,-1,-1,-1],"loss_changes":[1.2466887E4,9.7038135E2,7.370571E2,6.5853516E1,1.7444403E2,3.1513342E2,1.1663281E2,7.1689453E0,2.415747E1,4.1562134E1,8.0944275E1,7.569752E1,3.43161E1,2.1072205E1,2.9723633E1,3.645996E0,5.0807037E0,7.7058105E0,1.5390175E1,5.118318E1,1.4866974E1,5.693126E1,1.2382011E1,3.0218184E1,4.3486954E1,2.9487808E1,8.797241E0,1.1521637E1,6.7855225E0,2.1643066E1,3.697754E0,0E0,0E0,0E0,0E0,0E0,0E0,0E0,0E0,0E0,0E0,0E0,0E0,0E0,0E0,0E0,0E0,0E0,0E0,0E0,0E0,0E0,0E0,0E0,0E0,0E0,0E0,0E0,0E0,0E0,0E0,0E0,0E0],"parents":[2147483647,0,0,1,1,2,2,3,3,4,4,5,5,6,6,7,7,8,8,9,9,10,10,11,11,12,12,13,13,14,14,15,15,16,16,17,17,18,18,19,19,20,20,21,21,22,22,23,23,24,24,25,25,26,26,27,27,28,28,29,29,30,30],"right_children":[2,4,6,8,10,12,14,16,18,20,22,24,26,28,30,32,34,36,38,40,42,44,46,48,50,52,54,56,58,60,62,-1,-1,-1,-1,-1,-1,-1,-1,-1,-1,-1,-1,-1,-1,-1,-1,-1,-1,-1,-1,-1,-1,-1,-1,-1,-1,-1,-1,-1,-1,-1,-1],"split_conditions":[8.4848486E-2,5.4166667E-2,1.3809524E-1,3.6666665E-2,4.424889E-1,5.726077E-1,5.0886005E-1,4.7051373E-1,4.7192928E-1,5.482335E-1,6.10642E-1,1.0555556E-1,1.04166664E-1,1.8666667E-1,5.6691676E-1,4.2569694E-1,2.1915573E-1,4.037472E-1,5E-2,3.948961E-1,4.225496E-1,6.103541E-1,6.111111E-2,3.8973087E-1,5.159954E-1,4.4175816E-1,4.037472E-1,4.5425949E-1,2.75E-1,2.0833333E-1,4.499902E-1,-8.89765E-2,-1.3862811E-1,-4.5478806E-2,-1.1786672E-1,-1.2629248E-1,-1.08180955E-1,-2.0932201E-2,-9.083631E-2,-9.295332E-2,-3.549656E-2,-1.2648256E-1,-8.204492E-2,-3.7242286E-3,-5.6872576E-2,2.6858537E-4,7.446275E-2,-6.4770095E-2,8.109121E-3,2.1350794E-2,6.812956E-2,3.1858607E-4,8.989458E-2,2.155583E-3,1.2158286E-1,2.483687E-2,7.317993E-2,8.6175404E-2,1.2053039E-1,1.0079994E-1,1.3213581E-1,1.22652344E-1,1.3950561E-1],"split_indices":[0,0,0,0,1,2,2,1,1,3,2,0,0,0,2,2,7,1,8,1,1,3,0,1,2,1,1,2,0,0,1,0,0,0,0,0,0,0,0,0,0,0,0,0,0,0,0,0,0,0,0,0,0,0,0,0,0,0,0,0,0,0,0],"split_type":[0,0,0,0,0,0,0,0,0,0,0,0,0,0,0,0,0,0,0,0,0,0,0,0,0,0,0,0,0,0,0,0,0,0,0,0,0,0,0,0,0,0,0,0,0,0,0,0,0,0,0,0,0,0,0,0,0,0,0,0,0,0,0],"sum_hessian":[1.2350885E4,6.1332046E3,6.21768E3,4.177759E3,1.9554456E3,2.24959E3,3.96809E3,2.8322964E3,1.3454626E3,9.7656744E2,9.788781E2,1.4570103E3,7.925799E2,5.126532E2,3.4554368E3,2.702175E3,1.3012128E2,1.1475273E3,1.979353E2,6.525138E2,3.2405365E2,8.44791E2,1.3408711E2,6.5336774E2,8.036426E2,2.777502E2,5.148297E2,2.3665657E2,2.759966E2,9.350241E2,2.5204126E3,2.173002E1,2.680445E3,1.2404957E1,1.17716324E2,4.5712482E2,6.904025E2,4.0176937E1,1.5775836E2,2.5588731E2,3.9662646E2,1.4436974E2,1.7968391E2,5.1413873E2,3.3065228E2,2.8520311E1,1.05566795E2,6.1937683E1,5.9143005E2,3.6507346E2,4.3856912E2,4.356469E1,2.3418553E2,6.2803993E0,5.085493E2,7.223697E1,1.644196E2,1.6962659E2,1.0637002E2,4.6591473E2,4.6910934E2,2.1481519E2,2.3055974E3],"tree_param":{"num_deleted":"0","num_feature":"10","num_nodes":"63","size_leaf_vector":"1"}},{"base_weights":[2.4861516E-4,-1.0060358E0,8.8486546E-1,-1.2329586E0,-4.9803472E-1,4.2855325E-1,1.1937726E0,-1.310189E0,-1.0552498E0,-6.7616445E-1,-1.2789999E-1,1.8870988E-1,9.5729077E-1,8.413956E-1,1.2806871E0,-1.3365145E0,-1.1822782E0,-1.0961292E0,-6.660225E-1,-4.6560112E-1,-8.239651E-1,1.714443E-1,-4.4384143E-1,-3.7147306E-2,4.4313306E-1,6.924732E-1,1.1440632E0,6.6545665E-1,1.0699203E0,1.1012137E0,1.317846E0,-7.8705095E-2,-1.338718E-1,-4.7034383E-2,-1.199423E-1,-5.7974245E-2,-1.11282706E-1,-7.8391396E-2,8.748287E-3,-7.020708E-2,-1.4666646E-2,-6.8586655E-2,-1.07891E-1,6.0203906E-2,-2.0682484E-2,-6.76279E-2,-4.4704448E-3,-1.7351767E-2,3.0332852E-2,1.935316E-2,6.411997E-2,-9.1974534E-2,7.405528E-2,1.0115271E-1,1.3018958E-1,3.0579207E-2,7.802443E-2,9.551833E-2,1.2534761E-1,1.1924849E-1,3.18556E-2,1.20356314E-1,1.340354E-1],"categories":[],"categories_nodes":[],"categories_segments":[],"categories_sizes":[],"default_left":[0,0,0,0,0,0,0,0,0,0,0,0,0,0,0,0,0,0,0,0,0,0,0,0,0,0,0,0,0,0,0,0,0,0,0,0,0,0,0,0,0,0,0,0,0,0,0,0,0,0,0,0,0,0,0,0,0,0,0,0,0,0,0],"id":6,"left_children":[1,3,5,7,9,11,13,15,17,19,21,23,25,27,29,31,33,35,37,39,41,43,45,47,49,51,53,55,57,59,61,-1,-1,-1,-1,-1,-1,-1,-1,-1,-1,-1,-1,-1,-1,-1,-1,-1,-1,-1,-1,-1,-1,-1,-1,-1,-1,-1,-1,-1,-1,-1,-1],"loss_changes":[1.0586343E4,6.407412E2,8.9158496E2,5.138916E1,1.1328717E2,3.2400735E2,1.14489746E2,7.430664E0,1.7885498E1,3.573712E1,5.302993E1,1.0114589E2,3.8652893E1,2.9422302E1,1.872168E1,1.6245117E0,5.1169434E0,8.470703E0,1.0172825E1,3.6172134E1,2.3224243E1,4.707148E1,2.5267757E1,4.338224E1,4.0794937E1,2.64449E1,8.433838E0,1.7353485E1,5.6342773E0,3.711914E1,4.8203125E0,0E0,0E0,0E0,0E0,0E0,0E0,0E0,0E0,0E0,0E0,0E0,0E0,0E0,0E0,0E0,0E0,0E0,0E0,0E0,0E0,0E0,0E0,0E0,0E0,0E0,0E0,0E0,0E0,0E0,0E0,0E0,0E0],"parents":[2147483647,0,0,1,1,2,2,3,3,4,4,5,5,6,6,7,7,8,8,9,9,10,10,11,11,12,12,13,13,14,14,15,15,16,16,17,17,18,18,19,19,20,20,21,21,22,22,23,23,24,24,25,25,26,26,27,27,28,28,29,29,30,30],"right_children":[2,4,6,8,10,12,14,16,18,20,22,24,26,28,30,32,34,36,38,40,42,44,46,48,50,52,54,56,58,60,62,-1,-1,-1,-1,-1,-1,-1,-1,-1,-1,-1,-1,-1,-1,-1,-1,-1,-1,-1,-1,-1,-1,-1,-1,-1,-1,-1,-1,-1,-1,-1,-1],"split_conditions":[7.878788E-2,5.1282052E-2,1.3809524E-1,3.6666665E-2,4.632259E-1,5.770636E-1,5.290313E-1,4.3443322E-1,4.837493E-1,5E-2,1.5E-1,1.04761906E-1,1.04166664E-1,2.1111111E-1,4.6036077E-1,4.1202566E-1,4.5674747E-1,4.410066E-1,6.2237966E-1,4.1483045E-1,5.5215436E-1,2.760278E-1,7E-2,4.78975E-1,5.159954E-1,3.9159E-1,6.171159E-1,4.597798E-1,5.0710696E-1,5.94836E-1,5.6691676E-1,-7.8705095E-2,-1.338718E-1,-4.7034383E-2,-1.199423E-1,-5.7974245E-2,-1.11282706E-1,-7.8391396E-2,8.748287E-3,-7.020708E-2,-1.4666646E-2,-6.8586655E-2,-1.07891E-1,6.0203906E-2,-2.0682484E-2,-6.76279E-2,-4.4704448E-3,-1.7351767E-2,3.0332852E-2,1.935316E-2,6.411997E-2,-9.1974534E-2,7.405528E-2,1.0115271E-1,1.3018958E-1,3.0579207E-2,7.802443E-2,9.551833E-2,1.2534761E-1,1.1924849E-1,3.18556E-2,1.20356314E-1,1.340354E-1],"split_indices":[0,0,0,0,1,2,2,1,1,8,8,0,0,0,1,2,2,2,2,1,3,6,0,1,2,1,2,2,2,3,2,0,0,0,0,0,0,0,0,0,0,0,0,0,0,0,0,0,0,0,0,0,0,0,0,0,0,0,0,0,0,0,0],"split_type":[0,0,0,0,0,0,0,0,0,0,0,0,0,0,0,0,0,0,0,0,0,0,0,0,0,0,0,0,0,0,0,0,0,0,0,0,0,0,0,0,0,0,0,0,0,0,0,0,0,0,0,0,0,0,0,0,0,0,0,0,0,0,0],"sum_hessian":[1.1890413E4,5.5626055E3,6.3278076E3,3.8440518E3,1.718554E3,2.5554011E3,3.7724065E3,2.6751045E3,1.1689473E3,1.1596418E3,5.5891205E2,1.758896E3,7.96505E2,7.484902E2,3.0239163E3,2.2106746E3,4.6442996E2,1.0562014E3,1.127458E2,4.7998465E2,6.796572E2,2.8722913E2,2.7168292E2,9.3220795E2,8.2668805E2,3.3137228E2,4.6513272E2,4.2511237E2,3.233778E2,5.239457E2,2.4999707E3,1.026061E1,2.2004138E3,1.1590009E1,4.5283994E2,3.4202377E1,1.021999E3,9.74575E1,1.52883005E1,2.7493588E2,2.0504875E2,4.432486E2,2.3640866E2,1.3404745E2,1.5318169E2,1.7125702E2,1.004259E2,6.6596155E2,2.662464E2,3.666353E2,4.600527E2,9.071012E0,3.2230127E2,2.5685428E2,2.0827846E2,1.0373691E2,3.2137546E2,2.0280948E2,1.20568344E2,4.68757E2,5.5188675E1,4.2031506E2,2.0796555E3],"tree_param":{"num_deleted":"0","num_feature":"10","num_nodes":"63","size_leaf_vector":"1"}},{"base_weights":[2.680235E-4,-9.82531E-1,8.0169386E-1,-1.1768409E0,-5.094933E-1,2.4307878E-1,1.069425E0,-1.2583601E0,-9.929481E-1,-7.538816E-1,-2.8209504E-1,6.7695744E-2,8.9435124E-1,7.961414E-1,1.2433189E0,-1.2717642E0,-9.79989E-1,-1.1002374E0,-8.4130514E-1,-5.5183655E-1,-9.3748695E-1,1.4731364E-1,-4.346906E-1,-7.3152274E-2,4.1331333E-1,-9.4542456E-1,9.228888E-1,5.5065626E-1,1.0293895E0,1.1233891E0,1.293025E0,-7.716113E-2,-1.2756951E-1,-3.256569E-2,-1.04797244E-1,-8.3926365E-2,-1.14615194E-1,-8.9304276E-2,-2.2646759E-2,-3.9313078E-2,-1.1032474E-1,-7.95799E-2,-1.2175512E-1,3.951833E-2,-3.4324452E-2,-1.6234705E-2,-6.2115368E-2,3.4295935E-3,-9.599865E-2,6.8415426E-2,4.7624153E-3,6.2221408E-2,-1.4565955E-1,7.611047E-2,1.14966765E-1,2.4963899E-2,6.811501E-2,7.910232E-2,1.1215939E-1,7.0502095E-2,1.1873483E-1,1.2212372E-1,1.3109218E-1],"categories":[],"categories_nodes":[],"categories_segments":[],"categories_sizes":[],"default_left":[0,0,0,0,0,0,0,0,0,0,0,0,0,0,0,0,0,0,0,0,0,0,0,0,0,0,0,0,0,0,0,0,0,0,0,0,0,0,0,0,0,0,0,0,0,0,0,0,0,0,0,0,0,0,0,0,0,0,0,0,0,0,0],"id":7,"left_children":[1,3,5,7,9,11,13,15,17,19,21,23,25,27,29,31,33,35,37,39,41,43,45,47,49,51,53,55,57,59,61,-1,-1,-1,-1,-1,-1,-1,-1,-1,-1,-1,-1,-1,-1,-1,-1,-1,-1,-1,-1,-1,-1,-1,-1,-1,-1,-1,-1,-1,-1,-1,-1],"loss_changes":[8.999598E3,4.7113623E2,9.410271E2,5.327539E1,8.2931366E1,2.3300223E2,2.0118506E2,8.14209E0,1.7326782E1,2.6211395E1,5.0950912E1,7.833705E1,2.3596558E1,9.432031E1,1.4035645E1,3.7297363E0,4.9947815E0,6.871765E0,1.4719849E1,2.9798584E1,1.3953522E1,2.4984867E1,2.9008972E1,1.090165E2,4.6111748E1,6.5997944E0,1.478067E1,3.1629822E1,1.7763794E1,1.973816E1,7.507324E-1,0E0,0E0,0E0,0E0,0E0,0E0,0E0,0E0,0E0,0E0,0E0,0E0,0E0,0E0,0E0,0E0,0E0,0E0,0E0,0E0,0E0,0E0,0E0,0E0,0E0,0E0,0E0,0E0,0E0,0E0,0E0,0E0],"parents":[2147483647,0,0,1,1,2,2,3,3,4,4,5,5,6,6,7,7,8,8,9,9,10,10,11,11,12,12,13,13,14,14,15,15,16,16,17,17,18,18,19,19,20,20,21,21,22,22,23,23,24,24,25,25,26,26,27,27,28,28,29,29,30,30],"right_children":[2,4,6,8,10,12,14,16,18,20,22,24,26,28,30,32,34,36,38,40,42,44,46,48,50,52,54,56,58,60,62,-1,-1,-1,-1,-1,-1,-1,-1,-1,-1,-1,-1,-1,-1,-1,-1,-1,-1,-1,-1,-1,-1,-1,-1,-1,-1,-1,-1,-1,-1,-1,-1],"split_conditions":[7.619048E-2,5.1282052E-2,1.2E-1,3.6666665E-2,4.3786207E-1,5.905085E-1,5.6317574E-1,4.7051373E-1,4.3015045E-1,5E-2,2.2298013E-1,4.8219028E-1,3.8973087E-1,1.7777778E-1,1.7333333E-1,4.2569694E-1,2.1915573E-1,4.561201E-1,6.2237966E-1,5.743149E-1,5.329103E-1,1.5E-1,5.7565564E-1,6.0956776E-1,2E-1,4.6837768E-1,6.2681323E-1,4.392784E-1,4.9767652E-1,4.499902E-1,2.0833333E-1,-7.716113E-2,-1.2756951E-1,-3.256569E-2,-1.04797244E-1,-8.3926365E-2,-1.14615194E-1,-8.9304276E-2,-2.2646759E-2,-3.9313078E-2,-1.1032474E-1,-7.95799E-2,-1.2175512E-1,3.951833E-2,-3.4324452E-2,-1.6234705E-2,-6.2115368E-2,3.4295935E-3,-9.599865E-2,6.8415426E-2,4.7624153E-3,6.2221408E-2,-1.4565955E-1,7.611047E-2,1.14966765E-1,2.4963899E-2,6.811501E-2,7.910232E-2,1.1215939E-1,7.0502095E-2,1.1873483E-1,1.2212372E-1,1.3109218E-1],"split_indices":[0,0,0,0,1,2,2,1,1,8,6,1,1,0,0,2,7,3,2,3,3,8,3,3,8,3,2,1,2,1,0,0,0,0,0,0,0,0,0,0,0,0,0,0,0,0,0,0,0,0,0,0,0,0,0,0,0,0,0,0,0,0,0],"split_type":[0,0,0,0,0,0,0,0,0,0,0,0,0,0,0,0,0,0,0,0,0,0,0,0,0,0,0,0,0,0,0,0,0,0,0,0,0,0,0,0,0,0,0,0,0,0,0,0,0,0,0,0,0,0,0,0,0,0,0,0,0,0,0],"sum_hessian":[1.1424021E4,5.1312617E3,6.2927603E3,3.6361514E3,1.4951105E3,2.0394343E3,4.2533257E3,2.5152864E3,1.1208649E3,7.1951825E2,7.755923E2,1.6076182E3,4.318162E2,1.6561595E3,2.597166E3,2.3963313E3,1.18955154E2,6.527682E2,4.6809665E2,3.4446442E2,3.7505383E2,2.0336143E2,5.7223083E2,1.1427192E3,4.64899E2,6.1050253E0,4.2571118E2,8.0855035E2,8.476092E2,7.6792847E2,1.8292377E3,2.022598E1,2.3761052E3,1.1740877E1,1.0721427E2,1.0054714E2,5.5222107E2,4.3134702E2,3.674966E1,2.6880933E2,7.565509E1,2.5160518E2,1.2344866E2,1.3522783E2,6.8133606E1,2.333199E2,3.3891092E2,1.02008746E3,1.22631744E2,2.6658606E2,1.9831293E2,1.4477849E0,4.6572404E0,2.5100223E2,1.7470895E2,2.453957E2,5.6315466E2,2.3909111E2,6.085181E2,1.0342563E2,6.6450287E2,3.7884622E2,1.4503915E3],"tree_param":{"num_deleted":"0","num_feature":"10","num_nodes":"63","size_leaf_vector":"1"}},{"base_weights":[2.2939974E-4,-8.068379E-1,8.6885405E-1,-1.0902541E0,-2.538532E-1,5.182486E-1,1.1190826E0,-1.1982619E0,-8.5206276E-1,-3.7646002E-1,3.0358684E-1,2.423674E-1,8.855627E-1,8.484899E-1,1.216916E0,-1.2282884E0,-1.0343225E0,-9.984796E-1,-6.684635E-1,-6.620548E-1,-2.3699188E-1,-3.8017124E-2,5.8300775E-1,4.811954E-1,5.7778828E-2,7.75236E-1,1.1703922E0,4.505777E-2,9.0059215E-1,1.1363738E0,1.2643965E-1,-1.1049985E-1,-1.2510242E-1,-1.0612817E-1,-4.4652555E-2,-8.764727E-2,-1.13874495E-1,-3.949453E-2,-7.825642E-2,1.1841694E-2,-7.796246E-2,-4.6864753E-3,-4.843456E-2,-7.528195E-2,1.11303935E-2,8.625855E-2,4.155178E-2,-8.438754E-4,6.96998E-2,-4.7345962E-2,2.494703E-2,4.7058146E-2,8.965101E-2,2.8845748E-2,1.1830892E-1,9.820416E-2,-8.94992E-2,7.856404E-2,1.17586724E-1,8.4305264E-2,1.17909744E-1],"categories":[],"categories_nodes":[],"categories_segments":[],"categories_sizes":[],"default_left":[0,0,0,0,0,0,0,0,0,0,0,0,0,0,0,0,0,0,0,0,0,0,0,0,0,0,0,0,0,0,0,0,0,0,0,0,0,0,0,0,0,0,0,0,0,0,0,0,0,0,0,0,0,0,0,0,0,0,0,0,0],"id":8,"left_children":[1,3,5,7,9,11,13,15,17,19,21,23,25,27,29,31,33,35,37,39,41,43,45,47,49,51,53,55,57,59,-1,-1,-1,-1,-1,-1,-1,-1,-1,-1,-1,-1,-1,-1,-1,-1,-1,-1,-1,-1,-1,-1,-1,-1,-1,-1,-1,-1,-1,-1,-1],"loss_changes":[7.686582E3,8.9049634E2,4.6272046E2,9.564453E1,1.3183258E2,2.2284283E2,8.0522705E1,1.14436035E1,3.093805E1,6.2785095E1,3.324083E1,5.5449722E1,2.8749695E1,3.4342285E1,7.206787E0,4.7211914E0,5.9621277E0,1.0161011E1,1.6064575E1,4.76174E1,4.9982063E1,1.6897106E1,8.6085205E0,5.7960022E1,7.251694E1,2.4821198E1,2.5873413E0,4.5865524E1,2.3482483E1,9.635132E0,0E0,0E0,0E0,0E0,0E0,0E0,0E0,0E0,0E0,0E0,0E0,0E0,0E0,0E0,0E0,0E0,0E0,0E0,0E0,0E0,0E0,0E0,0E0,0E0,0E0,0E0,0E0,0E0,0E0,0E0,0E0],"parents":[2147483647,0,0,1,1,2,2,3,3,4,4,5,5,6,6,7,7,8,8,9,9,10,10,11,11,12,12,13,13,14,14,15,15,16,16,17,17,18,18,19,19,20,20,21,21,22,22,23,23,24,24,25,25,26,26,27,27,28,28,29,29],"right_children":[2,4,6,8,10,12,14,16,18,20,22,24,26,28,30,32,34,36,38,40,42,44,46,48,50,52,54,56,58,60,-1,-1,-1,-1,-1,-1,-1,-1,-1,-1,-1,-1,-1,-1,-1,-1,-1,-1,-1,-1,-1,-1,-1,-1,-1,-1,-1,-1,-1,-1,-1],"split_conditions":[9.047619E-2,5.666667E-2,5.574182E-1,4.1666668E-2,5.849946E-1,1.5333334E-1,1.3809524E-1,4.4108966E-1,4.3153998E-1,4.204277E-1,7E-2,1.5E-1,2.75E-1,4.2185462E-1,2.0833333E-1,5.008092E-1,5.2120787E-1,5.3053695E-1,5E-2,4.2145634E-1,1.5E-1,4.267169E-1,2.641162E-1,4.11025E-1,4.4938353E-1,4.8940244E-1,3.5242328E-1,5.2374256E-1,6.2237966E-1,4.499902E-1,1.2643965E-1,-1.1049985E-1,-1.2510242E-1,-1.0612817E-1,-4.4652555E-2,-8.764727E-2,-1.13874495E-1,-3.949453E-2,-7.825642E-2,1.1841694E-2,-7.796246E-2,-4.6864753E-3,-4.843456E-2,-7.528195E-2,1.11303935E-2,8.625855E-2,4.155178E-2,-8.438754E-4,6.96998E-2,-4.7345962E-2,2.494703E-2,4.7058146E-2,8.965101E-2,2.8845748E-2,1.1830892E-1,9.820416E-2,-8.94992E-2,7.856404E-2,1.17586724E-1,8.4305264E-2,1.17909744E-1],"split_indices":[0,0,2,0,2,0,0,1,1,1,0,8,0,1,0,2,1,3,8,3,8,1,7,1,1,2,1,3,2,1,0,0,0,0,0,0,0,0,0,0,0,0,0,0,0,0,0,0,0,0,0,0,0,0,0,0,0,0,0,0,0],"split_type":[0,0,0,0,0,0,0,0,0,0,0,0,0,0,0,0,0,0,0,0,0,0,0,0,0,0,0,0,0,0,0,0,0,0,0,0,0,0,0,0,0,0,0,0,0,0,0,0,0,0,0,0,0,0,0,0,0,0,0,0,0],"sum_hessian":[1.0962563E4,5.682676E3,5.279887E3,3.7564473E3,1.9262286E3,2.200187E3,3.0797004E3,2.5817312E3,1.1747162E3,1.5792117E3,3.4701694E2,1.2574242E3,9.4276263E2,8.20365E2,2.2593354E3,2.1765835E3,4.0514758E2,6.5106555E2,5.236507E2,5.169285E2,1.0622831E3,1.5652383E2,1.9049312E2,5.4747394E2,7.099503E2,6.822281E2,2.6053458E2,5.007405E1,7.7029095E2,8.4717896E2,1.4121565E3,3.4661072E2,1.8299729E3,3.866103E2,1.8537277E1,3.5207178E2,2.9899374E2,1.554567E2,3.6819397E2,6.767431E1,4.492542E2,6.0129236E2,4.6099075E2,2.6349022E1,1.3017482E2,6.981176E1,1.2068135E2,1.677736E2,3.7970035E2,1.8786006E2,5.220903E2,1.9563951E2,4.8658856E2,4.034249E0,2.5650034E2,2.505555E1,2.5018501E1,5.4609973E2,2.2419121E2,1.1034352E2,7.3683545E2],"tree_param":{"num_deleted":"0","num_feature":"10","num_nodes":"61","size_leaf_vector":"1"}},{"base_weights":[2.5279986E-4,-9.274901E-1,6.7180026E-1,-1.1274413E0,-5.7971734E-1,1.6540518E-1,9.71146E-1,-1.2061639E0,-1.0104305E0,-7.644978E-1,-3.7780726E-1,-5.0943244E-2,5.9679633E-1,6.957121E-1,1.1585644E0,-1.2087293E0,-3.6102152E-1,-1.0780178E0,-8.074933E-1,-6.167619E-1,-9.412571E-1,-4.9004242E-1,4.9383514E-2,-4.037779E-1,4.2040832E-2,4.5538637E-1,9.4382E-1,4.686576E-1,9.256753E-1,1.0288744E0,1.2137613E0,-9.373878E-2,-1.21470585E-1,-9.842436E-2,3.864865E-2,-9.1472946E-2,-1.13014005E-1,1.3090952E-1,-8.296885E-2,-9.062611E-2,-3.9582256E-2,-7.484851E-2,-1.1067152E-1,-2.474302E-2,-6.5519124E-2,2.901348E-2,-4.532287E-2,-2.0528825E-2,-1.0976344E-1,1.8598631E-2,-3.3275127E-2,3.1425055E-2,8.145962E-2,1.11302964E-1,6.894951E-2,1.0736519E-2,5.5873122E-2,8.08565E-2,1.1309918E-1,5.9865244E-2,1.0964594E-1,1.1365425E-1,1.2332815E-1],"categories":[],"categories_nodes":[],"categories_segments":[],"categories_sizes":[],"default_left":[0,0,0,0,0,0,0,0,0,0,0,0,0,0,0,0,0,0,0,0,0,0,0,0,0,0,0,0,0,0,0,0,0,0,0,0,0,0,0,0,0,0,0,0,0,0,0,0,0,0,0,0,0,0,0,0,0,0,0,0,0,0,0],"id":9,"left_children":[1,3,5,7,9,11,13,15,17,19,21,23,25,27,29,31,33,35,37,39,41,43,45,47,49,51,53,55,57,59,61,-1,-1,-1,-1,-1,-1,-1,-1,-1,-1,-1,-1,-1,-1,-1,-1,-1,-1,-1,-1,-1,-1,-1,-1,-1,-1,-1,-1,-1,-1,-1,-1],"loss_changes":[6.5490464E3,3.0627832E2,9.2418945E2,2.4587158E1,5.9905273E1,2.1157774E2,1.9701611E2,3.1835938E0,1.4668457E1,2.1392914E1,3.7083313E1,4.9573204E1,3.6725464E1,8.071893E1,1.5064697E1,1.5600586E0,3.3984714E0,6.174011E0,1.4570251E1,2.914415E1,1.133017E1,2.436734E1,1.970144E1,4.317632E1,6.460482E1,2.7114182E1,8.62587E0,2.5456436E1,1.762738E1,1.93172E1,9.995117E-1,0E0,0E0,0E0,0E0,0E0,0E0,0E0,0E0,0E0,0E0,0E0,0E0,0E0,0E0,0E0,0E0,0E0,0E0,0E0,0E0,0E0,0E0,0E0,0E0,0E0,0E0,0E0,0E0,0E0,0E0,0E0,0E0],"parents":[2147483647,0,0,1,1,2,2,3,3,4,4,5,5,6,6,7,7,8,8,9,9,10,10,11,11,12,12,13,13,14,14,15,15,16,16,17,17,18,18,19,19,20,20,21,21,22,22,23,23,24,24,25,25,26,26,27,27,28,28,29,29,30,30],"right_children":[2,4,6,8,10,12,14,16,18,20,22,24,26,28,30,32,34,36,38,40,42,44,46,48,50,52,54,56,58,60,62,-1,-1,-1,-1,-1,-1,-1,-1,-1,-1,-1,-1,-1,-1,-1,-1,-1,-1,-1,-1,-1,-1,-1,-1,-1,-1,-1,-1,-1,-1,-1,-1],"split_conditions":[7E-2,4.5454547E-2,1.2E-1,2.962963E-2,4.3786207E-1,5.6317574E-1,5.6317574E-1,5.224831E-1,4.4388387E-1,5.288509E-1,5.9468263E-1,4.11025E-1,1.04166664E-1,1.7777778E-1,1.7333333E-1,4.5674747E-1,5.049462E-1,5.043647E-1,1.4554636E-1,3.8888216E-1,2.1716727E-1,5.786491E-1,1.5E-1,5.1983994E-1,2E-1,6.171159E-1,6.119281E-1,4.2185462E-1,2.75E-1,4.4938353E-1,2.0833333E-1,-9.373878E-2,-1.21470585E-1,-9.842436E-2,3.864865E-2,-9.1472946E-2,-1.13014005E-1,1.3090952E-1,-8.296885E-2,-9.062611E-2,-3.9582256E-2,-7.484851E-2,-1.1067152E-1,-2.474302E-2,-6.5519124E-2,2.901348E-2,-4.532287E-2,-2.0528825E-2,-1.0976344E-1,1.8598631E-2,-3.3275127E-2,3.1425055E-2,8.145962E-2,1.11302964E-1,6.894951E-2,1.0736519E-2,5.5873122E-2,8.08565E-2,1.1309918E-1,5.9865244E-2,1.0964594E-1,1.1365425E-1,1.2332815E-1],"split_indices":[0,0,0,0,1,2,2,1,1,3,2,1,0,0,0,2,5,2,7,1,6,3,8,3,8,2,3,1,0,1,0,0,0,0,0,0,0,0,0,0,0,0,0,0,0,0,0,0,0,0,0,0,0,0,0,0,0,0,0,0,0,0,0],"split_type":[0,0,0,0,0,0,0,0,0,0,0,0,0,0,0,0,0,0,0,0,0,0,0,0,0,0,0,0,0,0,0,0,0,0,0,0,0,0,0,0,0,0,0,0,0,0,0,0,0,0,0,0,0,0,0,0,0,0,0,0,0,0,0],"sum_hessian":[1.0509717E4,4.412906E3,6.096811E3,2.8005146E3,1.6123912E3,2.2656406E3,3.8311707E3,1.6686022E3,1.1319125E3,8.404536E2,7.7193756E2,1.5094921E3,7.561486E2,1.5532277E3,2.2779429E3,1.6631237E3,5.478452E0,8.45883E2,2.8602957E2,4.6025797E2,3.8019565E2,6.112086E2,1.60729E2,3.1413647E2,1.1953556E3,5.3887335E2,2.1727522E2,7.830853E2,7.7014233E2,6.8593024E2,1.5920127E3,3.9244587E1,1.6238792E3,2.8148878E0,2.6635642E0,2.0916415E2,6.367188E2,2.3665717E0,2.83663E2,1.978765E2,2.6238147E2,1.7815477E2,2.0204086E2,2.4855968E2,3.6264893E2,1.0895993E2,5.176907E1,2.4526894E2,6.8867546E1,8.64018E2,3.3133752E2,3.8821576E2,1.5065761E2,1.2844238E2,8.883285E1,1.5670819E2,6.2637714E2,4.9355954E2,2.765828E2,9.4463905E1,5.914663E2,3.3318854E2,1.2588241E3],"tree_param":{"num_deleted":"0","num_feature":"10","num_nodes":"63","size_leaf_vector":"1"}},{"base_weights":[2.2641334E-4,-7.1688867E-1,7.764068E-1,-1.0417521E0,-2.680009E-1,4.440231E-1,1.0333505E0,-1.1384658E0,-8.3875275E-1,-4.1231564E-1,1.15016714E-1,2.0527503E-1,7.855188E-1,7.476333E-1,1.1434923E0,-1.1725521E0,-9.797751E-1,-8.9443344E-1,-5.2022517E-1,-2.8453168E-1,-7.6650435E-1,4.8554522E-1,-6.0988825E-2,4.2586628E-1,3.5614394E-2,6.7679733E-1,1.0833929E0,3.803972E-1,8.571109E-1,1.0554596E0,1.1965524E0,-5.6044985E-2,-1.17539845E-1,-2.1331646E-2,-1.0004934E-1,-2.9991496E-2,-9.155019E-2,2.089571E-2,-6.452263E-2,-5.853198E-2,-1.0829906E-2,-4.4511877E-2,-9.3251415E-2,7.454238E-2,1.7538E-2,-5.7312287E-2,6.351149E-3,-2.2678101E-2,5.487873E-2,-2.4897225E-2,3.3177312E-2,2.9965524E-2,7.7985205E-2,1.8915659E-2,1.09736376E-1,5.7386052E-2,-9.8656654E-2,6.9761306E-2,1.043933E-1,7.47626E-2,1.1025547E-1,9.706068E-2,1.20240785E-1],"categories":[],"categories_nodes":[],"categories_segments":[],"categories_sizes":[],"default_left":[0,0,0,0,0,0,0,0,0,0,0,0,0,0,0,0,0,0,0,0,0,0,0,0,0,0,0,0,0,0,0,0,0,0,0,0,0,0,0,0,0,0,0,0,0,0,0,0,0,0,0,0,0,0,0,0,0,0,0,0,0,0,0],"id":10,"left_children":[1,3,5,7,9,11,13,15,17,19,21,23,25,27,29,31,33,35,37,39,41,43,45,47,49,51,53,55,57,59,61,-1,-1,-1,-1,-1,-1,-1,-1,-1,-1,-1,-1,-1,-1,-1,-1,-1,-1,-1,-1,-1,-1,-1,-1,-1,-1,-1,-1,-1,-1,-1,-1],"loss_changes":[5.607635E3,7.633523E2,4.1273047E2,5.8681885E1,1.2164923E2,1.7196161E2,8.49917E1,9.964844E0,1.6986755E1,7.211133E1,3.9343716E1,4.6535976E1,2.7386658E1,3.030539E1,7.925293E0,2.2792969E0,5.65213E0,1.0199219E1,1.3698208E1,6.2274345E1,2.215915E1,1.5526775E1,2.6152113E1,4.3498367E1,5.943209E1,2.4593323E1,2.6722717E0,4.7313774E1,1.673706E1,1.0022949E1,4.4677734E-1,0E0,0E0,0E0,0E0,0E0,0E0,0E0,0E0,0E0,0E0,0E0,0E0,0E0,0E0,0E0,0E0,0E0,0E0,0E0,0E0,0E0,0E0,0E0,0E0,0E0,0E0,0E0,0E0,0E0,0E0,0E0,0E0],"parents":[2147483647,0,0,1,1,2,2,3,3,4,4,5,5,6,6,7,7,8,8,9,9,10,10,11,11,12,12,13,13,14,14,15,15,16,16,17,17,18,18,19,19,20,20,21,21,22,22,23,23,24,24,25,25,26,26,27,27,28,28,29,29,30,30],"right_children":[2,4,6,8,10,12,14,16,18,20,22,24,26,28,30,32,34,36,38,40,42,44,46,48,50,52,54,56,58,60,62,-1,-1,-1,-1,-1,-1,-1,-1,-1,-1,-1,-1,-1,-1,-1,-1,-1,-1,-1,-1,-1,-1,-1,-1,-1,-1,-1,-1,-1,-1,-1,-1],"split_conditions":[9.047619E-2,5.1282052E-2,5.574182E-1,3.6666665E-2,4.7578305E-1,1.5333334E-1,1.3809524E-1,4.3443322E-1,4.7192928E-1,1.5E-1,2.5831205E-1,1.5E-1,2.75E-1,4.5440623E-1,2.0833333E-1,4.1202566E-1,4.5674747E-1,4.410066E-1,2.3022255E-1,4.11025E-1,4.9945793E-1,1.5E-1,6.111111E-2,3.8973087E-1,4.7977796E-1,4.3087706E-1,3.5242328E-1,6.136164E-1,6.055672E-1,4.499902E-1,4.2736405E-1,-5.6044985E-2,-1.17539845E-1,-2.1331646E-2,-1.0004934E-1,-2.9991496E-2,-9.155019E-2,2.089571E-2,-6.452263E-2,-5.853198E-2,-1.0829906E-2,-4.4511877E-2,-9.3251415E-2,7.454238E-2,1.7538E-2,-5.7312287E-2,6.351149E-3,-2.2678101E-2,5.487873E-2,-2.4897225E-2,3.3177312E-2,2.9965524E-2,7.7985205E-2,1.8915659E-2,1.09736376E-1,5.7386052E-2,-9.8656654E-2,6.9761306E-2,1.043933E-1,7.47626E-2,1.1025547E-1,9.706068E-2,1.20240785E-1],"split_indices":[0,0,2,0,1,0,0,1,1,8,6,8,0,1,0,2,2,2,7,1,3,8,0,1,1,1,1,3,2,1,1,0,0,0,0,0,0,0,0,0,0,0,0,0,0,0,0,0,0,0,0,0,0,0,0,0,0,0,0,0,0,0,0],"split_type":[0,0,0,0,0,0,0,0,0,0,0,0,0,0,0,0,0,0,0,0,0,0,0,0,0,0,0,0,0,0,0,0,0,0,0,0,0,0,0,0,0,0,0,0,0,0,0,0,0,0,0,0,0,0,0,0,0,0,0,0,0,0,0],"sum_hessian":[1.0072609E4,5.235549E3,4.8370605E3,3.0366104E3,2.1989385E3,2.1101223E3,2.7269382E3,2.0536123E3,9.8299805E2,1.5971007E3,6.0183765E2,1.2428301E3,8.672921E2,7.608968E2,1.9660414E3,1.6852384E3,3.68374E2,8.3519293E2,1.4780515E2,1.1749915E3,4.2210922E2,1.9324913E2,4.0858856E2,5.3965955E2,7.0317053E2,6.3778E2,2.2951213E2,1.757681E2,5.851287E2,7.472165E2,1.2188248E3,8.716359E0,1.676522E3,9.992846E0,3.5838113E2,2.91058E1,8.060871E2,2.1531507E1,1.26273636E2,4.3323642E2,7.417551E2,1.4502676E2,2.7708243E2,1.0438479E2,8.8864334E1,7.919896E1,3.293896E2,8.539757E1,4.5426196E2,3.5867233E2,3.4449823E2,1.3771217E2,5.0006784E2,3.7542236E0,2.257579E2,1.5448445E2,2.1283644E1,3.1820117E2,2.6692752E2,1.0138641E2,6.458301E2,3.5000706E1,1.1838241E3],"tree_param":{"num_deleted":"0","num_feature":"10","num_nodes":"63","size_leaf_vector":"1"}},{"base_weights":[2.5732248E-4,-8.398668E-1,5.9312356E-1,-1.0525254E0,-5.016682E-1,2.2382541E-1,9.620928E-1,-1.1423786E0,-9.2315996E-1,-6.383284E-1,-2.649101E-1,7.2491154E-2,7.4162567E-1,5.8164525E-1,1.074648E0,-1.1513711E0,-7.657513E-1,-9.9718285E-1,-7.095541E-1,-5.241136E-1,-8.984973E-1,3.7611388E-2,-4.7199243E-1,-7.523609E-2,3.1250358E-1,5.334824E-1,9.499235E-1,4.8627076E-1,9.7510505E-1,8.4820527E-1,1.1252353E0,-8.706008E-2,-1.1578073E-1,1.2922685E-2,-8.820202E-2,-8.2134195E-2,-1.0545814E-1,9.632288E-2,-7.370346E-2,-7.7455185E-2,-2.9770618E-2,-1.12174E-1,-7.846246E-2,5.5858698E-2,-1.6150115E-2,-6.491464E-2,-1.9842025E-2,4.119295E-3,-3.496917E-2,-4.701353E-3,4.1556485E-2,-2.250142E-2,5.9809934E-2,7.667776E-2,1.0690019E-1,2.449209E-2,6.409113E-2,1.7569512E-2,9.9804066E-2,9.704083E-2,-3.0342794E-3,1.04686454E-1,1.1775365E-1],"categories":[],"categories_nodes":[],"categories_segments":[],"categories_sizes":[],"default_left":[0,0,0,0,0,0,0,0,0,0,0,0,0,0,0,0,0,0,0,0,0,0,0,0,0,0,0,0,0,0,0,0,0,0,0,0,0,0,0,0,0,0,0,0,0,0,0,0,0,0,0,0,0,0,0,0,0,0,0,0,0,0,0],"id":11,"left_children":[1,3,5,7,9,11,13,15,17,19,21,23,25,27,29,31,33,35,37,39,41,43,45,47,49,51,53,55,57,59,61,-1,-1,-1,-1,-1,-1,-1,-1,-1,-1,-1,-1,-1,-1,-1,-1,-1,-1,-1,-1,-1,-1,-1,-1,-1,-1,-1,-1,-1,-1,-1,-1],"loss_changes":[4.810673E3,2.8686328E2,7.713508E2,2.7451904E1,4.9805298E1,2.2180765E2,1.2065332E2,4.005493E0,1.5268616E1,2.8607635E1,3.553649E1,7.7745705E1,2.7250671E1,2.3872177E1,2.4068115E1,1.5355225E0,3.9262466E0,6.682434E0,1.2822693E1,3.84644E1,6.6734924E0,2.4085564E1,1.6186676E1,4.3398994E1,3.0971405E1,1.5941467E1,6.1310425E0,1.9407387E1,2.1272736E0,4.3290405E1,6.0734863E0,0E0,0E0,0E0,0E0,0E0,0E0,0E0,0E0,0E0,0E0,0E0,0E0,0E0,0E0,0E0,0E0,0E0,0E0,0E0,0E0,0E0,0E0,0E0,0E0,0E0,0E0,0E0,0E0,0E0,0E0,0E0,0E0],"parents":[2147483647,0,0,1,1,2,2,3,3,4,4,5,5,6,6,7,7,8,8,9,9,10,10,11,11,12,12,13,13,14,14,15,15,16,16,17,17,18,18,19,19,20,20,21,21,22,22,23,23,24,24,25,25,26,26,27,27,28,28,29,29,30,30],"right_children":[2,4,6,8,10,12,14,16,18,20,22,24,26,28,30,32,34,36,38,40,42,44,46,48,50,52,54,56,58,60,62,-1,-1,-1,-1,-1,-1,-1,-1,-1,-1,-1,-1,-1,-1,-1,-1,-1,-1,-1,-1,-1,-1,-1,-1,-1,-1,-1,-1,-1,-1,-1,-1],"split_conditions":[7E-2,4.5454547E-2,1.3809524E-1,2.962963E-2,4.529007E-1,5.857677E-1,5.296296E-1,4.7977796E-1,4.4388387E-1,5.630016E-1,2.5934353E-1,1.04761906E-1,1.04166664E-1,2.75E-1,4.6036077E-1,4.5674747E-1,2.3199418E-1,5.043647E-1,1.524752E-1,4.0306523E-1,4.225496E-1,1E-1,4.9507505E-1,3.2061303E-1,4.2527387E-1,4.2527387E-1,4.9097833E-1,4.8119047E-1,3.5242328E-1,5.9170055E-1,5.9834564E-1,-8.706008E-2,-1.1578073E-1,1.2922685E-2,-8.820202E-2,-8.2134195E-2,-1.0545814E-1,9.632288E-2,-7.370346E-2,-7.7455185E-2,-2.9770618E-2,-1.12174E-1,-7.846246E-2,5.5858698E-2,-1.6150115E-2,-6.491464E-2,-1.9842025E-2,4.119295E-3,-3.496917E-2,-4.701353E-3,4.1556485E-2,-2.250142E-2,5.9809934E-2,7.667776E-2,1.0690019E-1,2.449209E-2,6.409113E-2,1.7569512E-2,9.9804066E-2,9.704083E-2,-3.0342794E-3,1.04686454E-1,1.1775365E-1],"split_indices":[0,0,0,0,1,2,2,1,1,3,6,0,0,0,1,2,7,2,7,1,1,8,1,6,1,1,1,2,1,3,2,0,0,0,0,0,0,0,0,0,0,0,0,0,0,0,0,0,0,0,0,0,0,0,0,0,0,0,0,0,0,0,0],"split_type":[0,0,0,0,0,0,0,0,0,0,0,0,0,0,0,0,0,0,0,0,0,0,0,0,0,0,0,0,0,0,0,0,0,0,0,0,0,0,0,0,0,0,0,0,0,0,0,0,0,0,0,0,0,0,0,0,0,0,0,0,0,0,0],"sum_hessian":[9.65641E3,3.9949414E3,5.6614688E3,2.4513965E3,1.5435449E3,2.8302761E3,2.8311926E3,1.4419982E3,1.0093982E3,9.775772E2,5.6596765E2,2.1910513E3,6.392249E2,6.47785E2,2.1834075E3,1.4063623E3,3.563593E1,7.468996E2,2.6249857E2,6.8143854E2,2.9613867E2,2.3031888E2,3.3564877E2,1.3566946E3,8.343567E2,3.215123E2,3.1771262E2,5.231979E2,1.245871E2,4.0194736E2,1.7814602E3,3.4570225E1,1.371792E3,4.0844517E0,3.1551476E1,1.8757434E2,5.5932526E2,3.6922865E0,2.588063E2,3.223991E2,3.5903943E2,9.704167E1,1.99097E2,6.318658E1,1.6713231E2,2.0289171E2,1.3275706E2,9.531858E2,4.0350876E2,1.8601367E2,6.48343E2,2.5044832E1,2.9646747E2,1.2811201E2,1.8960059E2,2.0532613E2,3.1787177E2,3.7163403E0,1.2087076E2,3.5277322E2,4.917411E1,7.2143646E2,1.0600238E3],"tree_param":{"num_deleted":"0","num_feature":"10","num_nodes":"63","size_leaf_vector":"1"}},{"base_weights":[2.4751975E-4,-7.979051E-1,5.55426E-1,-1.0187016E0,-4.6272165E-1,2.0429876E-1,9.2410433E-1,-1.1148497E0,-8.8293916E-1,-6.318517E-1,-2.883324E-1,2.307826E-2,5.879703E-1,5.854914E-1,1.0600017E0,-1.1244773E0,-7.2502726E-1,-9.599171E-1,-6.66061E-1,-4.8058242E-1,-8.1823725E-1,-3.3798012E-1,5.7595295E-1,-1.8302663E-1,1.5610242E-1,3.875473E-1,8.244559E-1,4.2323172E-1,8.1700355E-1,6.2471527E-1,1.084431E0,-8.3092086E-2,-1.13139264E-1,-2.9515008E-2,-9.944679E-2,-8.0675E-2,-1.0330371E-1,1.1472261E-1,-6.88553E-2,-7.6387994E-2,-2.7513191E-2,-6.1314005E-2,-9.969859E-2,-1.2644588E-2,-5.5130225E-2,8.1231974E-2,-4.7600027E-2,-2.4521908E-2,4.4596896E-2,2.707315E-2,-1.5385657E-2,5.8201034E-2,1.1842328E-2,6.281554E-2,9.8969005E-2,5.568198E-2,5.750259E-3,6.353656E-2,9.973667E-2,8.1145756E-2,-1.5151128E-1,9.8284714E-2,1.1482208E-1],"categories":[],"categories_nodes":[],"categories_segments":[],"categories_sizes":[],"default_left":[0,0,0,0,0,0,0,0,0,0,0,0,0,0,0,0,0,0,0,0,0,0,0,0,0,0,0,0,0,0,0,0,0,0,0,0,0,0,0,0,0,0,0,0,0,0,0,0,0,0,0,0,0,0,0,0,0,0,0,0,0,0,0],"id":12,"left_children":[1,3,5,7,9,11,13,15,17,19,21,23,25,27,29,31,33,35,37,39,41,43,45,47,49,51,53,55,57,59,61,-1,-1,-1,-1,-1,-1,-1,-1,-1,-1,-1,-1,-1,-1,-1,-1,-1,-1,-1,-1,-1,-1,-1,-1,-1,-1,-1,-1,-1,-1,-1,-1],"loss_changes":[4.1037393E3,2.8069556E2,7.068696E2,2.8902588E1,4.437213E1,1.945859E2,1.2197119E2,4.2005615E0,1.5288269E1,2.1204376E1,3.218722E1,5.2175102E1,4.223532E1,2.8399475E1,1.9525146E1,1.7039795E0,3.7636528E0,7.0270996E0,1.111599E1,2.4542053E1,1.191777E1,3.177517E1,1.0549332E1,2.9312212E1,4.1131245E1,2.5462997E1,1.2708618E1,2.2049843E1,9.661102E0,4.2514957E1,1.0519531E1,0E0,0E0,0E0,0E0,0E0,0E0,0E0,0E0,0E0,0E0,0E0,0E0,0E0,0E0,0E0,0E0,0E0,0E0,0E0,0E0,0E0,0E0,0E0,0E0,0E0,0E0,0E0,0E0,0E0,0E0,0E0,0E0],"parents":[2147483647,0,0,1,1,2,2,3,3,4,4,5,5,6,6,7,7,8,8,9,9,10,10,11,11,12,12,13,13,14,14,15,15,16,16,17,17,18,18,19,19,20,20,21,21,22,22,23,23,24,24,25,25,26,26,27,27,28,28,29,29,30,30],"right_children":[2,4,6,8,10,12,14,16,18,20,22,24,26,28,30,32,34,36,38,40,42,44,46,48,50,52,54,56,58,60,62,-1,-1,-1,-1,-1,-1,-1,-1,-1,-1,-1,-1,-1,-1,-1,-1,-1,-1,-1,-1,-1,-1,-1,-1,-1,-1,-1,-1,-1,-1,-1,-1],"split_conditions":[7E-2,4.5454547E-2,1.3809524E-1,2.962963E-2,4.3786207E-1,5.6630343E-1,5.4212505E-1,4.7977796E-1,4.4388387E-1,5.288509E-1,6.357686E-1,9.047619E-2,1.0666667E-1,2.1111111E-1,4.3087706E-1,4.5674747E-1,2.2863623E-1,5.0739264E-1,1.4554636E-1,3.8888216E-1,2.1716727E-1,5.98834E-1,3.7848285E-1,5.13251E-1,3.4431383E-1,1.5E-1,4.9097833E-1,2.5E-1,5.0710696E-1,5.846262E-1,2.0833333E-1,-8.3092086E-2,-1.13139264E-1,-2.9515008E-2,-9.944679E-2,-8.0675E-2,-1.0330371E-1,1.1472261E-1,-6.88553E-2,-7.6387994E-2,-2.7513191E-2,-6.1314005E-2,-9.969859E-2,-1.2644588E-2,-5.5130225E-2,8.1231974E-2,-4.7600027E-2,-2.4521908E-2,4.4596896E-2,2.707315E-2,-1.5385657E-2,5.8201034E-2,1.1842328E-2,6.281554E-2,9.8969005E-2,5.568198E-2,5.750259E-3,6.353656E-2,9.973667E-2,8.1145756E-2,-1.5151128E-1,9.8284714E-2,1.1482208E-1],"split_indices":[0,0,0,0,1,2,2,1,1,3,2,0,0,0,1,2,6,3,7,1,6,3,7,1,6,8,1,8,2,3,0,0,0,0,0,0,0,0,0,0,0,0,0,0,0,0,0,0,0,0,0,0,0,0,0,0,0,0,0,0,0,0,0],"split_type":[0,0,0,0,0,0,0,0,0,0,0,0,0,0,0,0,0,0,0,0,0,0,0,0,0,0,0,0,0,0,0,0,0,0,0,0,0,0,0,0,0,0,0,0,0,0,0,0,0,0,0,0,0,0,0,0,0,0,0,0,0,0,0],"sum_hessian":[9.25907E3,3.7981792E3,5.4608916E3,2.288578E3,1.5096014E3,2.7978186E3,2.663073E3,1.3355309E3,9.5304694E2,7.650249E2,7.445766E2,1.9009829E3,8.9683563E2,7.6421094E2,1.8988619E3,1.3015028E3,3.4028053E1,7.0086017E2,2.5218675E2,4.2426932E2,3.407556E2,7.0470465E2,3.98719E1,7.455176E2,1.1554655E3,4.868587E2,4.0997696E2,4.5096887E2,3.1324203E2,1.0231799E2,1.796544E3,3.274268E1,1.2687601E3,1.3918036E1,2.0110018E1,2.3035677E2,4.7050342E2,2.477118E0,2.4970964E2,1.7720363E2,2.4706569E2,1.607455E2,1.800101E2,3.5463483E2,3.5006985E2,3.2742645E1,7.129253E0,6.789918E2,6.652573E1,8.4360846E2,3.1185693E2,2.8195892E2,2.0489978E2,1.8956844E2,2.2040851E2,3.299333E2,1.2103561E2,1.5832281E2,1.5491922E2,9.467639E1,7.6416035E0,6.993108E2,1.0972332E3],"tree_param":{"num_deleted":"0","num_feature":"10","num_nodes":"63","size_leaf_vector":"1"}},{"base_weights":[2.2713718E-4,-7.5767154E-1,5.196903E-1,-9.8671913E-1,-4.263243E-1,1.8637109E-1,8.8770974E-1,-1.0896757E0,-8.443597E-1,-5.050754E-1,-6.72335E-2,5.6989003E-2,6.577867E-1,6.0865885E-1,1.0661423E0,-1.1000111E0,-6.8663996E-1,-9.293024E-1,-6.359857E-1,-4.2219952E-1,-8.14519E-1,6.251645E-2,-6.9385344E-1,-3.9406683E-2,3.701534E-1,4.59347E-1,8.718594E-1,4.4233334E-1,8.3581424E-1,9.623347E-1,1.1294681E-1,-7.927947E-2,-1.1074634E-1,1.6457742E-2,-8.072065E-2,-7.724221E-2,-1.0163188E-1,-7.052173E-2,5.6049298E-3,-6.948802E-2,-2.557368E-2,-5.626448E-2,-9.8848395E-2,2.9342046E-2,-2.1589762E-2,-7.955052E-2,4.8236486E-2,5.1807906E-3,-7.920441E-2,5.350125E-2,8.127009E-3,-2.5727576E-2,5.227666E-2,1.0096698E-1,6.765619E-2,1.8690367E-3,5.2694436E-2,5.9441842E-2,9.75122E-2,6.509208E-2,1.0328094E-1],"categories":[],"categories_nodes":[],"categories_segments":[],"categories_sizes":[],"default_left":[0,0,0,0,0,0,0,0,0,0,0,0,0,0,0,0,0,0,0,0,0,0,0,0,0,0,0,0,0,0,0,0,0,0,0,0,0,0,0,0,0,0,0,0,0,0,0,0,0,0,0,0,0,0,0,0,0,0,0,0,0],"id":13,"left_children":[1,3,5,7,9,11,13,15,17,19,21,23,25,27,29,31,33,35,37,39,41,43,45,47,49,51,53,55,57,59,-1,-1,-1,-1,-1,-1,-1,-1,-1,-1,-1,-1,-1,-1,-1,-1,-1,-1,-1,-1,-1,-1,-1,-1,-1,-1,-1,-1,-1,-1,-1],"loss_changes":[3.498768E3,2.7386255E2,6.466459E2,3.0388672E1,4.1787567E1,1.6879897E2,1.2411548E2,4.394043E0,1.5355591E1,3.0757568E1,2.1763836E1,6.561592E1,2.4919006E1,3.664279E1,8.951782E0,1.8775635E0,3.577962E0,7.9226074E0,1.26916275E1,4.3335983E1,1.0622162E1,1.4350531E1,5.8730087E0,1.1417731E2,2.4320023E1,1.4287888E1,7.0036774E0,2.0338089E1,1.3307922E1,1.2174561E1,0E0,0E0,0E0,0E0,0E0,0E0,0E0,0E0,0E0,0E0,0E0,0E0,0E0,0E0,0E0,0E0,0E0,0E0,0E0,0E0,0E0,0E0,0E0,0E0,0E0,0E0,0E0,0E0,0E0,0E0,0E0],"parents":[2147483647,0,0,1,1,2,2,3,3,4,4,5,5,6,6,7,7,8,8,9,9,10,10,11,11,12,12,13,13,14,14,15,15,16,16,17,17,18,18,19,19,20,20,21,21,22,22,23,23,24,24,25,25,26,26,27,27,28,28,29,29],"right_children":[2,4,6,8,10,12,14,16,18,20,22,24,26,28,30,32,34,36,38,40,42,44,46,48,50,52,54,56,58,60,-1,-1,-1,-1,-1,-1,-1,-1,-1,-1,-1,-1,-1,-1,-1,-1,-1,-1,-1,-1,-1,-1,-1,-1,-1,-1,-1,-1,-1,-1,-1],"split_conditions":[7E-2,4.5454547E-2,1.3809524E-1,2.962963E-2,4.837493E-1,5.857677E-1,5.611431E-1,4.7977796E-1,4.4108966E-1,5.98834E-1,3.9214015E-1,4.9097833E-1,1.04166664E-1,2.1111111E-1,2.0833333E-1,4.5674747E-1,2.3199418E-1,5.1143456E-1,6.2578064E-1,4.06787E-1,2.1899638E-1,1.5E-1,6.667153E-1,6.103541E-1,6.297851E-1,4.2527387E-1,6.1833453E-1,4.597798E-1,5.0710696E-1,4.6036077E-1,1.1294681E-1,-7.927947E-2,-1.1074634E-1,1.6457742E-2,-8.072065E-2,-7.724221E-2,-1.0163188E-1,-7.052173E-2,5.6049298E-3,-6.948802E-2,-2.557368E-2,-5.626448E-2,-9.8848395E-2,2.9342046E-2,-2.1589762E-2,-7.955052E-2,4.8236486E-2,5.1807906E-3,-7.920441E-2,5.350125E-2,8.127009E-3,-2.5727576E-2,5.227666E-2,1.0096698E-1,6.765619E-2,1.8690367E-3,5.2694436E-2,5.9441842E-2,9.75122E-2,6.509208E-2,1.0328094E-1],"split_indices":[0,0,0,0,1,2,2,1,1,3,6,1,0,0,0,2,7,3,2,1,6,8,5,3,3,1,3,2,2,1,0,0,0,0,0,0,0,0,0,0,0,0,0,0,0,0,0,0,0,0,0,0,0,0,0,0,0,0,0,0,0],"split_type":[0,0,0,0,0,0,0,0,0,0,0,0,0,0,0,0,0,0,0,0,0,0,0,0,0,0,0,0,0,0,0,0,0,0,0,0,0,0,0,0,0,0,0,0,0,0,0,0,0,0,0,0,0,0,0,0,0,0,0,0,0],"sum_hessian":[8.884879E3,3.613016E3,5.271863E3,2.1351152E3,1.4779011E3,2.7671404E3,2.5047224E3,1.2351683E3,8.999468E2,1.2117496E3,2.661515E2,2.172115E3,5.950256E2,9.7863885E2,1.5260835E3,1.2025995E3,3.2568836E1,6.3686993E2,2.6307684E2,9.576375E2,2.5411208E2,2.2124088E2,4.491062E1,1.6615458E3,5.1056918E2,3.1042007E2,2.8460547E2,5.6666693E2,4.1197192E2,5.8436017E2,9.417234E2,3.1023987E1,1.1715756E3,3.9954352E0,2.8573402E1,2.3074347E2,4.0612646E2,2.3913463E2,2.3942204E1,3.6180103E2,5.958365E2,1.0554033E2,1.4857175E2,1.20909836E2,1.0033104E2,4.163601E1,3.2746127E0,1.4827747E3,1.7877115E2,3.2452066E2,1.8604852E2,2.4989477E1,2.854306E2,1.6441628E2,1.2018919E2,9.4538475E1,4.7212845E2,1.5267679E2,2.5929514E2,1.0972835E2,4.746318E2],"tree_param":{"num_deleted":"0","num_feature":"10","num_nodes":"61","size_leaf_vector":"1"}},{"base_weights":[2.1397292E-4,-5.645437E-1,6.183969E-1,-9.0157455E-1,-1.8702249E-1,3.2344815E-1,9.037907E-1,-1.0238569E0,-6.7417115E-1,-3.022908E-1,1.10009976E-1,1.7057544E-1,7.027737E-1,6.0222995E-1,1.0383415E0,-1.0693232E0,-8.2490975E-1,-8.71767E-1,-5.763291E-1,-1.7439567E-1,-6.55083E-1,2.672822E-1,-2.1909888E-1,3.9943686E-1,4.018767E-2,4.1222882E-1,8.1360185E-1,-2.3295633E-1,6.5490776E-1,9.299686E-1,1.1057134E0,-3.613527E-2,-1.07322216E-1,-7.702283E-4,-8.502762E-2,-4.5114405E-2,-1.0057024E-1,-4.5572873E-2,-8.215495E-2,-8.8357655E-3,-7.420569E-2,-3.508691E-2,-8.151126E-2,5.0233968E-2,3.599704E-3,-4.3317106E-2,2.0934483E-2,-5.5756536E-3,5.6586634E-2,-2.756126E-2,2.1174503E-2,2.5593637E-2,8.04698E-2,7.208709E-2,1.0075716E-1,8.1506446E-2,-1.1244855E-1,5.3380467E-2,9.763155E-2,6.314527E-2,1.0010721E-1,6.7537084E-2,1.1096914E-1],"categories":[],"categories_nodes":[],"categories_segments":[],"categories_sizes":[],"default_left":[0,0,0,0,0,0,0,0,0,0,0,0,0,0,0,0,0,0,0,0,0,0,0,0,0,0,0,0,0,0,0,0,0,0,0,0,0,0,0,0,0,0,0,0,0,0,0,0,0,0,0,0,0,0,0,0,0,0,0,0,0,0,0],"id":14,"left_children":[1,3,5,7,9,11,13,15,17,19,21,23,25,27,29,31,33,35,37,39,41,43,45,47,49,51,53,55,57,59,61,-1,-1,-1,-1,-1,-1,-1,-1,-1,-1,-1,-1,-1,-1,-1,-1,-1,-1,-1,-1,-1,-1,-1,-1,-1,-1,-1,-1,-1,-1,-1,-1],"loss_changes":[2.9813242E3,5.676311E2,3.4288635E2,6.48645E1,7.2143005E1,1.1623074E2,8.342432E1,1.2967773E1,1.5492096E1,6.8358765E1,3.0573183E1,4.2698456E1,1.8212952E1,2.8374619E1,9.4198E0,3.043213E0,5.98851E0,1.4871735E1,1.6076736E1,5.4398895E1,1.9353317E1,2.1693483E1,1.7625282E1,3.9381104E1,4.9522896E1,9.674734E0,6.755249E0,3.7165936E1,2.2976013E1,1.114505E1,7.519531E-1,0E0,0E0,0E0,0E0,0E0,0E0,0E0,0E0,0E0,0E0,0E0,0E0,0E0,0E0,0E0,0E0,0E0,0E0,0E0,0E0,0E0,0E0,0E0,0E0,0E0,0E0,0E0,0E0,0E0,0E0,0E0,0E0],"parents":[2147483647,0,0,1,1,2,2,3,3,4,4,5,5,6,6,7,7,8,8,9,9,10,10,11,11,12,12,13,13,14,14,15,15,16,16,17,17,18,18,19,19,20,20,21,21,22,22,23,23,24,24,25,25,26,26,27,27,28,28,29,29,30,30],"right_children":[2,4,6,8,10,12,14,16,18,20,22,24,26,28,30,32,34,36,38,40,42,44,46,48,50,52,54,56,58,60,62,-1,-1,-1,-1,-1,-1,-1,-1,-1,-1,-1,-1,-1,-1,-1,-1,-1,-1,-1,-1,-1,-1,-1,-1,-1,-1,-1,-1,-1,-1,-1,-1],"split_conditions":[9.047619E-2,5.1282052E-2,5.5998534E-1,3.6666665E-2,4.7578305E-1,1.75E-1,1.3809524E-1,4.3443322E-1,4.037472E-1,1.5E-1,3.494175E-1,2.4828418E-1,4.8940244E-1,4.1768205E-1,2.0833333E-1,4.1202566E-1,4.5674747E-1,4.561201E-1,2.825292E-1,6.1267614E-1,4.9945793E-1,1.5E-1,5.272928E-1,4.06787E-1,4.5440623E-1,2.75E-1,2.888889E-1,5.180505E-1,6.2237966E-1,4.6036077E-1,5.611431E-1,-3.613527E-2,-1.07322216E-1,-7.702283E-4,-8.502762E-2,-4.5114405E-2,-1.0057024E-1,-4.5572873E-2,-8.215495E-2,-8.8357655E-3,-7.420569E-2,-3.508691E-2,-8.151126E-2,5.0233968E-2,3.599704E-3,-4.3317106E-2,2.0934483E-2,-5.5756536E-3,5.6586634E-2,-2.756126E-2,2.1174503E-2,2.5593637E-2,8.04698E-2,7.208709E-2,1.0075716E-1,8.1506446E-2,-1.1244855E-1,5.3380467E-2,9.763155E-2,6.314527E-2,1.0010721E-1,6.7537084E-2,1.1096914E-1],"split_indices":[0,0,2,0,1,0,0,1,1,8,6,6,2,1,0,2,2,3,6,3,3,8,1,1,1,0,0,3,2,1,2,0,0,0,0,0,0,0,0,0,0,0,0,0,0,0,0,0,0,0,0,0,0,0,0,0,0,0,0,0,0,0,0],"split_type":[0,0,0,0,0,0,0,0,0,0,0,0,0,0,0,0,0,0,0,0,0,0,0,0,0,0,0,0,0,0,0,0,0,0,0,0,0,0,0,0,0,0,0,0,0,0,0,0,0,0,0,0,0,0,0,0,0,0,0,0,0,0,0],"sum_hessian":[8.537453E3,4.4615605E3,4.0758926E3,2.356455E3,2.1051057E3,2.0054421E3,2.0704504E3,1.530144E3,8.26311E2,1.5165614E3,5.885442E2,1.4304167E3,5.750253E2,6.404727E2,1.4299777E3,1.2419424E3,2.882016E2,2.7103503E2,5.5527594E2,1.1141509E3,4.0241052E2,3.9836444E2,1.9017973E2,5.18414E2,9.120028E2,1.6008067E2,4.1494467E2,3.7796764E1,6.0267596E2,5.538576E2,8.7612E2,7.3154006E0,1.2346271E3,8.715808E0,2.7948578E2,6.6514656E1,2.0452037E2,3.7413385E2,1.8114207E2,9.685132E2,1.4563777E2,1.398156E2,2.625949E2,1.9698979E2,2.0137465E2,1.2680867E2,6.3371067E1,1.38975E2,3.7943896E2,3.2082544E2,5.9117737E2,1.1566977E2,4.4410896E1,2.839252E2,1.310195E2,1.7413E1,2.0383766E1,4.396727E2,1.6300327E2,1.08446075E2,4.454115E2,9.588621E0,8.6653143E2],"tree_param":{"num_deleted":"0","num_feature":"10","num_nodes":"63","size_leaf_vector":"1"}},{"base_weights":[2.4374214E-4,-6.844263E-1,4.5639127E-1,-9.535218E-1,-3.974705E-1,1.5803504E-1,8.203888E-1,-1.0452149E0,-8.003225E-1,-5.8046746E-1,-2.4423805E-1,-2.1784749E-2,4.3004507E-1,5.5327404E-1,1.0304208E0,-1.0573498E0,-6.0198635E-1,-8.690649E-1,-4.877429E-1,-4.1770735E-1,-8.227673E-1,-3.748108E-2,-4.2443204E-1,-1.24075875E-1,2.1985182E-1,3.1705868E-1,7.9641354E-1,4.5244938E-1,9.431927E-1,7.605032E-1,1.0596584E0,-7.184919E-2,-1.0660403E-1,-1.5675101E-2,-9.0117045E-2,-6.402292E-2,-9.3245916E-2,1.1675973E-1,-5.283746E-2,-6.663993E-2,-2.1818254E-2,-6.810512E-2,-1.0750073E-1,3.1444896E-2,-2.0014694E-2,-5.414446E-2,-1.3894731E-2,1.0849634E-2,-3.9434332E-2,2.9255921E-2,-3.6252927E-2,5.1883806E-2,-1.0806926E-2,-1.455466E-1,8.191498E-2,1.2338532E-2,5.5663764E-2,6.877172E-2,1.0267571E-1,9.45897E-2,-7.3728964E-2,9.731522E-2,1.0948189E-1],"categories":[],"categories_nodes":[],"categories_segments":[],"categories_sizes":[],"default_left":[0,0,0,0,0,0,0,0,0,0,0,0,0,0,0,0,0,0,0,0,0,0,0,0,0,0,0,0,0,0,0,0,0,0,0,0,0,0,0,0,0,0,0,0,0,0,0,0,0,0,0,0,0,0,0,0,0,0,0,0,0,0,0],"id":15,"left_children":[1,3,5,7,9,11,13,15,17,19,21,23,25,27,29,31,33,35,37,39,41,43,45,47,49,51,53,55,57,59,61,-1,-1,-1,-1,-1,-1,-1,-1,-1,-1,-1,-1,-1,-1,-1,-1,-1,-1,-1,-1,-1,-1,-1,-1,-1,-1,-1,-1,-1,-1,-1,-1],"loss_changes":[2.5653394E3,2.532323E2,5.352438E2,2.2962402E1,4.447534E1,1.3258162E2,1.23997314E2,5.046509E0,1.3298279E1,2.8224869E1,3.231223E1,4.0381977E1,4.4401062E1,3.8081573E1,8.994385E0,2.258667E0,3.9187412E0,6.9786377E0,8.5134735E0,2.145742E1,9.636185E0,2.325795E1,1.5409683E1,7.218384E1,2.0682615E1,7.092304E1,1.4176453E1,2.6680069E1,3.5705261E0,3.5382935E1,2.3348389E0,0E0,0E0,0E0,0E0,0E0,0E0,0E0,0E0,0E0,0E0,0E0,0E0,0E0,0E0,0E0,0E0,0E0,0E0,0E0,0E0,0E0,0E0,0E0,0E0,0E0,0E0,0E0,0E0,0E0,0E0,0E0,0E0],"parents":[2147483647,0,0,1,1,2,2,3,3,4,4,5,5,6,6,7,7,8,8,9,9,10,10,11,11,12,12,13,13,14,14,15,15,16,16,17,17,18,18,19,19,20,20,21,21,22,22,23,23,24,24,25,25,26,26,27,27,28,28,29,29,30,30],"right_children":[2,4,6,8,10,12,14,16,18,20,22,24,26,28,30,32,34,36,38,40,42,44,46,48,50,52,54,56,58,60,62,-1,-1,-1,-1,-1,-1,-1,-1,-1,-1,-1,-1,-1,-1,-1,-1,-1,-1,-1,-1,-1,-1,-1,-1,-1,-1,-1,-1,-1,-1,-1,-1],"split_conditions":[7E-2,4.2857144E-2,1.3809524E-1,2.962963E-2,4.3153998E-1,5.5222064E-1,5.6691676E-1,4.7977796E-1,4.5655486E-1,5.313014E-1,2.6109114E-1,4.7739708E-1,6.171159E-1,2.75E-1,4.499902E-1,4.5674747E-1,2.2863623E-1,5.017054E-1,1.524752E-1,3.8888216E-1,2.455163E-1,5E-2,4.9507505E-1,5.2267E-1,3E-1,6.103541E-1,3.863055E-1,4.3443322E-1,4.9866834E-1,5.9643215E-1,5.9917724E-1,-7.184919E-2,-1.0660403E-1,-1.5675101E-2,-9.0117045E-2,-6.402292E-2,-9.3245916E-2,1.1675973E-1,-5.283746E-2,-6.663993E-2,-2.1818254E-2,-6.810512E-2,-1.0750073E-1,3.1444896E-2,-2.0014694E-2,-5.414446E-2,-1.3894731E-2,1.0849634E-2,-3.9434332E-2,2.9255921E-2,-3.6252927E-2,5.1883806E-2,-1.0806926E-2,-1.455466E-1,8.191498E-2,1.2338532E-2,5.5663764E-2,6.877172E-2,1.0267571E-1,9.45897E-2,-7.3728964E-2,9.731522E-2,1.0948189E-1],"split_indices":[0,0,0,0,1,2,2,1,1,3,6,1,2,0,1,2,6,2,7,1,6,8,1,3,8,3,1,1,2,3,2,0,0,0,0,0,0,0,0,0,0,0,0,0,0,0,0,0,0,0,0,0,0,0,0,0,0,0,0,0,0,0,0],"split_type":[0,0,0,0,0,0,0,0,0,0,0,0,0,0,0,0,0,0,0,0,0,0,0,0,0,0,0,0,0,0,0,0,0,0,0,0,0,0,0,0,0,0,0,0,0,0,0,0,0,0,0,0,0,0,0,0,0,0,0,0,0,0,0],"sum_hessian":[8.212065E3,3.283334E3,4.9287314E3,1.6931985E3,1.5901354E3,2.70938E3,2.2193513E3,1.0555854E3,6.376131E2,7.234141E2,8.6672125E2,1.6316514E3,1.0777285E3,9.785208E2,1.2408306E3,1.0261066E3,2.9478807E1,5.212086E2,1.1640448E2,4.3436322E2,2.890509E2,4.041743E2,4.6254694E2,1.1467067E3,4.8494464E2,8.251282E2,2.5260039E2,7.791973E2,1.9932352E2,1.2391119E2,1.1169193E3,2.775031E1,9.9835626E2,1.2460079E1,1.7018728E1,1.1547488E2,4.0573376E2,2.1242971E0,1.1428018E2,1.9231624E2,2.4204697E2,1.8744084E2,1.0161005E2,1.2746619E2,2.767081E2,3.2744104E2,1.351059E2,6.166563E2,5.3005035E2,4.315637E2,5.3380936E1,5.5939905E2,2.6572916E2,1.8950347E0,2.5070535E2,1.8790619E2,5.9129114E2,5.1402905E1,1.4792062E2,1.1059093E2,1.3320256E1,3.310674E2,7.858519E2],"tree_param":{"num_deleted":"0","num_feature":"10","num_nodes":"63","size_leaf_vector":"1"}},{"base_weights":[1.9259234E-4,-7.525684E-1,3.6695358E-1,-9.753157E-1,-5.2271616E-1,9.4783925E-2,7.8691316E-1,-1.0368246E0,-7.843199E-1,-6.161682E-1,-2.9683918E-1,-5.3200586E-4,5.2861136E-1,5.169466E-1,1.0090146E0,-8.9280796E-1,-1.0588264E0,-5.39527E-2,-8.2568043E-1,-1.1933449E-1,-6.563388E-1,1.7614351E-1,-4.284645E-1,-3.61669E-1,6.987449E-2,3.4906667E-1,8.105838E-1,4.1862553E-1,9.1410094E-1,7.2630894E-1,1.0405093E0,-9.410114E-2,-7.3303864E-4,-8.963423E-3,-1.0599208E-1,1.0375794E-1,-5.8428284E-2,-8.509552E-2,7.024483E-3,-4.723473E-2,4.8748266E-2,-9.3294345E-2,-5.8627028E-2,9.033127E-2,-5.048302E-3,-2.0011304E-2,-5.77972E-2,2.0160161E-2,-6.6340156E-2,2.5135351E-2,-2.0703416E-2,-4.0749457E-2,4.155107E-2,5.733964E-2,9.25007E-2,9.503599E-3,5.2727915E-2,6.516031E-2,1.00265265E-1,9.221562E-2,-5.917876E-2,9.612503E-2,1.0853237E-1],"categories":[],"categories_nodes":[],"categories_segments":[],"categories_sizes":[],"default_left":[0,0,0,0,0,0,0,0,0,0,0,0,0,0,0,0,0,0,0,0,0,0,0,0,0,0,0,0,0,0,0,0,0,0,0,0,0,0,0,0,0,0,0,0,0,0,0,0,0,0,0,0,0,0,0,0,0,0,0,0,0,0,0],"id":16,"left_children":[1,3,5,7,9,11,13,15,17,19,21,23,25,27,29,31,33,35,37,39,41,43,45,47,49,51,53,55,57,59,61,-1,-1,-1,-1,-1,-1,-1,-1,-1,-1,-1,-1,-1,-1,-1,-1,-1,-1,-1,-1,-1,-1,-1,-1,-1,-1,-1,-1,-1,-1,-1,-1],"loss_changes":[2.1844177E3,1.322013E2,6.080143E2,1.4638062E1,2.6790619E1,1.335293E2,1.2490967E2,2.1971436E0,9.757736E0,1.7942871E1,2.347718E1,6.736718E1,2.916568E1,3.6567657E1,9.453857E0,5.875206E0,8.118286E-1,1.1292668E1,7.0121613E0,1.4961224E1,1.5640015E1,1.364812E1,9.933521E0,7.3600464E1,1.1147513E2,1.8122673E1,5.5906067E0,2.6682617E1,3.6917877E0,3.1071259E1,2.613037E0,0E0,0E0,0E0,0E0,0E0,0E0,0E0,0E0,0E0,0E0,0E0,0E0,0E0,0E0,0E0,0E0,0E0,0E0,0E0,0E0,0E0,0E0,0E0,0E0,0E0,0E0,0E0,0E0,0E0,0E0,0E0,0E0],"parents":[2147483647,0,0,1,1,2,2,3,3,4,4,5,5,6,6,7,7,8,8,9,9,10,10,11,11,12,12,13,13,14,14,15,15,16,16,17,17,18,18,19,19,20,20,21,21,22,22,23,23,24,24,25,25,26,26,27,27,28,28,29,29,30,30],"right_children":[2,4,6,8,10,12,14,16,18,20,22,24,26,28,30,32,34,36,38,40,42,44,46,48,50,52,54,56,58,60,62,-1,-1,-1,-1,-1,-1,-1,-1,-1,-1,-1,-1,-1,-1,-1,-1,-1,-1,-1,-1,-1,-1,-1,-1,-1,-1,-1,-1,-1,-1,-1,-1],"split_conditions":[6.111111E-2,3.6666665E-2,1.3809524E-1,4.2527387E-1,4.5655486E-1,5.905085E-1,5.6691676E-1,4.9576446E-1,4.8560315E-1,4.3369687E-1,5E-2,4.059825E-1,1.04166664E-1,2.75E-1,4.499902E-1,4.7408777E-1,3.5009E-1,5.764483E-1,5.224831E-1,3.7573457E-1,3.880285E-1,5.846262E-1,2.602164E-1,4.4614747E-1,5.8095634E-1,4.190433E-1,4.8219028E-1,4.8119047E-1,4.9866834E-1,5.932534E-1,2.0833333E-1,-9.410114E-2,-7.3303864E-4,-8.963423E-3,-1.0599208E-1,1.0375794E-1,-5.8428284E-2,-8.509552E-2,7.024483E-3,-4.723473E-2,4.8748266E-2,-9.3294345E-2,-5.8627028E-2,9.033127E-2,-5.048302E-3,-2.0011304E-2,-5.77972E-2,2.0160161E-2,-6.6340156E-2,2.5135351E-2,-2.0703416E-2,-4.0749457E-2,4.155107E-2,5.733964E-2,9.25007E-2,9.503599E-3,5.2727915E-2,6.516031E-2,1.00265265E-1,9.221562E-2,-5.917876E-2,9.612503E-2,1.0853237E-1],"split_indices":[0,0,0,1,1,2,2,2,2,3,8,1,0,0,1,7,3,3,1,1,1,3,6,3,3,1,1,2,2,3,0,0,0,0,0,0,0,0,0,0,0,0,0,0,0,0,0,0,0,0,0,0,0,0,0,0,0,0,0,0,0,0,0],"split_type":[0,0,0,0,0,0,0,0,0,0,0,0,0,0,0,0,0,0,0,0,0,0,0,0,0,0,0,0,0,0,0,0,0,0,0,0,0,0,0,0,0,0,0,0,0,0,0,0,0,0,0,0,0,0,0,0,0,0,0,0,0,0,0],"sum_hessian":[7.9101665E3,2.5910654E3,5.3191016E3,1.3142234E3,1.276842E3,3.2281865E3,2.0909148E3,9.907355E2,3.2348785E2,9.0195026E2,3.7489175E2,2.6475042E3,5.806825E2,9.45264E2,1.1456506E3,1.3680922E2,8.539263E2,1.746077E1,3.0602707E2,6.776743E1,8.341828E2,8.154163E1,2.933501E2,4.3126642E2,2.2162375E3,3.5614603E2,2.245365E2,7.593343E2,1.8592972E2,1.17249275E2,1.0284014E3,1.2968666E2,7.122567E0,1.0566466E0,8.528696E2,5.3967113E0,1.2064057E1,2.9767953E2,8.34756E0,4.2983562E1,2.478387E1,1.6611359E2,6.680692E2,1.8665224E1,6.2876408E1,1.16995125E2,1.76355E2,1.5055116E2,2.8071527E2,1.3388688E3,8.7736884E2,2.8338486E1,3.2780756E2,7.5026215E1,1.4951028E2,1.9134625E2,5.6798804E2,4.900889E1,1.3692082E2,1.0234316E2,1.4906109E1,3.7955914E2,6.488423E2],"tree_param":{"num_deleted":"0","num_feature":"10","num_nodes":"63","size_leaf_vector":"1"}},{"base_weights":[1.8845368E-4,-4.7161588E-1,5.206603E-1,-8.5291994E-1,-1.8411517E-1,2.919715E-1,8.644321E-1,-1.0053518E0,-6.845841E-1,-4.354837E-1,-6.7641616E-2,1.5549073E-1,6.5402657E-1,5.706459E-1,9.9734247E-1,-1.0195203E0,-5.2616674E-1,1.7687702E-1,-7.0770985E-1,2.5492516E-1,-5.250417E-1,2.0347114E-1,-1.925992E-1,2.7998832E-1,-9.9607155E-2,3.976017E-1,7.9215056E-1,4.596908E-1,9.478822E-1,7.0250386E-1,1.0287176E0,-6.4599775E-2,-1.02971755E-1,-8.4201265E-3,-8.4245645E-2,-4.785849E-2,6.2438447E-2,-8.341018E-2,-5.535651E-2,-1.1847904E-2,7.491927E-2,-3.163979E-2,-7.6604E-2,6.256685E-2,4.6581E-3,-2.8259376E-2,2.858688E-2,1.4637935E-3,4.9349006E-2,-3.2099336E-2,2.9830772E-2,7.433931E-2,3.0092541E-2,5.582111E-2,8.971596E-2,6.353763E-2,1.8793968E-2,7.167577E-2,1.0160402E-1,9.137689E-2,-4.638517E-2,9.25567E-2,1.0636834E-1],"categories":[],"categories_nodes":[],"categories_segments":[],"categories_sizes":[],"default_left":[0,0,0,0,0,0,0,0,0,0,0,0,0,0,0,0,0,0,0,0,0,0,0,0,0,0,0,0,0,0,0,0,0,0,0,0,0,0,0,0,0,0,0,0,0,0,0,0,0,0,0,0,0,0,0,0,0,0,0,0,0,0,0],"id":17,"left_children":[1,3,5,7,9,11,13,15,17,19,21,23,25,27,29,31,33,35,37,39,41,43,45,47,49,51,53,55,57,59,61,-1,-1,-1,-1,-1,-1,-1,-1,-1,-1,-1,-1,-1,-1,-1,-1,-1,-1,-1,-1,-1,-1,-1,-1,-1,-1,-1,-1,-1,-1,-1,-1],"loss_changes":[1.8746721E3,4.3881934E2,2.8511908E2,4.3474243E1,6.684861E1,1.0768547E2,5.603296E1,5.5811768E0,1.6481232E1,4.484456E1,5.296126E1,5.0381023E1,2.0824722E1,1.8561264E1,8.497559E0,2.6643677E0,3.8353338E0,6.8292894E0,1.5119476E1,1.5536943E1,3.1958847E1,3.2648743E1,4.614667E1,6.036991E1,4.5968525E1,6.828495E0,9.003677E0,1.6717102E1,8.818741E-1,2.4822762E1,2.256836E0,0E0,0E0,0E0,0E0,0E0,0E0,0E0,0E0,0E0,0E0,0E0,0E0,0E0,0E0,0E0,0E0,0E0,0E0,0E0,0E0,0E0,0E0,0E0,0E0,0E0,0E0,0E0,0E0,0E0,0E0,0E0,0E0],"parents":[2147483647,0,0,1,1,2,2,3,3,4,4,5,5,6,6,7,7,8,8,9,9,10,10,11,11,12,12,13,13,14,14,15,15,16,16,17,17,18,18,19,19,20,20,21,21,22,22,23,23,24,24,25,25,26,26,27,27,28,28,29,29,30,30],"right_children":[2,4,6,8,10,12,14,16,18,20,22,24,26,28,30,32,34,36,38,40,42,44,46,48,50,52,54,56,58,60,62,-1,-1,-1,-1,-1,-1,-1,-1,-1,-1,-1,-1,-1,-1,-1,-1,-1,-1,-1,-1,-1,-1,-1,-1,-1,-1,-1,-1,-1,-1,-1,-1],"split_conditions":[9.047619E-2,4.761905E-2,5.726077E-1,2.962963E-2,4.2330506E-1,1.7777778E-1,1.3809524E-1,4.7977796E-1,4.3659067E-1,4.2145634E-1,2.2863623E-1,2E-1,5.0710696E-1,6.3422817E-1,4.499902E-1,4.5674747E-1,2.2863623E-1,2.8009742E-1,4.246206E-1,3.7786323E-1,5E-2,5.504924E-1,5.155203E-1,4.392784E-1,5.0734985E-1,1.7409235E-1,2.0833333E-1,6.0956776E-1,4.814001E-1,5.9170055E-1,5.9917724E-1,-6.4599775E-2,-1.02971755E-1,-8.4201265E-3,-8.4245645E-2,-4.785849E-2,6.2438447E-2,-8.341018E-2,-5.535651E-2,-1.1847904E-2,7.491927E-2,-3.163979E-2,-7.6604E-2,6.256685E-2,4.6581E-3,-2.8259376E-2,2.858688E-2,1.4637935E-3,4.9349006E-2,-3.2099336E-2,2.9830772E-2,7.433931E-2,3.0092541E-2,5.582111E-2,8.971596E-2,6.353763E-2,1.8793968E-2,7.167577E-2,1.0160402E-1,9.137689E-2,-4.638517E-2,9.25567E-2,1.0636834E-1],"split_indices":[0,0,2,0,1,0,0,1,2,3,6,8,2,2,1,2,6,7,1,1,8,3,1,1,1,7,0,3,1,3,2,0,0,0,0,0,0,0,0,0,0,0,0,0,0,0,0,0,0,0,0,0,0,0,0,0,0,0,0,0,0,0,0],"split_type":[0,0,0,0,0,0,0,0,0,0,0,0,0,0,0,0,0,0,0,0,0,0,0,0,0,0,0,0,0,0,0,0,0,0,0,0,0,0,0,0,0,0,0,0,0,0,0,0,0,0,0,0,0,0,0,0,0,0,0,0,0,0,0],"sum_hessian":[7.632246E3,4.003339E3,3.628907E3,1.7200793E3,2.2832598E3,2.180328E3,1.4485792E3,9.000721E2,8.200073E2,7.2210443E2,1.5611553E3,1.5844724E3,5.958554E2,4.5286212E2,9.957171E2,8.7312805E2,2.6944012E1,2.1263662E1,7.987437E2,8.270204E1,6.394024E2,4.9233603E2,1.0688192E3,1.0647405E3,5.19732E2,2.0995535E2,3.8590005E2,3.516509E2,1.0121123E2,9.801744E1,8.9769965E2,2.491348E1,8.4821454E2,1.1767285E1,1.5176726E1,8.599123E0,1.2664539E1,4.364569E2,3.6228677E2,4.754416E1,3.5157887E1,3.4394528E2,2.954571E2,1.3257736E2,3.5975867E2,8.999567E2,1.6886253E2,4.752032E2,5.895373E2,3.340637E2,1.8566829E2,4.441226E1,1.6554309E2,1.2151172E2,2.6438834E2,2.127629E2,1.3888802E2,2.5672321E1,7.55389E1,8.316932E1,1.4848122E1,2.3421796E2,6.634817E2],"tree_param":{"num_deleted":"0","num_feature":"10","num_nodes":"63","size_leaf_vector":"1"}},{"base_weights":[2.6615086E-4,-6.8735546E-1,3.189254E-1,-9.296314E-1,-4.595468E-1,8.098675E-2,7.24124E-1,-9.9056906E-1,-6.841857E-1,-5.2996296E-1,-1.8383802E-1,-3.1247593E-2,3.8434193E-1,4.5378688E-1,9.6877295E-1,-7.965138E-1,-1.0200067E0,-7.164537E-1,8.9365706E-2,-3.782116E-1,-6.703314E-1,9.158789E-2,-4.5355156E-1,1.4813444E-1,-3.502453E-1,4.9759936E-1,1.6392061E-2,3.6025345E-1,8.6219496E-1,7.1211714E-1,1.0130991E0,-8.370678E-2,5.017907E-2,-1.0234057E-1,-3.753769E-2,-4.411546E-2,-8.249511E-2,-7.11008E-2,5.8449782E-2,-2.9147873E-2,-8.2213506E-2,-5.9970595E-2,-1.0222254E-1,1.0059505E-1,1.7523647E-3,1.3391249E-2,-5.555871E-2,2.4332162E-2,-4.6612274E-2,-1.7122917E-2,-7.816009E-2,4.176004E-2,9.0210654E-2,-2.876066E-2,2.5917804E-2,5.2342433E-3,4.6196915E-2,5.9303083E-2,9.5959105E-2,8.454353E-2,-3.6407035E-2,9.0956114E-2,1.0542107E-1],"categories":[],"categories_nodes":[],"categories_segments":[],"categories_sizes":[],"default_left":[0,0,0,0,0,0,0,0,0,0,0,0,0,0,0,0,0,0,0,0,0,0,0,0,0,0,0,0,0,0,0,0,0,0,0,0,0,0,0,0,0,0,0,0,0,0,0,0,0,0,0,0,0,0,0,0,0,0,0,0,0,0,0],"id":18,"left_children":[1,3,5,7,9,11,13,15,17,19,21,23,25,27,29,31,33,35,37,39,41,43,45,47,49,51,53,55,57,59,61,-1,-1,-1,-1,-1,-1,-1,-1,-1,-1,-1,-1,-1,-1,-1,-1,-1,-1,-1,-1,-1,-1,-1,-1,-1,-1,-1,-1,-1,-1,-1,-1],"loss_changes":[1.6159498E3,1.2846875E2,4.858056E2,1.623529E1,2.330867E1,1.0814982E2,1.2286047E2,4.3496704E0,5.75856E0,2.0191406E1,1.8375484E1,1.3276895E2,3.5740097E1,3.3592896E1,1.04021E1,6.927109E0,1.3272095E0,6.1808167E0,4.3882346E0,1.7606316E1,1.1746429E1,8.308049E0,7.5589066E0,8.69538E1,6.435153E1,2.084813E1,1.5052337E1,2.2646774E1,3.7477875E0,2.1450691E1,2.580017E0,0E0,0E0,0E0,0E0,0E0,0E0,0E0,0E0,0E0,0E0,0E0,0E0,0E0,0E0,0E0,0E0,0E0,0E0,0E0,0E0,0E0,0E0,0E0,0E0,0E0,0E0,0E0,0E0,0E0,0E0,0E0,0E0],"parents":[2147483647,0,0,1,1,2,2,3,3,4,4,5,5,6,6,7,7,8,8,9,9,10,10,11,11,12,12,13,13,14,14,15,15,16,16,17,17,18,18,19,19,20,20,21,21,22,22,23,23,24,24,25,25,26,26,27,27,28,28,29,29,30,30],"right_children":[2,4,6,8,10,12,14,16,18,20,22,24,26,28,30,32,34,36,38,40,42,44,46,48,50,52,54,56,58,60,62,-1,-1,-1,-1,-1,-1,-1,-1,-1,-1,-1,-1,-1,-1,-1,-1,-1,-1,-1,-1,-1,-1,-1,-1,-1,-1,-1,-1,-1,-1,-1,-1],"split_conditions":[6.111111E-2,3.6666665E-2,1.3809524E-1,4.3443322E-1,4.7192928E-1,4.9097833E-1,5.6691676E-1,4.9576446E-1,5.224831E-1,5E-2,2.8139487E-1,1.5E-1,4.0110987E-1,2.75E-1,4.6036077E-1,4.2594948E-1,6.637094E-1,5.9643215E-1,4.752711E-1,2.9758704E-1,5.98834E-1,1.832938E-1,4.8560315E-1,6.173579E-1,5.70436E-1,6.2578064E-1,5.261731E-1,4.3443322E-1,4.9866834E-1,4.0565947E-1,5.9917724E-1,-8.370678E-2,5.017907E-2,-1.0234057E-1,-3.753769E-2,-4.411546E-2,-8.249511E-2,-7.11008E-2,5.8449782E-2,-2.9147873E-2,-8.2213506E-2,-5.9970595E-2,-1.0222254E-1,1.0059505E-1,1.7523647E-3,1.3391249E-2,-5.555871E-2,2.4332162E-2,-4.6612274E-2,-1.7122917E-2,-7.816009E-2,4.176004E-2,9.0210654E-2,-2.876066E-2,2.5917804E-2,5.2342433E-3,4.6196915E-2,5.9303083E-2,9.5959105E-2,8.454353E-2,-3.6407035E-2,9.0956114E-2,1.0542107E-1],"split_indices":[0,0,0,1,1,1,2,2,1,8,6,8,6,0,1,1,2,3,5,6,3,7,2,3,3,2,1,1,2,5,2,0,0,0,0,0,0,0,0,0,0,0,0,0,0,0,0,0,0,0,0,0,0,0,0,0,0,0,0,0,0,0,0],"split_type":[0,0,0,0,0,0,0,0,0,0,0,0,0,0,0,0,0,0,0,0,0,0,0,0,0,0,0,0,0,0,0,0,0,0,0,0,0,0,0,0,0,0,0,0,0,0,0,0,0,0,0,0,0,0,0,0,0,0,0,0,0,0,0],"sum_hessian":[7.3728257E3,2.3343884E3,5.0384375E3,1.1297799E3,1.2046085E3,3.175145E3,1.8632925E3,9.02642E2,2.2713785E2,9.588067E2,2.4580182E2,2.3183184E3,8.568267E2,8.8653076E2,9.767617E2,1.2258789E2,7.8005414E2,2.1811325E2,9.0245905E0,4.624979E2,4.9630884E2,1.2193981E2,1.2386201E2,1.4842278E3,8.3409045E2,6.5489374E2,2.0193301E2,7.228631E2,1.636677E2,1.4636253E2,8.303992E2,1.1921921E2,3.3686864E0,7.7537805E2,4.6761203E0,6.3091694E1,1.5502156E2,3.2824929E0,5.742098E0,3.88291E2,7.420691E1,4.1560144E2,8.0707405E1,8.194328E0,1.1374548E2,1.8283482E1,1.0557853E2,1.2856096E3,1.9861812E2,5.90447E2,2.4364342E2,5.48458E2,1.06435684E2,8.958131E1,1.123517E2,1.798725E2,5.429906E2,4.537049E1,1.182972E2,1.3042046E2,1.5942077E1,2.425845E2,5.878147E2],"tree_param":{"num_deleted":"0","num_feature":"10","num_nodes":"63","size_leaf_vector":"1"}},{"base_weights":[2.3811721E-4,-3.5179412E-1,5.5459213E-1,-8.177282E-1,-1.269226E-1,3.0209145E-1,8.55368E-1,-9.6811074E-1,-6.4016604E-1,-3.0471793E-1,2.1261444E-2,2.0972681E-1,6.471267E-1,7.088683E-1,1.0376952E0,-9.8457694E-1,-4.5591846E-1,-7.7984816E-1,-4.650708E-1,-1.9195859E-1,-8.03161E-1,1.57372E-1,-2.5566563E-1,3.4229016E-1,-6.259109E-3,3.82956E-1,8.1560767E-1,5.2298445E-1,8.9208126E-1,7.2354615E-1,1.0462804E-1,-5.7249285E-2,-9.965813E-2,4.367855E-2,-6.0854662E-2,-5.673886E-2,-9.368219E-2,1.6130228E-2,-5.322699E-2,7.373558E-3,-3.9596006E-2,-6.1208934E-2,-1.0663892E-1,2.8260378E-2,-1.9202726E-2,6.727656E-4,-4.3852948E-2,2.120045E-3,4.922424E-2,-2.1374516E-2,3.5019685E-2,1.3121227E-2,5.690036E-2,5.9123058E-2,9.130781E-2,7.044613E-2,2.742651E-2,5.002712E-2,9.3823895E-2,9.079237E-2,-1.4543133E-2],"categories":[],"categories_nodes":[],"categories_segments":[],"categories_sizes":[],"default_left":[0,0,0,0,0,0,0,0,0,0,0,0,0,0,0,0,0,0,0,0,0,0,0,0,0,0,0,0,0,0,0,0,0,0,0,0,0,0,0,0,0,0,0,0,0,0,0,0,0,0,0,0,0,0,0,0,0,0,0,0,0],"id":19,"left_children":[1,3,5,7,9,11,13,15,17,19,21,23,25,27,29,31,33,35,37,39,41,43,45,47,49,51,53,55,57,59,-1,-1,-1,-1,-1,-1,-1,-1,-1,-1,-1,-1,-1,-1,-1,-1,-1,-1,-1,-1,-1,-1,-1,-1,-1,-1,-1,-1,-1,-1,-1],"loss_changes":[1.3944017E3,4.5777563E2,2.1050397E2,3.7360962E1,7.769504E1,4.7992752E1,3.3079285E1,6.029907E0,1.5661926E1,7.518759E1,6.0696407E1,3.4153313E1,1.3860016E1,2.3546661E1,7.583008E-1,3.1068115E0,3.779605E0,1.1573959E1,1.2428013E1,5.935386E1,1.1769852E1,4.7290924E1,2.5466118E1,3.5577896E1,3.3698895E1,5.8213024E0,3.6929016E0,1.57137985E1,5.927063E0,3.0461597E0,0E0,0E0,0E0,0E0,0E0,0E0,0E0,0E0,0E0,0E0,0E0,0E0,0E0,0E0,0E0,0E0,0E0,0E0,0E0,0E0,0E0,0E0,0E0,0E0,0E0,0E0,0E0,0E0,0E0,0E0,0E0],"parents":[2147483647,0,0,1,1,2,2,3,3,4,4,5,5,6,6,7,7,8,8,9,9,10,10,11,11,12,12,13,13,14,14,15,15,16,16,17,17,18,18,19,19,20,20,21,21,22,22,23,23,24,24,25,25,26,26,27,27,28,28,29,29],"right_children":[2,4,6,8,10,12,14,16,18,20,22,24,26,28,30,32,34,36,38,40,42,44,46,48,50,52,54,56,58,60,-1,-1,-1,-1,-1,-1,-1,-1,-1,-1,-1,-1,-1,-1,-1,-1,-1,-1,-1,-1,-1,-1,-1,-1,-1,-1,-1,-1,-1,-1,-1],"split_conditions":[1.0555556E-1,4.5454547E-2,5.6317574E-1,2.962963E-2,4.424889E-1,2.1111111E-1,2.0833333E-1,4.7977796E-1,4.246206E-1,5.70436E-1,3.2800514E-1,2E-1,5.0710696E-1,6.0247743E-1,4.2736405E-1,4.5674747E-1,2.3199418E-1,5.1143456E-1,1.5575595E-1,5E-2,5E-2,6.373649E-1,5.764483E-1,4.2399707E-1,5.0734985E-1,4.596822E-1,4.5440623E-1,5.92544E-1,4.4938353E-1,2.4252759E-1,1.0462804E-1,-5.7249285E-2,-9.965813E-2,4.367855E-2,-6.0854662E-2,-5.673886E-2,-9.368219E-2,1.6130228E-2,-5.322699E-2,7.373558E-3,-3.9596006E-2,-6.1208934E-2,-1.0663892E-1,2.8260378E-2,-1.9202726E-2,6.727656E-4,-4.3852948E-2,2.120045E-3,4.922424E-2,-2.1374516E-2,3.5019685E-2,1.3121227E-2,5.690036E-2,5.9123058E-2,9.130781E-2,7.044613E-2,2.742651E-2,5.002712E-2,9.3823895E-2,9.079237E-2,-1.4543133E-2],"split_indices":[0,0,2,0,1,0,0,1,1,3,6,8,2,2,1,2,7,3,6,8,8,3,3,1,1,1,1,3,1,6,0,0,0,0,0,0,0,0,0,0,0,0,0,0,0,0,0,0,0,0,0,0,0,0,0,0,0,0,0,0,0],"split_type":[0,0,0,0,0,0,0,0,0,0,0,0,0,0,0,0,0,0,0,0,0,0,0,0,0,0,0,0,0,0,0,0,0,0,0,0,0,0,0,0,0,0,0,0,0,0,0,0,0,0,0,0,0,0,0,0,0,0,0,0,0],"sum_hessian":[7.1432637E3,4.3691084E3,2.7741555E3,1.4213768E3,2.9477314E3,1.5091943E3,1.2649612E3,7.671789E2,6.54198E2,1.3395026E3,1.6082288E3,1.1917699E3,3.174245E2,7.041031E2,5.6085815E2,7.4238983E2,2.4789034E1,3.6197714E2,2.9222083E2,1.0935104E3,2.4599222E2,1.0785498E3,5.29679E2,7.3814294E2,4.536269E2,1.24884384E2,1.9254013E2,3.5141727E2,3.5268582E2,1.718824E1,5.436699E2,2.2392525E1,7.199973E2,3.3475933E0,2.144144E1,1.5576636E2,2.062108E2,2.8177124E1,2.640437E2,4.7521835E2,6.1829205E2,1.4445836E2,1.0153387E2,7.941143E2,2.844355E2,2.1793086E2,3.1174814E2,2.353449E2,5.0279807E2,2.8698114E2,1.6664577E2,5.379664E1,7.1087746E1,6.0449936E1,1.320902E2,2.0211363E2,1.4930363E2,3.841742E1,3.142684E2,1.4142664E1,3.0455756E0],"tree_param":{"num_deleted":"0","num_feature":"10","num_nodes":"61","size_leaf_vector":"1"}},{"base_weights":[2.6606457E-4,-6.259876E-1,2.764266E-1,-8.8472295E-1,-4.0592706E-1,1.1695496E-1,7.868994E-1,-9.660701E-1,-6.534607E-1,-4.378759E-1,1.4644943E-1,2.6933318E-2,5.26486E-1,5.043839E-1,9.766358E-1,-1.0264968E0,-8.675325E-1,-7.0294224E-2,-7.189733E-1,-6.993867E-1,-3.829638E-1,1.4324508E0,4.0165912E-2,-1.1952814E-1,1.7675973E-1,3.0012158E-1,7.706529E-1,3.9368036E-1,8.1209123E-1,8.17771E-1,1.0226535E0,-7.733538E-2,-1.0339624E-1,4.1434284E-2,-8.824938E-2,4.6467364E-2,-6.8264425E-2,-8.185034E-2,-4.108304E-2,4.910026E-3,-8.21492E-2,-1.6200747E-2,-5.1175594E-2,2.1016566E-1,-8.325645E-3,-8.150259E-2,2.420581E-2,1.3469768E-2,-4.6832036E-2,4.180143E-2,-9.3708327E-4,1.7540796E-2,7.101017E-2,6.228865E-2,9.344383E-2,4.763727E-3,5.098313E-2,-2.2741264E-2,8.3751395E-2,8.328503E-2,-1.0886786E-2,7.244873E-2,1.0315259E-1],"categories":[],"categories_nodes":[],"categories_segments":[],"categories_sizes":[],"default_left":[0,0,0,0,0,0,0,0,0,0,0,0,0,0,0,0,0,0,0,0,0,0,0,0,0,0,0,0,0,0,0,0,0,0,0,0,0,0,0,0,0,0,0,0,0,0,0,0,0,0,0,0,0,0,0,0,0,0,0,0,0,0,0],"id":20,"left_children":[1,3,5,7,9,11,13,15,17,19,21,23,25,27,29,31,33,35,37,39,41,43,45,47,49,51,53,55,57,59,61,-1,-1,-1,-1,-1,-1,-1,-1,-1,-1,-1,-1,-1,-1,-1,-1,-1,-1,-1,-1,-1,-1,-1,-1,-1,-1,-1,-1,-1,-1,-1,-1],"loss_changes":[1.1980374E3,1.203421E2,3.9125208E2,1.7682434E1,2.0313416E1,1.3507153E2,6.0837646E1,3.3851318E0,9.745529E0,1.5311813E1,8.619748E0,6.596058E1,3.6260986E1,1.5409508E1,4.159668E0,3.1280518E-2,5.7244415E0,9.163434E0,6.7301483E0,1.7137276E1,2.5496292E1,5.0614595E0,1.0499403E1,1.3485536E2,6.672363E1,1.7477037E1,7.089859E0,1.3702549E1,3.3941956E0,2.3051834E0,6.4398193E-1,0E0,0E0,0E0,0E0,0E0,0E0,0E0,0E0,0E0,0E0,0E0,0E0,0E0,0E0,0E0,0E0,0E0,0E0,0E0,0E0,0E0,0E0,0E0,0E0,0E0,0E0,0E0,0E0,0E0,0E0,0E0,0E0],"parents":[2147483647,0,0,1,1,2,2,3,3,4,4,5,5,6,6,7,7,8,8,9,9,10,10,11,11,12,12,13,13,14,14,15,15,16,16,17,17,18,18,19,19,20,20,21,21,22,22,23,23,24,24,25,25,26,26,27,27,28,28,29,29,30,30],"right_children":[2,4,6,8,10,12,14,16,18,20,22,24,26,28,30,32,34,36,38,40,42,44,46,48,50,52,54,56,58,60,62,-1,-1,-1,-1,-1,-1,-1,-1,-1,-1,-1,-1,-1,-1,-1,-1,-1,-1,-1,-1,-1,-1,-1,-1,-1,-1,-1,-1,-1,-1,-1,-1],"split_conditions":[6.111111E-2,3.6666665E-2,1.75E-1,4.2527387E-1,6.2032527E-1,5.905085E-1,5.611431E-1,2.5E-2,5.043647E-1,3.880285E-1,5.1046515E-1,4.5440623E-1,1.04166664E-1,2.888889E-1,2.0833333E-1,6.510703E-2,4.1202566E-1,6.1267614E-1,4.7051373E-1,4.0501103E-1,5E-2,5.1282052E-2,4.4317275E-1,5.2546656E-1,5.764483E-1,2.3820017E-1,6.2237966E-1,4.783811E-1,3.5242328E-1,7.50022E-1,4.2736405E-1,-7.733538E-2,-1.0339624E-1,4.1434284E-2,-8.824938E-2,4.6467364E-2,-6.8264425E-2,-8.185034E-2,-4.108304E-2,4.910026E-3,-8.21492E-2,-1.6200747E-2,-5.1175594E-2,2.1016566E-1,-8.325645E-3,-8.150259E-2,2.420581E-2,1.3469768E-2,-4.6832036E-2,4.180143E-2,-9.3708327E-4,1.7540796E-2,7.101017E-2,6.228865E-2,9.344383E-2,4.763727E-3,5.098313E-2,-2.2741264E-2,8.3751395E-2,8.328503E-2,-1.0886786E-2,7.244873E-2,1.0315259E-1],"split_indices":[0,0,0,1,2,2,2,0,2,1,3,1,0,0,0,4,2,3,1,3,8,0,1,3,3,4,2,2,1,3,1,0,0,0,0,0,0,0,0,0,0,0,0,0,0,0,0,0,0,0,0,0,0,0,0,0,0,0,0,0,0,0,0],"split_type":[0,0,0,0,0,0,0,0,0,0,0,0,0,0,0,0,0,0,0,0,0,0,0,0,0,0,0,0,0,0,0,0,0,0,0,0,0,0,0,0,0,0,0,0,0,0,0,0,0,0,0,0,0,0,0,0,0,0,0,0,0,0,0],"sum_hessian":[6.9252104E3,2.118894E3,4.8063164E3,9.7248193E2,1.1464122E3,3.6631711E3,1.1431454E3,7.1707227E2,2.5540967E2,1.0839264E3,6.248578E1,3.0039248E3,6.592462E2,4.607509E2,6.8239453E2,4.3865585E2,2.7841638E2,2.600416E1,2.294055E2,1.8606807E2,8.9785834E2,3.8174953E0,5.866828E1,1.5191226E3,1.4848022E3,3.4325113E2,3.159951E2,3.405213E2,1.2022956E2,1.5748528E2,5.2490924E2,1.55621E1,4.2309375E2,2.9040592E0,2.7551233E2,1.4007734E1,1.1996426E1,1.7214609E2,5.7259426E1,2.6180916E1,1.5988716E2,3.314608E2,5.663976E2,2.3800743E0,1.4374211E0,1.0625016E1,4.8043266E1,8.790321E2,6.4009045E2,6.4610394E2,8.386983E2,2.64285E2,7.896614E1,1.6864626E2,1.4734882E2,8.592853E1,2.5459279E2,2.6805289E0,1.17549034E2,1.5506314E2,2.4221456E0,1.7556622E1,5.0735263E2],"tree_param":{"num_deleted":"0","num_feature":"10","num_nodes":"63","size_leaf_vector":"1"}},{"base_weights":[2.760435E-4,-3.0587652E-1,4.9539155E-1,-7.6362485E-1,-1.0878861E-1,2.6863924E-1,8.1621367E-1,-9.316697E-1,-5.7807654E-1,-4.0574524E-1,-2.7504392E-2,8.466597E-2,4.125753E-1,6.6150737E-1,1.0175256E0,-9.904152E-1,-7.4931353E-1,-7.238159E-1,-4.0427995E-1,-2.5554119E-2,-6.360909E-1,1.3370876E-1,-2.4916464E-1,2.444121E-1,-5.1519513E-2,6.789619E-1,2.8561744E-1,2.1639144E-1,7.5098467E-1,9.182432E-1,1.04190074E-1,-8.221106E-2,-1.0138891E-1,4.5639858E-2,-7.872968E-2,-4.969768E-2,-8.9729466E-2,1.9264799E-2,-4.716904E-2,-4.0197726E-2,4.136811E-2,-4.7534905E-2,-9.294797E-2,4.189327E-2,-6.0263E-3,-4.693908E-2,-2.3809858E-3,3.9569936E-3,4.3984056E-2,-4.546015E-2,1.1375829E-2,5.887139E-3,7.394915E-2,-2.627479E-2,4.815235E-2,5.6443524E-2,-1.17228046E-1,5.795228E-2,8.9384325E-2,9.4712645E-2,-8.9123584E-2],"categories":[],"categories_nodes":[],"categories_segments":[],"categories_sizes":[],"default_left":[0,0,0,0,0,0,0,0,0,0,0,0,0,0,0,0,0,0,0,0,0,0,0,0,0,0,0,0,0,0,0,0,0,0,0,0,0,0,0,0,0,0,0,0,0,0,0,0,0,0,0,0,0,0,0,0,0,0,0,0,0],"id":21,"left_children":[1,3,5,7,9,11,13,15,17,19,21,23,25,27,29,31,33,35,37,39,41,43,45,47,49,51,53,55,57,59,-1,-1,-1,-1,-1,-1,-1,-1,-1,-1,-1,-1,-1,-1,-1,-1,-1,-1,-1,-1,-1,-1,-1,-1,-1,-1,-1,-1,-1,-1,-1],"loss_changes":[1.0193103E3,3.7478415E2,1.8669318E2,3.84505E1,7.0127655E1,3.986731E1,3.244818E1,6.2695923E0,1.4826294E1,5.466371E1,8.159312E1,1.44296055E1,2.838942E1,2.3901794E1,1.5713501E-1,1.1100464E0,7.8511124E0,1.2280106E1,1.1136944E1,3.9286797E1,1.789238E1,7.3165886E1,4.7700703E1,1.2198023E1,2.3938766E1,1.0168053E1,6.1801075E1,5.0218197E1,1.1794891E1,6.026268E0,0E0,0E0,0E0,0E0,0E0,0E0,0E0,0E0,0E0,0E0,0E0,0E0,0E0,0E0,0E0,0E0,0E0,0E0,0E0,0E0,0E0,0E0,0E0,0E0,0E0,0E0,0E0,0E0,0E0,0E0,0E0],"parents":[2147483647,0,0,1,1,2,2,3,3,4,4,5,5,6,6,7,7,8,8,9,9,10,10,11,11,12,12,13,13,14,14,15,15,16,16,17,17,18,18,19,19,20,20,21,21,22,22,23,23,24,24,25,25,26,26,27,27,28,28,29,29],"right_children":[2,4,6,8,10,12,14,16,18,20,22,24,26,28,30,32,34,36,38,40,42,44,46,48,50,52,54,56,58,60,-1,-1,-1,-1,-1,-1,-1,-1,-1,-1,-1,-1,-1,-1,-1,-1,-1,-1,-1,-1,-1,-1,-1,-1,-1,-1,-1,-1,-1,-1,-1],"split_conditions":[1.0555556E-1,4.5454547E-2,5.6691676E-1,2.962963E-2,4.11025E-1,5.0886005E-1,2.0833333E-1,4.204277E-1,4.246206E-1,4.7007224E-1,1.5E-1,2.902786E-1,5.2168715E-1,4.499902E-1,4.78975E-1,4.9576446E-1,4.5674747E-1,5.1143456E-1,1.5575595E-1,3.7983352E-1,5E-2,5.652232E-1,4.78975E-1,4.3153998E-1,4.5078447E-1,3.8973087E-1,4.5440623E-1,5.932534E-1,6.0247743E-1,4.9240515E-1,1.04190074E-1,-8.221106E-2,-1.0138891E-1,4.5639858E-2,-7.872968E-2,-4.969768E-2,-8.9729466E-2,1.9264799E-2,-4.716904E-2,-4.0197726E-2,4.136811E-2,-4.7534905E-2,-9.294797E-2,4.189327E-2,-6.0263E-3,-4.693908E-2,-2.3809858E-3,3.9569936E-3,4.3984056E-2,-4.546015E-2,1.1375829E-2,5.887139E-3,7.394915E-2,-2.627479E-2,4.815235E-2,5.6443524E-2,-1.17228046E-1,5.795228E-2,8.9384325E-2,9.4712645E-2,-8.9123584E-2],"split_indices":[0,0,2,0,1,2,0,1,1,3,8,6,3,1,1,2,2,3,6,1,8,3,1,1,1,1,1,3,2,5,0,0,0,0,0,0,0,0,0,0,0,0,0,0,0,0,0,0,0,0,0,0,0,0,0,0,0,0,0,0,0],"split_type":[0,0,0,0,0,0,0,0,0,0,0,0,0,0,0,0,0,0,0,0,0,0,0,0,0,0,0,0,0,0,0,0,0,0,0,0,0,0,0,0,0,0,0,0,0,0,0,0,0,0,0,0,0,0,0,0,0,0,0,0,0],"sum_hessian":[6.722531E3,4.1541885E3,2.5683425E3,1.2494327E3,2.9047556E3,1.5058602E3,1.0624823E3,6.535307E2,5.95902E2,6.2337616E2,2.2813794E3,6.6169574E2,8.441645E2,6.032083E2,4.5927396E2,4.909435E2,1.6258717E2,3.223916E2,2.735104E2,2.3560889E2,3.877673E2,1.3210087E3,9.603708E2,3.0414163E2,3.5755408E2,2.710635E2,5.7310095E2,1.0153385E2,5.0167447E2,9.815412E1,3.6111984E2,6.45013E1,4.2644223E2,4.629089E0,1.5795808E2,1.41384E2,1.8100758E2,2.756461E1,2.459458E2,1.26921974E2,1.08686905E2,2.5220787E2,1.3555943E2,5.3425653E2,7.8675214E2,4.8516467E2,4.7520615E2,1.4908145E2,1.5506018E2,1.0346691E2,2.5408719E2,2.4281952E1,2.4678154E2,1.50761E2,4.2233997E2,8.166071E1,1.9873138E1,2.303092E2,2.7136526E2,9.708107E1,1.0730494E0],"tree_param":{"num_deleted":"0","num_feature":"10","num_nodes":"61","size_leaf_vector":"1"}},{"base_weights":[2.3603013E-4,-5.664863E-1,2.3865344E-1,-8.396755E-1,-3.564338E-1,9.81823E-2,7.3544806E-1,-9.1921204E-1,-5.539318E-1,-2.7178273E-1,-5.69661E-1,4.055355E-2,6.166075E-1,4.543861E-1,9.4470584E-1,-6.7128366E-1,-9.593511E-1,-1.1501406E-1,-6.3452756E-1,-5.431002E-1,-1.5652248E-1,-7.116642E-1,-2.3572865E-1,1.2372725E-1,-2.078555E-1,-4.8717147E-1,6.643854E-1,3.4479806E-1,7.7271926E-1,7.6894385E-1,9.981665E-1,-7.3542E-2,3.284591E-2,-1.03057936E-1,-8.809521E-2,5.351622E-2,-5.0003238E-2,2.9949738E-2,-6.7607366E-2,-1.0795723E-2,-7.268132E-2,1.2052035E-2,-3.3151146E-2,-1.5599996E-2,-7.787245E-2,-4.6655957E-2,5.7279235E-3,-6.896682E-3,3.0234415E-2,-4.2654645E-2,1.9795327E-2,7.238973E-3,-1.1420529E-1,4.843415E-2,8.568408E-2,7.242676E-2,2.3090214E-2,8.069496E-2,-1.1288209E-2,4.365565E-2,8.276229E-2,6.609344E-2,1.0088346E-1],"categories":[],"categories_nodes":[],"categories_segments":[],"categories_sizes":[],"default_left":[0,0,0,0,0,0,0,0,0,0,0,0,0,0,0,0,0,0,0,0,0,0,0,0,0,0,0,0,0,0,0,0,0,0,0,0,0,0,0,0,0,0,0,0,0,0,0,0,0,0,0,0,0,0,0,0,0,0,0,0,0,0,0],"id":22,"left_children":[1,3,5,7,9,11,13,15,17,19,21,23,25,27,29,31,33,35,37,39,41,43,45,47,49,51,53,55,57,59,61,-1,-1,-1,-1,-1,-1,-1,-1,-1,-1,-1,-1,-1,-1,-1,-1,-1,-1,-1,-1,-1,-1,-1,-1,-1,-1,-1,-1,-1,-1,-1,-1],"loss_changes":[8.833933E2,1.10798096E2,3.2107843E2,1.8599854E1,1.9631989E1,1.0719258E2,5.9223267E1,5.8864136E0,6.4924088E0,2.4514065E1,1.45613785E1,6.6777214E1,1.9253265E1,1.4901329E1,4.6867676E0,6.3179436E0,2.2329102E0,7.7809877E0,6.2785873E0,1.8638084E1,2.6872623E1,7.981041E0,6.3960743E0,8.334801E1,7.203825E1,5.7514668E0,1.1521317E1,1.3889919E1,3.4420624E0,2.3640976E0,9.224243E-1,0E0,0E0,0E0,0E0,0E0,0E0,0E0,0E0,0E0,0E0,0E0,0E0,0E0,0E0,0E0,0E0,0E0,0E0,0E0,0E0,0E0,0E0,0E0,0E0,0E0,0E0,0E0,0E0,0E0,0E0,0E0,0E0],"parents":[2147483647,0,0,1,1,2,2,3,3,4,4,5,5,6,6,7,7,8,8,9,9,10,10,11,11,12,12,13,13,14,14,15,15,16,16,17,17,18,18,19,19,20,20,21,21,22,22,23,23,24,24,25,25,26,26,27,27,28,28,29,29,30,30],"right_children":[2,4,6,8,10,12,14,16,18,20,22,24,26,28,30,32,34,36,38,40,42,44,46,48,50,52,54,56,58,60,62,-1,-1,-1,-1,-1,-1,-1,-1,-1,-1,-1,-1,-1,-1,-1,-1,-1,-1,-1,-1,-1,-1,-1,-1,-1,-1,-1,-1,-1,-1,-1,-1],"split_conditions":[6.111111E-2,3.6666665E-2,1.75E-1,4.3443322E-1,2.8918985E-1,6.1160445E-1,5.611431E-1,4.9576446E-1,1.5828869E-1,4.0142736E-1,4.7210282E-1,2E-1,4.1768205E-1,2.888889E-1,2.0833333E-1,4.7408777E-1,3.8888216E-1,6.2885755E-1,4.5674747E-1,4.561201E-1,5E-2,4.783811E-1,4.9675587E-1,4.4317275E-1,5.0734985E-1,5.463973E-1,1.08333334E-1,4.9319822E-1,3.9240184E-1,4.499902E-1,4.2736405E-1,-7.3542E-2,3.284591E-2,-1.03057936E-1,-8.809521E-2,5.351622E-2,-5.0003238E-2,2.9949738E-2,-6.7607366E-2,-1.0795723E-2,-7.268132E-2,1.2052035E-2,-3.3151146E-2,-1.5599996E-2,-7.787245E-2,-4.6655957E-2,5.7279235E-3,-6.896682E-3,3.0234415E-2,-4.2654645E-2,1.9795327E-2,7.238973E-3,-1.1420529E-1,4.843415E-2,8.568408E-2,7.242676E-2,2.3090214E-2,8.069496E-2,-1.1288209E-2,4.365565E-2,8.276229E-2,6.609344E-2,1.0088346E-1],"split_indices":[0,0,0,1,6,2,2,2,6,1,5,8,1,0,0,7,1,3,2,3,8,2,1,1,1,3,0,3,4,1,1,0,0,0,0,0,0,0,0,0,0,0,0,0,0,0,0,0,0,0,0,0,0,0,0,0,0,0,0,0,0,0,0],"split_type":[0,0,0,0,0,0,0,0,0,0,0,0,0,0,0,0,0,0,0,0,0,0,0,0,0,0,0,0,0,0,0,0,0,0,0,0,0,0,0,0,0,0,0,0,0,0,0,0,0,0,0,0,0,0,0,0,0,0,0,0,0,0,0],"sum_hessian":[6.536013E3,1.9350322E3,4.600981E3,8.3980475E2,1.0952274E3,3.5877302E3,1.01325085E3,6.552104E2,1.8459438E2,7.856137E2,3.096137E2,3.229782E3,3.5794812E2,4.337869E2,5.79464E2,9.3766075E1,5.6144434E2,2.9013966E1,1.5558041E2,2.3312827E2,5.524855E2,2.164417E2,9.317202E1,2.4200046E3,8.0977747E2,1.4469646E1,3.4347845E2,3.2424634E2,1.0954055E2,1.3873373E2,4.4073022E2,8.83618E1,5.4042687E0,2.8781195E2,2.7363235E2,1.064608E1,1.8367886E1,6.361191E0,1.4921922E2,6.967755E1,1.6345071E2,2.1399677E2,3.3848868E2,2.366647E1,1.9277522E2,5.178422E1,4.1387794E1,1.164424E3,1.2555807E3,5.261717E2,2.8360577E2,8.282313E0,6.187333E0,1.7927838E2,1.6420007E2,7.361675E1,2.506296E2,1.0554965E2,3.9909E0,2.2083233E1,1.16650505E2,1.544512E1,4.252851E2],"tree_param":{"num_deleted":"0","num_feature":"10","num_nodes":"63","size_leaf_vector":"1"}},{"base_weights":[2.0331245E-4,-4.1029748E-1,2.8929004E-1,-8.1638294E-1,-2.3856156E-1,1.46759E-1,7.093486E-1,-9.146309E-1,-5.613868E-1,-5.0338376E-1,-1.6488032E-1,6.9922306E-2,5.1476616E-1,4.2738843E-1,9.277667E-1,-9.911728E-1,-7.941482E-1,2.7881598E-3,-6.317354E-1,-1.18241206E-1,-6.862493E-1,7.4253835E-2,-2.9647756E-1,2.649435E-1,-6.1009567E-2,2.91944E-1,6.8954825E-1,3.2076862E-1,7.4423856E-1,7.377654E-1,9.8613805E-1,-6.810974E-2,-1.00073695E-1,3.5059106E-2,-8.155165E-2,4.9515173E-2,-6.1694365E-2,-7.477382E-2,-2.9233346E-2,2.2616936E-2,-5.17147E-2,-5.7653643E-2,-9.381931E-2,4.173522E-2,-1.04678115E-2,-3.71616E-2,-2.3800188E-3,-1.8749943E-2,3.852219E-2,-1.6537264E-2,2.7882108E-2,6.0411002E-2,6.1769686E-3,4.325122E-2,8.033734E-2,6.760048E-2,2.2034282E-2,-2.6782757E-2,7.728093E-2,5.6150634E-2,8.738359E-2,6.325095E-2,9.9777095E-2],"categories":[],"categories_nodes":[],"categories_segments":[],"categories_sizes":[],"default_left":[0,0,0,0,0,0,0,0,0,0,0,0,0,0,0,0,0,0,0,0,0,0,0,0,0,0,0,0,0,0,0,0,0,0,0,0,0,0,0,0,0,0,0,0,0,0,0,0,0,0,0,0,0,0,0,0,0,0,0,0,0,0,0],"id":23,"left_children":[1,3,5,7,9,11,13,15,17,19,21,23,25,27,29,31,33,35,37,39,41,43,45,47,49,51,53,55,57,59,61,-1,-1,-1,-1,-1,-1,-1,-1,-1,-1,-1,-1,-1,-1,-1,-1,-1,-1,-1,-1,-1,-1,-1,-1,-1,-1,-1,-1,-1,-1,-1,-1],"loss_changes":[7.559818E2,1.8338882E2,2.2369604E2,1.9077332E1,3.6043175E1,7.891913E1,5.790979E1,4.4038086E0,8.736519E0,2.8267525E1,4.56505E1,5.9029312E1,1.8575874E1,1.3785057E1,5.179779E0,3.272705E-1,5.7581024E0,8.054517E0,7.4858246E0,1.808638E1,6.997452E0,3.1689476E1,1.9157265E1,5.060241E1,4.911575E1,1.5316011E1,7.53627E0,1.0994442E1,3.2072449E0,2.6067886E0,1.032898E0,0E0,0E0,0E0,0E0,0E0,0E0,0E0,0E0,0E0,0E0,0E0,0E0,0E0,0E0,0E0,0E0,0E0,0E0,0E0,0E0,0E0,0E0,0E0,0E0,0E0,0E0,0E0,0E0,0E0,0E0,0E0,0E0],"parents":[2147483647,0,0,1,1,2,2,3,3,4,4,5,5,6,6,7,7,8,8,9,9,10,10,11,11,12,12,13,13,14,14,15,15,16,16,17,17,18,18,19,19,20,20,21,21,22,22,23,23,24,24,25,25,26,26,27,27,28,28,29,29,30,30],"right_children":[2,4,6,8,10,12,14,16,18,20,22,24,26,28,30,32,34,36,38,40,42,44,46,48,50,52,54,56,58,60,62,-1,-1,-1,-1,-1,-1,-1,-1,-1,-1,-1,-1,-1,-1,-1,-1,-1,-1,-1,-1,-1,-1,-1,-1,-1,-1,-1,-1,-1,-1,-1,-1],"split_conditions":[7.619048E-2,3.6666665E-2,1.7777778E-1,4.2527387E-1,4.037472E-1,5.905085E-1,5.611431E-1,2.5E-2,5.043647E-1,4.5810127E-1,2.2672585E-1,2.5038362E-1,1.04166664E-1,2.888889E-1,2.0833333E-1,6.510703E-2,4.1992626E-1,6.1267614E-1,4.7051373E-1,5E-2,1E-1,5.504924E-1,4.9507505E-1,4.005474E-1,5.0827956E-1,2.657585E-1,4.781731E-1,4.9319822E-1,3.5242328E-1,6.014391E-1,4.2736405E-1,-6.810974E-2,-1.00073695E-1,3.5059106E-2,-8.155165E-2,4.9515173E-2,-6.1694365E-2,-7.477382E-2,-2.9233346E-2,2.2616936E-2,-5.17147E-2,-5.7653643E-2,-9.381931E-2,4.173522E-2,-1.04678115E-2,-3.71616E-2,-2.3800188E-3,-1.8749943E-2,3.852219E-2,-1.6537264E-2,2.7882108E-2,6.0411002E-2,6.1769686E-3,4.325122E-2,8.033734E-2,6.760048E-2,2.2034282E-2,-2.6782757E-2,7.728093E-2,5.6150634E-2,8.738359E-2,6.325095E-2,9.9777095E-2],"split_indices":[0,0,0,1,1,2,2,0,2,3,6,6,0,0,0,4,2,3,1,8,8,3,1,1,1,7,1,3,1,2,1,0,0,0,0,0,0,0,0,0,0,0,0,0,0,0,0,0,0,0,0,0,0,0,0,0,0,0,0,0,0,0,0],"split_type":[0,0,0,0,0,0,0,0,0,0,0,0,0,0,0,0,0,0,0,0,0,0,0,0,0,0,0,0,0,0,0,0,0,0,0,0,0,0,0,0,0,0,0,0,0,0,0,0,0,0,0,0,0,0,0,0,0,0,0,0,0,0,0],"sum_hessian":[6.368436E3,2.631421E3,3.7370151E3,7.809763E2,1.8504446E3,2.7912568E3,9.4575836E2,5.618956E2,2.1908066E2,4.0151245E2,1.4489321E3,2.310115E3,4.8114197E2,4.141197E2,5.316387E2,3.3918613E2,2.2270952E2,2.4395569E1,1.9468509E2,1.2979378E2,2.717187E2,5.144771E2,9.3445496E2,9.2753735E2,1.3825775E3,2.1267813E2,2.6846384E2,3.1135974E2,1.0275993E2,1.281486E2,4.0349008E2,1.2309811E1,3.268763E2,3.798698E0,2.1891081E2,1.370682E1,1.0688749E1,1.4419737E2,5.048773E1,6.988711E1,5.9906673E1,1.9158034E2,8.013835E1,1.7588628E2,3.3859082E2,7.3230084E2,2.0215414E2,1.9467667E2,7.3286066E2,1.0581344E3,3.2444308E2,8.9573105E1,1.2310502E2,8.3870384E1,1.8459344E2,6.735908E1,2.4400067E2,2.5913653E0,1.0016857E2,5.8063087E1,7.008552E1,1.4613966E1,3.888761E2],"tree_param":{"num_deleted":"0","num_feature":"10","num_nodes":"63","size_leaf_vector":"1"}},{"base_weights":[2.0236205E-4,-5.2641493E-1,1.98245E-1,-8.772424E-1,-3.7168616E-1,7.875449E-2,6.787721E-1,-9.011013E-1,-2.8186047E-1,-4.647886E-1,-1.4616589E-1,1.7839275E-2,4.7206306E-1,3.1623572E-1,8.6021113E-1,-4.0258336E-1,-9.184487E-1,2.1255815E-1,-6.8517846E-1,-2.4393575E-1,-6.012523E-1,4.637192E-2,-3.847053E-1,1.2236865E-1,-1.8392104E-1,2.980839E-1,7.007786E-1,6.591197E-1,2.251648E-1,2.2042055E-1,8.9841044E-1,-7.148955E-2,9.046917E-2,-1.0053932E-1,-8.335272E-2,1.1195373E-1,-1.5108976E-2,-8.116148E-2,8.257617E-3,-6.6935495E-2,-2.3928464E-3,-7.6984905E-2,-4.4089217E-2,4.5222882E-2,-1.4722543E-2,-7.109568E-2,-1.6642367E-2,-6.2727244E-3,3.185292E-2,-5.0742693E-2,6.8643796E-3,4.886546E-2,4.509932E-4,2.0262681E-2,7.772573E-2,-4.322071E-2,7.771527E-2,4.3824088E-2,6.803722E-3,4.4965286E-2,-1.9482677E-1,6.96141E-2,9.67765E-2],"categories":[],"categories_nodes":[],"categories_segments":[],"categories_sizes":[],"default_left":[0,0,0,0,0,0,0,0,0,0,0,0,0,0,0,0,0,0,0,0,0,0,0,0,0,0,0,0,0,0,0,0,0,0,0,0,0,0,0,0,0,0,0,0,0,0,0,0,0,0,0,0,0,0,0,0,0,0,0,0,0,0,0],"id":24,