{"learner":{"attributes":{"scikit_learn":"{\"_estimator_type\": \"classifier\"}"},"feature_names":[],"feature_types":[],"gradient_booster":{"model":{"gbtree_model_param":{"num_parallel_tree":"1","num_trees":"100"},"iteration_indptr":[0,1,2,3,4,5,6,7,8,9,10,11,12,13,14,15,16,17,18,19,20,21,22,23,24,25,26,27,28,29,30,31,32,33,34,35,36,37,38,39,40,41,42,43,44,45,46,47,48,49,50,51,52,53,54,55,56,57,58,59,60,61,62,63,64,65,66,67,68,69,70,71,72,73,74,75,76,77,78,79,80,81,82,83,84,85,86,87,88,89,90,91,92,93,94,95,96,97,98,99,100],"tree_info":[0,0,0,0,0,0,0,0,0,0,0,0,0,0,0,0,0,0,0,0,0,0,0,0,0,0,0,0,0,0,0,0,0,0,0,0,0,0,0,0,0,0,0,0,0,0,0,0,0,0,0,0,0,0,0,0,0,0,0,0,0,0,0,0,0,0,0,0,0,0,0,0,0,0,0,0,0,0,0,0,0,0,0,0,0,0,0,0,0,0,0,0,0,0,0,0,0,0,0,0],"trees":[{"base_weights":[6.505193E-8,-1.5836393E0,1.4007462E0,-1.8338805E0,-8.147243E-1,-1.4563088E-1,1.6718439E0,-1.9084295E0,-1.3962519E0,-1.4602935E0,-1.41998E-1,-1.0249089E0,3.0038288E-1,9.682218E-1,1.8176389E0,-1.9733411E-1,-1.7678592E0,-1.6427677E0,-9.719821E-1,-1.703587E0,-1.023272E0,5.349299E-1,-4.167553E-1,-1.36215E0,-4.7069165E-1,-2.3115295E-1,9.7700083E-1,5.2891195E-1,1.4127039E0,1.3768055E0,1.9063907E0,-1.880527E-1,-1.5730372E-1,-1.8392429E-1,-1.4850809E-1,-2.299724E-2,-1.200565E-1,-5.7935245E-2,-1.753556E-1,2.4441848E-2,-1.12903476E-1,-9.913379E-3,9.9824965E-2,-8.456627E-2,-3.6587212E-3,-1.1702662E-1,-1.7437379E-1,-3.6097418E-3,-1.0273712E-1,4.194986E-2,-7.1487464E-2,1.2089985E-1,4.9110036E-2,-4.0873874E-2,6.875784E-2,7.74274E-2,1.5380096E-1,1.4773817E-1,7.382074E-2,1.7408396E-1,1.9360666E-1],"categories":[],"categories_nodes":[],"categories_segments":[],"categories_sizes":[],"default_left":[0,0,0,0,0,0,0,0,0,0,0,0,0,0,0,0,0,0,0,0,0,0,0,0,0,0,0,0,0,0,0,0,0,0,0,0,0,0,0,0,0,0,0,0,0,0,0,0,0,0,0,0,0,0,0,0,0,0,0,0,0],"id":0,"left_children":[1,3,5,7,9,11,13,15,17,19,21,23,25,27,29,-1,31,33,35,37,39,41,43,45,47,49,51,53,55,57,59,-1,-1,-1,-1,-1,-1,-1,-1,-1,-1,-1,-1,-1,-1,-1,-1,-1,-1,-1,-1,-1,-1,-1,-1,-1,-1,-1,-1,-1,-1],"loss_changes":[3.0766502E4,1.251082E3,3.0855977E3,1.5754102E2,6.94745E2,4.311908E2,6.406289E2,3.4771484E1,7.354834E1,8.506787E1,1.4617455E2,6.8511444E1,2.626695E2,2.0954694E2,2.002793E2,0E0,2.6328125E1,1.1302734E1,4.4923706E1,2.8363525E1,3.9759613E1,6.6783554E1,9.107416E1,1.4762878E1,3.419486E1,1.291794E2,3.5618896E1,8.109976E1,4.158716E1,5.4962524E1,1.7826172E1,0E0,0E0,0E0,0E0,0E0,0E0,0E0,0E0,0E0,0E0,0E0,0E0,0E0,0E0,0E0,0E0,0E0,0E0,0E0,0E0,0E0,0E0,0E0,0E0,0E0,0E0,0E0,0E0,0E0,0E0],"parents":[2147483647,0,0,1,1,2,2,3,3,4,4,5,5,6,6,7,7,8,8,9,9,10,10,11,11,12,12,13,13,14,14,16,16,17,17,18,18,19,19,20,20,21,21,22,22,23,23,24,24,25,25,26,26,27,27,28,28,29,29,30,30],"right_children":[2,4,6,8,10,12,14,16,18,20,22,24,26,28,30,-1,32,34,36,38,40,42,44,46,48,50,52,54,56,58,60,-1,-1,-1,-1,-1,-1,-1,-1,-1,-1,-1,-1,-1,-1,-1,-1,-1,-1,-1,-1,-1,-1,-1,-1,-1,-1,-1,-1,-1,-1],"split_conditions":[5.8333334E-2,2.4303754E-1,2.437323E-1,4.292929E-2,4.0123455E-2,2.2833928E-1,4.162865E-1,2.2583085E-1,2.3190495E-1,3.2407407E-2,6.171396E-2,8.680555E-2,9.52381E-2,9.5679015E-2,8.680555E-2,-1.9733411E-1,3.0092593E-2,2.2068547E-1,5.046746E-2,3.7262958E-2,4.4058044E-2,4.0918523E-1,2.6014197E-1,4.0918523E-1,6.2248252E-2,5.9846297E-2,2E-1,3.7408465E-1,3.8223255E-1,1.2346753E-1,4.3490303E-1,-1.880527E-1,-1.5730372E-1,-1.8392429E-1,-1.4850809E-1,-2.299724E-2,-1.200565E-1,-5.7935245E-2,-1.753556E-1,2.4441848E-2,-1.12903476E-1,-9.913379E-3,9.9824965E-2,-8.456627E-2,-3.6587212E-3,-1.1702662E-1,-1.7437379E-1,-3.6097418E-3,-1.0273712E-1,4.194986E-2,-7.1487464E-2,1.2089985E-1,4.9110036E-2,-4.0873874E-2,6.875784E-2,7.74274E-2,1.5380096E-1,1.4773817E-1,7.382074E-2,1.7408396E-1,1.9360666E-1],"split_indices":[0,1,1,0,0,1,2,1,1,0,6,0,0,0,0,0,0,1,6,6,6,2,1,2,6,6,9,2,2,6,2,0,0,0,0,0,0,0,0,0,0,0,0,0,0,0,0,0,0,0,0,0,0,0,0,0,0,0,0,0,0],"split_type":[0,0,0,0,0,0,0,0,0,0,0,0,0,0,0,0,0,0,0,0,0,0,0,0,0,0,0,0,0,0,0,0,0,0,0,0,0,0,0,0,0,0,0,0,0,0,0,0,0,0,0,0,0,0,0,0,0,0,0,0,0],"sum_hessian":[1.3867551E4,6.508789E3,7.358761E3,4.909591E3,1.5991981E3,1.0977144E3,6.261047E3,4.1921143E3,7.1747675E2,8.154736E2,7.837246E2,3.6898804E2,7.287264E2,1.0759651E3,5.185082E3,2.8589072E3,1.3332068E3,4.5198535E2,2.654914E2,5.219831E2,2.9349048E2,2.2599268E2,5.5773193E2,2.2849258E2,1.4049544E2,4.0848676E2,3.2023962E2,5.422324E2,5.3373267E2,8.7172174E2,4.3133604E3,8.392228E2,4.9398398E2,1.9649362E2,2.5549171E2,6.2997955E1,2.0249344E2,2.2749262E1,4.9923383E2,2.2499271E1,2.709912E2,9.5746895E1,1.3024577E2,2.6149152E2,2.962404E2,1.5474498E2,7.374761E1,7.949742E1,6.0998024E1,1.7424435E2,2.342424E2,2.1574301E2,1.0449661E2,7.824746E1,4.6398495E2,8.874712E1,4.4498557E2,7.519756E2,1.1974612E2,6.6472845E2,3.6486316E3],"tree_param":{"num_deleted":"0","num_feature":"10","num_nodes":"61","size_leaf_vector":"1"}},{"base_weights":[1.879739E-5,-1.4347994E0,1.270867E0,-1.6636075E0,-7.3536664E-1,-2.2920991E-1,1.5023534E0,-1.7526726E0,-1.3514118E0,-1.4611219E0,-2.3946308E-1,-9.262035E-1,1.9318756E-1,8.471375E-1,1.6455134E0,-1.7978148E-1,-1.6409324E0,-1.5875329E0,-1.0579333E0,-3.5350627E-1,-1.5049894E0,3.1596056E-1,-5.5121005E-1,-1.0625618E0,2.0701335E-1,-2.216128E-1,9.114737E-1,4.479856E-1,1.2646999E0,1.1222284E0,1.7147212E0,-1.417024E-1,-1.6970605E-1,-1.4984275E-1,-1.7116888E-1,-4.8901282E-2,-1.22885816E-1,5.6266095E-2,-1.1789995E-1,-1.6943179E-1,-1.3144799E-1,7.213171E-2,-2.166273E-2,-9.010545E-2,-9.449899E-3,-7.323523E-2,-1.3398539E-1,7.4525036E-2,-4.913743E-2,1.734216E-2,-7.8589015E-2,5.1149976E-2,1.12474956E-1,-3.8649667E-2,5.8975965E-2,6.58623E-2,1.3838142E-1,4.2225804E-2,1.2247106E-1,1.5309149E-1,1.755174E-1],"categories":[],"categories_nodes":[],"categories_segments":[],"categories_sizes":[],"default_left":[0,0,0,0,0,0,0,0,0,0,0,0,0,0,0,0,0,0,0,0,0,0,0,0,0,0,0,0,0,0,0,0,0,0,0,0,0,0,0,0,0,0,0,0,0,0,0,0,0,0,0,0,0,0,0,0,0,0,0,0,0],"id":1,"left_children":[1,3,5,7,9,11,13,15,17,19,21,23,25,27,29,-1,31,33,35,37,39,41,43,45,47,49,51,53,55,57,59,-1,-1,-1,-1,-1,-1,-1,-1,-1,-1,-1,-1,-1,-1,-1,-1,-1,-1,-1,-1,-1,-1,-1,-1,-1,-1,-1,-1,-1,-1],"loss_changes":[2.511445E4,1.0340859E3,2.5366123E3,1.3315039E2,5.742143E2,2.8790466E2,5.9213965E2,1.6160156E1,7.358838E1,3.0945312E1,1.6459816E2,5.7231934E1,1.8175453E2,1.888866E2,1.8610254E2,0E0,1.1440186E1,4.0718994E0,4.678192E1,2.0317383E1,2.0238403E1,7.399302E1,9.715263E1,2.9188232E1,1.5576631E1,8.642045E1,1.8470337E1,6.916661E1,3.9154236E1,4.3194336E1,3.1393555E1,0E0,0E0,0E0,0E0,0E0,0E0,0E0,0E0,0E0,0E0,0E0,0E0,0E0,0E0,0E0,0E0,0E0,0E0,0E0,0E0,0E0,0E0,0E0,0E0,0E0,0E0,0E0,0E0,0E0,0E0],"parents":[2147483647,0,0,1,1,2,2,3,3,4,4,5,5,6,6,7,7,8,8,9,9,10,10,11,11,12,12,13,13,14,14,16,16,17,17,18,18,19,19,20,20,21,21,22,22,23,23,24,24,25,25,26,26,27,27,28,28,29,29,30,30],"right_children":[2,4,6,8,10,12,14,16,18,20,22,24,26,28,30,-1,32,34,36,38,40,42,44,46,48,50,52,54,56,58,60,-1,-1,-1,-1,-1,-1,-1,-1,-1,-1,-1,-1,-1,-1,-1,-1,-1,-1,-1,-1,-1,-1,-1,-1,-1,-1,-1,-1,-1,-1],"split_conditions":[5.8641974E-2,2.4303754E-1,2.4183331E-1,3.8194444E-2,3.5714287E-2,2.2833928E-1,4.162865E-1,2.2613698E-1,2.2902717E-1,3.67702E-2,2E-1,1.4583333E-1,1.03174604E-1,9.5679015E-2,7.8282826E-2,-1.7978148E-1,4.6313923E-2,6.38003E-2,4.9887255E-2,1.5926892E-1,2.4691358E-2,1.972038E-1,2.6379E-1,5.653289E-2,6.171396E-2,6.920599E-2,2.3501249E-1,3.7332213E-1,3.8154003E-1,2.5101122E-1,1.04166664E-1,-1.417024E-1,-1.6970605E-1,-1.4984275E-1,-1.7116888E-1,-4.8901282E-2,-1.22885816E-1,5.6266095E-2,-1.1789995E-1,-1.6943179E-1,-1.3144799E-1,7.213171E-2,-2.166273E-2,-9.010545E-2,-9.449899E-3,-7.323523E-2,-1.3398539E-1,7.4525036E-2,-4.913743E-2,1.734216E-2,-7.8589015E-2,5.1149976E-2,1.12474956E-1,-3.8649667E-2,5.8975965E-2,6.58623E-2,1.3838142E-1,4.2225804E-2,1.2247106E-1,1.5309149E-1,1.755174E-1],"split_indices":[0,1,1,0,0,1,2,1,1,6,9,0,0,0,0,0,6,3,6,7,0,7,1,6,6,6,1,2,2,1,0,0,0,0,0,0,0,0,0,0,0,0,0,0,0,0,0,0,0,0,0,0,0,0,0,0,0,0,0,0,0],"split_type":[0,0,0,0,0,0,0,0,0,0,0,0,0,0,0,0,0,0,0,0,0,0,0,0,0,0,0,0,0,0,0,0,0,0,0,0,0,0,0,0,0,0,0,0,0,0,0,0,0,0,0,0,0,0,0,0,0,0,0,0,0],"sum_hessian":[1.3771145E4,6.4682295E3,7.3029155E3,4.872795E3,1.5954342E3,9.763017E2,6.326614E3,3.7876248E3,1.0851702E3,6.4683875E2,9.4859546E2,3.6795328E2,6.0834845E2,1.1356906E3,5.1909233E3,2.6870042E3,1.1006206E3,5.989055E2,4.8626465E2,2.4987402E1,6.218514E2,3.4101425E2,6.075812E2,3.28489E2,3.946425E1,3.8608255E2,2.222659E2,5.817055E2,5.53985E2,6.083508E2,4.5825728E3,2.2585895E2,8.7476166E2,3.5627777E2,2.4262775E2,1.1323265E2,3.73032E2,1.1994164E1,1.29932375E1,3.0793353E2,3.1391785E2,1.9343506E2,1.4757921E2,3.4349115E2,2.6409003E2,1.5159967E2,1.7688934E2,2.2249662E1,1.7214586E1,2.2750528E2,1.5857727E2,7.848144E1,1.4378447E2,8.422586E1,4.9747968E2,9.206574E1,4.6191925E2,7.834713E1,5.3000366E2,8.336311E2,3.7489414E3],"tree_param":{"num_deleted":"0","num_feature":"10","num_nodes":"61","size_leaf_vector":"1"}},{"base_weights":[5.276033E-6,-1.3164396E0,1.1660072E0,-1.5133119E0,-6.0100305E-1,-1.22677736E-1,1.3968061E0,-1.6209589E0,-1.2004712E0,-1.2493653E0,-9.103496E-2,-6.2281024E-1,4.1199148E-1,7.3176414E-1,1.5114486E0,-1.6531683E0,-1.5096288E0,-1.4502369E0,-8.598824E-1,-1.4741199E0,-1.0477874E0,4.136891E-1,-4.0418357E-1,-9.8625755E-1,-1.01388045E-1,-2.8876116E-2,9.4608194E-1,3.3440462E-1,1.0824717E0,1.1062984E0,1.5982739E0,-1.6757654E-1,-1.5997006E-1,-1.5879567E-1,-1.3846295E-1,-9.7559094E-2,-1.5095061E-1,-2.6528953E-2,-1.0499287E-1,-1.5955949E-1,-1.3553894E-1,-8.035841E-2,-1.3727216E-1,-8.961914E-2,5.512435E-2,-7.962581E-2,1.9612242E-3,-6.930503E-2,-1.2622142E-1,-3.513711E-2,4.977121E-2,3.518937E-2,-7.1996994E-2,5.1768064E-3,1.0695799E-1,7.352897E-2,7.375893E-3,1.3100326E-1,7.3272415E-2,1.2032404E-1,5.553778E-2,1.4426729E-1,1.630902E-1],"categories":[],"categories_nodes":[],"categories_segments":[],"categories_sizes":[],"default_left":[0,0,0,0,0,0,0,0,0,0,0,0,0,0,0,0,0,0,0,0,0,0,0,0,0,0,0,0,0,0,0,0,0,0,0,0,0,0,0,0,0,0,0,0,0,0,0,0,0,0,0,0,0,0,0,0,0,0,0,0,0,0,0],"id":2,"left_children":[1,3,5,7,9,11,13,15,17,19,21,23,25,27,29,31,33,35,37,39,41,43,45,47,49,51,53,55,57,59,61,-1,-1,-1,-1,-1,-1,-1,-1,-1,-1,-1,-1,-1,-1,-1,-1,-1,-1,-1,-1,-1,-1,-1,-1,-1,-1,-1,-1,-1,-1,-1,-1],"loss_changes":[2.076317E4,8.939746E2,2.1336826E3,1.6582129E2,4.5376486E2,2.918574E2,4.6273047E2,1.0785156E1,1.07572266E2,2.5832275E1,1.2177961E2,1.0675238E2,1.2426833E2,1.2456793E2,1.8074121E2,7.763672E-1,6.0507812E0,1.9247925E1,6.1155365E1,1.9226074E0,2.4449158E1,5.3664696E1,7.899785E1,2.5999023E1,3.502551E1,7.6571175E1,2.6299927E1,4.401195E1,3.690399E1,4.8407227E1,1.9328125E1,0E0,0E0,0E0,0E0,0E0,0E0,0E0,0E0,0E0,0E0,0E0,0E0,0E0,0E0,0E0,0E0,0E0,0E0,0E0,0E0,0E0,0E0,0E0,0E0,0E0,0E0,0E0,0E0,0E0,0E0,0E0,0E0],"parents":[2147483647,0,0,1,1,2,2,3,3,4,4,5,5,6,6,7,7,8,8,9,9,10,10,11,11,12,12,13,13,14,14,15,15,16,16,17,17,18,18,19,19,20,20,21,21,22,22,23,23,24,24,25,25,26,26,27,27,28,28,29,29,30,30],"right_children":[2,4,6,8,10,12,14,16,18,20,22,24,26,28,30,32,34,36,38,40,42,44,46,48,50,52,54,56,58,60,62,-1,-1,-1,-1,-1,-1,-1,-1,-1,-1,-1,-1,-1,-1,-1,-1,-1,-1,-1,-1,-1,-1,-1,-1,-1,-1,-1,-1,-1,-1,-1,-1],"split_conditions":[5.8641974E-2,4.292929E-2,2.437323E-1,2.3679197E-1,2.3876609E-1,2.3381326E-1,4.1176072E-1,3.0092593E-2,3.2407407E-2,2.2513992E-1,2E-1,8.680555E-2,9.52381E-2,9.259259E-2,8.680555E-2,2.2244316E-1,2.2583085E-1,4.505989E-2,5.6252934E-2,2.1717691E-1,2E-1,3.754651E-1,2.6014197E-1,5.9561312E-2,1.4583333E-1,7.4636675E-2,3.7958425E-1,6.800235E-2,8.222479E-2,9.090909E-2,4.3490303E-1,-1.6757654E-1,-1.5997006E-1,-1.5879567E-1,-1.3846295E-1,-9.7559094E-2,-1.5095061E-1,-2.6528953E-2,-1.0499287E-1,-1.5955949E-1,-1.3553894E-1,-8.035841E-2,-1.3727216E-1,-8.961914E-2,5.512435E-2,-7.962581E-2,1.9612242E-3,-6.930503E-2,-1.2622142E-1,-3.513711E-2,4.977121E-2,3.518937E-2,-7.1996994E-2,5.1768064E-3,1.0695799E-1,7.352897E-2,7.375893E-3,1.3100326E-1,7.3272415E-2,1.2032404E-1,5.553778E-2,1.4426729E-1,1.630902E-1],"split_indices":[0,0,1,1,1,1,2,0,0,1,9,0,0,0,0,1,1,6,6,1,9,2,1,6,0,6,2,6,6,8,2,0,0,0,0,0,0,0,0,0,0,0,0,0,0,0,0,0,0,0,0,0,0,0,0,0,0,0,0,0,0,0,0],"split_type":[0,0,0,0,0,0,0,0,0,0,0,0,0,0,0,0,0,0,0,0,0,0,0,0,0,0,0,0,0,0,0,0,0,0,0,0,0,0,0,0,0,0,0,0,0,0,0,0,0,0,0,0,0,0,0,0,0,0,0,0,0,0,0],"sum_hessian":[1.3524696E4,6.352471E3,7.172225E3,4.9807607E3,1.3717103E3,1.0894818E3,6.0827437E3,3.7025486E3,1.2782122E3,6.032727E2,7.684376E2,5.6283655E2,5.2664526E2,8.9547406E2,5.1872695E3,2.8609795E3,8.415691E2,7.355497E2,5.426624E2,2.8225372E2,3.21019E2,2.940979E2,4.7433972E2,3.3113428E2,2.3170227E2,2.89019E2,2.3762624E2,4.2073053E2,4.7474356E2,9.178896E2,4.26938E3,1.9897224E3,8.7125714E2,5.1017606E2,3.3139307E2,8.3590706E1,6.51959E2,1.3201772E2,4.106447E2,1.3336613E2,1.4888759E2,1.8526025E2,1.3575874E2,2.7424938E1,2.6667297E2,2.459346E2,2.2840512E2,1.6225154E2,1.6888275E2,1.6377734E2,6.792493E1,1.866641E2,1.0235491E2,2.9004988E1,2.0862125E2,1.6505197E2,2.5567856E2,2.859479E2,1.8879565E2,7.7953564E2,1.3835393E2,7.479032E2,3.5214766E3],"tree_param":{"num_deleted":"0","num_feature":"10","num_nodes":"63","size_leaf_vector":"1"}},{"base_weights":[-4.14742E-5,-1.2190148E0,1.0786111E0,-1.4271746E0,-6.03387E-1,-6.5118134E-2,1.3062968E0,-1.491889E0,-1.057709E0,-1.1155758E0,-8.839252E-2,-7.845705E-1,2.6115793E-1,6.998168E-1,1.4158242E0,-1.5436637E0,-1.3613338E0,-1.2640281E0,-7.124524E-1,-1.3284327E0,-7.9416764E-1,3.3093873E-1,-4.489029E-1,-1.0563858E0,-3.4692797E-1,-8.902699E-2,8.5184616E-1,3.1285432E-1,1.0147598E0,8.0914605E-1,1.4688983E0,-1.5696172E-1,-1.492321E-1,-1.21640615E-1,-1.492421E-1,-1.4375739E-1,-1.12764336E-1,-3.6783308E-2,-1.09933615E-1,-3.8549375E-2,-1.3749067E-1,-4.1542817E-2,-1.0490363E-1,-2.1937996E-2,7.224604E-2,-7.2859235E-2,-4.832674E-5,-8.788135E-2,-1.4159714E-1,-3.2361038E-4,-8.496073E-2,2.9299501E-2,-6.367307E-2,9.285404E-3,9.68731E-2,-1.7120186E-2,5.4895807E-2,1.1277044E-1,3.6533296E-2,1.0866126E-1,4.722065E-2,1.3561647E-1,1.5398549E-1],"categories":[],"categories_nodes":[],"categories_segments":[],"categories_sizes":[],"default_left":[0,0,0,0,0,0,0,0,0,0,0,0,0,0,0,0,0,0,0,0,0,0,0,0,0,0,0,0,0,0,0,0,0,0,0,0,0,0,0,0,0,0,0,0,0,0,0,0,0,0,0,0,0,0,0,0,0,0,0,0,0,0,0],"id":3,"left_children":[1,3,5,7,9,11,13,15,17,19,21,23,25,27,29,31,33,35,37,39,41,43,45,47,49,51,53,55,57,59,61,-1,-1,-1,-1,-1,-1,-1,-1,-1,-1,-1,-1,-1,-1,-1,-1,-1,-1,-1,-1,-1,-1,-1,-1,-1,-1,-1,-1,-1,-1,-1,-1],"loss_changes":[1.732689E4,7.919365E2,1.8207031E3,1.0894629E2,4.1270404E2,2.728955E2,3.8631738E2,2.4470703E1,4.8423157E1,5.2618652E1,1.182815E2,4.2779633E1,1.6554965E2,1.0862195E2,1.5780176E2,1.3989258E0,1.9552734E1,8.606995E0,3.443367E1,2.008783E1,2.9976257E1,7.8117966E1,5.2752472E1,1.3010681E1,2.4262495E1,1.0545956E2,2.6332474E1,4.6098328E1,3.570215E1,3.6831024E1,3.4222656E1,0E0,0E0,0E0,0E0,0E0,0E0,0E0,0E0,0E0,0E0,0E0,0E0,0E0,0E0,0E0,0E0,0E0,0E0,0E0,0E0,0E0,0E0,0E0,0E0,0E0,0E0,0E0,0E0,0E0,0E0,0E0,0E0],"parents":[2147483647,0,0,1,1,2,2,3,3,4,4,5,5,6,6,7,7,8,8,9,9,10,10,11,11,12,12,13,13,14,14,15,15,16,16,17,17,18,18,19,19,20,20,21,21,22,22,23,23,24,24,25,25,26,26,27,27,28,28,29,29,30,30],"right_children":[2,4,6,8,10,12,14,16,18,20,22,24,26,28,30,32,34,36,38,40,42,44,46,48,50,52,54,56,58,60,62,-1,-1,-1,-1,-1,-1,-1,-1,-1,-1,-1,-1,-1,-1,-1,-1,-1,-1,-1,-1,-1,-1,-1,-1,-1,-1,-1,-1,-1,-1,-1,-1],"split_conditions":[5.8641974E-2,2.4303754E-1,2.449491E-1,4.292929E-2,4.0123455E-2,2.2833928E-1,7.87037E-2,2.2719277E-1,2.3190495E-1,3.1746034E-2,7.398963E-2,8.680555E-2,1.03174604E-1,4.247154E-1,4.0390274E-1,2.4691358E-2,6.865956E-2,2.2068547E-1,2E-1,3.7262958E-2,7.158321E-2,4.087204E-1,5.1587302E-2,4.0918523E-1,6.463161E-2,2E-1,3.7958425E-1,2.5474456E-1,9.090909E-2,7.861797E-2,1.3425925E-1,-1.5696172E-1,-1.492321E-1,-1.21640615E-1,-1.492421E-1,-1.4375739E-1,-1.12764336E-1,-3.6783308E-2,-1.09933615E-1,-3.8549375E-2,-1.3749067E-1,-4.1542817E-2,-1.0490363E-1,-2.1937996E-2,7.224604E-2,-7.2859235E-2,-4.832674E-5,-8.788135E-2,-1.4159714E-1,-3.2361038E-4,-8.496073E-2,2.9299501E-2,-6.367307E-2,9.285404E-3,9.68731E-2,-1.7120186E-2,5.4895807E-2,1.1277044E-1,3.6533296E-2,1.0866126E-1,4.722065E-2,1.3561647E-1,1.5398549E-1],"split_indices":[0,1,1,0,0,1,0,1,1,0,6,0,0,2,2,0,3,1,9,6,6,2,0,2,6,9,2,1,8,6,0,0,0,0,0,0,0,0,0,0,0,0,0,0,0,0,0,0,0,0,0,0,0,0,0,0,0,0,0,0,0,0,0],"split_type":[0,0,0,0,0,0,0,0,0,0,0,0,0,0,0,0,0,0,0,0,0,0,0,0,0,0,0,0,0,0,0,0,0,0,0,0,0,0,0,0,0,0,0,0,0,0,0,0,0,0,0,0,0,0,0,0,0,0,0,0,0,0,0],"sum_hessian":[1.317586E4,6.185531E3,6.990329E3,4.621547E3,1.5639839E3,1.1606704E3,5.8296587E3,3.9301208E3,6.9142596E2,7.835433E2,7.804407E2,3.6170068E2,7.989697E2,8.928908E2,4.936768E3,2.8063665E3,1.1237544E3,4.3112946E2,2.602965E2,4.694864E2,3.1405685E2,3.6082523E2,4.1961542E2,2.222498E2,1.3945087E2,5.021332E2,2.968365E2,4.0153192E2,4.913589E2,3.9844775E2,4.5383203E3,1.8444427E3,9.6192365E2,5.3858435E2,5.8517004E2,1.8551999E2,2.4560948E2,1.3869963E2,1.2159687E2,2.2489023E1,4.4699738E2,1.27387184E2,1.8666968E2,1.5017729E2,2.1064793E2,2.5804324E2,1.6157219E2,1.5108449E2,7.1165306E1,8.342083E1,5.603005E1,2.9608188E2,2.0605135E2,3.9851948E1,2.5698456E2,1.3173198E2,2.6979996E2,4.1793713E2,7.342175E1,2.172881E2,1.8115965E2,1.7608478E3,2.7774727E3],"tree_param":{"num_deleted":"0","num_feature":"10","num_nodes":"63","size_leaf_vector":"1"}},{"base_weights":[-1.0112302E-4,-1.1365832E0,1.0037695E0,-1.3612584E0,-6.0324E-1,-3.589748E-2,1.2268857E0,-1.4425995E0,-1.1283462E0,-9.9101985E-1,-4.206064E-2,-5.0836056E-1,4.0815118E-1,7.1503437E-1,1.3512137E0,-1.4728402E-1,-1.3619275E0,-1.3026234E0,-8.981766E-1,-1.2674906E0,-7.139188E-1,1.18267454E-1,-8.6270857E-1,-8.1680137E-1,-7.814652E-2,7.538298E-1,-1.0339877E-1,3.8221925E-1,1.0420772E0,9.266284E-1,1.4081599E0,-1.1674779E-1,-1.4061806E-1,-1.2280381E-1,-1.4472114E-1,-4.0683255E-2,-1.0565466E-1,-9.269705E-2,-1.3685773E-1,-3.3557996E-2,-9.9708885E-2,-1.8429836E-2,5.902527E-2,-1.194554E-1,-2.8515596E-2,-1.0777544E-1,-5.4927427E-2,-6.196115E-2,1.33891925E-2,1.0335672E-1,2.1226954E-2,-4.2596374E-2,9.0493165E-2,7.371975E-2,1.1272169E-2,5.0845604E-2,1.1308849E-1,1.043939E-1,2.55958E-2,1.2844124E-1,1.4518443E-1],"categories":[],"categories_nodes":[],"categories_segments":[],"categories_sizes":[],"default_left":[0,0,0,0,0,0,0,0,0,0,0,0,0,0,0,0,0,0,0,0,0,0,0,0,0,0,0,0,0,0,0,0,0,0,0,0,0,0,0,0,0,0,0,0,0,0,0,0,0,0,0,0,0,0,0,0,0,0,0,0,0],"id":4,"left_children":[1,3,5,7,9,11,13,15,17,19,21,23,25,27,29,-1,31,33,35,37,39,41,43,45,47,49,51,53,55,57,59,-1,-1,-1,-1,-1,-1,-1,-1,-1,-1,-1,-1,-1,-1,-1,-1,-1,-1,-1,-1,-1,-1,-1,-1,-1,-1,-1,-1,-1,-1],"loss_changes":[1.4558943E4,7.1638477E2,1.5718237E3,7.814111E1,3.8639984E2,2.5158102E2,3.5404883E2,5.5981445E0,4.2730713E1,7.9543945E1,9.571692E1,7.702704E1,1.09398384E2,1.18500305E2,1.0719336E2,0E0,5.7855225E0,4.9155273E0,3.6516907E1,1.6780945E1,5.6097748E1,8.705158E1,2.2445915E1,2.3022827E1,2.8062267E1,5.5688293E1,8.175576E1,5.1862045E1,2.5507446E1,4.171472E1,1.9513672E1,0E0,0E0,0E0,0E0,0E0,0E0,0E0,0E0,0E0,0E0,0E0,0E0,0E0,0E0,0E0,0E0,0E0,0E0,0E0,0E0,0E0,0E0,0E0,0E0,0E0,0E0,0E0,0E0,0E0,0E0],"parents":[2147483647,0,0,1,1,2,2,3,3,4,4,5,5,6,6,7,7,8,8,9,9,10,10,11,11,12,12,13,13,14,14,16,16,17,17,18,18,19,19,20,20,21,21,22,22,23,23,24,24,25,25,26,26,27,27,28,28,29,29,30,30],"right_children":[2,4,6,8,10,12,14,16,18,20,22,24,26,28,30,-1,32,34,36,38,40,42,44,46,48,50,52,54,56,58,60,-1,-1,-1,-1,-1,-1,-1,-1,-1,-1,-1,-1,-1,-1,-1,-1,-1,-1,-1,-1,-1,-1,-1,-1,-1,-1,-1,-1,-1,-1],"split_conditions":[5.8641974E-2,2.3990172E-1,2.4573652E-1,3.5714287E-2,4.3650795E-2,2.3458633E-1,4.194784E-1,2.25482E-1,2.2757167E-1,3.0303031E-2,4.5454547E-2,8.680555E-2,6.920599E-2,9.5679015E-2,7.936508E-2,-1.4728402E-1,4.4711158E-2,6.694649E-2,4.9887255E-2,5.4953985E-2,7.191993E-2,2.6014197E-1,2.7915204E-1,2.2513992E-1,2.2068547E-1,2E-1,1.2222222E-1,7.038046E-2,3.8223255E-1,1.2346753E-1,1.1805555E-1,-1.1674779E-1,-1.4061806E-1,-1.2280381E-1,-1.4472114E-1,-4.0683255E-2,-1.0565466E-1,-9.269705E-2,-1.3685773E-1,-3.3557996E-2,-9.9708885E-2,-1.8429836E-2,5.902527E-2,-1.194554E-1,-2.8515596E-2,-1.0777544E-1,-5.4927427E-2,-6.196115E-2,1.33891925E-2,1.0335672E-1,2.1226954E-2,-4.2596374E-2,9.0493165E-2,7.371975E-2,1.1272169E-2,5.0845604E-2,1.1308849E-1,1.043939E-1,2.55958E-2,1.2844124E-1,1.4518443E-1],"split_indices":[0,1,1,0,0,1,2,1,1,0,8,0,6,0,0,0,6,3,6,6,6,1,1,1,1,9,0,6,2,6,0,0,0,0,0,0,0,0,0,0,0,0,0,0,0,0,0,0,0,0,0,0,0,0,0,0,0,0,0,0,0],"split_type":[0,0,0,0,0,0,0,0,0,0,0,0,0,0,0,0,0,0,0,0,0,0,0,0,0,0,0,0,0,0,0,0,0,0,0,0,0,0,0,0,0,0,0,0,0,0,0,0,0,0,0,0,0,0,0,0,0,0,0,0,0],"sum_hessian":[1.2759141E4,5.9842446E3,6.774896E3,4.2094336E3,1.7748113E3,1.1971772E3,5.5777188E3,3.1160178E3,1.0934156E3,1.0491047E3,7.257065E2,5.799605E2,6.1721674E2,1.0913687E3,4.48635E3,2.2538777E3,8.6214E2,6.1960815E2,4.738075E2,5.233606E2,5.257442E2,6.07815E2,1.17891525E2,3.372625E2,2.4269801E2,3.680406E2,2.4917612E2,5.419857E2,5.4938293E2,5.3260095E2,3.953749E3,1.6490836E2,6.972317E2,4.150161E2,2.0459201E2,1.16362045E2,3.5744543E2,1.22128716E2,4.0123187E2,2.2598906E2,2.9975516E2,3.7075333E2,2.3706165E2,7.419365E1,4.3697872E1,1.6919583E2,1.6806668E2,6.775515E1,1.7494287E2,2.4208536E2,1.2595524E2,1.8922165E2,5.9954468E1,2.3314935E2,3.0883633E2,7.9345146E1,4.7003778E2,4.528364E2,7.976458E1,1.0394993E3,2.9142498E3],"tree_param":{"num_deleted":"0","num_feature":"10","num_nodes":"61","size_leaf_vector":"1"}},{"base_weights":[-1.3638486E-4,-9.841118E-1,1.0201476E0,-1.2297907E0,-2.9557386E-1,-7.733105E-2,1.1738195E0,-1.3511953E0,-9.1211313E-1,-7.072144E-1,3.311901E-1,-5.74632E-1,2.1538293E-1,6.135968E-1,1.2756965E0,-1.3891182E0,-1.2351248E0,-1.1817595E0,-6.194252E-1,-1.0486033E0,-4.3372843E-1,6.549071E-1,-1.5651307E-1,-6.7845917E-1,4.32502E-1,4.9623492E-1,-2.7065927E-1,3.6308596E-1,9.1253847E-1,1.0230869E0,1.3564763E0,-1.3943136E-1,-1.1555194E-1,-1.3301423E-1,-1.1309961E-1,-7.2707936E-2,-1.24131024E-1,2.1976044E-2,-7.245263E-2,-1.3230865E-1,-9.419833E-2,-2.9420822E-3,-8.615443E-2,3.4925587E-2,9.796558E-2,-6.276908E-2,9.49707E-3,1.6392702E-1,-7.128397E-2,7.805701E-2,-7.637917E-2,6.362185E-2,-3.951086E-2,-1.0986185E-1,-1.2477535E-3,5.071838E-2,-3.2153632E-2,3.650519E-2,1.007298E-1,6.466401E-2,1.13089085E-1,1.2110674E-1,1.3857548E-1],"categories":[],"categories_nodes":[],"categories_segments":[],"categories_sizes":[],"default_left":[0,0,0,0,0,0,0,0,0,0,0,0,0,0,0,0,0,0,0,0,0,0,0,0,0,0,0,0,0,0,0,0,0,0,0,0,0,0,0,0,0,0,0,0,0,0,0,0,0,0,0,0,0,0,0,0,0,0,0,0,0,0,0],"id":5,"left_children":[1,3,5,7,9,11,13,15,17,19,21,23,25,27,29,31,33,35,37,39,41,43,45,47,49,51,53,55,57,59,61,-1,-1,-1,-1,-1,-1,-1,-1,-1,-1,-1,-1,-1,-1,-1,-1,-1,-1,-1,-1,-1,-1,-1,-1,-1,-1,-1,-1,-1,-1,-1,-1],"loss_changes":[1.235024E4,1.0589707E3,1.0186616E3,1.7676416E2,4.254669E2,1.0824161E2,3.0158057E2,1.2972656E1,1.002218E2,9.245587E1,1.0336189E2,2.9098656E1,6.405556E1,6.085898E1,9.006348E1,1.4316406E0,6.7156982E0,1.7094788E1,5.444345E1,1.1686462E1,9.583763E1,3.8697403E1,3.107407E1,2.1098778E1,1.15702915E1,3.7325478E1,3.6782745E1,4.4183483E1,1.8924927E1,4.350244E1,1.2765625E1,0E0,0E0,0E0,0E0,0E0,0E0,0E0,0E0,0E0,0E0,0E0,0E0,0E0,0E0,0E0,0E0,0E0,0E0,0E0,0E0,0E0,0E0,0E0,0E0,0E0,0E0,0E0,0E0,0E0,0E0,0E0,0E0],"parents":[2147483647,0,0,1,1,2,2,3,3,4,4,5,5,6,6,7,7,8,8,9,9,10,10,11,11,12,12,13,13,14,14,15,15,16,16,17,17,18,18,19,19,20,20,21,21,22,22,23,23,24,24,25,25,26,26,27,27,28,28,29,29,30,30],"right_children":[2,4,6,8,10,12,14,16,18,20,22,24,26,28,30,32,34,36,38,40,42,44,46,48,50,52,54,56,58,60,62,-1,-1,-1,-1,-1,-1,-1,-1,-1,-1,-1,-1,-1,-1,-1,-1,-1,-1,-1,-1,-1,-1,-1,-1,-1,-1,-1,-1,-1,-1,-1,-1],"split_conditions":[6.5656565E-2,4.5138888E-2,2.410787E-1,2.3679197E-1,2.518628E-1,2.2833928E-1,4.1176072E-1,3.0092593E-2,3.2407407E-2,2.3190495E-1,8.848176E-2,1.7777778E-1,2E-1,1.04166664E-1,1.0069445E-1,2.353456E-1,2.2378293E-1,4.505989E-2,4.5394707E-2,2.1648361E-1,2E-1,4.2878377E-1,2.6715165E-1,1.915846E-1,8.107361E-2,9.501933E-2,7.5E-2,4.5454547E-2,3.7761864E-1,2.5726974E-1,4.3490303E-1,-1.3943136E-1,-1.1555194E-1,-1.3301423E-1,-1.1309961E-1,-7.2707936E-2,-1.24131024E-1,2.1976044E-2,-7.245263E-2,-1.3230865E-1,-9.419833E-2,-2.9420822E-3,-8.615443E-2,3.4925587E-2,9.796558E-2,-6.276908E-2,9.49707E-3,1.6392702E-1,-7.128397E-2,7.805701E-2,-7.637917E-2,6.362185E-2,-3.951086E-2,-1.0986185E-1,-1.2477535E-3,5.071838E-2,-3.2153632E-2,3.650519E-2,1.007298E-1,6.466401E-2,1.13089085E-1,1.2110674E-1,1.3857548E-1],"split_indices":[0,0,1,1,1,1,2,0,0,1,6,0,9,0,0,1,1,6,6,1,9,2,1,1,6,6,0,8,2,1,2,0,0,0,0,0,0,0,0,0,0,0,0,0,0,0,0,0,0,0,0,0,0,0,0,0,0,0,0,0,0,0,0],"split_type":[0,0,0,0,0,0,0,0,0,0,0,0,0,0,0,0,0,0,0,0,0,0,0,0,0,0,0,0,0,0,0,0,0,0,0,0,0,0,0,0,0,0,0,0,0,0,0,0,0,0,0,0,0,0,0,0,0,0,0,0,0,0,0],"sum_hessian":[1.2299842E4,6.261349E3,6.0384927E3,4.61417E3,1.6471792E3,7.4173627E2,5.2967563E3,3.3360144E3,1.2781553E3,9.941329E2,6.5304626E2,2.744691E2,4.672672E2,8.160898E2,4.4806665E3,2.506213E3,8.298016E2,6.6368274E2,6.1447253E2,4.4091296E2,5.532199E2,3.923067E2,2.607396E2,2.4911385E2,2.535523E1,2.9613132E2,1.7113588E2,4.452164E2,3.708734E2,1.0889705E3,3.3916963E3,2.4468242E3,5.938872E1,4.2772665E2,4.0207492E2,7.838781E1,5.852949E2,6.827067E1,5.462019E2,1.20160835E2,3.2075214E2,2.8497394E2,2.68246E2,2.0316484E2,1.8914186E2,9.021591E1,1.7052368E2,2.9589474E0,2.461549E2,1.9909859E1,5.445371E0,2.5618436E2,3.9946968E1,3.9906166E1,1.3122972E2,3.680163E2,7.720011E1,5.5436058E1,3.1543735E2,2.4398466E2,8.449857E2,5.755636E2,2.8161328E3],"tree_param":{"num_deleted":"0","num_feature":"10","num_nodes":"63","size_leaf_vector":"1"}},{"base_weights":[-1.5123049E-4,-9.2342037E-1,9.591391E-1,-1.1822501E0,-3.1202415E-1,8.0069E-2,1.1354145E0,-1.2665211E0,-7.8773326E-1,-6.787466E-1,2.6301268E-1,-3.6066696E-1,4.153548E-1,5.940632E-1,1.2269943E0,-1.3204606E0,-1.1096308E0,-1.0643697E0,-4.7362912E-1,-9.4945455E-1,-3.6405697E-1,4.5761955E-1,-4.9279454E-1,-5.03133E-1,4.155927E-1,1.9670792E-1,9.5886075E-1,8.284464E-1,2.97304E-1,9.895852E-1,1.2995493E0,-1.3498184E-1,-1.2474795E-1,-1.2492477E-1,-9.566242E-2,-1.3229373E-1,-8.664198E-2,-5.2735545E-3,-7.7568E-2,-1.2428272E-1,-8.5559346E-2,2.693198E-2,-6.064734E-2,7.1379654E-2,7.3937736E-3,-8.847873E-2,-5.1513608E-3,-8.690415E-2,-2.5591895E-2,6.766718E-2,-3.7570607E-2,5.405269E-2,-2.923433E-2,-2.118032E-2,1.0907884E-1,3.7896954E-2,9.8030515E-2,-1.2960762E-3,5.886767E-2,1.09112E-1,6.4342506E-2,1.1577673E-1,1.3271685E-1],"categories":[],"categories_nodes":[],"categories_segments":[],"categories_sizes":[],"default_left":[0,0,0,0,0,0,0,0,0,0,0,0,0,0,0,0,0,0,0,0,0,0,0,0,0,0,0,0,0,0,0,0,0,0,0,0,0,0,0,0,0,0,0,0,0,0,0,0,0,0,0,0,0,0,0,0,0,0,0,0,0,0,0],"id":6,"left_children":[1,3,5,7,9,11,13,15,17,19,21,23,25,27,29,31,33,35,37,39,41,43,45,47,49,51,53,55,57,59,61,-1,-1,-1,-1,-1,-1,-1,-1,-1,-1,-1,-1,-1,-1,-1,-1,-1,-1,-1,-1,-1,-1,-1,-1,-1,-1,-1,-1,-1,-1,-1,-1],"loss_changes":[1.0469826E4,9.5286475E2,8.9828125E2,1.3969092E2,3.782787E2,1.4340605E2,2.3868066E2,2.8028809E1,6.444516E1,9.2941864E1,1.0302443E2,4.6589466E1,6.5295876E1,4.84886E1,6.984424E1,3.8623047E0,1.798706E1,1.9154907E1,4.468775E1,1.5129272E1,7.816489E1,5.4627884E1,2.479242E1,3.1872543E1,1.3802868E1,6.6444595E1,2.4606339E1,2.6311096E1,2.8100216E1,3.3418335E1,1.08359375E1,0E0,0E0,0E0,0E0,0E0,0E0,0E0,0E0,0E0,0E0,0E0,0E0,0E0,0E0,0E0,0E0,0E0,0E0,0E0,0E0,0E0,0E0,0E0,0E0,0E0,0E0,0E0,0E0,0E0,0E0,0E0,0E0],"parents":[2147483647,0,0,1,1,2,2,3,3,4,4,5,5,6,6,7,7,8,8,9,9,10,10,11,11,12,12,13,13,14,14,15,15,16,16,17,17,18,18,19,19,20,20,21,21,22,22,23,23,24,24,25,25,26,26,27,27,28,28,29,29,30,30],"right_children":[2,4,6,8,10,12,14,16,18,20,22,24,26,28,30,32,34,36,38,40,42,44,46,48,50,52,54,56,58,60,62,-1,-1,-1,-1,-1,-1,-1,-1,-1,-1,-1,-1,-1,-1,-1,-1,-1,-1,-1,-1,-1,-1,-1,-1,-1,-1,-1,-1,-1,-1,-1,-1],"split_conditions":[6.5656565E-2,4.292929E-2,2.4573652E-1,2.449491E-1,2.518628E-1,2.3342745E-1,4.1176072E-1,3.0092593E-2,3.2407407E-2,2.353456E-1,4.5454547E-2,1.4583333E-1,1.2698413E-1,8.036411E-2,1E-1,2.25482E-1,2.2719277E-1,3.0803218E-1,7.158321E-2,2.1717691E-1,5.412603E-2,8.549094E-2,2.8023422E-1,2.2311944E-1,8.107361E-2,6.920599E-2,3.7958425E-1,3.8532344E-1,2.6548108E-1,1.0506523E-1,4.3490303E-1,-1.3498184E-1,-1.2474795E-1,-1.2492477E-1,-9.566242E-2,-1.3229373E-1,-8.664198E-2,-5.2735545E-3,-7.7568E-2,-1.2428272E-1,-8.5559346E-2,2.693198E-2,-6.064734E-2,7.1379654E-2,7.3937736E-3,-8.847873E-2,-5.1513608E-3,-8.690415E-2,-2.5591895E-2,6.766718E-2,-3.7570607E-2,5.405269E-2,-2.923433E-2,-2.118032E-2,1.0907884E-1,3.7896954E-2,9.8030515E-2,-1.2960762E-3,5.886767E-2,1.09112E-1,6.4342506E-2,1.1577673E-1,1.3271685E-1],"split_indices":[0,0,1,1,1,1,2,0,0,1,8,0,0,6,0,1,1,4,6,1,6,6,1,1,6,6,2,2,1,6,2,0,0,0,0,0,0,0,0,0,0,0,0,0,0,0,0,0,0,0,0,0,0,0,0,0,0,0,0,0,0,0,0],"split_type":[0,0,0,0,0,0,0,0,0,0,0,0,0,0,0,0,0,0,0,0,0,0,0,0,0,0,0,0,0,0,0,0,0,0,0,0,0,0,0,0,0,0,0,0,0,0,0,0,0,0,0,0,0,0,0,0,0,0,0,0,0,0,0],"sum_hessian":[1.1819187E4,6.0226875E3,5.7964995E3,4.2307144E3,1.7919729E3,9.6843774E2,4.8280615E3,3.484249E3,7.464656E2,1.0940659E3,6.97907E2,4.183878E2,5.500499E2,6.996637E2,4.128398E3,2.5873076E3,8.969414E2,3.9563504E2,3.5083054E2,5.870479E2,5.0701804E2,5.5531726E2,1.4258975E2,3.5380603E2,6.458177E1,3.932225E2,1.5682745E2,3.8991418E2,3.097495E2,9.697835E2,3.1586143E3,1.8326124E3,7.5469507E2,4.6524567E2,4.3169574E2,1.6908647E2,2.2654857E2,1.4707002E2,2.0376051E2,1.3932666E2,4.4772125E2,1.4031004E2,3.6670798E2,3.3247183E2,2.2284541E2,7.497973E1,6.761002E1,1.4164215E2,2.1216388E2,4.866893E1,1.591284E1,2.3083365E2,1.6238884E2,1.5822296E1,1.4100516E2,9.935003E1,2.9056415E2,1.5047426E2,1.5927524E2,7.4817786E2,2.2160568E2,5.2197675E2,2.6366377E3],"tree_param":{"num_deleted":"0","num_feature":"10","num_nodes":"63","size_leaf_vector":"1"}},{"base_weights":[-1.6292157E-4,-9.4779533E-1,8.300547E-1,-1.1810111E0,-4.9070254E-1,4.8521336E-2,1.058827E0,-1.262373E0,-9.52988E-1,-9.556959E-1,-1.7151026E-1,-3.8214207E-1,3.6300093E-1,6.3122326E-1,1.1895417E0,-1.302765E-1,-1.1892729E0,-1.1058075E0,-7.3571545E-1,-1.1688783E0,-7.6678777E-1,3.6398125E-1,-3.5171717E-1,-6.352337E-1,-4.0801957E-2,6.839136E-1,-9.5938385E-2,3.5587308E-1,9.722649E-1,8.7773585E-1,1.2527486E0,-9.186875E-2,-1.22711115E-1,-1.0227249E-1,-1.2690921E-1,-5.315712E-2,-1.0782256E-1,-4.957767E-2,-1.1996994E-1,-2.0376466E-2,-8.856056E-2,-3.06321E-3,8.388374E-2,-6.1573185E-2,-1.428767E-3,-3.4647185E-2,-8.747369E-2,1.4449476E-2,-5.779193E-2,8.983915E-2,2.3175305E-2,-6.316221E-2,2.4862995E-2,4.943615E-2,-1.9441323E-2,1.09319486E-1,6.4749055E-2,9.8410346E-2,3.4427386E-2,1.1700866E-1,1.2928544E-1],"categories":[],"categories_nodes":[],"categories_segments":[],"categories_sizes":[],"default_left":[0,0,0,0,0,0,0,0,0,0,0,0,0,0,0,0,0,0,0,0,0,0,0,0,0,0,0,0,0,0,0,0,0,0,0,0,0,0,0,0,0,0,0,0,0,0,0,0,0,0,0,0,0,0,0,0,0,0,0,0,0],"id":7,"left_children":[1,3,5,7,9,11,13,15,17,19,21,23,25,27,29,-1,31,33,35,37,39,41,43,45,47,49,51,53,55,57,59,-1,-1,-1,-1,-1,-1,-1,-1,-1,-1,-1,-1,-1,-1,-1,-1,-1,-1,-1,-1,-1,-1,-1,-1,-1,-1,-1,-1,-1,-1],"loss_changes":[8.914694E3,5.6349023E2,1.0798159E3,6.378711E1,2.6541928E2,1.8550604E2,2.6039062E2,6.064453E0,2.9909851E1,2.8426636E1,1.0263463E2,4.9918488E1,1.166458E2,1.0257172E2,6.9398926E1,0E0,8.386841E0,6.0445557E0,2.6351395E1,6.462372E0,2.583899E1,5.0236862E1,7.084111E1,2.2651443E1,2.4688076E1,4.497902E1,6.0441967E1,4.6427803E1,1.8497772E1,3.4061554E1,8.339355E0,0E0,0E0,0E0,0E0,0E0,0E0,0E0,0E0,0E0,0E0,0E0,0E0,0E0,0E0,0E0,0E0,0E0,0E0,0E0,0E0,0E0,0E0,0E0,0E0,0E0,0E0,0E0,0E0,0E0,0E0],"parents":[2147483647,0,0,1,1,2,2,3,3,4,4,5,5,6,6,7,7,8,8,9,9,10,10,11,11,12,12,13,13,14,14,16,16,17,17,18,18,19,19,20,20,21,21,22,22,23,23,24,24,25,25,26,26,27,27,28,28,29,29,30,30],"right_children":[2,4,6,8,10,12,14,16,18,20,22,24,26,28,30,-1,32,34,36,38,40,42,44,46,48,50,52,54,56,58,60,-1,-1,-1,-1,-1,-1,-1,-1,-1,-1,-1,-1,-1,-1,-1,-1,-1,-1,-1,-1,-1,-1,-1,-1,-1,-1,-1,-1,-1,-1],"split_conditions":[5.8641974E-2,2.3841166E-1,2.4909371E-1,3.5714287E-2,3.7037037E-2,2.3501249E-1,4.247154E-1,2.2210887E-1,2.2757167E-1,2.4691358E-2,5.7313345E-2,8.680555E-2,2E-1,1.04166664E-1,8.680555E-2,-1.302765E-1,3.890202E-2,6.694649E-2,6.8871036E-2,3.4302346E-2,5.243486E-2,2.518628E-1,2.6014197E-1,5.784315E-2,7.999746E-2,7.158321E-2,7.8282826E-2,4.5454547E-2,9.4429195E-2,9.090909E-2,1.3425925E-1,-9.186875E-2,-1.22711115E-1,-1.0227249E-1,-1.2690921E-1,-5.315712E-2,-1.0782256E-1,-4.957767E-2,-1.1996994E-1,-2.0376466E-2,-8.856056E-2,-3.06321E-3,8.388374E-2,-6.1573185E-2,-1.428767E-3,-3.4647185E-2,-8.747369E-2,1.4449476E-2,-5.779193E-2,8.983915E-2,2.3175305E-2,-6.316221E-2,2.4862995E-2,4.943615E-2,-1.9441323E-2,1.09319486E-1,6.4749055E-2,9.8410346E-2,3.4427386E-2,1.1700866E-1,1.2928544E-1],"split_indices":[0,1,1,0,0,1,2,1,1,0,6,0,9,0,0,0,6,3,3,6,6,1,1,6,6,6,0,8,6,8,0,0,0,0,0,0,0,0,0,0,0,0,0,0,0,0,0,0,0,0,0,0,0,0,0,0,0,0,0,0,0],"split_type":[0,0,0,0,0,0,0,0,0,0,0,0,0,0,0,0,0,0,0,0,0,0,0,0,0,0,0,0,0,0,0,0,0,0,0,0,0,0,0,0,0,0,0,0,0,0,0,0,0,0,0,0,0,0,0,0,0,0,0,0,0],"sum_hessian":[1.1329166E4,5.2904097E3,6.038756E3,3.5020347E3,1.7883752E3,1.3676827E3,4.671073E3,2.5777273E3,9.243072E2,7.2712256E2,1.0612527E3,5.77125E2,7.9055774E2,1.0949663E3,3.5761067E3,1.649475E3,9.282524E2,5.4023865E2,3.8406854E2,3.391758E2,3.8794672E2,2.6695782E2,7.9429486E2,3.3090765E2,2.4621733E2,4.649511E2,3.2560663E2,6.069614E2,4.880049E2,6.052475E2,2.9708594E3,1.1698191E2,8.1127045E2,3.6286734E2,1.7737132E2,2.4223985E2,1.418287E2,1.5598818E1,3.23577E2,6.8076836E1,3.1986987E2,1.463085E2,1.20649315E2,4.4516223E2,3.4913266E2,1.5113518E2,1.7977249E2,1.8360692E2,6.261041E1,3.1469278E2,1.5025832E2,1.2713027E2,1.9847633E2,4.85004E2,1.2195744E2,3.538738E2,1.3413112E2,5.0392462E2,1.01322845E2,9.8037823E2,1.9904811E3],"tree_param":{"num_deleted":"0","num_feature":"10","num_nodes":"61","size_leaf_vector":"1"}},{"base_weights":[-1.9419006E-4,-8.209695E-1,8.5555226E-1,-1.0759505E0,-2.6216382E-1,2.2059338E-1,1.0686849E0,-1.2018282E0,-7.8865576E-1,-7.737839E-1,3.84201E-2,-2.2815737E-1,4.9541613E-1,6.033423E-1,1.1530906E0,-1.2409121E0,-1.0703971E0,-1.1242158E0,-6.2077415E-1,-6.22667E-1,-1.0120212E0,4.2540944E-1,-2.0411734E-1,-3.454439E-1,4.8779854E-1,7.762014E-1,9.7292714E-2,1.2486292E-1,7.491392E-1,9.5305526E-1,1.2211722E0,-1.264549E-1,-1.182189E-1,-1.16029516E-1,-9.192946E-2,-4.7110822E-2,-1.1568244E-1,7.3971874E-3,-7.178632E-2,-9.3032904E-2,-3.5772942E-2,-9.238207E-2,-1.2287321E-1,-1.0177424E-2,6.541652E-2,-5.2533414E-2,1.8047389E-2,-7.622736E-2,-1.4510107E-2,7.384206E-2,-2.6542077E-2,-5.815329E-3,8.575616E-2,-3.911955E-2,4.3158084E-2,-1.5272853E-2,6.200977E-2,9.794289E-2,4.762539E-2,1.0396659E-1,5.4051436E-2,1.07527636E-1,1.2436459E-1],"categories":[],"categories_nodes":[],"categories_segments":[],"categories_sizes":[],"default_left":[0,0,0,0,0,0,0,0,0,0,0,0,0,0,0,0,0,0,0,0,0,0,0,0,0,0,0,0,0,0,0,0,0,0,0,0,0,0,0,0,0,0,0,0,0,0,0,0,0,0,0,0,0,0,0,0,0,0,0,0,0,0,0],"id":8,"left_children":[1,3,5,7,9,11,13,15,17,19,21,23,25,27,29,31,33,35,37,39,41,43,45,47,49,51,53,55,57,59,61,-1,-1,-1,-1,-1,-1,-1,-1,-1,-1,-1,-1,-1,-1,-1,-1,-1,-1,-1,-1,-1,-1,-1,-1,-1,-1,-1,-1,-1,-1,-1,-1],"loss_changes":[7.617568E3,7.8848975E2,7.183159E2,1.3651123E2,2.6697632E2,1.6482956E2,1.5543213E2,1.2238525E1,6.4701965E1,2.2499329E1,1.02805534E2,4.2823463E1,9.255606E1,4.26279E1,4.4644043E1,1.3217773E0,7.25531E0,7.6734314E0,5.2397766E1,3.1921524E1,3.600418E0,5.0953262E1,8.3288445E1,3.6387E1,1.37717285E1,3.302664E1,5.6319065E1,1.9921461E1,2.9017792E1,3.0118164E1,6.8791504E0,0E0,0E0,0E0,0E0,0E0,0E0,0E0,0E0,0E0,0E0,0E0,0E0,0E0,0E0,0E0,0E0,0E0,0E0,0E0,0E0,0E0,0E0,0E0,0E0,0E0,0E0,0E0,0E0,0E0,0E0,0E0,0E0],"parents":[2147483647,0,0,1,1,2,2,3,3,4,4,5,5,6,6,7,7,8,8,9,9,10,10,11,11,12,12,13,13,14,14,15,15,16,16,17,17,18,18,19,19,20,20,21,21,22,22,23,23,24,24,25,25,26,26,27,27,28,28,29,29,30,30],"right_children":[2,4,6,8,10,12,14,16,18,20,22,24,26,28,30,32,34,36,38,40,42,44,46,48,50,52,54,56,58,60,62,-1,-1,-1,-1,-1,-1,-1,-1,-1,-1,-1,-1,-1,-1,-1,-1,-1,-1,-1,-1,-1,-1,-1,-1,-1,-1,-1,-1,-1,-1,-1,-1],"split_conditions":[6.5656565E-2,4.292929E-2,2.5263378E-1,2.353456E-1,2.3876609E-1,2.3605399E-1,4.162865E-1,3.0092593E-2,2.4691358E-2,6.771583E-2,2E-1,1.5555556E-1,2E-1,3.865596E-1,1.04166664E-1,2.2244316E-1,2.2583085E-1,3.4302346E-2,4.5394707E-2,2.2513992E-1,6.8129584E-2,4.0238947E-1,2.6379E-1,2.2311944E-1,8.107361E-2,3.7885138E-1,8.680555E-2,1.06481485E-1,8.0708325E-2,9.090909E-2,4.3490303E-1,-1.264549E-1,-1.182189E-1,-1.16029516E-1,-9.192946E-2,-4.7110822E-2,-1.1568244E-1,7.3971874E-3,-7.178632E-2,-9.3032904E-2,-3.5772942E-2,-9.238207E-2,-1.2287321E-1,-1.0177424E-2,6.541652E-2,-5.2533414E-2,1.8047389E-2,-7.622736E-2,-1.4510107E-2,7.384206E-2,-2.6542077E-2,-5.815329E-3,8.575616E-2,-3.911955E-2,4.3158084E-2,-1.5272853E-2,6.200977E-2,9.794289E-2,4.762539E-2,1.0396659E-1,5.4051436E-2,1.07527636E-1,1.2436459E-1],"split_indices":[0,0,1,1,1,1,2,0,0,6,9,0,9,2,0,1,1,6,6,1,3,2,1,1,6,2,0,0,6,8,2,0,0,0,0,0,0,0,0,0,0,0,0,0,0,0,0,0,0,0,0,0,0,0,0,0,0,0,0,0,0,0,0],"split_type":[0,0,0,0,0,0,0,0,0,0,0,0,0,0,0,0,0,0,0,0,0,0,0,0,0,0,0,0,0,0,0,0,0,0,0,0,0,0,0,0,0,0,0,0,0,0,0,0,0,0,0,0,0,0,0,0,0,0,0,0,0,0,0],"sum_hessian":[1.0843435E4,5.534831E3,5.308603E3,3.799986E3,1.7348453E3,1.3346088E3,3.9739941E3,2.6400632E3,1.1599226E3,6.414563E2,1.093389E3,5.069665E2,8.276423E2,6.113989E2,3.3625952E3,2.028426E3,6.1163727E2,3.848973E2,7.750253E2,3.947041E2,2.4675218E2,4.209589E2,6.724301E2,4.3605096E2,7.091553E1,4.8478638E2,3.4285593E2,1.4322299E2,4.681759E2,8.5765564E2,2.5049397E3,1.4316377E3,5.967884E2,3.7929678E2,2.3234044E2,1.9037958E1,3.6585934E2,9.505719E1,6.7996814E2,1.8146463E2,2.1323949E2,1.7911578E2,6.763639E1,1.2755486E2,2.9340402E2,3.6620438E2,3.0622574E2,1.4063776E2,2.954132E2,5.322529E1,1.7690243E1,4.3098022E1,4.4168835E2,1.3923074E2,2.0362518E2,9.222192E1,5.1001083E1,2.5250015E2,2.1567575E2,7.0758264E2,1.5007297E2,3.4087576E2,2.164064E3],"tree_param":{"num_deleted":"0","num_feature":"10","num_nodes":"63","size_leaf_vector":"1"}},{"base_weights":[-2.0743124E-4,-8.492208E-1,7.381649E-1,-1.0991819E0,-4.381705E-1,9.222523E-2,9.8047143E-1,-1.180451E0,-8.729845E-1,-8.834261E-1,-1.6405997E-1,-1.8117295E-1,5.26261E-1,5.972037E-1,1.1167934E0,-1.2151927E0,-1.0760019E0,-1.0783408E0,-7.276064E-1,-3.8294303E-1,-9.544402E-1,1.8356168E-1,-3.8819245E-1,5.7215042E-2,-5.6462884E-1,8.454684E-2,7.7665037E-1,3.4840524E-1,8.969278E-1,7.4172854E-1,1.1672108E0,-1.149405E-1,-1.2289696E-1,-9.644143E-2,-1.19632296E-1,-9.966423E-2,-1.2503152E-1,-5.016569E-2,-9.948364E-2,-8.868017E-2,6.3095107E-3,-1.059128E-1,-6.939167E-2,3.6698207E-2,-4.699968E-2,-7.202526E-2,-1.4331228E-2,-6.4988665E-2,2.4017418E-2,-4.6261232E-2,-1.1213376E-1,-5.251897E-3,7.328715E-2,8.81671E-3,8.627818E-2,6.9915466E-2,1.0182663E-2,7.131666E-2,1.0710657E-1,1.2732591E-2,8.785306E-2,1.0749351E-1,1.219754E-1],"categories":[],"categories_nodes":[],"categories_segments":[],"categories_sizes":[],"default_left":[0,0,0,0,0,0,0,0,0,0,0,0,0,0,0,0,0,0,0,0,0,0,0,0,0,0,0,0,0,0,0,0,0,0,0,0,0,0,0,0,0,0,0,0,0,0,0,0,0,0,0,0,0,0,0,0,0,0,0,0,0,0,0],"id":9,"left_children":[1,3,5,7,9,11,13,15,17,19,21,23,25,27,29,31,33,35,37,39,41,43,45,47,49,51,53,55,57,59,61,-1,-1,-1,-1,-1,-1,-1,-1,-1,-1,-1,-1,-1,-1,-1,-1,-1,-1,-1,-1,-1,-1,-1,-1,-1,-1,-1,-1,-1,-1,-1,-1],"loss_changes":[6.5007695E3,4.951228E2,8.679983E2,5.4096924E1,2.2267911E2,1.7976576E2,2.1006128E2,6.6882324E0,2.2994263E1,2.435138E1,8.821057E1,8.5017334E1,6.468025E1,7.875723E1,5.537036E1,7.885742E-2,6.347351E0,3.3632812E0,2.7845123E1,1.9852283E1,1.5857117E1,5.341395E1,5.5850456E1,7.444089E1,1.9728058E1,1.89583E1,2.2072128E1,5.0179787E1,1.4605896E1,2.9737885E1,1.1390625E1,0E0,0E0,0E0,0E0,0E0,0E0,0E0,0E0,0E0,0E0,0E0,0E0,0E0,0E0,0E0,0E0,0E0,0E0,0E0,0E0,0E0,0E0,0E0,0E0,0E0,0E0,0E0,0E0,0E0,0E0,0E0,0E0],"parents":[2147483647,0,0,1,1,2,2,3,3,4,4,5,5,6,6,7,7,8,8,9,9,10,10,11,11,12,12,13,13,14,14,15,15,16,16,17,17,18,18,19,19,20,20,21,21,22,22,23,23,24,24,25,25,26,26,27,27,28,28,29,29,30,30],"right_children":[2,4,6,8,10,12,14,16,18,20,22,24,26,28,30,32,34,36,38,40,42,44,46,48,50,52,54,56,58,60,62,-1,-1,-1,-1,-1,-1,-1,-1,-1,-1,-1,-1,-1,-1,-1,-1,-1,-1,-1,-1,-1,-1,-1,-1,-1,-1,-1,-1,-1,-1,-1,-1],"split_conditions":[5.8641974E-2,2.3679197E-1,2.518628E-1,3.5714287E-2,3.5353534E-2,9.920635E-2,4.2843032E-1,2.25482E-1,2.2244316E-1,4.505989E-2,2E-1,7.096189E-2,2.364115E-1,1.04166664E-1,7.936508E-2,3.6657208E-1,7.145796E-2,4.0790948E-1,6.503819E-2,2.2727273E-2,3.0092593E-2,8.433806E-2,2.538706E-1,2.2513992E-1,1.156323E-1,2E-1,3.7958425E-1,7.218897E-2,1.5E-1,2.810259E-1,1.3425925E-1,-1.149405E-1,-1.2289696E-1,-9.644143E-2,-1.19632296E-1,-9.966423E-2,-1.2503152E-1,-5.016569E-2,-9.948364E-2,-8.868017E-2,6.3095107E-3,-1.059128E-1,-6.939167E-2,3.6698207E-2,-4.699968E-2,-7.202526E-2,-1.4331228E-2,-6.4988665E-2,2.4017418E-2,-4.6261232E-2,-1.1213376E-1,-5.251897E-3,7.328715E-2,8.81671E-3,8.627818E-2,6.9915466E-2,1.0182663E-2,7.131666E-2,1.0710657E-1,1.2732591E-2,8.785306E-2,1.0749351E-1,1.219754E-1],"split_indices":[0,1,1,0,0,0,2,1,1,6,9,6,1,0,0,2,3,2,3,0,0,3,1,1,6,0,2,6,0,4,0,0,0,0,0,0,0,0,0,0,0,0,0,0,0,0,0,0,0,0,0,0,0,0,0,0,0,0,0,0,0,0,0],"split_type":[0,0,0,0,0,0,0,0,0,0,0,0,0,0,0,0,0,0,0,0,0,0,0,0,0,0,0,0,0,0,0,0,0,0,0,0,0,0,0,0,0,0,0,0,0,0,0,0,0,0,0,0,0,0,0,0,0,0,0,0,0,0,0],"sum_hessian":[1.0367906E4,4.8225605E3,5.5453457E3,2.997871E3,1.8246896E3,1.513103E3,4.0322424E3,2.2023748E3,7.9549646E2,6.94441E2,1.1302487E3,9.2869965E2,5.844033E2,1.0593298E3,2.9729126E3,1.6446873E3,5.5768744E2,3.2707034E2,4.6842615E2,8.70854E1,6.073555E2,4.4313803E2,6.871106E2,5.732011E2,3.5549857E2,2.119095E2,3.724938E2,5.800214E2,4.7930844E2,3.541364E2,2.6187761E3,2.9940308E2,1.3452842E3,2.9402213E2,2.636653E2,2.2633995E2,1.0073038E2,2.5537636E2,2.1304977E2,4.042823E1,4.6657173E1,4.3107043E2,1.7628513E2,3.463686E2,9.676945E1,2.9081757E2,3.96293E2,1.17301476E2,4.5589963E2,3.0199008E2,5.3508495E1,1.756858E2,3.622369E1,4.1643555E1,3.3085025E2,2.3867673E2,3.413447E2,2.3568954E2,2.436189E2,6.484344E1,2.8929297E2,9.5792834E2,1.6608479E3],"tree_param":{"num_deleted":"0","num_feature":"10","num_nodes":"63","size_leaf_vector":"1"}},{"base_weights":[-2.5634916E-4,-6.8842626E-1,8.185679E-1,-9.484473E-1,-9.808148E-2,2.5600734E-1,1.0072861E0,-1.1125398E0,-6.3688284E-1,-3.731112E-1,3.494064E-1,-1.3036086E-1,4.851857E-1,2.536787E-1,1.0563364E0,-1.1693889E0,-9.6545386E-1,-9.3341506E-1,-4.3668905E-1,-7.213461E-1,-1.9292523E-1,5.9973806E-1,-4.6546064E-2,-7.139761E-3,-7.471308E-1,7.143096E-1,1.00942835E-1,4.3689248E-1,-1.9556604E-1,8.826504E-1,1.1466594E0,-1.1972149E-1,-1.1015379E-1,-1.11324325E-1,-8.569857E-2,-6.607345E-2,-1.0731532E-1,-7.787717E-3,-6.477054E-2,-5.408391E-2,-9.6525565E-2,6.2066833E-3,-6.1293572E-2,-1.141877E-2,7.0169754E-2,1.5919184E-2,-5.209737E-2,2.4155607E-2,-3.4840766E-2,-1.3803074E-1,-5.2057054E-2,7.6941274E-2,-3.8999144E-2,-1.4847479E-2,6.495679E-2,1.5444823E-2,6.860635E-2,-6.0349543E-2,4.976205E-2,9.3395784E-2,1.8917838E-2,9.78228E-2,1.1845449E-1],"categories":[],"categories_nodes":[],"categories_segments":[],"categories_sizes":[],"default_left":[0,0,0,0,0,0,0,0,0,0,0,0,0,0,0,0,0,0,0,0,0,0,0,0,0,0,0,0,0,0,0,0,0,0,0,0,0,0,0,0,0,0,0,0,0,0,0,0,0,0,0,0,0,0,0,0,0,0,0,0,0,0,0],"id":10,"left_children":[1,3,5,7,9,11,13,15,17,19,21,23,25,27,29,31,33,35,37,39,41,43,45,47,49,51,53,55,57,59,61,-1,-1,-1,-1,-1,-1,-1,-1,-1,-1,-1,-1,-1,-1,-1,-1,-1,-1,-1,-1,-1,-1,-1,-1,-1,-1,-1,-1,-1,-1,-1,-1],"loss_changes":[5.5854165E3,8.266345E2,4.802898E2,1.9044019E2,2.0294812E2,1.00861465E2,1.2500708E2,1.9337646E1,7.630011E1,6.3934097E1,6.2256874E1,3.2265167E1,6.2852875E1,1.7240078E1,4.890039E1,2.005371E0,1.0075623E1,1.9100952E1,5.849742E1,1.4792053E1,7.22556E1,2.8083817E1,2.3909658E1,3.0206959E1,9.423031E0,2.753563E1,3.6790024E1,1.0334694E1,1.7568321E1,3.870697E1,1.2176514E1,0E0,0E0,0E0,0E0,0E0,0E0,0E0,0E0,0E0,0E0,0E0,0E0,0E0,0E0,0E0,0E0,0E0,0E0,0E0,0E0,0E0,0E0,0E0,0E0,0E0,0E0,0E0,0E0,0E0,0E0,0E0,0E0],"parents":[2147483647,0,0,1,1,2,2,3,3,4,4,5,5,6,6,7,7,8,8,9,9,10,10,11,11,12,12,13,13,14,14,15,15,16,16,17,17,18,18,19,19,20,20,21,21,22,22,23,23,24,24,25,25,26,26,27,27,28,28,29,29,30,30],"right_children":[2,4,6,8,10,12,14,16,18,20,22,24,26,28,30,32,34,36,38,40,42,44,46,48,50,52,54,56,58,60,62,-1,-1,-1,-1,-1,-1,-1,-1,-1,-1,-1,-1,-1,-1,-1,-1,-1,-1,-1,-1,-1,-1,-1,-1,-1,-1,-1,-1,-1,-1,-1,-1],"split_conditions":[7.1428575E-2,4.761905E-2,2.5263378E-1,2.353456E-1,2.5554082E-1,2.3605399E-1,3.95685E-1,3.0092593E-2,3.0092593E-2,2.3151565E-1,9.234665E-2,7.07599E-2,7.158321E-2,9.090909E-2,1.1805555E-1,2.2244316E-1,2.2102033E-1,6.040127E-2,2E-1,6.1647456E-2,7.433781E-2,3.900722E-1,4.5454547E-2,6.601462E-2,2.2311944E-1,4.5454547E-2,1.2698413E-1,9.375E-2,1.2962963E-1,8.181379E-2,4.3447888E-1,-1.1972149E-1,-1.1015379E-1,-1.11324325E-1,-8.569857E-2,-6.607345E-2,-1.0731532E-1,-7.787717E-3,-6.477054E-2,-5.408391E-2,-9.6525565E-2,6.2066833E-3,-6.1293572E-2,-1.141877E-2,7.0169754E-2,1.5919184E-2,-5.209737E-2,2.4155607E-2,-3.4840766E-2,-1.3803074E-1,-5.2057054E-2,7.6941274E-2,-3.8999144E-2,-1.4847479E-2,6.495679E-2,1.5444823E-2,6.860635E-2,-6.0349543E-2,4.976205E-2,9.3395784E-2,1.8917838E-2,9.78228E-2,1.1845449E-1],"split_indices":[0,0,1,1,1,1,2,0,0,1,6,3,6,8,0,1,1,6,9,3,6,2,8,6,1,8,0,0,0,5,2,0,0,0,0,0,0,0,0,0,0,0,0,0,0,0,0,0,0,0,0,0,0,0,0,0,0,0,0,0,0,0,0],"split_type":[0,0,0,0,0,0,0,0,0,0,0,0,0,0,0,0,0,0,0,0,0,0,0,0,0,0,0,0,0,0,0,0,0,0,0,0,0,0,0,0,0,0,0,0,0,0,0,0,0,0,0,0,0,0,0,0,0,0,0,0,0,0,0],"sum_hessian":[9.910181E3,5.3847764E3,4.5254043E3,3.7378225E3,1.6469539E3,1.1373552E3,3.3880488E3,2.4466619E3,1.2911604E3,1.02013605E3,6.268178E2,4.236171E2,7.1373816E2,2.0742047E2,3.1806284E3,1.7596149E3,6.870471E2,5.188958E2,7.722646E2,3.468316E2,6.7330444E2,3.8371088E2,2.431069E2,3.5392078E2,6.969631E1,4.465823E2,2.6715585E2,1.473534E2,6.0067078E1,1.0918444E3,2.0887842E3,1.2360587E3,5.2355615E2,2.86891E2,4.0015613E2,1.7775621E2,3.4113962E2,2.864887E2,4.857759E2,2.0117099E2,1.4566063E2,4.1948416E2,2.5382028E2,4.7936558E1,3.3577432E2,1.7003488E2,7.307202E1,2.0489651E2,1.4902426E2,1.7024597E1,5.2671715E1,4.256464E2,2.0935907E1,1.8416127E2,8.29946E1,6.982458E1,7.752882E1,3.789554E1,2.2171537E1,1.01630493E3,7.553939E1,3.8848474E2,1.7002993E3],"tree_param":{"num_deleted":"0","num_feature":"10","num_nodes":"63","size_leaf_vector":"1"}},{"base_weights":[-2.8265125E-4,-6.487002E-1,7.762824E-1,-1.0046383E0,-2.392304E-1,2.4638131E-1,9.713675E-1,-1.1118263E0,-7.4830616E-1,-5.1696235E-1,1.8426068E-1,-1.1834216E-1,4.5490336E-1,6.061123E-1,1.0775527E0,-1.1621497E0,-1.012155E0,-9.938578E-1,-5.8038855E-1,-8.3418E-1,-3.5624534E-1,4.756117E-1,-1.4835264E-1,-5.057457E-1,5.8040403E-2,7.0344275E-1,1.1308232E-1,8.803131E-1,3.7670863E-1,9.277186E-1,1.144417E0,-1.05653845E-1,-1.1717109E-1,-8.724016E-2,-1.12803735E-1,-3.1120796E-2,-1.031295E-1,4.2233258E-3,-6.673788E-2,-7.211562E-2,-1.0436467E-1,-7.4602584E-3,-6.771334E-2,8.4040746E-2,2.5750145E-2,-5.6698155E-2,8.687148E-3,1.5522967E-1,-5.872947E-2,6.85015E-2,-6.5802075E-3,7.606175E-2,-3.4136623E-2,-3.0065585E-2,3.2490987E-2,5.008896E-2,9.951548E-2,2.1309372E-2,8.143761E-2,9.823658E-2,2.5111256E-2,9.662294E-2,1.15685835E-1],"categories":[],"categories_nodes":[],"categories_segments":[],"categories_sizes":[],"default_left":[0,0,0,0,0,0,0,0,0,0,0,0,0,0,0,0,0,0,0,0,0,0,0,0,0,0,0,0,0,0,0,0,0,0,0,0,0,0,0,0,0,0,0,0,0,0,0,0,0,0,0,0,0,0,0,0,0,0,0,0,0,0,0],"id":11,"left_children":[1,3,5,7,9,11,13,15,17,19,21,23,25,27,29,31,33,35,37,39,41,43,45,47,49,51,53,55,57,59,61,-1,-1,-1,-1,-1,-1,-1,-1,-1,-1,-1,-1,-1,-1,-1,-1,-1,-1,-1,-1,-1,-1,-1,-1,-1,-1,-1,-1,-1,-1,-1,-1],"loss_changes":[4.7702637E3,7.522041E2,4.4539014E2,7.504468E1,2.826269E2,8.83753E1,1.2153638E2,8.580322E0,3.3124115E1,7.367749E1,9.234027E1,2.894921E1,6.2710205E1,4.444757E1,2.337915E1,6.0424805E-2,9.710693E0,8.126312E0,2.6448837E1,1.0781342E1,8.714435E1,4.0186455E1,4.390382E1,2.315134E1,2.2695858E1,2.5811584E1,2.7471848E1,1.3598923E1,2.7707405E1,2.7781433E1,2.6123047E0,0E0,0E0,0E0,0E0,0E0,0E0,0E0,0E0,0E0,0E0,0E0,0E0,0E0,0E0,0E0,0E0,0E0,0E0,0E0,0E0,0E0,0E0,0E0,0E0,0E0,0E0,0E0,0E0,0E0,0E0,0E0,0E0],"parents":[2147483647,0,0,1,1,2,2,3,3,4,4,5,5,6,6,7,7,8,8,9,9,10,10,11,11,12,12,13,13,14,14,15,15,16,16,17,17,18,18,19,19,20,20,21,21,22,22,23,23,24,24,25,25,26,26,27,27,28,28,29,29,30,30],"right_children":[2,4,6,8,10,12,14,16,18,20,22,24,26,28,30,32,34,36,38,40,42,44,46,48,50,52,54,56,58,60,62,-1,-1,-1,-1,-1,-1,-1,-1,-1,-1,-1,-1,-1,-1,-1,-1,-1,-1,-1,-1,-1,-1,-1,-1,-1,-1,-1,-1,-1,-1,-1,-1],"split_conditions":[7.1428575E-2,3.787879E-2,2.5344682E-1,2.3501249E-1,2.518628E-1,2.3605399E-1,4.2663285E-1,2.2210887E-1,2.4691358E-2,2.2833928E-1,8.339873E-2,2.2311944E-1,2E-1,7.499072E-2,1.1805555E-1,3.51627E-1,6.762136E-2,3.4302346E-2,4.4711158E-2,6.503819E-2,2E-1,2E-1,2.6631492E-1,1.9541903E-1,4.0493123E-2,8.741614E-2,8.680555E-2,3.9470106E-1,1.4583333E-1,8.736373E-2,4.3447888E-1,-1.05653845E-1,-1.1717109E-1,-8.724016E-2,-1.12803735E-1,-3.1120796E-2,-1.031295E-1,4.2233258E-3,-6.673788E-2,-7.211562E-2,-1.0436467E-1,-7.4602584E-3,-6.771334E-2,8.4040746E-2,2.5750145E-2,-5.6698155E-2,8.687148E-3,1.5522967E-1,-5.872947E-2,6.85015E-2,-6.5802075E-3,7.606175E-2,-3.4136623E-2,-3.0065585E-2,3.2490987E-2,5.008896E-2,9.951548E-2,2.1309372E-2,8.143761E-2,9.823658E-2,2.5111256E-2,9.662294E-2,1.15685835E-1],"split_indices":[0,0,1,1,1,1,2,1,0,1,6,1,9,6,0,2,3,6,6,3,9,9,1,1,6,3,0,2,0,5,2,0,0,0,0,0,0,0,0,0,0,0,0,0,0,0,0,0,0,0,0,0,0,0,0,0,0,0,0,0,0,0,0],"split_type":[0,0,0,0,0,0,0,0,0,0,0,0,0,0,0,0,0,0,0,0,0,0,0,0,0,0,0,0,0,0,0,0,0,0,0,0,0,0,0,0,0,0,0,0,0,0,0,0,0,0,0,0,0,0,0,0,0,0,0,0,0,0,0],"sum_hessian":[9.471485E3,5.161714E3,4.309771E3,2.7605813E3,2.4011326E3,1.1603163E3,3.1494548E3,1.9442399E3,8.1634125E2,1.4499877E3,9.5114496E2,4.222304E2,7.380858E2,7.108805E2,2.4385745E3,1.2848605E3,6.593794E2,3.2953384E2,4.8680743E2,4.8618408E2,9.638035E2,5.0679257E2,4.4435236E2,1.3151215E2,2.9071826E2,4.267421E2,3.1134375E2,3.2253027E2,3.8835022E2,7.5703534E2,1.6815391E3,1.1591975E2,1.1689408E3,3.0276938E2,3.5661005E2,1.7616543E1,3.119173E2,5.974005E1,4.2706738E2,3.1867596E2,1.675081E2,5.1394635E2,4.4985718E2,1.8856274E2,3.1822983E2,1.5934871E2,2.8500366E2,4.325094E0,1.2718704E2,4.72047E1,2.4351357E2,4.048591E2,2.1882978E1,1.0528446E2,2.0605928E2,7.618512E1,2.4634515E2,2.8375858E2,1.0459165E2,7.000432E2,5.6992123E1,1.14878944E2,1.5666602E3],"tree_param":{"num_deleted":"0","num_feature":"10","num_nodes":"63","size_leaf_vector":"1"}},{"base_weights":[-2.4574774E-4,-8.2655627E-1,5.4971963E-1,-1.0405492E0,-5.2070117E-1,6.776424E-2,8.6607605E-1,-1.1153231E0,-8.696871E-1,-8.224218E-1,-3.183508E-1,-1.5093133E-1,5.188929E-1,5.335298E-1,1.0311438E0,-1.14504054E-1,-1.0378884E0,-1.0252537E0,-7.5214916E-1,-1.0780072E0,-6.9464505E-1,1.3011493E-1,-4.8185116E-1,-1.2179515E-2,-6.471761E-1,9.416384E-2,6.9941634E-1,3.3516663E-1,8.2552963E-1,5.355992E-1,1.0757453E0,-7.039624E-2,-1.09274745E-1,-9.1068625E-2,-1.1205655E-1,-5.3317793E-2,-9.245723E-2,-9.464822E-2,-1.1395734E-1,-7.794678E-2,-1.1626196E-2,4.3950595E-2,-2.6390065E-2,-6.6170886E-2,-2.4161926E-2,-6.571525E-2,1.3265113E-2,-5.1887453E-2,-1.04019545E-1,-2.9323346E-3,6.8492405E-2,2.104684E-3,7.666406E-2,4.1665405E-2,-7.953171E-2,3.7156012E-2,9.5392734E-2,8.892781E-2,1.8150317E-2,9.483907E-2,1.13291435E-1],"categories":[],"categories_nodes":[],"categories_segments":[],"categories_sizes":[],"default_left":[0,0,0,0,0,0,0,0,0,0,0,0,0,0,0,0,0,0,0,0,0,0,0,0,0,0,0,0,0,0,0,0,0,0,0,0,0,0,0,0,0,0,0,0,0,0,0,0,0,0,0,0,0,0,0,0,0,0,0,0,0],"id":12,"left_children":[1,3,5,7,9,11,13,15,17,19,21,23,25,27,29,-1,31,33,35,37,39,41,43,45,47,49,51,53,55,57,59,-1,-1,-1,-1,-1,-1,-1,-1,-1,-1,-1,-1,-1,-1,-1,-1,-1,-1,-1,-1,-1,-1,-1,-1,-1,-1,-1,-1,-1,-1],"loss_changes":[4.115818E3,2.3633496E2,8.2902563E2,2.622168E1,9.0818054E1,2.1278365E2,1.7964893E2,2.2103271E0,1.1158539E1,1.8788055E1,6.56572E1,1.0002522E2,5.3922684E1,6.291751E1,4.788794E1,0E0,6.9300537E0,2.015564E0,1.3680267E1,5.213318E-1,1.9614258E1,2.9348104E1,2.8175018E1,1.062385E2,1.5466766E1,1.542535E1,2.2509995E1,6.033496E1,2.5331024E1,2.2763416E1,1.3564941E1,0E0,0E0,0E0,0E0,0E0,0E0,0E0,0E0,0E0,0E0,0E0,0E0,0E0,0E0,0E0,0E0,0E0,0E0,0E0,0E0,0E0,0E0,0E0,0E0,0E0,0E0,0E0,0E0,0E0,0E0],"parents":[2147483647,0,0,1,1,2,2,3,3,4,4,5,5,6,6,7,7,8,8,9,9,10,10,11,11,12,12,13,13,14,14,16,16,17,17,18,18,19,19,20,20,21,21,22,22,23,23,24,24,25,25,26,26,27,27,28,28,29,29,30,30],"right_children":[2,4,6,8,10,12,14,16,18,20,22,24,26,28,30,-1,32,34,36,38,40,42,44,46,48,50,52,54,56,58,60,-1,-1,-1,-1,-1,-1,-1,-1,-1,-1,-1,-1,-1,-1,-1,-1,-1,-1,-1,-1,-1,-1,-1,-1,-1,-1,-1,-1,-1,-1],"split_conditions":[5.0925925E-2,2.3381326E-1,2.5726974E-1,3.0092593E-2,3.2828283E-2,9.920635E-2,9.5679015E-2,2.2244316E-1,2.2102033E-1,3.1298664E-1,5.6252934E-2,8.589634E-2,2.364115E-1,4.4516698E-1,4.0918523E-1,-1.14504054E-1,3.890202E-2,3.877599E-1,5.8717936E-2,6.693618E-2,2.6259172E-1,7.2921805E-2,2.5640374E-1,2.25482E-1,1.20535314E-1,2E-1,3.7761864E-1,8.181379E-2,2.716339E-1,8.222479E-2,4.5025322E-1,-7.039624E-2,-1.09274745E-1,-9.1068625E-2,-1.1205655E-1,-5.3317793E-2,-9.245723E-2,-9.464822E-2,-1.1395734E-1,-7.794678E-2,-1.1626196E-2,4.3950595E-2,-2.6390065E-2,-6.6170886E-2,-2.4161926E-2,-6.571525E-2,1.3265113E-2,-5.1887453E-2,-1.04019545E-1,-2.9323346E-3,6.8492405E-2,2.104684E-3,7.666406E-2,4.1665405E-2,-7.953171E-2,3.7156012E-2,9.5392734E-2,8.892781E-2,1.8150317E-2,9.483907E-2,1.13291435E-1],"split_indices":[0,1,1,0,0,0,0,1,1,4,6,6,1,2,2,0,6,2,6,6,1,3,1,1,6,0,2,5,4,6,2,0,0,0,0,0,0,0,0,0,0,0,0,0,0,0,0,0,0,0,0,0,0,0,0,0,0,0,0,0,0],"split_type":[0,0,0,0,0,0,0,0,0,0,0,0,0,0,0,0,0,0,0,0,0,0,0,0,0,0,0,0,0,0,0,0,0,0,0,0,0,0,0,0,0,0,0,0,0,0,0,0,0,0,0,0,0,0,0,0,0,0,0,0,0],"sum_hessian":[9.054856E3,3.618156E3,5.4367E3,2.1273464E3,1.4908094E3,2.1549463E3,3.281754E3,1.4759172E3,6.5142926E2,5.972289E2,8.9358057E2,1.4518112E3,7.031352E2,1.0900221E3,2.191732E3,1.056624E3,4.1929324E2,2.7703665E2,3.7439258E2,1.9658096E2,4.006479E2,2.3879448E2,6.547861E2,1.1353795E3,3.164316E2,2.1017189E2,4.9296332E2,6.503619E2,4.396602E2,1.820526E2,2.0096792E3,6.1115623E1,3.5817764E2,1.306032E2,1.4643347E2,1.6673602E2,2.0765656E2,6.7899414E1,1.2868155E2,3.491026E2,5.1545296E1,1.3369685E2,1.0509762E2,3.7344186E2,2.8134424E2,2.0755212E2,9.278274E2,2.4030426E2,7.612736E1,1.7462105E2,3.555085E1,4.4564983E1,4.4839835E2,6.0722345E2,4.3138393E1,9.77928E1,3.418674E2,9.032379E1,9.172881E1,6.280868E2,1.3815924E3],"tree_param":{"num_deleted":"0","num_feature":"10","num_nodes":"61","size_leaf_vector":"1"}},{"base_weights":[-3.1649234E-4,-7.871557E-1,5.1603985E-1,-9.9890697E-1,-4.6667555E-1,9.486883E-2,8.5107356E-1,-1.0872976E0,-8.114592E-1,-7.980617E-1,-2.9490152E-1,-1.6444474E-1,4.388639E-1,4.0798977E-1,9.729411E-1,-1.1229487E-1,-1.0034654E0,-9.926434E-1,-6.940599E-1,1.1840089E-1,-8.415216E-1,-1.4607352E-1,-6.6330606E-1,4.2374182E-2,-4.4986647E-1,1.063448E-1,6.512433E-1,5.38484E-1,-1.8596922E-1,6.4114994E-1,1.0667491E0,-6.900995E-2,-1.0557488E-1,-8.741839E-2,-1.09272756E-1,-5.1701047E-2,-9.534082E-2,-1.130051E-1,5.6281675E-2,-9.815523E-2,-6.003061E-2,1.8876137E-2,-3.606823E-2,-9.608175E-2,-4.179026E-2,-6.3095145E-2,2.2324836E-2,-3.4814823E-2,-1.0558356E-1,-4.7349255E-3,5.2017927E-2,8.155986E-2,1.9518146E-2,-2.1155123E-2,6.272746E-2,-6.63883E-2,2.0990087E-2,7.8006096E-2,2.9343551E-2,1.0885667E-1,7.466741E-2],"categories":[],"categories_nodes":[],"categories_segments":[],"categories_sizes":[],"default_left":[0,0,0,0,0,0,0,0,0,0,0,0,0,0,0,0,0,0,0,0,0,0,0,0,0,0,0,0,0,0,0,0,0,0,0,0,0,0,0,0,0,0,0,0,0,0,0,0,0,0,0,0,0,0,0,0,0,0,0,0,0],"id":13,"left_children":[1,3,5,7,9,11,13,15,17,19,21,23,25,27,29,-1,31,33,35,37,39,41,43,45,47,49,51,53,55,57,59,-1,-1,-1,-1,-1,-1,-1,-1,-1,-1,-1,-1,-1,-1,-1,-1,-1,-1,-1,-1,-1,-1,-1,-1,-1,-1,-1,-1,-1,-1],"loss_changes":[3.520962E3,2.3255371E2,7.382471E2,3.3360596E1,7.763629E1,2.0696227E2,1.5695654E2,3.0617676E0,1.3481903E1,1.867752E1,4.9389885E1,7.812625E1,7.035066E1,4.8955887E1,7.042847E1,0E0,6.2767944E0,2.1227722E0,1.8222504E1,1.2839166E1,1.4456757E1,4.635543E1,1.8538918E1,9.3690475E1,3.3904694E1,2.4820572E1,4.5437775E1,3.4565994E1,2.1760803E1,2.4216354E1,1.161499E1,0E0,0E0,0E0,0E0,0E0,0E0,0E0,0E0,0E0,0E0,0E0,0E0,0E0,0E0,0E0,0E0,0E0,0E0,0E0,0E0,0E0,0E0,0E0,0E0,0E0,0E0,0E0,0E0,0E0,0E0],"parents":[2147483647,0,0,1,1,2,2,3,3,4,4,5,5,6,6,7,7,8,8,9,9,10,10,11,11,12,12,13,13,14,14,16,16,17,17,18,18,19,19,20,20,21,21,22,22,23,23,24,24,25,25,26,26,27,27,28,28,29,29,30,30],"right_children":[2,4,6,8,10,12,14,16,18,20,22,24,26,28,30,-1,32,34,36,38,40,42,44,46,48,50,52,54,56,58,60,-1,-1,-1,-1,-1,-1,-1,-1,-1,-1,-1,-1,-1,-1,-1,-1,-1,-1,-1,-1,-1,-1,-1,-1,-1,-1,-1,-1,-1,-1],"split_conditions":[5.0925925E-2,2.353456E-1,2.6014197E-1,3.0092593E-2,3.1746034E-2,8.730159E-2,7.87037E-2,2.2244316E-1,2.2102033E-1,3.3172026E-2,8.180535E-2,2E-1,2.410787E-1,6.105047E-2,4.3073818E-1,-1.1229487E-1,3.890202E-2,3.877599E-1,6.762136E-2,3.0803218E-1,3.9133972E-1,2E-1,2.5801E-1,2.2513992E-1,4.5454547E-2,1.5555556E-1,8.222479E-2,3.906157E-1,3.0273825E-1,9.090909E-2,9.521363E-2,-6.900995E-2,-1.0557488E-1,-8.741839E-2,-1.09272756E-1,-5.1701047E-2,-9.534082E-2,-1.130051E-1,5.6281675E-2,-9.815523E-2,-6.003061E-2,1.8876137E-2,-3.606823E-2,-9.608175E-2,-4.179026E-2,-6.3095145E-2,2.2324836E-2,-3.4814823E-2,-1.0558356E-1,-4.7349255E-3,5.2017927E-2,8.155986E-2,1.9518146E-2,-2.1155123E-2,6.272746E-2,-6.63883E-2,2.0990087E-2,7.8006096E-2,2.9343551E-2,1.0885667E-1,7.466741E-2],"split_indices":[0,1,1,0,0,0,0,1,1,6,3,9,1,5,2,0,6,2,3,4,4,9,1,1,8,0,6,2,1,8,5,0,0,0,0,0,0,0,0,0,0,0,0,0,0,0,0,0,0,0,0,0,0,0,0,0,0,0,0,0,0],"split_type":[0,0,0,0,0,0,0,0,0,0,0,0,0,0,0,0,0,0,0,0,0,0,0,0,0,0,0,0,0,0,0,0,0,0,0,0,0,0,0,0,0,0,0,0,0,0,0,0,0,0,0,0,0,0,0,0,0,0,0,0,0],"sum_hessian":[8.664144E3,3.432727E3,5.231416E3,2.0657224E3,1.3670045E3,2.3183281E3,2.9130881E3,1.400513E3,6.652095E2,4.654374E2,9.0156714E2,1.3221641E3,9.9616406E2,6.2932996E2,2.283758E3,9.7393475E2,4.265782E2,2.5862076E2,4.0658875E2,2.099433E1,4.4444308E2,6.431457E2,2.5842142E2,7.6713983E2,5.5502423E2,3.8884943E2,6.073147E2,5.160467E2,1.13283264E2,5.0509888E2,1.7786592E3,6.302579E1,3.635524E2,1.2289576E2,1.3572499E2,2.4341205E2,1.631767E2,5.1064696E0,1.5887859E1,2.792585E2,1.6518456E2,2.5125517E2,3.9189053E2,1.1549159E2,1.4292984E2,1.6191261E2,6.0522723E2,4.76597E2,7.842727E1,2.8418973E2,1.0465968E2,4.4585086E2,1.6146379E2,5.447776E1,4.6156894E2,5.1016552E1,6.226671E1,3.6002606E2,1.4507283E2,1.6629076E3,1.1575161E2],"tree_param":{"num_deleted":"0","num_feature":"10","num_nodes":"61","size_leaf_vector":"1"}},{"base_weights":[-3.89959E-4,-5.455386E-1,6.6547865E-1,-9.356152E-1,-2.1796006E-1,2.734018E-1,9.055705E-1,-1.0423774E0,-6.815416E-1,-5.694009E-1,2.1584906E-2,1.3283093E-1,7.2467405E-1,4.6930417E-1,9.960925E-1,-1.102048E0,-9.437012E-1,-1.8404998E-1,-7.645306E-1,-4.522059E-1,-9.2975634E-1,1.3770287E-1,-5.7962126E-1,2.288601E-1,-5.796613E-1,-8.828808E-3,8.076704E-1,7.676681E-2,6.0253966E-1,7.9110885E-1,1.0675389E0,-9.692749E-2,-1.11452356E-1,-7.9366416E-2,-1.06078684E-1,2.6844328E-2,-6.0173523E-2,-9.586646E-2,-6.0776778E-2,-9.139526E-2,-3.322044E-2,-8.3575584E-2,-1.1191453E-1,3.478472E-2,-1.5483662E-2,-8.9332335E-2,-1.3676663E-2,-1.3514458E-2,3.9476275E-2,-4.6083633E-2,-1.3798805E-1,5.4079473E-2,-6.7032784E-2,9.3185924E-2,4.8900574E-2,-4.236685E-3,1.1020253E-1,8.5063696E-2,4.0315367E-2,9.02074E-2,3.545976E-2,9.7017705E-2,1.1071469E-1],"categories":[],"categories_nodes":[],"categories_segments":[],"categories_sizes":[],"default_left":[0,0,0,0,0,0,0,0,0,0,0,0,0,0,0,0,0,0,0,0,0,0,0,0,0,0,0,0,0,0,0,0,0,0,0,0,0,0,0,0,0,0,0,0,0,0,0,0,0,0,0,0,0,0,0,0,0,0,0,0,0,0,0],"id":14,"left_children":[1,3,5,7,9,11,13,15,17,19,21,23,25,27,29,31,33,35,37,39,41,43,45,47,49,51,53,55,57,59,61,-1,-1,-1,-1,-1,-1,-1,-1,-1,-1,-1,-1,-1,-1,-1,-1,-1,-1,-1,-1,-1,-1,-1,-1,-1,-1,-1,-1,-1,-1,-1,-1],"loss_changes":[3.0128054E3,5.8293384E2,3.5145947E2,5.5785522E1,2.0894548E2,9.000873E1,9.102698E1,7.5839844E0,2.5420868E1,4.206436E1,1.0317764E2,7.43185E1,2.0531784E1,2.0873947E1,2.7242432E1,4.2175293E-1,8.976196E0,1.7139648E1,1.5555878E1,4.186685E1,3.4429169E0,7.619516E1,3.311605E1,5.7798073E1,1.1636215E1,1.3181997E1,1.1530823E1,1.2567636E1,1.4422699E1,2.3876495E1,4.398926E0,0E0,0E0,0E0,0E0,0E0,0E0,0E0,0E0,0E0,0E0,0E0,0E0,0E0,0E0,0E0,0E0,0E0,0E0,0E0,0E0,0E0,0E0,0E0,0E0,0E0,0E0,0E0,0E0,0E0,0E0,0E0,0E0],"parents":[2147483647,0,0,1,1,2,2,3,3,4,4,5,5,6,6,7,7,8,8,9,9,10,10,11,11,12,12,13,13,14,14,15,15,16,16,17,17,18,18,19,19,20,20,21,21,22,22,23,23,24,24,25,25,26,26,27,27,28,28,29,29,30,30],"right_children":[2,4,6,8,10,12,14,16,18,20,22,24,26,28,30,32,34,36,38,40,42,44,46,48,50,52,54,56,58,60,62,-1,-1,-1,-1,-1,-1,-1,-1,-1,-1,-1,-1,-1,-1,-1,-1,-1,-1,-1,-1,-1,-1,-1,-1,-1,-1,-1,-1,-1,-1,-1,-1],"split_conditions":[7.1428575E-2,3.5353534E-2,2.6014197E-1,2.3501249E-1,2.4068949E-1,1.5E-1,4.2051545E-1,2.2068547E-1,4.505989E-2,7.182959E-2,4.5454547E-2,1.00549534E-1,2.2719277E-1,3.9116782E-1,1.06481485E-1,3.51627E-1,6.7485295E-2,1.6270164E-1,2.4691358E-2,2.1717691E-1,2E-1,1.972038E-1,2.776191E-1,2.3605399E-1,7.839312E-2,3.8612902E-1,8.0708325E-2,1.875E-1,7.828157E-2,9.090909E-2,4.543702E-1,-9.692749E-2,-1.11452356E-1,-7.9366416E-2,-1.06078684E-1,2.6844328E-2,-6.0173523E-2,-9.586646E-2,-6.0776778E-2,-9.139526E-2,-3.322044E-2,-8.3575584E-2,-1.1191453E-1,3.478472E-2,-1.5483662E-2,-8.9332335E-2,-1.3676663E-2,-1.3514458E-2,3.9476275E-2,-4.6083633E-2,-1.3798805E-1,5.4079473E-2,-6.7032784E-2,9.3185924E-2,4.8900574E-2,-4.236685E-3,1.1020253E-1,8.5063696E-2,4.0315367E-2,9.02074E-2,3.545976E-2,9.7017705E-2,1.1071469E-1],"split_indices":[0,0,1,1,1,0,2,1,6,3,8,6,1,2,0,2,3,7,0,1,9,7,1,1,3,4,6,0,6,8,2,0,0,0,0,0,0,0,0,0,0,0,0,0,0,0,0,0,0,0,0,0,0,0,0,0,0,0,0,0,0,0,0],"split_type":[0,0,0,0,0,0,0,0,0,0,0,0,0,0,0,0,0,0,0,0,0,0,0,0,0,0,0,0,0,0,0,0,0,0,0,0,0,0,0,0,0,0,0,0,0,0,0,0,0,0,0,0,0,0,0,0,0,0,0,0,0,0,0],"sum_hessian":[8.2978E3,4.562581E3,3.7352185E3,2.0817737E3,2.4808074E3,1.4194141E3,2.3158044E3,1.4636449E3,6.181289E2,1.00499036E3,1.4758171E3,1.0832706E3,3.361434E2,3.990047E2,1.9167997E3,9.057554E2,5.5788947E2,8.883143E1,5.292975E2,7.6005853E2,2.4493185E2,1.2375631E3,2.3825404E2,9.5520734E2,1.2806332E2,3.42595E1,3.0188388E2,1.0151073E2,2.97494E2,4.9853784E2,1.4182618E3,8.4555115E1,8.2120026E2,2.4794435E2,3.0994513E2,4.281055E1,4.602088E1,2.341779E2,2.951196E2,1.5541812E2,6.046404E2,1.673052E2,7.762665E1,7.200963E2,5.1746674E2,1.3886789E2,9.938617E1,2.9911304E2,6.560943E2,1.12877914E2,1.5185414E1,1.8811745E1,1.5447754E1,2.1584235E2,8.604154E1,9.180212E1,9.708608E0,1.3109961E2,1.6639438E2,3.9664142E2,1.01896416E2,4.1749585E2,1.000766E3],"tree_param":{"num_deleted":"0","num_feature":"10","num_nodes":"63","size_leaf_vector":"1"}},{"base_weights":[-4.1230005E-4,-7.357435E-1,4.4504288E-1,-9.572537E-1,-4.4618267E-1,8.5677214E-2,7.9639465E-1,-1.0463837E0,-7.618268E-1,-8.645278E-1,-3.3183444E-1,-9.243485E-2,5.0066024E-1,5.2572536E-1,9.9468493E-1,-1.0849081E0,-9.498355E-1,-9.361776E-1,-6.377523E-1,-6.394559E-1,-9.9442136E-1,2.601182E-1,-4.2174166E-1,9.558145E-2,-3.874967E-1,1.5036696E-1,6.759856E-1,6.229339E-1,-2.2721829E-1,5.7040733E-1,1.0498234E0,-9.532814E-2,-1.0963672E-1,-5.740392E-2,-1.0154744E-1,-7.396993E-2,-1.0149395E-1,-1.0140278E-2,-7.2930835E-2,-3.3829357E-2,-8.783098E-2,-3.268935E-2,-1.03247E-1,4.244038E-2,-7.316181E-2,-6.272774E-2,-2.3902468E-2,-2.9630974E-2,2.992759E-2,-1.6401848E-2,-6.125697E-2,2.1665039E-2,-9.052897E-2,9.699828E-3,7.888989E-2,-2.820289E-3,7.1252815E-2,-5.995388E-2,4.0011868E-2,-5.3502847E-2,6.3225426E-2,1.06646895E-1,8.3191104E-2],"categories":[],"categories_nodes":[],"categories_segments":[],"categories_sizes":[],"default_left":[0,0,0,0,0,0,0,0,0,0,0,0,0,0,0,0,0,0,0,0,0,0,0,0,0,0,0,0,0,0,0,0,0,0,0,0,0,0,0,0,0,0,0,0,0,0,0,0,0,0,0,0,0,0,0,0,0,0,0,0,0,0,0],"id":15,"left_children":[1,3,5,7,9,11,13,15,17,19,21,23,25,27,29,31,33,35,37,39,41,43,45,47,49,51,53,55,57,59,61,-1,-1,-1,-1,-1,-1,-1,-1,-1,-1,-1,-1,-1,-1,-1,-1,-1,-1,-1,-1,-1,-1,-1,-1,-1,-1,-1,-1,-1,-1,-1,-1],"loss_changes":[2.6073657E3,1.9218396E2,6.258325E2,2.8823242E1,6.206488E1,1.8126125E2,1.3399658E2,3.3034668E0,1.1004944E1,7.525757E0,5.46744E1,9.525056E1,4.512639E1,7.786401E1,3.3216797E1,2.0043945E-1,7.8127747E0,2.6668549E0,1.5466949E1,7.2529755E0,4.11261E0,2.2436749E1,3.3290665E1,8.383439E1,3.3508514E1,1.7474419E1,3.1990112E1,5.490097E1,2.8770977E1,1.1853935E1,3.7486572E0,0E0,0E0,0E0,0E0,0E0,0E0,0E0,0E0,0E0,0E0,0E0,0E0,0E0,0E0,0E0,0E0,0E0,0E0,0E0,0E0,0E0,0E0,0E0,0E0,0E0,0E0,0E0,0E0,0E0,0E0,0E0,0E0],"parents":[2147483647,0,0,1,1,2,2,3,3,4,4,5,5,6,6,7,7,8,8,9,9,10,10,11,11,12,12,13,13,14,14,15,15,16,16,17,17,18,18,19,19,20,20,21,21,22,22,23,23,24,24,25,25,26,26,27,27,28,28,29,29,30,30],"right_children":[2,4,6,8,10,12,14,16,18,20,22,24,26,28,30,32,34,36,38,40,42,44,46,48,50,52,54,56,58,60,62,-1,-1,-1,-1,-1,-1,-1,-1,-1,-1,-1,-1,-1,-1,-1,-1,-1,-1,-1,-1,-1,-1,-1,-1,-1,-1,-1,-1,-1,-1,-1,-1],"split_conditions":[4.91453E-2,2.3381326E-1,2.621864E-1,3.0092593E-2,2.4691358E-2,1.04166664E-1,1.06481485E-1,2.2244316E-1,2.2102033E-1,6.040127E-2,4.5394707E-2,7.248101E-2,2.3990172E-1,8.181379E-2,4.194784E-1,3.51627E-1,3.890202E-2,3.7256268E-1,4.197694E-2,2E-1,3.6131015E-1,2.04121E-1,2.494954E-1,2.3458633E-1,2E-1,5.4836386E-1,3.9517796E-1,3.95685E-1,4.7422326E-1,2.0509954E-1,8.181379E-2,-9.532814E-2,-1.0963672E-1,-5.740392E-2,-1.0154744E-1,-7.396993E-2,-1.0149395E-1,-1.0140278E-2,-7.2930835E-2,-3.3829357E-2,-8.783098E-2,-3.268935E-2,-1.03247E-1,4.244038E-2,-7.316181E-2,-6.272774E-2,-2.3902468E-2,-2.9630974E-2,2.992759E-2,-1.6401848E-2,-6.125697E-2,2.1665039E-2,-9.052897E-2,9.699828E-3,7.888989E-2,-2.820289E-3,7.1252815E-2,-5.995388E-2,4.0011868E-2,-5.3502847E-2,6.3225426E-2,1.06646895E-1,8.3191104E-2],"split_indices":[0,1,1,0,0,0,0,1,1,6,6,6,1,5,2,2,6,2,6,9,2,7,1,1,9,4,2,2,2,4,5,0,0,0,0,0,0,0,0,0,0,0,0,0,0,0,0,0,0,0,0,0,0,0,0,0,0,0,0,0,0,0,0],"split_type":[0,0,0,0,0,0,0,0,0,0,0,0,0,0,0,0,0,0,0,0,0,0,0,0,0,0,0,0,0,0,0,0,0,0,0,0,0,0,0,0,0,0,0,0,0,0,0,0,0,0,0,0,0,0,0,0,0,0,0,0,0,0,0],"sum_hessian":[7.9580347E3,3.0019465E3,4.9560884E3,1.699526E3,1.3024205E3,2.4507173E3,2.505371E3,1.1642032E3,5.353227E2,2.7817E2,1.0242506E3,1.7152875E3,7.354297E2,1.0608905E3,1.4444807E3,8.248407E2,3.3936258E2,2.1984663E2,3.1547607E2,1.0395896E2,1.7421104E2,1.3480386E2,8.894467E2,1.0481024E3,6.6718506E2,2.4592949E2,4.8950015E2,9.397385E2,1.21151985E2,1.6743694E2,1.2770437E3,7.2799835E1,7.520409E2,5.191042E1,2.8745215E2,6.588422E1,1.5396242E2,4.630745E1,2.691686E2,4.7050716E1,5.690824E1,9.911649E0,1.642994E2,1.1613726E2,1.8666603E1,4.1744067E2,4.7200604E2,3.5830286E2,6.897996E2,3.35646E2,3.3153906E2,2.3214796E2,1.3781525E1,8.018636E1,4.093138E2,1.1374775E2,8.259908E2,7.605697E1,4.5095016E1,8.466053E0,1.5897089E2,1.1827994E3,9.4244255E1],"tree_param":{"num_deleted":"0","num_feature":"10","num_nodes":"63","size_leaf_vector":"1"}},{"base_weights":[-4.7201305E-4,-7.0003843E-1,4.1629213E-1,-9.640931E-1,-4.4925296E-1,1.01776004E-1,7.896432E-1,-1.0406185E0,-7.7363557E-1,-7.4432844E-1,-2.944718E-1,-1.2125355E-1,4.046143E-1,5.076327E-1,9.799131E-1,-1.0753115E-1,-9.3705404E-1,-9.992727E-1,-6.875654E-1,-3.2504496E-1,-8.367704E-1,-3.5825994E-2,-4.7629815E-1,7.9689175E-2,-3.7298453E-1,7.540885E-2,5.787229E-1,6.113595E-1,-1.8204534E-1,5.880985E-1,1.0298659E0,-6.003492E-2,-1.01385795E-1,-7.108969E-2,-1.0655456E-1,-5.4259237E-2,-9.2829905E-2,-6.672156E-2,1.5443519E-2,-9.430377E-2,-6.263198E-2,1.698831E-2,-5.233478E-2,-6.903682E-2,-2.6463566E-2,-5.464677E-2,2.2628056E-2,-2.337474E-2,-7.2110064E-2,2.7649675E-2,-1.8072652E-2,6.6478394E-2,-3.932927E-2,3.1721957E-2,8.042015E-2,-7.67321E-2,1.4514409E-2,8.2180224E-2,3.08444E-2,1.0480156E-1,7.618016E-2],"categories":[],"categories_nodes":[],"categories_segments":[],"categories_sizes":[],"default_left":[0,0,0,0,0,0,0,0,0,0,0,0,0,0,0,0,0,0,0,0,0,0,0,0,0,0,0,0,0,0,0,0,0,0,0,0,0,0,0,0,0,0,0,0,0,0,0,0,0,0,0,0,0,0,0,0,0,0,0,0,0],"id":16,"left_children":[1,3,5,7,9,11,13,15,17,19,21,23,25,27,29,-1,31,33,35,37,39,41,43,45,47,49,51,53,55,57,59,-1,-1,-1,-1,-1,-1,-1,-1,-1,-1,-1,-1,-1,-1,-1,-1,-1,-1,-1,-1,-1,-1,-1,-1,-1,-1,-1,-1,-1,-1],"loss_changes":[2.2274983E3,1.8844934E2,5.621245E2,1.9432495E1,6.668045E1,1.7564407E2,1.1695947E2,2.5408936E0,7.1179047E0,1.9236755E1,4.5245697E1,7.58011E1,6.3168808E1,6.3348312E1,2.4956177E1,0E0,6.0013275E0,1.3211823E0,9.761215E0,1.5288878E1,8.618164E0,4.004151E1,2.5421036E1,7.666016E1,3.2070145E1,1.9758718E1,6.0591415E1,4.3343323E1,2.2389362E1,9.55061E0,4.8308105E0,0E0,0E0,0E0,0E0,0E0,0E0,0E0,0E0,0E0,0E0,0E0,0E0,0E0,0E0,0E0,0E0,0E0,0E0,0E0,0E0,0E0,0E0,0E0,0E0,0E0,0E0,0E0,0E0,0E0,0E0],"parents":[2147483647,0,0,1,1,2,2,3,3,4,4,5,5,6,6,7,7,8,8,9,9,10,10,11,11,12,12,13,13,14,14,16,16,17,17,18,18,19,19,20,20,21,21,22,22,23,23,24,24,25,25,26,26,27,27,28,28,29,29,30,30],"right_children":[2,4,6,8,10,12,14,16,18,20,22,24,26,28,30,-1,32,34,36,38,40,42,44,46,48,50,52,54,56,58,60,-1,-1,-1,-1,-1,-1,-1,-1,-1,-1,-1,-1,-1,-1,-1,-1,-1,-1,-1,-1,-1,-1,-1,-1,-1,-1,-1,-1,-1,-1],"split_conditions":[4.91453E-2,2.2974996E-1,2.6506594E-1,3.125E-2,3.0092593E-2,8.730159E-2,1.04166664E-1,2.3148147E-2,2.1462591E-1,4.505989E-2,2E-1,2E-1,2.410787E-1,8.181379E-2,4.194784E-1,-1.0753115E-1,3.6657208E-1,3.6131015E-1,6.762136E-2,2.2727273E-2,4.0257847E-1,8.183857E-2,2.518628E-1,2.2513992E-1,8.549094E-2,6.572502E-2,4.5454547E-2,4.2878377E-1,3.139076E-1,8.897613E-2,1.1876259E-1,-6.003492E-2,-1.01385795E-1,-7.108969E-2,-1.0655456E-1,-5.4259237E-2,-9.2829905E-2,-6.672156E-2,1.5443519E-2,-9.430377E-2,-6.263198E-2,1.698831E-2,-5.233478E-2,-6.903682E-2,-2.6463566E-2,-5.464677E-2,2.2628056E-2,-2.337474E-2,-7.2110064E-2,2.7649675E-2,-1.8072652E-2,6.6478394E-2,-3.932927E-2,3.1721957E-2,8.042015E-2,-7.67321E-2,1.4514409E-2,8.2180224E-2,3.08444E-2,1.0480156E-1,7.618016E-2],"split_indices":[0,1,1,0,0,0,0,0,1,6,9,9,1,5,2,0,2,2,3,0,4,6,1,1,6,6,8,2,1,6,3,0,0,0,0,0,0,0,0,0,0,0,0,0,0,0,0,0,0,0,0,0,0,0,0,0,0,0,0,0,0],"split_type":[0,0,0,0,0,0,0,0,0,0,0,0,0,0,0,0,0,0,0,0,0,0,0,0,0,0,0,0,0,0,0,0,0,0,0,0,0,0,0,0,0,0,0,0,0,0,0,0,0,0,0,0,0,0,0,0,0,0,0,0,0],"sum_hessian":[7.6380835E3,2.8513025E3,4.7867812E3,1.387522E3,1.4637805E3,2.598794E3,2.1879873E3,9.8663165E2,4.008903E2,5.0232916E2,9.6145135E2,1.4969463E3,1.1018477E3,8.829627E2,1.3050247E3,7.32027E2,2.5460468E2,1.0776617E2,2.931241E2,9.1560425E1,4.1076874E2,3.9738E2,5.6407135E2,8.32829E2,6.6411725E2,3.8165167E2,7.20196E2,7.676261E2,1.15336586E2,1.4900981E2,1.1560148E3,4.892714E1,2.0567754E2,2.232954E1,8.543663E1,1.849804E2,1.08143715E2,5.320225E1,3.8358173E1,2.7063187E2,1.4013689E2,2.799198E2,1.174602E2,2.7931628E2,2.8475504E2,1.574713E2,6.7535767E2,4.7557245E2,1.885448E2,2.1375583E2,1.6789586E2,6.619076E2,5.82884E1,3.0502283E2,4.6260327E2,4.087475E1,7.446184E1,8.011778E1,6.889203E1,1.0799834E3,7.60314E1],"tree_param":{"num_deleted":"0","num_feature":"10","num_nodes":"61","size_leaf_vector":"1"}},{"base_weights":[-5.41886E-4,-4.5465988E-1,5.700355E-1,-8.480537E-1,-1.7265172E-1,2.599564E-1,8.621285E-1,-9.601425E-1,-5.374179E-1,-3.748963E-1,1.24147184E-1,1.4116578E-1,6.267995E-1,-1.0179765E-1,9.060317E-1,-1.0284649E0,-7.993514E-1,-8.909298E-1,-3.7936047E-1,-2.3182692E-1,-6.942207E-1,3.197476E-1,-2.6754758E-1,2.1610963E-1,-3.393665E-1,3.833584E-1,7.7825874E-1,-2.6881588E-1,1.220106E-1,6.750623E-1,1.0268862E0,-1.06522955E-1,-9.450247E-2,-6.371417E-2,-9.839689E-2,-9.599301E-2,-6.2200665E-2,-2.9207475E-3,-5.6388687E-2,-7.409605E-2,-1.0883974E-2,-5.3233813E-2,-9.599895E-2,6.621742E-2,1.3274707E-2,-5.1716596E-2,-2.8180943E-3,-3.6607825E-3,4.195177E-2,-6.2055063E-2,1.9378405E-2,5.6385756E-2,-8.398762E-3,1.1671524E-2,8.3160914E-2,1.3458332E-3,-8.554441E-2,7.418726E-2,1.1084246E-2,9.588929E-2,1.07101694E-1],"categories":[],"categories_nodes":[],"categories_segments":[],"categories_sizes":[],"default_left":[0,0,0,0,0,0,0,0,0,0,0,0,0,0,0,0,0,0,0,0,0,0,0,0,0,0,0,0,0,0,0,0,0,0,0,0,0,0,0,0,0,0,0,0,0,0,0,0,0,0,0,0,0,0,0,0,0,0,0,0,0],"id":17,"left_children":[1,3,5,7,9,11,13,15,17,19,21,23,25,27,29,31,33,35,37,39,41,43,45,47,49,51,53,55,-1,57,59,-1,-1,-1,-1,-1,-1,-1,-1,-1,-1,-1,-1,-1,-1,-1,-1,-1,-1,-1,-1,-1,-1,-1,-1,-1,-1,-1,-1,-1,-1],"loss_changes":[1.902393E3,4.534043E2,2.9447876E2,5.8911255E1,1.4305771E2,6.875259E1,7.097998E1,1.2942017E1,2.507576E1,6.4584595E1,7.411841E1,4.3094757E1,1.3938736E1,1.6636772E1,4.403015E1,1.6799316E0,1.0696381E1,1.9967575E0,2.0403996E1,6.1296734E1,1.8332962E1,4.1208817E1,1.9247126E1,5.3170273E1,2.434082E1,1.2706221E1,8.269745E0,1.1006963E1,0E0,2.0774261E1,2.123291E0,0E0,0E0,0E0,0E0,0E0,0E0,0E0,0E0,0E0,0E0,0E0,0E0,0E0,0E0,0E0,0E0,0E0,0E0,0E0,0E0,0E0,0E0,0E0,0E0,0E0,0E0,0E0,0E0,0E0,0E0],"parents":[2147483647,0,0,1,1,2,2,3,3,4,4,5,5,6,6,7,7,8,8,9,9,10,10,11,11,12,12,13,13,14,14,15,15,16,16,17,17,18,18,19,19,20,20,21,21,22,22,23,23,24,24,25,25,26,26,27,27,29,29,30,30],"right_children":[2,4,6,8,10,12,14,16,18,20,22,24,26,28,30,32,34,36,38,40,42,44,46,48,50,52,54,56,-1,58,60,-1,-1,-1,-1,-1,-1,-1,-1,-1,-1,-1,-1,-1,-1,-1,-1,-1,-1,-1,-1,-1,-1,-1,-1,-1,-1,-1,-1,-1,-1],"split_conditions":[7.2222225E-2,3.5353534E-2,4.3490303E-1,2.3841166E-1,2.518628E-1,1.4583333E-1,2.3990172E-1,2.25482E-1,3.0803218E-1,7.023914E-2,9.730182E-2,4.5454547E-2,2.5026488E-1,2E-1,1.1419753E-1,2.3148147E-2,7.145796E-2,3.125E-2,2E-1,4.211899E-2,2E-1,2E-1,2.776191E-1,2.449491E-1,2.7915204E-1,7.999746E-2,3.8089204E-1,7.861797E-2,1.220106E-1,1.01121254E-1,1.7222223E-1,-1.06522955E-1,-9.450247E-2,-6.371417E-2,-9.839689E-2,-9.599301E-2,-6.2200665E-2,-2.9207475E-3,-5.6388687E-2,-7.409605E-2,-1.0883974E-2,-5.3233813E-2,-9.599895E-2,6.621742E-2,1.3274707E-2,-5.1716596E-2,-2.8180943E-3,-3.6607825E-3,4.195177E-2,-6.2055063E-2,1.9378405E-2,5.6385756E-2,-8.398762E-3,1.1671524E-2,8.3160914E-2,1.3458332E-3,-8.554441E-2,7.418726E-2,1.1084246E-2,9.588929E-2,1.07101694E-1],"split_indices":[0,0,2,1,1,0,1,1,4,3,6,8,1,0,0,0,3,0,9,3,9,9,1,1,1,6,2,6,0,3,0,0,0,0,0,0,0,0,0,0,0,0,0,0,0,0,0,0,0,0,0,0,0,0,0,0,0,0,0,0,0],"split_type":[0,0,0,0,0,0,0,0,0,0,0,0,0,0,0,0,0,0,0,0,0,0,0,0,0,0,0,0,0,0,0,0,0,0,0,0,0,0,0,0,0,0,0,0,0,0,0,0,0,0,0,0,0,0,0,0,0,0,0,0,0],"sum_hessian":[7.340043E3,4.0872427E3,3.2528003E3,1.7057542E3,2.3814885E3,1.5787383E3,1.6740621E3,1.2519232E3,4.5383087E2,1.4161995E3,9.65289E2,1.19361E3,3.8512827E2,7.286829E1,1.6011938E3,8.748082E2,3.7711502E2,1.3878561E2,3.1504526E2,9.7920483E2,4.3699457E2,6.4391907E2,3.213699E2,1.0330463E3,1.605637E2,1.4906558E2,2.3606268E2,6.540166E1,7.4666405E0,5.522858E2,1.048908E3,5.9908105E2,2.7572717E2,2.0310919E2,1.7400584E2,1.0840224E2,3.0383373E1,1.091269E2,2.0591837E2,1.8953925E2,7.896656E2,2.7344147E2,1.6355312E2,2.2654306E2,4.1737604E2,1.5674802E2,1.6462189E2,4.6105017E2,5.719961E2,1.0501485E2,5.554886E1,1.0738476E2,4.1680836E1,1.7854528E1,2.1820815E2,4.4814728E1,2.0586926E1,4.935311E2,5.8754715E1,4.2178372E2,6.2712427E2],"tree_param":{"num_deleted":"0","num_feature":"10","num_nodes":"61","size_leaf_vector":"1"}},{"base_weights":[-4.9758557E-4,-6.348805E-1,3.6595803E-1,-9.1819274E-1,-3.8885888E-1,8.334593E-2,7.27662E-1,-1.0359379E0,-7.68906E-1,-1.8419169E-1,-5.902082E-1,-9.374197E-3,6.466417E-1,4.4957745E-1,9.34655E-1,-9.631903E-1,-1.0705389E-1,-9.0357697E-1,-6.049302E-1,-6.0882377E-3,-6.0878795E-1,-8.671271E-1,-4.092388E-1,1.7475963E-1,-2.7572554E-1,1.9955927E-1,7.7245134E-1,5.491267E-1,-1.7861047E-1,5.189824E-1,9.9262667E-1,-1.0125052E-1,-7.085475E-2,-6.317229E-2,-9.8106906E-2,4.500013E-3,-7.0638195E-2,2.9110326E-2,-2.5502596E-2,-7.761394E-2,-1.6760997E-3,-7.082846E-2,-9.653748E-2,2.0288957E-2,-5.3738035E-2,-1.2922086E-2,3.791302E-2,-2.044569E-2,-9.0840705E-2,3.6375985E-2,-5.084559E-2,5.586167E-2,1.00891605E-1,2.754066E-2,7.399606E-2,-4.9497712E-2,3.544453E-2,5.6842756E-2,-8.333078E-2,1.01360776E-1,6.921288E-2],"categories":[],"categories_nodes":[],"categories_segments":[],"categories_sizes":[],"default_left":[0,0,0,0,0,0,0,0,0,0,0,0,0,0,0,0,0,0,0,0,0,0,0,0,0,0,0,0,0,0,0,0,0,0,0,0,0,0,0,0,0,0,0,0,0,0,0,0,0,0,0,0,0,0,0,0,0,0,0,0,0],"id":18,"left_children":[1,3,5,7,9,11,13,15,17,19,21,23,25,27,29,31,-1,33,35,37,39,41,43,45,47,49,51,53,55,57,59,-1,-1,-1,-1,-1,-1,-1,-1,-1,-1,-1,-1,-1,-1,-1,-1,-1,-1,-1,-1,-1,-1,-1,-1,-1,-1,-1,-1,-1,-1],"loss_changes":[1.6437125E3,1.8008972E2,4.5806506E2,2.0340942E1,5.7063858E1,1.3146808E2,1.12724976E2,6.538086E-1,1.1248108E1,5.2135082E1,3.4669495E1,1.06095184E2,1.9856842E1,5.2672226E1,2.661676E1,2.1172943E0,0E0,5.515579E0,1.6112251E1,3.608372E1,2.0172195E1,3.6129913E0,3.3411713E1,7.951039E1,3.968344E1,9.424624E0,1.34574585E1,3.7716263E1,1.969687E1,9.828243E0,5.5214233E0,0E0,0E0,0E0,0E0,0E0,0E0,0E0,0E0,0E0,0E0,0E0,0E0,0E0,0E0,0E0,0E0,0E0,0E0,0E0,0E0,0E0,0E0,0E0,0E0,0E0,0E0,0E0,0E0,0E0,0E0],"parents":[2147483647,0,0,1,1,2,2,3,3,4,4,5,5,6,6,7,7,8,8,9,9,10,10,11,11,12,12,13,13,14,14,15,15,17,17,18,18,19,19,20,20,21,21,22,22,23,23,24,24,25,25,26,26,27,27,28,28,29,29,30,30],"right_children":[2,4,6,8,10,12,14,16,18,20,22,24,26,28,30,32,-1,34,36,38,40,42,44,46,48,50,52,54,56,58,60,-1,-1,-1,-1,-1,-1,-1,-1,-1,-1,-1,-1,-1,-1,-1,-1,-1,-1,-1,-1,-1,-1,-1,-1,-1,-1,-1,-1,-1,-1],"split_conditions":[4.91453E-2,2.2974996E-1,2.6506594E-1,2.4691358E-2,7.07599E-2,1.5E-1,1.04166664E-1,3.835161E-1,2.2102033E-1,8.942562E-2,2.449491E-1,7.158321E-2,2.364115E-1,8.181379E-2,4.194784E-1,2.2244316E-1,-1.0705389E-1,3.6657208E-1,3.890202E-2,2E-1,2.6379E-1,7.885825E-2,5.0188463E-2,2.3841166E-1,5.381304E-1,4.6188587E-1,4.3195704E-1,4.2878377E-1,4.7422326E-1,1.5289709E-1,1.1876259E-1,-1.0125052E-1,-7.085475E-2,-6.317229E-2,-9.8106906E-2,4.500013E-3,-7.0638195E-2,2.9110326E-2,-2.5502596E-2,-7.761394E-2,-1.6760997E-3,-7.082846E-2,-9.653748E-2,2.0288957E-2,-5.3738035E-2,-1.2922086E-2,3.791302E-2,-2.044569E-2,-9.0840705E-2,3.6375985E-2,-5.084559E-2,5.586167E-2,1.00891605E-1,2.754066E-2,7.399606E-2,-4.9497712E-2,3.544453E-2,5.6842756E-2,-8.333078E-2,1.01360776E-1,6.921288E-2],"split_indices":[0,1,1,0,3,0,0,2,1,6,1,6,1,5,2,1,0,2,6,9,1,3,6,1,4,4,2,2,2,3,3,0,0,0,0,0,0,0,0,0,0,0,0,0,0,0,0,0,0,0,0,0,0,0,0,0,0,0,0,0,0],"split_type":[0,0,0,0,0,0,0,0,0,0,0,0,0,0,0,0,0,0,0,0,0,0,0,0,0,0,0,0,0,0,0,0,0,0,0,0,0,0,0,0,0,0,0,0,0,0,0,0,0,0,0,0,0,0,0,0,0,0,0,0,0],"sum_hessian":[7.0685474E3,2.5878706E3,4.480677E3,1.2015099E3,1.3863607E3,2.5160378E3,1.9646389E3,6.683952E2,5.331147E2,6.884653E2,6.978954E2,2.16127E3,3.5476797E2,8.39707E2,1.1249319E3,2.2473413E2,4.4366107E2,2.9023682E2,2.428779E2,4.857319E2,2.0273341E2,2.7432785E2,4.235675E2,1.2780637E3,8.8320624E2,7.847658E1,2.7629138E2,7.249497E2,1.1475726E2,1.3890395E2,9.8602795E2,1.8577942E2,3.8954712E1,6.641051E1,2.2382631E2,3.286853E1,2.1000935E2,2.213301E2,2.644018E2,1.5781267E2,4.492074E1,1.07972206E2,1.6635564E2,7.321903E1,3.5034848E2,5.139632E2,7.6410046E2,7.949787E2,8.822752E1,6.409752E1,1.4379063E1,1.4685394E2,1.2943744E2,2.988054E2,4.2614432E2,7.206085E1,4.2696415E1,1.3456343E2,4.3405266E0,9.194573E2,6.657065E1],"tree_param":{"num_deleted":"0","num_feature":"10","num_nodes":"61","size_leaf_vector":"1"}},{"base_weights":[-5.078575E-4,-3.7857494E-1,5.4289246E-1,-8.684596E-1,-1.688658E-1,2.4684069E-1,8.345983E-1,-9.889076E-1,-6.552012E-1,-5.1164854E-1,-9.944507E-3,1.6681018E-1,7.113025E-1,4.248515E-1,9.3055344E-1,-1.0313011E0,-8.652275E-1,-4.085533E-1,-8.415548E-1,-3.163244E-1,-6.931131E-1,8.071351E-2,-5.3171563E-1,3.8879013E-1,2.2532009E-2,8.620667E-1,4.1445443E-1,6.433593E-1,-1.1702878E-1,9.6467084E-1,5.0523424E-1,-9.660737E-2,-1.0614788E-1,-4.6729233E-2,-9.564689E-2,-8.61608E-2,-2.3177594E-2,-8.896078E-2,-2.7289843E-2,-7.236489E-2,-1.2616292E-2,-9.2759416E-2,-5.573004E-2,-5.242528E-3,3.912554E-2,-8.207666E-2,-1.8797083E-2,1.8684091E-3,5.6123E-2,-1.3057153E-2,2.970036E-2,3.476508E-2,9.498242E-2,1.3586807E-2,8.5888505E-2,-7.047394E-2,7.3657826E-2,-8.968424E-2,3.799716E-2,6.486195E-2,9.976997E-2,-6.4694434E-2,7.967124E-2],"categories":[],"categories_nodes":[],"categories_segments":[],"categories_sizes":[],"default_left":[0,0,0,0,0,0,0,0,0,0,0,0,0,0,0,0,0,0,0,0,0,0,0,0,0,0,0,0,0,0,0,0,0,0,0,0,0,0,0,0,0,0,0,0,0,0,0,0,0,0,0,0,0,0,0,0,0,0,0,0,0,0,0],"id":19,"left_children":[1,3,5,7,9,11,13,15,17,19,21,23,25,27,29,31,33,35,37,39,41,43,45,47,49,51,53,55,57,59,61,-1,-1,-1,-1,-1,-1,-1,-1,-1,-1,-1,-1,-1,-1,-1,-1,-1,-1,-1,-1,-1,-1,-1,-1,-1,-1,-1,-1,-1,-1,-1,-1],"loss_changes":[1.4012126E3,4.1305908E2,2.4146094E2,3.0315186E1,1.5349033E2,5.1558716E1,5.5006897E1,3.1364746E0,1.9790543E1,3.141568E1,9.115627E1,3.801417E1,8.774155E0,3.1951504E1,1.6067871E1,9.063721E-2,6.9001007E0,1.505496E1,6.5498047E0,3.3345974E1,1.4190475E1,6.79056E1,2.818946E1,2.9833138E1,3.0320505E1,5.7365265E0,8.630532E0,2.4648048E1,3.0651726E1,1.0366638E1,2.9673143E1,0E0,0E0,0E0,0E0,0E0,0E0,0E0,0E0,0E0,0E0,0E0,0E0,0E0,0E0,0E0,0E0,0E0,0E0,0E0,0E0,0E0,0E0,0E0,0E0,0E0,0E0,0E0,0E0,0E0,0E0,0E0,0E0],"parents":[2147483647,0,0,1,1,2,2,3,3,4,4,5,5,6,6,7,7,8,8,9,9,10,10,11,11,12,12,13,13,14,14,15,15,16,16,17,17,18,18,19,19,20,20,21,21,22,22,23,23,24,24,25,25,26,26,27,27,28,28,29,29,30,30],"right_children":[2,4,6,8,10,12,14,16,18,20,22,24,26,28,30,32,34,36,38,40,42,44,46,48,50,52,54,56,58,60,62,-1,-1,-1,-1,-1,-1,-1,-1,-1,-1,-1,-1,-1,-1,-1,-1,-1,-1,-1,-1,-1,-1,-1,-1,-1,-1,-1,-1,-1,-1,-1,-1],"split_conditions":[7.5E-2,3.0092593E-2,4.3490303E-1,2.2974996E-1,2.364115E-1,1.8333334E-1,2.592656E-1,2.3148147E-2,6.2248252E-2,5.8111083E-2,4.5454547E-2,6.328367E-2,8.298891E-2,2E-1,9.521363E-2,3.835161E-1,3.890202E-2,3.2400748E-1,5.429627E-1,2.2000237E-1,3.5735983E-1,2.6379E-1,2.733724E-1,2.3501249E-1,2.6548108E-1,3.6578346E-2,2.7107298E-1,2.2719277E-1,9.920635E-2,8.680555E-2,3.3478597E-1,-9.660737E-2,-1.0614788E-1,-4.6729233E-2,-9.564689E-2,-8.61608E-2,-2.3177594E-2,-8.896078E-2,-2.7289843E-2,-7.236489E-2,-1.2616292E-2,-9.2759416E-2,-5.573004E-2,-5.242528E-3,3.912554E-2,-8.207666E-2,-1.8797083E-2,1.8684091E-3,5.6123E-2,-1.3057153E-2,2.970036E-2,3.476508E-2,9.498242E-2,1.3586807E-2,8.5888505E-2,-7.047394E-2,7.3657826E-2,-8.968424E-2,3.799716E-2,6.486195E-2,9.976997E-2,-6.4694434E-2,7.967124E-2],"split_indices":[0,0,2,1,1,0,1,0,6,6,8,6,6,9,5,2,6,4,4,1,4,1,1,1,1,3,1,1,0,0,1,0,0,0,0,0,0,0,0,0,0,0,0,0,0,0,0,0,0,0,0,0,0,0,0,0,0,0,0,0,0,0,0],"split_type":[0,0,0,0,0,0,0,0,0,0,0,0,0,0,0,0,0,0,0,0,0,0,0,0,0,0,0,0,0,0,0,0,0,0,0,0,0,0,0,0,0,0,0,0,0,0,0,0,0,0,0,0,0,0,0,0,0,0,0,0,0,0,0],"sum_hessian":[6.8184844E3,4.0211206E3,2.797364E3,1.2044231E3,2.8166975E3,1.3892562E3,1.4081077E3,7.6737427E2,4.3704886E2,8.9152264E2,1.9251749E3,1.1862201E3,2.0303607E2,2.682132E2,1.1398945E3,5.6602155E2,2.0135274E2,1.894694E2,2.4757945E2,4.3068582E2,4.608368E2,1.640911E3,2.8426385E2,4.66614E2,7.196061E2,1.3338698E2,6.96491E1,1.9100505E2,7.720815E1,1.054073E3,8.582156E1,1.8948047E2,3.765411E2,3.869815E1,1.6265459E2,5.209177E1,1.3737762E2,2.2776804E2,1.981141E1,1.3618123E2,2.945046E2,1.6688297E2,2.9395383E2,1.1490916E3,4.9181946E2,1.5366287E2,1.30601E2,1.4865837E2,3.1795563E2,4.6227042E2,2.5733566E2,2.016216E1,1.1322482E2,4.3615147E1,2.6033953E1,1.1929201E1,1.7907585E2,2.974015E1,4.7468006E1,1.0168581E2,9.5238715E2,1.7081379E1,6.874018E1],"tree_param":{"num_deleted":"0","num_feature":"10","num_nodes":"63","size_leaf_vector":"1"}},{"base_weights":[-5.0207466E-4,-6.0343856E-1,3.0604985E-1,-9.182078E-1,-3.852977E-1,7.566149E-2,6.741562E-1,-1.02297224E-1,-7.9561543E-1,-7.569931E-1,-2.7207333E-1,-5.2886255E-2,3.7966156E-1,3.2525697E-1,9.1378635E-1,-4.3065777E-1,-8.625423E-1,-5.602774E-1,-8.8822186E-1,4.5575023E-2,-4.0453637E-1,6.5182406E-3,-8.49855E-1,5.3195053E-1,-4.0254347E-2,-1.0508889E-1,4.2124364E-1,-4.544841E-1,9.337301E-1,-5.918339E-2,5.6434274E-3,-9.5534556E-2,-7.0495255E-2,-3.7689444E-3,-7.107156E-2,-7.084286E-2,-9.955286E-2,2.6929146E-2,-5.021141E-2,-5.7006974E-2,-6.7274347E-3,6.5621543E-3,-6.922452E-2,-6.3265935E-2,-1.14025615E-1,-6.898754E-2,5.7110555E-2,9.084901E-3,-5.5427488E-2,2.1608204E-2,-5.669525E-2,4.884846E-2,-1.678881E-2,4.606286E-2,-6.8386674E-2,8.5264765E-2,1.0539402E-1],"categories":[],"categories_nodes":[],"categories_segments":[],"categories_sizes":[],"default_left":[0,0,0,0,0,0,0,0,0,0,0,0,0,0,0,0,0,0,0,0,0,0,0,0,0,0,0,0,0,0,0,0,0,0,0,0,0,0,0,0,0,0,0,0,0,0,0,0,0,0,0,0,0,0,0,0,0],"id":20,"left_children":[1,3,5,7,9,11,13,-1,15,17,19,21,23,25,27,29,31,33,35,37,39,41,43,45,47,49,51,53,55,-1,-1,-1,-1,-1,-1,-1,-1,-1,-1,-1,-1,-1,-1,-1,-1,-1,-1,-1,-1,-1,-1,-1,-1,-1,-1,-1,-1],"loss_changes":[1.2173472E3,1.5207788E2,3.702434E2,1.0847717E1,5.5050293E1,1.0500975E2,1.4021771E2,0E0,9.958008E0,7.4018097E0,4.243017E1,8.944115E1,5.108793E1,2.837561E1,2.7598206E1,5.335107E0,4.5382996E0,9.812786E0,2.803131E0,3.659091E1,3.9679543E1,7.269197E1,7.544327E0,2.843312E1,1.4435425E1,1.87953E1,2.2304718E1,3.4592187E0,8.671082E0,0E0,0E0,0E0,0E0,0E0,0E0,0E0,0E0,0E0,0E0,0E0,0E0,0E0,0E0,0E0,0E0,0E0,0E0,0E0,0E0,0E0,0E0,0E0,0E0,0E0,0E0,0E0,0E0],"parents":[2147483647,0,0,1,1,2,2,3,3,4,4,5,5,6,6,8,8,9,9,10,10,11,11,12,12,13,13,14,14,15,15,16,16,17,17,18,18,19,19,20,20,21,21,22,22,23,23,24,24,25,25,26,26,27,27,28,28],"right_children":[2,4,6,8,10,12,14,-1,16,18,20,22,24,26,28,30,32,34,36,38,40,42,44,46,48,50,52,54,56,-1,-1,-1,-1,-1,-1,-1,-1,-1,-1,-1,-1,-1,-1,-1,-1,-1,-1,-1,-1,-1,-1,-1,-1,-1,-1,-1,-1],"split_conditions":[4.761905E-2,2.2719277E-1,1.04166664E-1,2.3148147E-2,2.4691358E-2,2.6587257E-1,4.3249047E-1,-1.02297224E-1,3.5982576E-1,4.032991E-1,5.573836E-2,4.5454547E-2,1.18005015E-1,3.99288E-2,2.311886E-1,2.2244316E-1,2.2102033E-1,4.505989E-2,6.040127E-2,1.874896E-1,2.5847563E-1,5.603933E-1,6.538049E-2,3.747276E-1,2.0748839E-1,9.74501E-2,5.2313495E-2,4.3697155E-1,2.0555556E-1,-5.918339E-2,5.6434274E-3,-9.5534556E-2,-7.0495255E-2,-3.7689444E-3,-7.107156E-2,-7.084286E-2,-9.955286E-2,2.6929146E-2,-5.021141E-2,-5.7006974E-2,-6.7274347E-3,6.5621543E-3,-6.922452E-2,-6.3265935E-2,-1.14025615E-1,-6.898754E-2,5.7110555E-2,9.084901E-3,-5.5427488E-2,2.1608204E-2,-5.669525E-2,4.884846E-2,-1.678881E-2,4.606286E-2,-6.8386674E-2,8.5264765E-2,1.0539402E-1],"split_indices":[0,1,0,0,0,1,2,0,2,2,6,8,6,3,1,1,1,6,6,7,1,4,3,2,6,7,5,2,0,0,0,0,0,0,0,0,0,0,0,0,0,0,0,0,0,0,0,0,0,0,0,0,0,0,0,0,0],"split_type":[0,0,0,0,0,0,0,0,0,0,0,0,0,0,0,0,0,0,0,0,0,0,0,0,0,0,0,0,0,0,0,0,0,0,0,0,0,0,0,0,0,0,0,0,0,0,0,0,0,0,0,0,0,0,0,0,0],"sum_hessian":[6.5842607E3,2.218963E3,4.365298E3,9.06994E2,1.3119688E3,2.6856335E3,1.6796642E3,4.8509756E2,4.2189648E2,3.0500525E2,1.0069635E3,1.8880778E3,7.975558E2,6.8486487E2,9.9479926E2,6.653112E1,3.5536536E2,1.2415812E2,1.8084714E2,2.965318E2,7.104317E2,1.7580295E3,1.3004826E2,5.8509515E2,2.124606E2,1.2488074E2,5.5998413E2,1.3978779E1,9.808205E2,4.9828205E1,1.6702917E1,2.2047008E2,1.3489528E2,2.8031963E1,9.612616E1,7.043489E1,1.1041224E2,2.1089508E2,8.563672E1,4.7607602E2,2.3435571E2,1.6217626E3,1.3626697E2,7.622038E1,5.382789E1,1.7651869E1,5.674433E2,1.699399E2,4.252071E1,7.39733E1,5.0907436E1,5.0277087E2,5.721326E1,2.5996115E0,1.1379168E1,5.9056995E2,3.9025055E2],"tree_param":{"num_deleted":"0","num_feature":"10","num_nodes":"57","size_leaf_vector":"1"}},{"base_weights":[-6.260141E-4,-5.716272E-1,2.832285E-1,-8.148144E-1,-2.8416103E-1,1.1164208E-1,7.4517226E-1,-9.3057245E-1,-5.9783953E-1,-6.865878E-1,-1.5842642E-1,-1.3102089E-1,2.9469892E-1,3.9887008E-1,9.449814E-1,-9.983489E-1,-7.925267E-1,-8.1893504E-1,-4.7597972E-1,-8.543505E-1,-5.231683E-1,-2.7862495E-1,3.1768715E-1,-1.3798315E-2,-6.253328E-1,4.099357E-1,-1.6917914E-1,2.2402151E-1,6.372203E-1,-1.5030496E-1,9.6856123E-1,-7.926852E-2,-1.01731054E-1,1.8810247E-3,-8.379577E-2,-6.460963E-2,-9.985982E-2,-3.285092E-2,-8.594959E-2,-6.507506E-2,-9.6037544E-2,-3.9381173E-2,-1.02276675E-1,-5.183497E-3,-5.5829883E-2,6.0706396E-2,-3.4946274E-2,-5.0298154E-2,9.539448E-3,-5.061945E-2,-1.12343945E-1,1.7951606E-2,6.2715985E-2,-5.7045467E-2,2.1281188E-2,-1.4792035E-2,4.2681318E-2,7.7402376E-2,2.9762888E-2,-6.6872105E-2,1.09357595E-1,8.9487046E-2,1.04062915E-1],"categories":[],"categories_nodes":[],"categories_segments":[],"categories_sizes":[],"default_left":[0,0,0,0,0,0,0,0,0,0,0,0,0,0,0,0,0,0,0,0,0,0,0,0,0,0,0,0,0,0,0,0,0,0,0,0,0,0,0,0,0,0,0,0,0,0,0,0,0,0,0,0,0,0,0,0,0,0,0,0,0,0,0],"id":21,"left_children":[1,3,5,7,9,11,13,15,17,19,21,23,25,27,29,31,33,35,37,39,41,43,45,47,49,51,53,55,57,59,61,-1,-1,-1,-1,-1,-1,-1,-1,-1,-1,-1,-1,-1,-1,-1,-1,-1,-1,-1,-1,-1,-1,-1,-1,-1,-1,-1,-1,-1,-1,-1,-1],"loss_changes":[1.0339828E3,1.4785345E2,3.3766803E2,2.8251892E1,4.908854E1,1.3810901E2,7.946747E1,6.1899414E0,1.04366455E1,5.890625E0,4.255936E1,7.747507E1,9.479358E1,1.7524223E1,1.902478E1,1.130188E0,9.25116E0,3.74543E0,1.4504005E1,1.8032684E0,7.331623E0,3.7588066E1,2.9182125E1,5.7838203E1,1.4641136E1,7.0946945E1,5.427898E1,1.8623932E1,8.078209E0,1.1223751E1,2.869751E0,0E0,0E0,0E0,0E0,0E0,0E0,0E0,0E0,0E0,0E0,0E0,0E0,0E0,0E0,0E0,0E0,0E0,0E0,0E0,0E0,0E0,0E0,0E0,0E0,0E0,0E0,0E0,0E0,0E0,0E0,0E0,0E0],"parents":[2147483647,0,0,1,1,2,2,3,3,4,4,5,5,6,6,7,7,8,8,9,9,10,10,11,11,12,12,13,13,14,14,15,15,16,16,17,17,18,18,19,19,20,20,21,21,22,22,23,23,24,24,25,25,26,26,27,27,28,28,29,29,30,30],"right_children":[2,4,6,8,10,12,14,16,18,20,22,24,26,28,30,32,34,36,38,40,42,44,46,48,50,52,54,56,58,60,62,-1,-1,-1,-1,-1,-1,-1,-1,-1,-1,-1,-1,-1,-1,-1,-1,-1,-1,-1,-1,-1,-1,-1,-1,-1,-1,-1,-1,-1,-1,-1,-1],"split_conditions":[4.761905E-2,2.353456E-1,1.2698413E-1,3.0092593E-2,3.1171876E-1,2.4909371E-1,4.3195704E-1,2.2244316E-1,2.2102033E-1,3.3333335E-2,2.6379E-1,7.34564E-2,4.5454547E-2,1.8333334E-1,2.3605399E-1,3.51627E-1,2.9802335E-2,3.9159358E-1,7.236288E-2,6.693618E-2,1.3600732E-1,7.07599E-2,1.1359497E-1,3.99288E-2,9.0558715E-2,4.2843032E-1,2.818962E-1,3.9725783E-1,8.942562E-2,2E-1,2.0555556E-1,-7.926852E-2,-1.01731054E-1,1.8810247E-3,-8.379577E-2,-6.460963E-2,-9.985982E-2,-3.285092E-2,-8.594959E-2,-6.507506E-2,-9.6037544E-2,-3.9381173E-2,-1.02276675E-1,-5.183497E-3,-5.5829883E-2,6.0706396E-2,-3.4946274E-2,-5.0298154E-2,9.539448E-3,-5.061945E-2,-1.12343945E-1,1.7951606E-2,6.2715985E-2,-5.7045467E-2,2.1281188E-2,-1.4792035E-2,4.2681318E-2,7.7402376E-2,2.9762888E-2,-6.6872105E-2,1.09357595E-1,8.9487046E-2,1.04062915E-1],"split_indices":[0,1,0,0,4,1,2,1,1,0,1,3,8,0,1,2,6,2,3,6,6,3,6,3,3,2,1,2,6,0,0,0,0,0,0,0,0,0,0,0,0,0,0,0,0,0,0,0,0,0,0,0,0,0,0,0,0,0,0,0,0,0,0],"split_type":[0,0,0,0,0,0,0,0,0,0,0,0,0,0,0,0,0,0,0,0,0,0,0,0,0,0,0,0,0,0,0,0,0,0,0,0,0,0,0,0,0,0,0,0,0,0,0,0,0,0,0,0,0,0,0,0,0,0,0,0,0,0,0],"sum_hessian":[6.377411E3,2.1172803E3,4.260131E3,1.1459818E3,9.712984E2,3.107215E3,1.1529158E3,7.451492E2,4.0083258E2,2.3016635E2,7.411321E2,1.3362052E3,1.7710098E3,4.229207E2,7.299951E2,4.955945E2,2.4955467E2,1.403924E2,2.6044022E2,1.11487686E2,1.18678665E2,5.9207336E2,1.4905867E2,1.0809043E3,2.5530092E2,1.4186936E3,3.5231613E2,2.4507724E2,1.7784344E2,1.5271209E1,7.147239E2,4.544854E1,4.5014597E2,1.326394E1,2.3629073E2,7.389774E1,6.6494644E1,1.894493E2,7.0990906E1,4.062094E1,7.0866745E1,9.56906E1,2.2988073E1,3.276028E2,2.6447058E2,1.0402697E2,4.503171E1,1.9658739E2,8.843169E2,2.0765077E2,4.7650158E1,6.893232E2,7.293704E2,1.7158035E2,1.807358E2,8.656968E1,1.5850757E2,1.2586132E2,5.198213E1,1.1105237E1,4.165972E0,3.6001697E2,3.5470694E2],"tree_param":{"num_deleted":"0","num_feature":"10","num_nodes":"63","size_leaf_vector":"1"}},{"base_weights":[-7.0859527E-4,-3.1278896E-1,4.5975792E-1,-7.9462016E-1,-1.377687E-1,2.4065031E-1,8.2104427E-1,-9.398596E-1,-5.641661E-1,-4.3568134E-1,-7.5860615E-3,1.4923269E-1,5.767526E-1,3.6859667E-1,9.059711E-1,-9.9333274E-1,-7.901772E-1,-3.1499472E-1,-7.6683176E-1,-2.9428774E-1,-7.3626333E-1,1.116776E-1,-3.4655577E-1,2.2442976E-1,-3.077773E-1,-1.6345605E-1,6.3948566E-1,4.2740765E-1,-1.8233775E0,9.4698244E-1,4.7677016E-1,-9.1069765E-2,-1.0322038E-1,-3.3445466E-2,-9.018242E-2,-6.770237E-4,-5.9833765E-2,-8.2107104E-2,-1.8143963E-2,-6.533643E-2,-1.0452894E-2,-5.418705E-2,-8.871252E-2,3.631973E-2,-6.2979246E-3,-1.8357191E-2,-6.231592E-2,-9.265776E-4,3.9732363E-2,-1.10852756E-1,-1.6005343E-2,7.5097635E-2,-6.1203666E-2,3.100123E-2,7.6142676E-2,-7.859978E-2,5.0394375E-2,-3.7975233E-2,-2.1944056E-1,6.1571296E-2,9.8114096E-2,-1.4299245E-1,5.922568E-2],"categories":[],"categories_nodes":[],"categories_segments":[],"categories_sizes":[],"default_left":[0,0,0,0,0,0,0,0,0,0,0,0,0,0,0,0,0,0,0,0,0,0,0,0,0,0,0,0,0,0,0,0,0,0,0,0,0,0,0,0,0,0,0,0,0,0,0,0,0,0,0,0,0,0,0,0,0,0,0,0,0,0,0],"id":22,"left_children":[1,3,5,7,9,11,13,15,17,19,21,23,25,27,29,31,33,35,37,39,41,43,45,47,49,51,53,55,57,59,61,-1,-1,-1,-1,-1,-1,-1,-1,-1,-1,-1,-1,-1,-1,-1,-1,-1,-1,-1,-1,-1,-1,-1,-1,-1,-1,-1,-1,-1,-1,-1,-1],"loss_changes":[8.884207E2,3.1064E2,1.9750159E2,3.23266E1,1.0487636E2,4.7724174E1,3.587799E1,4.022644E0,1.9048721E1,3.473317E1,7.6159195E1,4.2155296E1,1.55388565E1,2.0196663E1,1.3503235E1,4.6896362E-1,7.9912186E0,1.5107826E1,6.5175095E0,3.815233E1,7.21492E0,6.1243813E1,2.198967E1,4.2517216E1,2.0340742E1,1.1438575E1,1.208268E1,1.4094223E1,1.3764324E0,7.572876E0,1.6516077E1,0E0,0E0,0E0,0E0,0E0,0E0,0E0,0E0,0E0,0E0,0E0,0E0,0E0,0E0,0E0,0E0,0E0,0E0,0E0,0E0,0E0,0E0,0E0,0E0,0E0,0E0,0E0,0E0,0E0,0E0,0E0,0E0],"parents":[2147483647,0,0,1,1,2,2,3,3,4,4,5,5,6,6,7,7,8,8,9,9,10,10,11,11,12,12,13,13,14,14,15,15,16,16,17,17,18,18,19,19,20,20,21,21,22,22,23,23,24,24,25,25,26,26,27,27,28,28,29,29,30,30],"right_children":[2,4,6,8,10,12,14,16,18,20,22,24,26,28,30,32,34,36,38,40,42,44,46,48,50,52,54,56,58,60,62,-1,-1,-1,-1,-1,-1,-1,-1,-1,-1,-1,-1,-1,-1,-1,-1,-1,-1,-1,-1,-1,-1,-1,-1,-1,-1,-1,-1,-1,-1,-1,-1],"split_conditions":[7.5E-2,3.0092593E-2,4.4583365E-1,2.2974996E-1,2.364115E-1,1.5555556E-1,2.592656E-1,2.3148147E-2,6.2248252E-2,2E-1,2.256705E-1,4.5454547E-2,2.2686505E-1,4.5454547E-2,1.1876259E-1,3.835161E-1,3.6657208E-1,2E-1,5.429627E-1,2.2102033E-1,3.88297E-1,2E-1,7.4228115E-2,2.449491E-1,3.2591584E-1,3.2293165E-1,4.0390274E-1,2.2719277E-1,7.62185E-2,8.680555E-2,2.989234E-1,-9.1069765E-2,-1.0322038E-1,-3.3445466E-2,-9.018242E-2,-6.770237E-4,-5.9833765E-2,-8.2107104E-2,-1.8143963E-2,-6.533643E-2,-1.0452894E-2,-5.418705E-2,-8.871252E-2,3.631973E-2,-6.2979246E-3,-1.8357191E-2,-6.231592E-2,-9.265776E-4,3.9732363E-2,-1.10852756E-1,-1.6005343E-2,7.5097635E-2,-6.1203666E-2,3.100123E-2,7.6142676E-2,-7.859978E-2,5.0394375E-2,-3.7975233E-2,-2.1944056E-1,6.1571296E-2,9.8114096E-2,-1.4299245E-1,5.922568E-2],"split_indices":[0,0,2,1,1,0,1,0,6,9,7,8,1,8,3,2,2,9,4,1,2,9,3,1,4,4,2,1,6,0,1,0,0,0,0,0,0,0,0,0,0,0,0,0,0,0,0,0,0,0,0,0,0,0,0,0,0,0,0,0,0,0,0],"split_type":[0,0,0,0,0,0,0,0,0,0,0,0,0,0,0,0,0,0,0,0,0,0,0,0,0,0,0,0,0,0,0,0,0,0,0,0,0,0,0,0,0,0,0,0,0,0,0,0,0,0,0,0,0,0,0,0,0,0,0,0,0,0,0],"sum_hessian":[6.1803574E3,3.6839128E3,2.4964446E3,9.806476E2,2.7032654E3,1.5550356E3,9.4140906E2,5.996504E2,3.8099713E2,8.2134216E2,1.8819231E3,1.2236538E3,3.313818E2,1.4962457E2,7.917845E2,4.3766217E2,1.6198825E2,1.7203697E2,2.0896016E2,5.599303E2,2.614119E2,1.392614E3,4.893091E2,1.0511973E3,1.7245657E2,2.576509E1,3.0561673E2,1.4649901E2,3.1255767E0,7.216248E2,7.015964E1,1.478275E2,2.8983466E2,3.266232E1,1.2932594E2,8.289093E1,8.914604E1,1.9087238E2,1.8087795E1,1.9275015E2,3.671801E2,1.1623251E2,1.4517937E2,5.702826E2,8.223314E2,3.0893692E2,1.8037218E2,4.4740268E2,6.0379456E2,2.5846935E1,1.4660963E2,8.25768E0,1.750741E1,8.351347E1,2.2210324E2,8.142225E0,1.3835678E2,1.0527943E0,2.0727823E0,6.923253E1,6.523923E2,3.3568022E0,6.680283E1],"tree_param":{"num_deleted":"0","num_feature":"10","num_nodes":"63","size_leaf_vector":"1"}},{"base_weights":[-7.900513E-4,-5.1403564E-1,2.4543573E-1,-8.568725E-1,-3.0956146E-1,4.842444E-2,5.897236E-1,-9.8743856E-1,-7.1566826E-1,-1.6609423E-1,-5.762403E-1,2.4343143E-1,-1.3364364E-1,3.226584E-1,8.420092E-1,-8.3248174E-1,-1.007687E0,-4.4439244E-1,-8.350152E-1,1.005749E-1,-3.8223043E-1,-8.0582076E-1,-3.4188813E-1,1.4786749E-2,4.49943E-1,-1.8131527E-1,6.494177E-1,4.3636388E-1,-2.7327552E-1,4.0515375E-1,9.145733E-1,-9.434956E-2,3.226543E-2,-1.0130113E-1,-6.0527574E-2,2.3926932E-3,-6.710654E-2,-9.836221E-2,-7.202651E-2,-8.452183E-3,7.79165E-2,-5.773905E-2,-4.621101E-3,-5.189351E-2,-8.615609E-2,1.5328513E-2,-5.391891E-2,2.0655304E-2,-5.347811E-2,-3.851667E-4,6.172824E-2,9.652231E-4,-3.6826324E-2,3.201021E-2,9.400271E-2,2.508671E-2,7.0385754E-2,-7.005488E-2,6.3847564E-3,7.6199576E-2,1.8213099E-2,9.495234E-2,5.4458834E-2],"categories":[],"categories_nodes":[],"categories_segments":[],"categories_sizes":[],"default_left":[0,0,0,0,0,0,0,0,0,0,0,0,0,0,0,0,0,0,0,0,0,0,0,0,0,0,0,0,0,0,0,0,0,0,0,0,0,0,0,0,0,0,0,0,0,0,0,0,0,0,0,0,0,0,0,0,0,0,0,0,0,0,0],"id":23,"left_children":[1,3,5,7,9,11,13,15,17,19,21,23,25,27,29,31,33,35,37,39,41,43,45,47,49,51,53,55,57,59,61,-1,-1,-1,-1,-1,-1,-1,-1,-1,-1,-1,-1,-1,-1,-1,-1,-1,-1,-1,-1,-1,-1,-1,-1,-1,-1,-1,-1,-1,-1,-1,-1],"loss_changes":[7.582903E2,1.3610663E2,2.7501636E2,1.2682129E1,4.658645E1,9.164247E1,9.9160706E1,3.3676147E-1,1.1042313E1,4.5845078E1,2.2665665E1,5.8836174E1,4.9954155E1,4.8805946E1,2.3666382E1,6.5948944E0,8.673096E-2,1.1676712E1,3.4469452E0,4.4853184E1,2.8773163E1,2.985443E0,2.0867088E1,6.2547092E1,4.972328E1,4.4958267E1,7.051796E0,2.97818E1,1.671652E1,8.599981E0,7.8809814E0,0E0,0E0,0E0,0E0,0E0,0E0,0E0,0E0,0E0,0E0,0E0,0E0,0E0,0E0,0E0,0E0,0E0,0E0,0E0,0E0,0E0,0E0,0E0,0E0,0E0,0E0,0E0,0E0,0E0,0E0,0E0,0E0],"parents":[2147483647,0,0,1,1,2,2,3,3,4,4,5,5,6,6,7,7,8,8,9,9,10,10,11,11,12,12,13,13,14,14,15,15,16,16,17,17,18,18,19,19,20,20,21,21,22,22,23,23,24,24,25,25,26,26,27,27,28,28,29,29,30,30],"right_children":[2,4,6,8,10,12,14,16,18,20,22,24,26,28,30,32,34,36,38,40,42,44,46,48,50,52,54,56,58,60,62,-1,-1,-1,-1,-1,-1,-1,-1,-1,-1,-1,-1,-1,-1,-1,-1,-1,-1,-1,-1,-1,-1,-1,-1,-1,-1,-1,-1,-1,-1,-1,-1],"split_conditions":[4.761905E-2,2.2719277E-1,2.6715165E-1,2.3148147E-2,7.839312E-2,6.49009E-2,1.03174604E-1,3.0559678E-2,2.48208E-2,2E-1,2.5263378E-1,2.410787E-1,2E-1,8.181379E-2,4.194784E-1,2.2280063E-1,1.3181178E-1,4.0493123E-2,2.1717691E-1,2.4993189E-1,2.5148317E-1,1.3420539E-1,1.7182988E-1,6.865956E-2,3.9863586E-1,2E-1,4.242211E-1,4.4516698E-1,3.1932265E-1,7.968244E-2,8.181379E-2,-9.434956E-2,3.226543E-2,-1.0130113E-1,-6.0527574E-2,2.3926932E-3,-6.710654E-2,-9.836221E-2,-7.202651E-2,-8.452183E-3,7.79165E-2,-5.773905E-2,-4.621101E-3,-5.189351E-2,-8.615609E-2,1.5328513E-2,-5.391891E-2,2.0655304E-2,-5.347811E-2,-3.851667E-4,6.172824E-2,9.652231E-4,-3.6826324E-2,3.201021E-2,9.400271E-2,2.508671E-2,7.0385754E-2,-7.005488E-2,6.3847564E-3,7.6199576E-2,1.8213099E-2,9.495234E-2,5.4458834E-2],"split_indices":[0,1,1,0,3,6,0,6,5,9,1,1,0,5,2,1,6,6,1,1,1,7,7,3,2,9,2,2,1,6,5,0,0,0,0,0,0,0,0,0,0,0,0,0,0,0,0,0,0,0,0,0,0,0,0,0,0,0,0,0,0,0,0],"split_type":[0,0,0,0,0,0,0,0,0,0,0,0,0,0,0,0,0,0,0,0,0,0,0,0,0,0,0,0,0,0,0,0,0,0,0,0,0,0,0,0,0,0,0,0,0,0,0,0,0,0,0,0,0,0,0,0,0,0,0,0,0,0,0],"sum_hessian":[5.9983535E3,1.9443544E3,4.0539993E3,7.252144E2,1.21914E3,2.579231E3,1.4747684E3,3.7368732E2,3.5152713E2,7.9374554E2,4.2539447E2,1.245201E3,1.3340299E3,7.1750684E2,7.5726154E2,4.805383E1,3.2563348E2,1.088452E2,2.4268193E2,3.5557333E2,4.3817218E2,2.1365308E2,2.1174138E2,5.91442E2,6.53759E2,1.2582009E3,7.582897E1,6.027656E2,1.1474122E2,1.0880569E2,6.484559E2,4.40077E1,4.0461254E0,3.1988364E2,5.749825E0,3.579178E1,7.305342E1,1.024423E2,1.4023962E2,2.8005823E2,7.551509E1,2.7672943E2,1.6144276E2,3.643547E1,1.772176E2,6.0393284E1,1.513481E2,4.389121E2,1.525299E2,1.7639206E2,4.773669E2,6.228785E2,6.353225E2,3.653236E1,3.9296616E1,3.5708115E2,2.4568446E2,5.012908E1,6.461214E1,4.0918457E1,6.788722E1,5.910562E2,5.739964E1],"tree_param":{"num_deleted":"0","num_feature":"10","num_nodes":"63","size_leaf_vector":"1"}},{"base_weights":[-7.5352675E-4,-2.7339265E-1,4.0855604E-1,-7.455389E-1,-1.1856229E-1,2.0736958E-1,7.7432257E-1,-9.391565E-1,-5.447996E-1,-3.4980667E-1,1.2299141E-2,2.946378E-1,-1.19528994E-1,3.219421E-1,8.6768204E-1,-8.063701E-1,-1.0092679E0,-1.4471576E-1,-6.5690947E-1,-2.139E-1,-6.740224E-1,9.62126E-2,-4.361146E-1,-1.688452E-1,3.7762043E-1,-1.7821524E-1,8.9173734E-1,3.7964883E-1,-1.617468E0,9.242396E-1,4.90184E-1,-8.6940154E-2,-2.260386E-2,-7.749636E-2,-1.0214599E-1,-5.0542552E-2,3.1524103E-2,-7.751319E-2,-4.477566E-2,7.5338236E-3,-4.1612264E-2,-5.6539413E-2,-9.094213E-2,1.6413696E-2,-4.8572212E-2,-8.847325E-2,-2.7435416E-2,8.513683E-2,-2.6724428E-2,-7.646863E-2,4.287472E-2,-3.4151815E-2,1.92057E-2,9.912602E-2,-3.684851E-2,7.402472E-3,7.1346834E-2,-4.777267E-2,-2.018224E-1,5.552519E-2,9.640347E-2,-2.2647753E-1,5.7657372E-2],"categories":[],"categories_nodes":[],"categories_segments":[],"categories_sizes":[],"default_left":[0,0,0,0,0,0,0,0,0,0,0,0,0,0,0,0,0,0,0,0,0,0,0,0,0,0,0,0,0,0,0,0,0,0,0,0,0,0,0,0,0,0,0,0,0,0,0,0,0,0,0,0,0,0,0,0,0,0,0,0,0,0,0],"id":24,"left_children":[1,3,5,7,9,11,13,15,17,19,21,23,25,27,29,31,33,35,37,39,41,43,45,47,49,51,53,55,57,59,61,-1,-1,-1,-1,-1,-1,-1,-1,-1,-1,-1,-1,-1,-1,-1,-1,-1,-1,-1,-1,-1,-1,-1,-1,-1,-1,-1,-1,-1,-1,-1,-1],"loss_changes":[6.5097473E2,2.5586258E2,1.7145761E2,3.308618E1,7.9827286E1,4.299685E1,3.465747E1,3.2698364E0,1.9048126E1,4.1861855E1,6.3464016E1,4.5791084E1,1.9033047E1,1.66296E1,1.4174438E1,5.529846E0,1.7120361E-2,1.5871122E1,7.889206E0,3.940712E1,6.67424E0,5.623369E1,1.9051483E1,1.8421192E1,5.923799E1,1.8291267E1,2.5739498E0,1.4207674E1,1.0113344E0,8.197479E0,2.3059086E1,0E0,0E0,0E0,0E0,