{"learner":{"attributes":{"scikit_learn":"{\"_estimator_type\": \"classifier\"}"},"feature_names":[],"feature_types":[],"gradient_booster":{"model":{"gbtree_model_param":{"num_parallel_tree":"1","num_trees":"100"},"iteration_indptr":[0,1,2,3,4,5,6,7,8,9,10,11,12,13,14,15,16,17,18,19,20,21,22,23,24,25,26,27,28,29,30,31,32,33,34,35,36,37,38,39,40,41,42,43,44,45,46,47,48,49,50,51,52,53,54,55,56,57,58,59,60,61,62,63,64,65,66,67,68,69,70,71,72,73,74,75,76,77,78,79,80,81,82,83,84,85,86,87,88,89,90,91,92,93,94,95,96,97,98,99,100],"tree_info":[0,0,0,0,0,0,0,0,0,0,0,0,0,0,0,0,0,0,0,0,0,0,0,0,0,0,0,0,0,0,0,0,0,0,0,0,0,0,0,0,0,0,0,0,0,0,0,0,0,0,0,0,0,0,0,0,0,0,0,0,0,0,0,0,0,0,0,0,0,0,0,0,0,0,0,0,0,0,0,0,0,0,0,0,0,0,0,0,0,0,0,0,0,0,0,0,0,0,0,0],"trees":[{"base_weights":[1.9928608E-8,-1.520456E0,1.4899296E0,-1.8086921E0,-5.5396694E-1,6.552903E-1,1.7381531E0,-1.9093604E0,-1.4367169E0,-7.54861E-1,4.651758E-1,1.7375174E-1,1.3122742E0,1.2351131E0,1.8642976E0,-1.9517109E0,-1.7286125E0,-1.5525786E0,-1.0112269E0,-9.8371285E-1,-3.5645297E-1,-8.906356E-1,6.71133E-1,-1.8053393E-1,3.759281E-1,7.0320463E-1,1.4884733E0,8.816199E-1,1.5617328E0,1.6931148E0,1.9404411E0,-1.9602345E-1,-1.5940306E-1,-1.7928043E-1,-1.4857338E-1,-1.4584091E-1,-1.7110802E-1,-2.951772E-2,-1.1487985E-1,-8.495188E-2,-1.400175E-1,3.320837E-2,-5.1582165E-2,7.716649E-2,-1.179556E-1,2.268609E-2,1.0143178E-1,9.161447E-3,-9.222666E-2,7.291298E-2,1.7861377E-2,1.0331827E-1,-6.5913624E-3,1.2621318E-1,1.7422006E-1,9.6170776E-2,3.0754501E-2,1.421329E-1,1.8041469E-1,1.4162523E-1,1.8519042E-1,1.801904E-1,1.960866E-1],"categories":[],"categories_nodes":[],"categories_segments":[],"categories_sizes":[],"default_left":[0,0,0,0,0,0,0,0,0,0,0,0,0,0,0,0,0,0,0,0,0,0,0,0,0,0,0,0,0,0,0,0,0,0,0,0,0,0,0,0,0,0,0,0,0,0,0,0,0,0,0,0,0,0,0,0,0,0,0,0,0,0,0],"id":0,"left_children":[1,3,5,7,9,11,13,15,17,19,21,23,25,27,29,31,33,35,37,39,41,43,45,47,49,51,53,55,57,59,61,-1,-1,-1,-1,-1,-1,-1,-1,-1,-1,-1,-1,-1,-1,-1,-1,-1,-1,-1,-1,-1,-1,-1,-1,-1,-1,-1,-1,-1,-1,-1,-1],"loss_changes":[3.138648E4,1.9092578E3,1.448624E3,1.9502734E2,3.231603E2,5.077495E2,3.3991504E2,2.8421875E1,5.4084717E1,1.1976898E2,7.326652E1,6.6517975E1,7.1818726E1,1.2380286E2,5.28916E1,7.1103516E0,9.765869E0,1.0721191E1,2.3745087E1,4.5543762E1,5.308683E1,1.7598984E1,3.430223E1,6.826018E1,4.1055786E1,3.921382E1,2.7993042E1,2.374884E1,1.6571533E1,5.6053955E1,4.8867188E0,0E0,0E0,0E0,0E0,0E0,0E0,0E0,0E0,0E0,0E0,0E0,0E0,0E0,0E0,0E0,0E0,0E0,0E0,0E0,0E0,0E0,0E0,0E0,0E0,0E0,0E0,0E0,0E0,0E0,0E0,0E0,0E0],"parents":[2147483647,0,0,1,1,2,2,3,3,4,4,5,5,6,6,7,7,8,8,9,9,10,10,11,11,12,12,13,13,14,14,15,15,16,16,17,17,18,18,19,19,20,20,21,21,22,22,23,23,24,24,25,25,26,26,27,27,28,28,29,29,30,30],"right_children":[2,4,6,8,10,12,14,16,18,20,22,24,26,28,30,32,34,36,38,40,42,44,46,48,50,52,54,56,58,60,62,-1,-1,-1,-1,-1,-1,-1,-1,-1,-1,-1,-1,-1,-1,-1,-1,-1,-1,-1,-1,-1,-1,-1,-1,-1,-1,-1,-1,-1,-1,-1,-1],"split_conditions":[7.486631E-2,5.2287582E-2,1.05882354E-1,4.0106952E-2,5.888378E-1,5.604706E-1,5.2943105E-1,3.2352943E-2,4.6538514E-1,4.5449892E-1,4.2889315E-1,4.35114E-1,4.5449892E-1,1.5441176E-1,1.5294118E-1,4.8520407E-1,4.5227307E-1,5.6218827E-1,2.0092809E-1,5.643338E-1,2.1747552E-1,4.9736685E-1,6.4705886E-2,5.2868044E-1,1.5E-1,5.813594E-1,6.0567504E-1,3E-1,2.4264705E-1,5.774618E-1,5.580334E-1,-1.9602345E-1,-1.5940306E-1,-1.7928043E-1,-1.4857338E-1,-1.4584091E-1,-1.7110802E-1,-2.951772E-2,-1.1487985E-1,-8.495188E-2,-1.400175E-1,3.320837E-2,-5.1582165E-2,7.716649E-2,-1.179556E-1,2.268609E-2,1.0143178E-1,9.161447E-3,-9.222666E-2,7.291298E-2,1.7861377E-2,1.0331827E-1,-6.5913624E-3,1.2621318E-1,1.7422006E-1,9.6170776E-2,3.0754501E-2,1.421329E-1,1.8041469E-1,1.4162523E-1,1.8519042E-1,1.801904E-1,1.960866E-1],"split_indices":[0,0,0,0,2,2,2,0,1,1,1,1,1,0,0,1,1,3,6,3,6,3,0,3,8,3,2,8,0,2,2,0,0,0,0,0,0,0,0,0,0,0,0,0,0,0,0,0,0,0,0,0,0,0,0,0,0,0,0,0,0,0,0],"split_type":[0,0,0,0,0,0,0,0,0,0,0,0,0,0,0,0,0,0,0,0,0,0,0,0,0,0,0,0,0,0,0,0,0,0,0,0,0,0,0,0,0,0,0,0,0,0,0,0,0,0,0,0,0,0,0,0,0,0,0,0,0,0,0],"sum_hessian":[1.3852889E4,6.8561978E3,6.9966914E3,5.280517E3,1.5756805E3,1.6046792E3,5.392012E3,4.152567E3,1.1279502E3,1.3164419E3,2.5923856E2,9.267091E2,6.779701E2,1.0832023E3,4.30881E3,3.356352E3,7.962149E2,8.84461E2,2.4348926E2,8.3521313E2,4.8122876E2,3.3748512E1,2.2549005E2,3.3673514E2,5.89974E2,1.5324324E2,5.2472687E2,5.21977E2,5.612252E2,1.3336912E3,2.9751187E3,3.2738557E3,8.249636E1,6.247225E2,1.7149243E2,5.612252E2,3.2323575E2,3.9748245E1,2.0374101E2,6.3397205E2,2.0124112E2,9.024602E1,3.9098276E2,4.7497907E0,2.899872E1,9.8995636E1,1.2649442E2,2.469891E2,8.974604E1,2.1049072E2,3.7948328E2,1.0699528E2,4.624796E1,2.8048764E2,2.4423923E2,4.5747983E2,6.4497154E1,3.5973413E2,2.0149112E2,4.897284E2,8.4396277E2,3.9373264E2,2.5813862E3],"tree_param":{"num_deleted":"0","num_feature":"10","num_nodes":"63","size_leaf_vector":"1"}},{"base_weights":[1.0382565E-4,-1.3768951E0,1.351795E0,-1.6400734E0,-4.9941698E-1,5.917837E-1,1.5792291E0,-1.7326097E0,-1.2993398E0,-7.155125E-1,2.8257203E-1,1.9354978E-1,1.2477927E0,1.117833E0,1.6955101E0,-1.7716349E0,-1.5663832E0,-1.433183E0,-9.8044014E-1,-9.557239E-1,-4.2265546E-1,-4.3608746E-1,6.211847E-1,2.3397816E-2,5.9829205E-1,-8.9924864E-2,1.3175873E0,7.9588634E-1,1.416664E0,1.4837042E0,1.7491992E0,-1.2934668E-1,-1.7772268E-1,-1.6252382E-1,-1.3442586E-1,-1.3325098E-1,-1.6343924E-1,-1.0627725E-1,-1.9802572E-2,-7.346127E-2,-1.250893E-1,-2.6016707E-2,-9.584635E-2,1.5039824E-2,-9.124419E-2,2.2150688E-2,9.981733E-2,1.8047798E-2,-6.373262E-2,7.625956E-2,1.42407715E-2,9.104474E-2,-9.941541E-2,1.0939671E-1,1.5556002E-1,4.9768582E-2,9.259081E-2,1.16810285E-1,1.5335236E-1,1.1701745E-1,1.65459E-1,1.4657915E-1,1.7639272E-1],"categories":[],"categories_nodes":[],"categories_segments":[],"categories_sizes":[],"default_left":[0,0,0,0,0,0,0,0,0,0,0,0,0,0,0,0,0,0,0,0,0,0,0,0,0,0,0,0,0,0,0,0,0,0,0,0,0,0,0,0,0,0,0,0,0,0,0,0,0,0,0,0,0,0,0,0,0,0,0,0,0,0,0],"id":1,"left_children":[1,3,5,7,9,11,13,15,17,19,21,23,25,27,29,31,33,35,37,39,41,43,45,47,49,51,53,55,57,59,61,-1,-1,-1,-1,-1,-1,-1,-1,-1,-1,-1,-1,-1,-1,-1,-1,-1,-1,-1,-1,-1,-1,-1,-1,-1,-1,-1,-1,-1,-1,-1,-1],"loss_changes":[2.5616E4,1.5735625E3,1.1995459E3,1.630957E2,2.6625156E2,4.1807422E2,2.848662E2,2.3958984E1,4.657019E1,8.639166E1,8.339615E1,6.8685936E1,5.657422E1,1.0266223E2,4.5927734E1,6.604492E0,8.171509E0,1.3815796E1,2.1398773E1,4.326819E1,4.83118E1,3.0865406E1,3.4825974E1,7.311385E1,2.200357E1,2.8874508E1,2.8889282E1,1.9763E1,1.4422852E1,4.4649048E1,1.1599609E1,0E0,0E0,0E0,0E0,0E0,0E0,0E0,0E0,0E0,0E0,0E0,0E0,0E0,0E0,0E0,0E0,0E0,0E0,0E0,0E0,0E0,0E0,0E0,0E0,0E0,0E0,0E0,0E0,0E0,0E0,0E0,0E0],"parents":[2147483647,0,0,1,1,2,2,3,3,4,4,5,5,6,6,7,7,8,8,9,9,10,10,11,11,12,12,13,13,14,14,15,15,16,16,17,17,18,18,19,19,20,20,21,21,22,22,23,23,24,24,25,25,26,26,27,27,28,28,29,29,30,30],"right_children":[2,4,6,8,10,12,14,16,18,20,22,24,26,28,30,32,34,36,38,40,42,44,46,48,50,52,54,56,58,60,62,-1,-1,-1,-1,-1,-1,-1,-1,-1,-1,-1,-1,-1,-1,-1,-1,-1,-1,-1,-1,-1,-1,-1,-1,-1,-1,-1,-1,-1,-1,-1,-1],"split_conditions":[7.486631E-2,5.2287582E-2,1.05882354E-1,4.0106952E-2,5.76896E-1,5.6791157E-1,5.2943105E-1,3.2352943E-2,4.5227307E-1,4.4244206E-1,4.5299366E-1,4.8121887E-1,4.1908714E-1,1.5441176E-1,1.3529412E-1,4.370531E-1,4.5227307E-1,5.6218827E-1,6.203092E-1,5.2518064E-1,2E-1,5.643338E-1,6.535948E-2,5.784996E-1,4.0363067E-1,5.1963073E-1,6.0567504E-1,4.343276E-1,4.7835898E-1,5.725896E-1,4.3087E-1,-1.2934668E-1,-1.7772268E-1,-1.6252382E-1,-1.3442586E-1,-1.3325098E-1,-1.6343924E-1,-1.0627725E-1,-1.9802572E-2,-7.346127E-2,-1.250893E-1,-2.6016707E-2,-9.584635E-2,1.5039824E-2,-9.124419E-2,2.2150688E-2,9.981733E-2,1.8047798E-2,-6.373262E-2,7.625956E-2,1.42407715E-2,9.104474E-2,-9.941541E-2,1.0939671E-1,1.5556002E-1,4.9768582E-2,9.259081E-2,1.16810285E-1,1.5335236E-1,1.1701745E-1,1.65459E-1,1.4657915E-1,1.7639272E-1],"split_indices":[0,0,0,0,2,2,2,0,1,1,1,1,1,0,0,2,1,3,2,3,8,3,0,3,6,3,2,1,2,2,1,0,0,0,0,0,0,0,0,0,0,0,0,0,0,0,0,0,0,0,0,0,0,0,0,0,0,0,0,0,0,0,0],"split_type":[0,0,0,0,0,0,0,0,0,0,0,0,0,0,0,0,0,0,0,0,0,0,0,0,0,0,0,0,0,0,0,0,0,0,0,0,0,0,0,0,0,0,0,0,0,0,0,0,0,0,0,0,0,0,0,0,0,0,0,0,0,0,0],"sum_hessian":[1.3760593E4,6.8164746E3,6.944118E3,5.2430723E3,1.5734022E3,1.6002389E3,5.3438794E3,4.120063E3,1.1230095E3,1.232811E3,3.4059113E2,9.9656415E2,6.036748E2,1.0778094E3,4.26607E3,3.3288794E3,7.911835E2,7.8855615E2,3.344534E2,6.7603815E2,5.5677295E2,1.0898897E2,2.3160214E2,7.0235486E2,2.9420926E2,2.9920235E1,5.737546E2,5.2060126E2,5.572081E2,8.6848645E2,3.3975835E3,4.116366E1,3.2877158E3,6.204659E2,1.7071762E2,5.306654E2,2.5789072E2,3.0228595E2,3.2167454E1,3.885009E2,2.8753723E2,4.2835593E2,1.2841705E2,4.9154465E1,5.9834503E1,1.1318868E2,1.1841347E2,5.680369E2,1.3431795E2,2.157712E2,7.8438065E1,1.4201675E1,1.5718558E1,2.9870682E2,2.7504776E2,1.5953679E2,3.6106448E2,1.8170842E2,3.7549973E2,3.0914172E2,5.593447E2,1.7280786E2,3.2247756E3],"tree_param":{"num_deleted":"0","num_feature":"10","num_nodes":"63","size_leaf_vector":"1"}},{"base_weights":[1.572626E-4,-1.3291273E0,1.1790248E0,-1.5630349E0,-7.2791594E-1,4.3620667E-1,1.4540479E0,-1.6348597E0,-1.3856292E0,-1.0330721E0,-3.781271E-1,4.2925652E-2,9.869817E-1,1.0187159E0,1.565155E0,-1.6456245E0,-1.3689643E0,-1.4940584E0,-1.2257094E0,-9.133937E-1,-1.399849E0,-5.7607627E-1,3.1891525E-1,-2.9982784E-1,2.1592723E-1,4.4387832E-1,1.1667063E0,7.2084177E-1,1.2983557E0,1.4107013E0,1.6343824E0,-1.367241E-1,-1.6524036E-1,8.604693E-2,-1.3961841E-1,-1.3864014E-1,-1.563905E-1,-9.8126076E-2,-1.3419142E-1,-1.2853073E-1,-7.4725725E-2,-1.4749672E-1,-9.567392E-2,-7.612591E-2,-1.7030513E-2,-4.2866807E-2,5.9417136E-2,1.0991323E-2,-4.4686686E-2,-6.526013E-3,4.66884E-2,8.458364E-2,-1.4151595E-2,8.1672005E-2,1.317132E-1,7.952861E-2,1.9101977E-2,1.1666504E-1,1.5278676E-1,1.165144E-1,1.5533444E-1,1.5069284E-1,1.654434E-1],"categories":[],"categories_nodes":[],"categories_segments":[],"categories_sizes":[],"default_left":[0,0,0,0,0,0,0,0,0,0,0,0,0,0,0,0,0,0,0,0,0,0,0,0,0,0,0,0,0,0,0,0,0,0,0,0,0,0,0,0,0,0,0,0,0,0,0,0,0,0,0,0,0,0,0,0,0,0,0,0,0,0,0],"id":2,"left_children":[1,3,5,7,9,11,13,15,17,19,21,23,25,27,29,31,33,35,37,39,41,43,45,47,49,51,53,55,57,59,61,-1,-1,-1,-1,-1,-1,-1,-1,-1,-1,-1,-1,-1,-1,-1,-1,-1,-1,-1,-1,-1,-1,-1,-1,-1,-1,-1,-1,-1,-1,-1,-1],"loss_changes":[2.1195766E4,8.928867E2,1.4638408E3,5.6041016E1,1.8987384E2,4.1982962E2,2.5142871E2,7.053711E0,2.1148682E1,4.0483765E1,1.1499479E2,6.718436E1,7.8297424E1,8.790161E1,4.2234375E1,3.6279297E0,9.240219E0,3.736084E0,1.405249E1,4.354077E1,6.317444E0,4.8593124E1,3.8257763E1,2.2949596E1,5.3153877E1,4.774084E1,3.0832397E1,2.030545E1,1.4807922E1,4.3604004E1,4.8427734E0,0E0,0E0,0E0,0E0,0E0,0E0,0E0,0E0,0E0,0E0,0E0,0E0,0E0,0E0,0E0,0E0,0E0,0E0,0E0,0E0,0E0,0E0,0E0,0E0,0E0,0E0,0E0,0E0,0E0,0E0,0E0,0E0],"parents":[2147483647,0,0,1,1,2,2,3,3,4,4,5,5,6,6,7,7,8,8,9,9,10,10,11,11,12,12,13,13,14,14,15,15,16,16,17,17,18,18,19,19,20,20,21,21,22,22,23,23,24,24,25,25,26,26,27,27,28,28,29,29,30,30],"right_children":[2,4,6,8,10,12,14,16,18,20,22,24,26,28,30,32,34,36,38,40,42,44,46,48,50,52,54,56,58,60,62,-1,-1,-1,-1,-1,-1,-1,-1,-1,-1,-1,-1,-1,-1,-1,-1,-1,-1,-1,-1,-1,-1,-1,-1,-1,-1,-1,-1,-1,-1,-1,-1],"split_conditions":[6.985294E-2,4.621849E-2,1.05882354E-1,3.2352943E-2,4.4320604E-1,5.586688E-1,5.2943105E-1,4.735529E-1,4.3025044E-1,5.649689E-1,5.930449E-1,7.9831935E-2,4.5449892E-1,1.5441176E-1,1.5294118E-1,4.5659158E-1,1.1756948E-1,5.0553966E-1,5E-2,3.8895127E-1,6.1764706E-2,6.1764706E-2,5.2287582E-2,4.935262E-1,4.5009667E-1,5.636124E-1,8.169935E-2,3E-1,2.4264705E-1,5.774618E-1,5.593056E-1,-1.367241E-1,-1.6524036E-1,8.604693E-2,-1.3961841E-1,-1.3864014E-1,-1.563905E-1,-9.8126076E-2,-1.3419142E-1,-1.2853073E-1,-7.4725725E-2,-1.4749672E-1,-9.567392E-2,-7.612591E-2,-1.7030513E-2,-4.2866807E-2,5.9417136E-2,1.0991323E-2,-4.4686686E-2,-6.526013E-3,4.66884E-2,8.458364E-2,-1.4151595E-2,8.1672005E-2,1.317132E-1,7.952861E-2,1.9101977E-2,1.1666504E-1,1.5278676E-1,1.165144E-1,1.5533444E-1,1.5069284E-1,1.654434E-1],"split_indices":[0,0,0,0,1,2,2,1,1,3,2,0,1,0,0,2,7,3,8,1,0,0,0,3,1,3,0,8,0,2,2,0,0,0,0,0,0,0,0,0,0,0,0,0,0,0,0,0,0,0,0,0,0,0,0,0,0,0,0,0,0,0,0],"split_type":[0,0,0,0,0,0,0,0,0,0,0,0,0,0,0,0,0,0,0,0,0,0,0,0,0,0,0,0,0,0,0,0,0,0,0,0,0,0,0,0,0,0,0,0,0,0,0,0,0,0,0,0,0,0,0,0,0,0,0,0,0,0,0],"sum_hessian":[1.35239E4,6.3563677E3,7.1675327E3,4.574867E3,1.7815001E3,1.9373833E3,5.2301494E3,3.2506074E3,1.32426E3,9.5040894E2,8.310912E2,1.1309244E3,8.064589E2,1.0655099E3,4.1646396E3,3.119139E3,1.3146844E2,7.8420685E2,5.400531E2,7.1921967E2,2.3118927E2,6.474103E2,1.8368091E2,3.7910413E2,7.5182025E2,2.0138141E2,6.050775E2,5.176664E2,5.4784344E2,1.2955366E3,2.869103E3,7.89684E1,3.0401707E3,1.2165368E0,1.302519E2,3.1678467E2,4.674222E2,1.7705136E2,3.630017E2,2.1999709E2,4.9922256E2,1.956868E2,3.5502457E1,4.439346E2,2.0347566E2,4.9280342E1,1.3440057E2,1.0018357E2,2.7892056E2,3.54904E2,3.969163E2,1.1913384E2,8.224757E1,1.838212E2,4.2125632E2,4.534517E2,6.421466E1,3.519564E2,1.9588708E2,4.794102E2,8.1612646E2,4.003729E2,2.46873E3],"tree_param":{"num_deleted":"0","num_feature":"10","num_nodes":"63","size_leaf_vector":"1"}},{"base_weights":[1.7940564E-4,-1.2297579E0,1.089243E0,-1.4557254E0,-6.6211987E-1,3.9587456E-1,1.3521491E0,-1.5273623E0,-1.2806668E0,-8.865457E-1,-2.5501642E-1,9.940244E-2,1.0074854E0,9.332199E-1,1.461049E0,-1.5567116E-1,-1.4252136E0,-1.3531563E0,-1.0448108E0,-9.8929316E-1,-5.474851E-1,-3.890695E-1,5.475195E-1,-2.231485E-1,2.8814885E-1,4.4480783E-1,1.1404871E0,6.544793E-1,1.1991843E0,1.1907772E0,1.4997783E0,-1.9369746E-2,-1.4408113E-1,-1.439542E-1,-1.2774746E-1,-6.193878E-2,-1.2007612E-1,-8.399164E-2,-1.15292564E-1,-7.0448115E-2,3.9865892E-2,2.4222096E-2,-4.9917813E-2,-1.8633218E-2,8.517328E-2,8.131777E-3,-7.683156E-2,1.0688982E-2,6.6068664E-2,1.5450986E-2,1.1779853E-1,7.571033E-2,1.2605678E-1,2.3711955E-2,7.389489E-2,1.0730922E-1,1.42134E-1,8.875256E-2,1.3863783E-1,1.3154767E-1,1.5289275E-1],"categories":[],"categories_nodes":[],"categories_segments":[],"categories_sizes":[],"default_left":[0,0,0,0,0,0,0,0,0,0,0,0,0,0,0,0,0,0,0,0,0,0,0,0,0,0,0,0,0,0,0,0,0,0,0,0,0,0,0,0,0,0,0,0,0,0,0,0,0,0,0,0,0,0,0,0,0,0,0,0,0],"id":3,"left_children":[1,3,5,7,9,11,13,15,17,19,21,23,25,27,29,-1,31,33,35,37,39,41,43,45,47,49,51,53,55,57,59,-1,-1,-1,-1,-1,-1,-1,-1,-1,-1,-1,-1,-1,-1,-1,-1,-1,-1,-1,-1,-1,-1,-1,-1,-1,-1,-1,-1,-1,-1],"loss_changes":[1.7668592E4,7.936133E2,1.2747646E3,5.3598633E1,1.61094E2,3.4891467E2,2.3003516E2,7.189453E0,2.0685791E1,3.909674E1,6.7868355E1,7.905629E1,4.651288E1,7.700067E1,4.033496E1,0E0,1.3403442E1,4.6029053E0,1.9708282E1,2.0344849E1,3.9918762E1,3.761802E1,2.0345844E1,7.9658356E1,5.5230278E1,2.5733278E1,2.2411255E1,1.7963638E1,1.3481506E1,2.897345E1,1.6875977E1,0E0,0E0,0E0,0E0,0E0,0E0,0E0,0E0,0E0,0E0,0E0,0E0,0E0,0E0,0E0,0E0,0E0,0E0,0E0,0E0,0E0,0E0,0E0,0E0,0E0,0E0,0E0,0E0,0E0,0E0],"parents":[2147483647,0,0,1,1,2,2,3,3,4,4,5,5,6,6,7,7,8,8,9,9,10,10,11,11,12,12,13,13,14,14,16,16,17,17,18,18,19,19,20,20,21,21,22,22,23,23,24,24,25,25,26,26,27,27,28,28,29,29,30,30],"right_children":[2,4,6,8,10,12,14,16,18,20,22,24,26,28,30,-1,32,34,36,38,40,42,44,46,48,50,52,54,56,58,60,-1,-1,-1,-1,-1,-1,-1,-1,-1,-1,-1,-1,-1,-1,-1,-1,-1,-1,-1,-1,-1,-1,-1,-1,-1,-1,-1,-1,-1,-1],"split_conditions":[6.985294E-2,4.621849E-2,1.05882354E-1,3.2352943E-2,4.579846E-1,5.725896E-1,5.2943105E-1,4.2532164E-1,4.5227307E-1,6.1764706E-2,6.137632E-1,4.3583044E-1,4.5074618E-1,1.5441176E-1,1.2184874E-1,-1.5567116E-1,4.370531E-1,4.0357584E-1,5E-2,5.385837E-1,5.6673473E-1,2.0092809E-1,5.514706E-2,5.1868194E-1,9.243698E-2,9.191176E-2,7.9831935E-2,4.4532064E-1,2.4264705E-1,5.7495755E-1,4.5449892E-1,-1.9369746E-2,-1.4408113E-1,-1.439542E-1,-1.2774746E-1,-6.193878E-2,-1.2007612E-1,-8.399164E-2,-1.15292564E-1,-7.0448115E-2,3.9865892E-2,2.4222096E-2,-4.9917813E-2,-1.8633218E-2,8.517328E-2,8.131777E-3,-7.683156E-2,1.0688982E-2,6.6068664E-2,1.5450986E-2,1.1779853E-1,7.571033E-2,1.2605678E-1,2.3711955E-2,7.389489E-2,1.0730922E-1,1.42134E-1,8.875256E-2,1.3863783E-1,1.3154767E-1,1.5289275E-1],"split_indices":[0,0,0,0,1,2,2,1,1,0,2,1,1,0,0,0,2,1,8,3,2,6,0,3,0,0,0,2,0,2,1,0,0,0,0,0,0,0,0,0,0,0,0,0,0,0,0,0,0,0,0,0,0,0,0,0,0,0,0,0,0],"split_type":[0,0,0,0,0,0,0,0,0,0,0,0,0,0,0,0,0,0,0,0,0,0,0,0,0,0,0,0,0,0,0,0,0,0,0,0,0,0,0,0,0,0,0,0,0,0,0,0,0,0,0,0,0,0,0,0,0,0,0,0,0],"sum_hessian":[1.3188635E4,6.193668E3,6.9949663E3,4.4289927E3,1.7646752E3,1.9237965E3,5.07117E3,3.1373926E3,1.2916003E3,1.1368054E3,6.278698E2,1.2964958E3,6.2730066E2,1.0482407E3,4.0229292E3,2.4260903E3,7.1130225E2,9.8433246E2,3.072679E2,8.7095685E2,2.6584857E2,5.384449E2,8.942495E1,4.785367E2,8.1795917E2,1.2075951E2,5.0654114E2,5.135168E2,5.3472394E2,5.0820123E2,3.514728E3,9.064129E0,7.022381E2,4.5124536E2,5.330871E2,8.3756714E1,2.2351122E2,4.5851804E2,4.1243878E2,2.2823276E2,3.7615803E1,7.978877E1,4.586561E2,2.6320257E1,6.3104694E1,3.0759894E2,1.7093779E2,5.5110486E2,2.6685434E2,8.737468E1,3.3384827E1,1.2255677E2,3.8398438E2,8.707763E1,4.2643918E2,3.4483267E2,1.8989128E2,2.0143782E2,3.0676343E2,4.862776E2,3.0284504E3],"tree_param":{"num_deleted":"0","num_feature":"10","num_nodes":"61","size_leaf_vector":"1"}},{"base_weights":[2.2098838E-4,-1.0853449E0,1.068218E0,-1.3172706E0,-3.6517593E-1,5.8482236E-1,1.3346504E0,-1.4279537E0,-1.0795265E0,-5.2273476E-1,2.949825E-1,2.8285718E-1,1.1192517E0,8.983003E-1,1.3999137E0,-1.4309494E0,-2.8165945E-1,-1.1504939E0,-6.6971827E-1,-8.4120816E-1,-3.5911378E-1,-1.2584996E-1,6.58126E-1,5.8925124E-3,5.05084E-1,-4.129121E-2,1.1630219E0,7.058907E-1,1.151819E0,1.2272207E0,1.4440626E0,-1.4824337E-1,-1.3710496E-1,-5.70624E-2,9.986287E-2,-1.23211704E-1,-9.985088E-2,-2.512522E-2,-9.24603E-2,-1.4710896E-2,-9.4598405E-2,-2.3955107E-2,-8.637756E-2,-9.6351475E-2,1.2003118E-2,3.8693555E-2,9.8140076E-2,2.1714432E-2,-2.2791553E-2,2.5490751E-2,7.443636E-2,9.606925E-2,-1.1541779E-1,8.824088E-2,1.3061485E-1,3.837369E-2,8.7207265E-2,6.251664E-2,1.1944298E-1,8.232432E-2,1.2774451E-1,1.2996458E-1,1.4613608E-1],"categories":[],"categories_nodes":[],"categories_segments":[],"categories_sizes":[],"default_left":[0,0,0,0,0,0,0,0,0,0,0,0,0,0,0,0,0,0,0,0,0,0,0,0,0,0,0,0,0,0,0,0,0,0,0,0,0,0,0,0,0,0,0,0,0,0,0,0,0,0,0,0,0,0,0,0,0,0,0,0,0,0,0],"id":4,"left_children":[1,3,5,7,9,11,13,15,17,19,21,23,25,27,29,31,33,35,37,39,41,43,45,47,49,51,53,55,57,59,61,-1,-1,-1,-1,-1,-1,-1,-1,-1,-1,-1,-1,-1,-1,-1,-1,-1,-1,-1,-1,-1,-1,-1,-1,-1,-1,-1,-1,-1,-1,-1,-1],"loss_changes":[1.482868E4,1.0589487E3,8.295762E2,1.2469922E2,1.6101013E2,3.6966882E2,1.17083984E2,1.0827637E1,4.3670532E1,6.4775116E1,4.5718445E1,9.02443E1,4.207666E1,2.5696747E1,2.577539E1,8.025879E0,4.1842737E0,1.4910767E1,2.4081154E1,3.0631927E1,4.967827E1,2.8778229E1,1.368734E1,3.234001E1,4.850882E1,3.571744E1,3.087146E1,1.6344635E1,4.4800415E0,1.4009277E1,5.2749023E0,0E0,0E0,0E0,0E0,0E0,0E0,0E0,0E0,0E0,0E0,0E0,0E0,0E0,0E0,0E0,0E0,0E0,0E0,0E0,0E0,0E0,0E0,0E0,0E0,0E0,0E0,0E0,0E0,0E0,0E0,0E0,0E0],"parents":[2147483647,0,0,1,1,2,2,3,3,4,4,5,5,6,6,7,7,8,8,9,9,10,10,11,11,12,12,13,13,14,14,15,15,16,16,17,17,18,18,19,19,20,20,21,21,22,22,23,23,24,24,25,25,26,26,27,27,28,28,29,29,30,30],"right_children":[2,4,6,8,10,12,14,16,18,20,22,24,26,28,30,32,34,36,38,40,42,44,46,48,50,52,54,56,58,60,62,-1,-1,-1,-1,-1,-1,-1,-1,-1,-1,-1,-1,-1,-1,-1,-1,-1,-1,-1,-1,-1,-1,-1,-1,-1,-1,-1,-1,-1,-1,-1,-1],"split_conditions":[7.486631E-2,5.2287582E-2,1.2184874E-1,3.6764707E-2,5.8279055E-1,5.725896E-1,5.108261E-1,5.4088235E-1,4.7576883E-1,4.2043877E-1,6.3025214E-2,9.243698E-2,4.183852E-1,1.8627451E-1,5.580334E-1,2.2058824E-2,3.6076465E-1,4.3087E-1,2.6057184E-1,4.2147884E-1,2E-1,4.295704E-1,6.137632E-1,1.5E-1,5.209977E-1,5.1963073E-1,9.191176E-2,4.595774E-1,4.1960225E-1,4.2114797E-1,4.5449892E-1,-1.4824337E-1,-1.3710496E-1,-5.70624E-2,9.986287E-2,-1.23211704E-1,-9.985088E-2,-2.512522E-2,-9.24603E-2,-1.4710896E-2,-9.4598405E-2,-2.3955107E-2,-8.637756E-2,-9.6351475E-2,1.2003118E-2,3.8693555E-2,9.8140076E-2,2.1714432E-2,-2.2791553E-2,2.5490751E-2,7.443636E-2,9.606925E-2,-1.1541779E-1,8.824088E-2,1.3061485E-1,3.837369E-2,8.7207265E-2,6.251664E-2,1.1944298E-1,8.232432E-2,1.2774451E-1,1.2996458E-1,1.4613608E-1],"split_indices":[0,0,0,0,2,2,2,1,1,1,0,0,1,0,2,0,7,1,6,3,8,1,2,8,2,3,0,2,2,1,1,0,0,0,0,0,0,0,0,0,0,0,0,0,0,0,0,0,0,0,0,0,0,0,0,0,0,0,0,0,0,0,0],"split_type":[0,0,0,0,0,0,0,0,0,0,0,0,0,0,0,0,0,0,0,0,0,0,0,0,0,0,0,0,0,0,0,0,0,0,0,0,0,0,0,0,0,0,0,0,0,0,0,0,0,0,0,0,0,0,0,0,0,0,0,0,0,0,0],"sum_hessian":[1.2788168E4,6.341912E3,6.4462554E3,4.796426E3,1.5454866E3,2.2916492E3,4.154606E3,3.2693547E3,1.5270709E3,1.2478683E3,2.9761835E2,1.4652676E3,8.263816E2,5.42463E2,3.612143E3,3.260585E3,8.769847E0,1.3001193E3,2.269517E2,4.2211618E2,8.257521E2,1.3816171E2,1.5945663E2,6.527553E2,8.125123E2,3.003651E1,7.963451E2,3.1055203E2,2.3191098E2,7.4129346E2,2.8708496E3,1.7407008E3,1.5198842E3,7.6071844E0,1.162662E0,8.412314E2,4.5888788E2,8.66601E1,1.4029161E2,5.5677654E1,3.664385E2,6.687814E2,1.569707E2,3.0689724E1,1.07471985E2,8.7908455E1,7.154819E1,3.4295636E2,3.0979895E2,3.982212E2,4.1429114E2,1.5877771E1,1.415874E1,2.714016E2,5.249434E2,1.0680778E2,2.0374425E2,1.853212E1,2.1337886E2,8.3893394E1,6.574001E2,3.1522836E2,2.5556213E3],"tree_param":{"num_deleted":"0","num_feature":"10","num_nodes":"63","size_leaf_vector":"1"}},{"base_weights":[2.7124514E-4,-1.0732692E0,9.454801E-1,-1.2942506E0,-5.514937E-1,3.3003458E-1,1.1939248E0,-1.3689053E0,-1.1171813E0,-8.0560637E-1,-2.6899558E-1,2.566676E-2,7.7769804E-1,8.9749247E-1,1.3467466E0,-1.391919E0,-1.2227588E0,-1.149322E0,-6.2618923E-1,-6.899805E-1,-1.1702191E0,-3.8054582E-1,5.178185E-1,-7.525556E-2,5.105151E-1,3.5061857E-1,9.4168484E-1,7.1147037E-1,1.2162547E0,1.2216419E0,1.3988511E-1,-1.1303258E-1,-1.3983536E-1,-5.0556245E-3,-1.2426734E-1,-1.2737088E-1,-1.0750575E-1,-2.0135615E-3,-7.874725E-2,-1.0428661E-1,-5.3490557E-2,-4.5798674E-2,-1.2136226E-1,-5.4699637E-2,-1.4034229E-3,-1.1714927E-3,7.5579174E-2,1.6286777E-2,-3.9519798E-2,8.074389E-2,2.5914812E-2,6.874933E-2,-3.0130018E-2,7.543495E-2,1.21425405E-1,3.013671E-2,7.99943E-2,9.168223E-2,1.2806079E-1,-8.488061E-3,1.2415395E-1],"categories":[],"categories_nodes":[],"categories_segments":[],"categories_sizes":[],"default_left":[0,0,0,0,0,0,0,0,0,0,0,0,0,0,0,0,0,0,0,0,0,0,0,0,0,0,0,0,0,0,0,0,0,0,0,0,0,0,0,0,0,0,0,0,0,0,0,0,0,0,0,0,0,0,0,0,0,0,0,0,0],"id":5,"left_children":[1,3,5,7,9,11,13,15,17,19,21,23,25,27,29,31,33,35,37,39,41,43,45,47,49,51,53,55,57,59,-1,-1,-1,-1,-1,-1,-1,-1,-1,-1,-1,-1,-1,-1,-1,-1,-1,-1,-1,-1,-1,-1,-1,-1,-1,-1,-1,-1,-1,-1,-1],"loss_changes":[1.2531716E4,6.6601465E2,1.0038042E3,5.2157715E1,1.23406555E2,2.5751697E2,2.1072852E2,7.8916016E0,1.837378E1,3.7392334E1,7.1904915E1,5.5144188E1,5.3243378E1,9.367944E1,1.840039E1,2.5551758E0,9.188171E0,9.109497E0,7.464979E0,3.7222046E1,6.1437683E0,4.3680733E1,1.2846142E1,7.114673E1,1.4281944E1,4.716575E1,2.7276642E1,3.637799E1,1.0120972E1,2.3891113E1,0E0,0E0,0E0,0E0,0E0,0E0,0E0,0E0,0E0,0E0,0E0,0E0,0E0,0E0,0E0,0E0,0E0,0E0,0E0,0E0,0E0,0E0,0E0,0E0,0E0,0E0,0E0,0E0,0E0,0E0,0E0],"parents":[2147483647,0,0,1,1,2,2,3,3,4,4,5,5,6,6,7,7,8,8,9,9,10,10,11,11,12,12,13,13,14,14,15,15,16,16,17,17,18,18,19,19,20,20,21,21,22,22,23,23,24,24,25,25,26,26,27,27,28,28,29,29],"right_children":[2,4,6,8,10,12,14,16,18,20,22,24,26,28,30,32,34,36,38,40,42,44,46,48,50,52,54,56,58,60,-1,-1,-1,-1,-1,-1,-1,-1,-1,-1,-1,-1,-1,-1,-1,-1,-1,-1,-1,-1,-1,-1,-1,-1,-1,-1,-1,-1,-1,-1,-1],"split_conditions":[6.985294E-2,4.621849E-2,1.05882354E-1,3.2352943E-2,4.4320604E-1,5.586688E-1,5.580334E-1,4.4104275E-1,4.9608138E-1,5.649689E-1,6.137632E-1,4.9932152E-1,4.573565E-1,1.8627451E-1,1.5294118E-1,4.5659158E-1,4.370531E-1,4.0357584E-1,5E-2,3.8895127E-1,1.2194872E-1,6.1764706E-2,5.514706E-2,1.5E-1,3.3119524E-1,5.791948E-1,6.1101687E-1,4.2114797E-1,4.7835898E-1,4.0593675E-1,1.3988511E-1,-1.1303258E-1,-1.3983536E-1,-5.0556245E-3,-1.2426734E-1,-1.2737088E-1,-1.0750575E-1,-2.0135615E-3,-7.874725E-2,-1.0428661E-1,-5.3490557E-2,-4.5798674E-2,-1.2136226E-1,-5.4699637E-2,-1.4034229E-3,-1.1714927E-3,7.5579174E-2,1.6286777E-2,-3.9519798E-2,8.074389E-2,2.5914812E-2,6.874933E-2,-3.0130018E-2,7.543495E-2,1.21425405E-1,3.013671E-2,7.99943E-2,9.168223E-2,1.2806079E-1,-8.488061E-3,1.2415395E-1],"split_indices":[0,0,0,0,1,2,2,1,1,3,2,1,1,0,0,2,2,1,8,1,6,0,0,8,6,3,2,1,2,1,0,0,0,0,0,0,0,0,0,0,0,0,0,0,0,0,0,0,0,0,0,0,0,0,0,0,0,0,0,0,0],"split_type":[0,0,0,0,0,0,0,0,0,0,0,0,0,0,0,0,0,0,0,0,0,0,0,0,0,0,0,0,0,0,0,0,0,0,0,0,0,0,0,0,0,0,0,0,0,0,0,0,0,0,0,0,0,0,0,0,0,0,0,0,0],"sum_hessian":[1.2347925E4,5.781421E3,6.566504E3,4.060321E3,1.7210999E3,1.8891191E3,4.677385E3,2.8514036E3,1.2089175E3,9.0509607E2,8.1600385E2,1.1251698E3,7.639493E2,1.5934331E3,3.0839517E3,2.4561135E3,3.9529004E2,1.1333844E3,7.5533165E1,6.8937427E2,2.1572182E2,7.1513257E2,1.0087128E2,9.320138E2,1.9315607E2,2.1282251E2,5.511268E2,1.0082654E3,5.851677E2,9.139586E2,2.1699932E3,6.3204746E1,2.392909E3,6.6625395E0,3.886275E2,4.176703E2,7.1571405E2,1.611242E1,5.9420742E1,2.087109E2,4.8066336E2,1.3054534E1,2.0266728E2,4.9144934E2,2.2368323E2,3.157096E1,6.9300316E1,5.3461053E2,3.9740326E2,8.75393E1,1.0561677E2,1.4027946E2,7.2543045E1,3.2886627E2,2.2226048E2,1.7969916E2,8.285662E2,1.0621243E2,4.789553E2,1.3661213E1,9.0029736E2],"tree_param":{"num_deleted":"0","num_feature":"10","num_nodes":"61","size_leaf_vector":"1"}},{"base_weights":[2.636659E-4,-9.1625047E-1,9.783957E-1,-1.1672238E0,-2.3833317E-1,5.558951E-1,1.1994226E0,-1.2691408E0,-8.563323E-1,-3.9834487E-1,2.9690105E-1,2.1353325E-1,9.223788E-1,7.6327294E-1,1.2682427E0,-1.3172064E0,-1.129318E0,-9.360916E-1,-4.5674542E-1,-6.105882E-1,-2.4034637E-1,-6.947805E-1,4.0353614E-1,5.7834566E-2,5.045118E-1,7.3267184E-2,9.8011875E-1,5.861754E-1,1.006769E0,1.091426E0,1.315062E0,-1.338972E-1,-1.1974593E-1,-6.200356E-4,-1.1448791E-1,-7.570325E-2,-1.02701806E-1,5.4397583E-3,-7.477822E-2,-3.222683E-2,-9.135977E-2,-7.2399355E-3,-5.7996977E-2,1.2119061E-1,-1.0190987E-1,1.5918477E-2,7.439841E-2,3.2923218E-2,-3.165699E-2,6.961228E-2,1.8308075E-2,6.929322E-2,-1.1621731E-1,8.135846E-2,1.2198591E-1,2.841754E-2,7.4463986E-2,8.4154606E-2,1.1643807E-1,9.4390064E-2,1.235606E-1,1.1580755E-1,1.3341764E-1],"categories":[],"categories_nodes":[],"categories_segments":[],"categories_sizes":[],"default_left":[0,0,0,0,0,0,0,0,0,0,0,0,0,0,0,0,0,0,0,0,0,0,0,0,0,0,0,0,0,0,0,0,0,0,0,0,0,0,0,0,0,0,0,0,0,0,0,0,0,0,0,0,0,0,0,0,0,0,0,0,0,0,0],"id":6,"left_children":[1,3,5,7,9,11,13,15,17,19,21,23,25,27,29,31,33,35,37,39,41,43,45,47,49,51,53,55,57,59,61,-1,-1,-1,-1,-1,-1,-1,-1,-1,-1,-1,-1,-1,-1,-1,-1,-1,-1,-1,-1,-1,-1,-1,-1,-1,-1,-1,-1,-1,-1,-1,-1],"loss_changes":[1.0657995E4,1.0439912E3,5.3639307E2,1.4083594E2,1.4225157E2,2.4787482E2,1.1233984E2,2.1169434E1,3.491443E1,4.2711823E1,4.073209E1,4.634101E1,4.6731445E1,2.170346E1,2.5543457E1,4.9194336E0,1.5188232E1,1.4257446E1,2.7779884E1,4.7297348E1,4.1841774E1,2.442838E1,2.8666779E1,6.796866E1,2.183773E1,4.816489E1,3.46911E1,1.4226273E1,4.652527E0,1.3471069E1,6.1723633E0,0E0,0E0,0E0,0E0,0E0,0E0,0E0,0E0,0E0,0E0,0E0,0E0,0E0,0E0,0E0,0E0,0E0,0E0,0E0,0E0,0E0,0E0,0E0,0E0,0E0,0E0,0E0,0E0,0E0,0E0,0E0,0E0],"parents":[2147483647,0,0,1,1,2,2,3,3,4,4,5,5,6,6,7,7,8,8,9,9,10,10,11,11,12,12,13,13,14,14,15,15,16,16,17,17,18,18,19,19,20,20,21,21,22,22,23,23,24,24,25,25,26,26,27,27,28,28,29,29,30,30],"right_children":[2,4,6,8,10,12,14,16,18,20,22,24,26,28,30,32,34,36,38,40,42,44,46,48,50,52,54,56,58,60,62,-1,-1,-1,-1,-1,-1,-1,-1,-1,-1,-1,-1,-1,-1,-1,-1,-1,-1,-1,-1,-1,-1,-1,-1,-1,-1,-1,-1,-1,-1,-1,-1],"split_conditions":[7.9831935E-2,5.392157E-2,1.2184874E-1,4.0106952E-2,5.761489E-1,5.522433E-1,5.108261E-1,4.2742676E-1,4.7810528E-1,4.3163475E-1,4.176748E-1,4.7576883E-1,4.2114797E-1,1.8627451E-1,5.580334E-1,3.2352943E-2,4.370531E-1,2.0092809E-1,2.6135826E-1,5.031619E-1,6.063785E-1,4.81513E-1,6.1196935E-1,1.5E-1,3.6928967E-1,5.4647386E-1,6.0567504E-1,4.595774E-1,2.4264705E-1,1.8382353E-1,4.5449892E-1,-1.338972E-1,-1.1974593E-1,-6.200356E-4,-1.1448791E-1,-7.570325E-2,-1.02701806E-1,5.4397583E-3,-7.477822E-2,-3.222683E-2,-9.135977E-2,-7.2399355E-3,-5.7996977E-2,1.2119061E-1,-1.0190987E-1,1.5918477E-2,7.439841E-2,3.2923218E-2,-3.165699E-2,6.961228E-2,1.8308075E-2,6.929322E-2,-1.1621731E-1,8.135846E-2,1.2198591E-1,2.841754E-2,7.4463986E-2,8.4154606E-2,1.1643807E-1,9.4390064E-2,1.235606E-1,1.1580755E-1,1.3341764E-1],"split_indices":[0,0,0,0,2,2,2,1,1,1,1,1,1,0,2,0,2,6,6,3,3,3,2,8,6,3,2,2,0,0,1,0,0,0,0,0,0,0,0,0,0,0,0,0,0,0,0,0,0,0,0,0,0,0,0,0,0,0,0,0,0,0,0],"split_type":[0,0,0,0,0,0,0,0,0,0,0,0,0,0,0,0,0,0,0,0,0,0,0,0,0,0,0,0,0,0,0,0,0,0,0,0,0,0,0,0,0,0,0,0,0,0,0,0,0,0,0,0,0,0,0,0,0,0,0,0,0,0,0],"sum_hessian":[1.1886823E4,6.1367363E3,5.7500864E3,4.478149E3,1.6585878E3,1.9761403E3,3.7739463E3,3.3702312E3,1.1079174E3,1.2770587E3,3.815291E2,1.0225121E3,9.536281E2,5.159825E2,3.2579639E3,2.5017935E3,8.684379E2,9.224497E2,1.8546768E2,5.4375476E2,7.333039E2,3.6507008E1,3.450221E2,6.6687506E2,3.5563705E2,6.0862743E1,8.927654E2,3.006926E2,2.1528993E2,6.8716095E2,2.570803E3,2.1083855E3,3.9340796E2,1.1887179E1,8.565507E2,3.1380576E2,6.086439E2,6.758405E1,1.1788363E2,2.796887E2,2.6406607E2,4.91477E2,2.4182692E2,4.909133E0,3.1597876E1,2.0171312E2,1.4330899E2,3.866915E2,2.8018356E2,2.2208336E2,1.3355368E2,4.0825066E1,2.0037678E1,5.294087E2,3.6335666E2,1.0444177E2,1.9625081E2,1.0820206E2,1.07087875E2,3.4337012E2,3.437908E2,2.8572388E2,2.285079E3],"tree_param":{"num_deleted":"0","num_feature":"10","num_nodes":"63","size_leaf_vector":"1"}},{"base_weights":[3.105515E-4,-9.8429394E-1,8.0457634E-1,-1.1747508E0,-5.1532364E-1,3.573021E-1,1.1434544E0,-1.2570962E0,-9.866043E-1,-6.620303E-1,-1.9529353E-1,8.81523E-2,7.8761095E-1,8.1608355E-1,1.2401427E0,-1.2670779E0,-8.696478E-1,-1.0619907E0,-7.548237E-1,-4.549375E-1,-8.1243366E-1,1.986021E-1,-4.2367938E-1,-1.13520384E-1,3.5376763E-1,4.9645647E-1,1.049438E0,5.455406E-1,9.3746626E-1,1.0301871E0,1.2688079E0,-9.7800344E-2,-1.2755674E-1,-1.2693506E-3,-9.970802E-2,-9.724467E-2,-1.1597123E-1,-3.2509033E-2,-9.179285E-2,-8.712518E-2,-2.8422728E-2,-6.769689E-2,-1.0507945E-1,4.661756E-2,-2.1339124E-2,-7.644576E-3,-6.45005E-2,-6.112764E-2,-2.8427972E-3,-1.6809233E-3,4.6060037E-2,7.7442476E-3,6.944904E-2,9.1998205E-2,1.2587152E-1,4.111324E-2,1.11859895E-1,7.9257734E-2,1.1054939E-1,1.1343296E-1,-4.234707E-3,1.1995466E-1,1.3082656E-1],"categories":[],"categories_nodes":[],"categories_segments":[],"categories_sizes":[],"default_left":[0,0,0,0,0,0,0,0,0,0,0,0,0,0,0,0,0,0,0,0,0,0,0,0,0,0,0,0,0,0,0,0,0,0,0,0,0,0,0,0,0,0,0,0,0,0,0,0,0,0,0,0,0,0,0,0,0,0,0,0,0,0,0],"id":7,"left_children":[1,3,5,7,9,11,13,15,17,19,21,23,25,27,29,31,33,35,37,39,41,43,45,47,49,51,53,55,57,59,61,-1,-1,-1,-1,-1,-1,-1,-1,-1,-1,-1,-1,-1,-1,-1,-1,-1,-1,-1,-1,-1,-1,-1,-1,-1,-1,-1,-1,-1,-1,-1,-1],"loss_changes":[9.042394E3,4.579419E2,9.522168E2,5.5313965E1,6.957095E1,3.1387238E2,1.121582E2,8.703857E0,1.8696655E1,3.1322906E1,4.2189774E1,8.9429634E1,7.898352E1,2.6355103E1,1.5292969E1,4.8125E0,7.28944E0,6.218872E0,1.9139923E1,3.0336823E1,1.8279755E1,1.911128E1,2.2743885E1,4.0190254E1,2.852958E1,4.1079384E1,1.369458E1,1.9240616E1,1.2838898E1,3.765155E1,5.0512695E0,0E0,0E0,0E0,0E0,0E0,0E0,0E0,0E0,0E0,0E0,0E0,0E0,0E0,0E0,0E0,0E0,0E0,0E0,0E0,0E0,0E0,0E0,0E0,0E0,0E0,0E0,0E0,0E0,0E0,0E0,0E0,0E0],"parents":[2147483647,0,0,1,1,2,2,3,3,4,4,5,5,6,6,7,7,8,8,9,9,10,10,11,11,12,12,13,13,14,14,15,15,16,16,17,17,18,18,19,19,20,20,21,21,22,22,23,23,24,24,25,25,26,26,27,27,28,28,29,29,30,30],"right_children":[2,4,6,8,10,12,14,16,18,20,22,24,26,28,30,32,34,36,38,40,42,44,46,48,50,52,54,56,58,60,62,-1,-1,-1,-1,-1,-1,-1,-1,-1,-1,-1,-1,-1,-1,-1,-1,-1,-1,-1,-1,-1,-1,-1,-1,-1,-1,-1,-1,-1,-1,-1,-1],"split_conditions":[6.7226894E-2,4.621849E-2,1.2184874E-1,3.2352943E-2,4.6388516E-1,5.6302416E-1,5.36395E-1,4.8520407E-1,4.5227307E-1,5E-2,2.6135826E-1,9.243698E-2,9.191176E-2,4.7835898E-1,4.514776E-1,4.595774E-1,1.9860591E-1,5.3690284E-1,5E-2,3.8895127E-1,5.512662E-1,1.5E-1,5.9126365E-1,3.9735362E-1,4.2114797E-1,4.573565E-1,6.155676E-1,2.4264705E-1,1.8627451E-1,5.919185E-1,1.8382353E-1,-9.7800344E-2,-1.2755674E-1,-1.2693506E-3,-9.970802E-2,-9.724467E-2,-1.1597123E-1,-3.2509033E-2,-9.179285E-2,-8.712518E-2,-2.8422728E-2,-6.769689E-2,-1.0507945E-1,4.661756E-2,-2.1339124E-2,-7.644576E-3,-6.45005E-2,-6.112764E-2,-2.8427972E-3,-1.6809233E-3,4.6060037E-2,7.7442476E-3,6.944904E-2,9.1998205E-2,1.2587152E-1,4.111324E-2,1.11859895E-1,7.9257734E-2,1.1054939E-1,1.1343296E-1,-4.234707E-3,1.1995466E-1,1.3082656E-1],"split_indices":[0,0,0,0,1,2,2,1,1,8,6,0,0,2,1,2,7,3,8,1,3,8,3,1,1,1,2,0,0,3,0,0,0,0,0,0,0,0,0,0,0,0,0,0,0,0,0,0,0,0,0,0,0,0,0,0,0,0,0,0,0,0,0],"split_type":[0,0,0,0,0,0,0,0,0,0,0,0,0,0,0,0,0,0,0,0,0,0,0,0,0,0,0,0,0,0,0,0,0,0,0,0,0,0,0,0,0,0,0,0,0,0,0,0,0,0,0,0,0,0,0,0,0,0,0,0,0,0,0],"sum_hessian":[1.1416839E4,5.132844E3,6.283994E3,3.6492976E3,1.4835468E3,2.7096582E3,3.5743362E3,2.5343958E3,1.1149017E3,1.01649945E3,4.6704733E2,1.6677302E3,1.0419279E3,8.171243E2,2.757212E3,2.468529E3,6.586674E1,8.385742E2,2.763275E2,4.293481E2,5.8715137E2,1.7146065E2,2.9558667E2,9.482949E2,7.1943536E2,4.9470584E2,5.4722205E2,2.54772E2,5.623523E2,3.356585E2,2.4215532E3,7.374176E1,2.3947874E3,8.669037E0,5.71977E1,4.433117E2,3.9526254E2,7.684818E1,1.9947932E2,1.2366359E2,3.056845E2,3.7683145E2,2.1031993E2,1.0386978E2,6.7590866E1,1.1558811E2,1.7999857E2,1.3754265E2,8.1075226E2,1.6118077E2,5.582546E2,1.5921619E2,3.354897E2,3.4142023E2,2.058018E2,2.0776024E2,4.7011757E1,3.050376E2,2.573147E2,3.0589835E2,2.9760153E1,8.902567E2,1.5312966E3],"tree_param":{"num_deleted":"0","num_feature":"10","num_nodes":"63","size_leaf_vector":"1"}},{"base_weights":[3.229072E-4,-8.094734E-1,8.69567E-1,-1.0892701E0,-2.5601923E-1,4.730028E-1,1.093202E0,-1.2118462E0,-8.792594E-1,-4.183137E-1,1.1967749E-1,2.4198256E-1,9.1838723E-1,7.9043E-1,1.2048153E0,-1.2254752E0,-8.987535E-1,-9.9494576E-1,-6.6346705E-1,-6.1350286E-1,-2.545489E-1,-1.968627E-1,4.0543398E-1,-1.6317208E-1,3.3742002E-1,-1.0313501E-1,9.615154E-1,6.292377E-1,9.9433094E-1,1.1081744E0,1.2631338E0,-9.2164665E-2,-1.2346754E-1,1.14553384E-1,-9.317446E-2,-8.951966E-2,-1.17328994E-1,-3.1349305E-2,-7.992242E-2,-4.6279407E-3,-6.606253E-2,6.39761E-3,-3.7097033E-2,1.54629275E-2,-4.281379E-2,6.280185E-2,5.9434636E-3,7.923276E-4,-1.3754863E-1,5.0160736E-2,-2.821908E-3,8.400776E-2,-1.11331575E-1,8.374246E-2,1.1949154E-1,2.1959167E-2,7.313404E-2,7.361029E-2,1.0731254E-1,7.873147E-2,1.16976194E-1,1.0836134E-1,1.2685622E-1],"categories":[],"categories_nodes":[],"categories_segments":[],"categories_sizes":[],"default_left":[0,0,0,0,0,0,0,0,0,0,0,0,0,0,0,0,0,0,0,0,0,0,0,0,0,0,0,0,0,0,0,0,0,0,0,0,0,0,0,0,0,0,0,0,0,0,0,0,0,0,0,0,0,0,0,0,0,0,0,0,0,0,0],"id":8,"left_children":[1,3,5,7,9,11,13,15,17,19,21,23,25,27,29,31,33,35,37,39,41,43,45,47,49,51,53,55,57,59,61,-1,-1,-1,-1,-1,-1,-1,-1,-1,-1,-1,-1,-1,-1,-1,-1,-1,-1,-1,-1,-1,-1,-1,-1,-1,-1,-1,-1,-1,-1,-1,-1],"loss_changes":[7.710676E3,8.7789355E2,4.680193E2,9.5890625E1,1.1623815E2,1.9597137E2,1.13178955E2,9.035645E0,3.4084106E1,4.238719E1,5.2146633E1,4.8655197E1,2.8774841E1,2.9368408E1,1.2497314E1,5.2180176E0,8.003807E0,1.50321045E1,2.296965E1,1.6180496E1,2.6925018E1,2.2321602E1,2.3286171E1,4.9854115E1,6.1103584E1,2.6918556E1,1.7090027E1,2.127063E1,7.3730164E0,1.757788E1,1.1694336E-1,0E0,0E0,0E0,0E0,0E0,0E0,0E0,0E0,0E0,0E0,0E0,0E0,0E0,0E0,0E0,0E0,0E0,0E0,0E0,0E0,0E0,0E0,0E0,0E0,0E0,0E0,0E0,0E0,0E0,0E0,0E0,0E0],"parents":[2147483647,0,0,1,1,2,2,3,3,4,4,5,5,6,6,7,7,8,8,9,9,10,10,11,11,12,12,13,13,14,14,15,15,16,16,17,17,18,18,19,19,20,20,21,21,22,22,23,23,24,24,25,25,26,26,27,27,28,28,29,29,30,30],"right_children":[2,4,6,8,10,12,14,16,18,20,22,24,26,28,30,32,34,36,38,40,42,44,46,48,50,52,54,56,58,60,62,-1,-1,-1,-1,-1,-1,-1,-1,-1,-1,-1,-1,-1,-1,-1,-1,-1,-1,-1,-1,-1,-1,-1,-1,-1,-1,-1,-1,-1,-1,-1,-1],"split_conditions":[7.9831935E-2,5E-2,1.2184874E-1,3.2352943E-2,5.6302416E-1,5.725896E-1,5.4477036E-1,4.735529E-1,4.4183898E-1,6.1764706E-2,6.4705886E-2,4.1480246E-1,4.183852E-1,1.8627451E-1,1.8382353E-1,4.595774E-1,1.1756948E-1,5.4965514E-1,5E-2,4.4532064E-1,5E-2,5.800055E-1,1.5E-1,5.433886E-1,3.445053E-1,5.1963073E-1,6.233047E-1,4.595774E-1,4.7835898E-1,4.5449892E-1,4.2742676E-1,-9.2164665E-2,-1.2346754E-1,1.14553384E-1,-9.317446E-2,-8.951966E-2,-1.17328994E-1,-3.1349305E-2,-7.992242E-2,-4.6279407E-3,-6.606253E-2,6.39761E-3,-3.7097033E-2,1.54629275E-2,-4.281379E-2,6.280185E-2,5.9434636E-3,7.923276E-4,-1.3754863E-1,5.0160736E-2,-2.821908E-3,8.400776E-2,-1.11331575E-1,8.374246E-2,1.1949154E-1,2.1959167E-2,7.313404E-2,7.361029E-2,1.0731254E-1,7.873147E-2,1.16976194E-1,1.0836134E-1,1.2685622E-1],"split_indices":[0,0,0,0,2,2,2,1,1,0,0,1,1,0,0,2,7,3,8,2,8,3,8,3,6,3,2,2,2,1,1,0,0,0,0,0,0,0,0,0,0,0,0,0,0,0,0,0,0,0,0,0,0,0,0,0,0,0,0,0,0,0,0],"split_type":[0,0,0,0,0,0,0,0,0,0,0,0,0,0,0,0,0,0,0,0,0,0,0,0,0,0,0,0,0,0,0,0,0,0,0,0,0,0,0,0,0,0,0,0,0,0,0,0,0,0,0,0,0,0,0,0,0,0,0,0,0,0,0],"sum_hessian":[1.0952056E4,5.669947E3,5.2821094E3,3.7653962E3,1.9045507E3,1.905777E3,3.376332E3,2.3746333E3,1.3907628E3,1.3299304E3,5.746203E2,1.2558915E3,6.498856E2,9.1157996E2,2.4647522E3,2.2727844E3,1.0184898E2,9.030347E2,4.8772806E2,6.054985E2,7.244319E2,2.7277316E2,3.0184714E2,2.3929936E2,1.0165921E3,2.6270018E1,6.236156E2,5.1139035E2,4.0018958E2,9.351303E2,1.5296218E3,6.977323E1,2.2030112E3,1.0819739E0,1.00767006E2,5.829858E2,3.2004895E2,1.3724014E2,3.504879E2,4.6595833E1,5.5890265E2,1.9402808E2,5.304038E2,1.08383446E2,1.6438972E2,1.8318651E2,1.1866062E2,2.1057423E2,2.8725128E1,7.013048E2,3.1528723E2,1.3672396E1,1.2597622E1,4.1014404E2,2.1347153E2,1.0265981E2,4.0873056E2,9.5980576E1,3.0420898E2,1.5280875E2,7.823216E2,5.078438E1,1.4788375E3],"tree_param":{"num_deleted":"0","num_feature":"10","num_nodes":"63","size_leaf_vector":"1"}},{"base_weights":[3.559043E-4,-7.6126105E-1,8.20622E-1,-1.0801216E0,-2.915401E-1,4.3444538E-1,1.0474491E0,-1.1718671E0,-8.8026744E-1,-4.348282E-1,1.234163E-1,2.1896528E-1,8.6639583E-1,7.658793E-1,1.1769027E0,-1.2102956E0,-1.0431534E0,-9.9606526E-1,-7.230937E-1,-3.086968E-1,-7.924783E-1,2.732703E-1,-3.4590802E-1,2.3097932E-2,4.059049E-1,-3.8734037E-1,8.9819187E-1,5.961915E-1,9.7908145E-1,9.9360996E-1,1.2015932E0,-1.2408551E-1,-1.1573142E-1,-8.858218E-3,-1.06772244E-1,-8.606921E-2,-1.086755E-1,-7.684358E-2,-1.0307574E-2,-6.1289158E-2,-1.297195E-2,-6.653755E-2,-1.2446474E-1,-2.2363204E-3,5.2748162E-2,-8.6025104E-2,-2.0059863E-2,2.712441E-2,-4.4066608E-2,5.887906E-2,1.02546625E-2,1.0242485E-1,-1.05644085E-1,6.275453E-2,1.0131734E-1,2.455303E-2,7.085618E-2,6.8628035E-2,1.0545688E-1,1.07387595E-1,-2.1085234E-3,1.1401923E-1,1.2351691E-1],"categories":[],"categories_nodes":[],"categories_segments":[],"categories_sizes":[],"default_left":[0,0,0,0,0,0,0,0,0,0,0,0,0,0,0,0,0,0,0,0,0,0,0,0,0,0,0,0,0,0,0,0,0,0,0,0,0,0,0,0,0,0,0,0,0,0,0,0,0,0,0,0,0,0,0,0,0,0,0,0,0,0,0],"id":9,"left_children":[1,3,5,7,9,11,13,15,17,19,21,23,25,27,29,31,33,35,37,39,41,43,45,47,49,51,53,55,57,59,61,-1,-1,-1,-1,-1,-1,-1,-1,-1,-1,-1,-1,-1,-1,-1,-1,-1,-1,-1,-1,-1,-1,-1,-1,-1,-1,-1,-1,-1,-1,-1,-1],"loss_changes":[6.5591665E3,8.150991E2,4.423374E2,5.8422607E1,1.310245E2,1.7406683E2,1.1514868E2,9.7146E0,1.7920715E1,7.362741E1,3.9913227E1,4.5774963E1,2.5173798E1,3.579718E1,8.667969E0,1.3210449E0,1.2042114E1,6.2720947E0,1.2237854E1,6.5920616E1,2.3672577E1,3.2305393E1,1.0101473E1,7.051315E1,3.543161E1,1.629038E1,1.8274353E1,2.1990967E1,9.092255E0,2.1563171E1,2.541504E0,0E0,0E0,0E0,0E0,0E0,0E0,0E0,0E0,0E0,0E0,0E0,0E0,0E0,0E0,0E0,0E0,0E0,0E0,0E0,0E0,0E0,0E0,0E0,0E0,0E0,0E0,0E0,0E0,0E0,0E0,0E0,0E0],"parents":[2147483647,0,0,1,1,2,2,3,3,4,4,5,5,6,6,7,7,8,8,9,9,10,10,11,11,12,12,13,13,14,14,15,15,16,16,17,17,18,18,19,19,20,20,21,21,22,22,23,23,24,24,25,25,26,26,27,27,28,28,29,29,30,30],"right_children":[2,4,6,8,10,12,14,16,18,20,22,24,26,28,30,32,34,36,38,40,42,44,46,48,50,52,54,56,58,60,62,-1,-1,-1,-1,-1,-1,-1,-1,-1,-1,-1,-1,-1,-1,-1,-1,-1,-1,-1,-1,-1,-1,-1,-1,-1,-1,-1,-1,-1,-1,-1,-1],"split_conditions":[7.9831935E-2,4.621849E-2,1.2184874E-1,3.2352943E-2,4.7810528E-1,5.725896E-1,5.533137E-1,4.2532164E-1,4.3025044E-1,1.5E-1,3.7365857E-1,4.5589226E-1,4.090243E-1,1.8627451E-1,4.5449892E-1,2.2058824E-2,4.5659158E-1,5.0553966E-1,6.221523E-1,4.1104087E-1,5.8074224E-1,6.3725494E-2,5.514706E-2,1.5E-1,3.4949732E-1,4.7217575E-1,9.191176E-2,4.343276E-1,4.7835898E-1,6.0476816E-1,1.8382353E-1,-1.2408551E-1,-1.1573142E-1,-8.858218E-3,-1.06772244E-1,-8.606921E-2,-1.086755E-1,-7.684358E-2,-1.0307574E-2,-6.1289158E-2,-1.297195E-2,-6.653755E-2,-1.2446474E-1,-2.2363204E-3,5.2748162E-2,-8.6025104E-2,-2.0059863E-2,2.712441E-2,-4.4066608E-2,5.887906E-2,1.02546625E-2,1.0242485E-1,-1.05644085E-1,6.275453E-2,1.0131734E-1,2.455303E-2,7.085618E-2,6.8628035E-2,1.0545688E-1,1.07387595E-1,-2.1085234E-3,1.1401923E-1,1.2351691E-1],"split_indices":[0,0,0,0,1,2,2,1,1,8,6,1,1,0,1,0,2,3,2,1,3,0,0,8,6,3,0,1,2,3,0,0,0,0,0,0,0,0,0,0,0,0,0,0,0,0,0,0,0,0,0,0,0,0,0,0,0,0,0,0,0,0,0],"split_type":[0,0,0,0,0,0,0,0,0,0,0,0,0,0,0,0,0,0,0,0,0,0,0,0,0,0,0,0,0,0,0,0,0,0,0,0,0,0,0,0,0,0,0,0,0,0,0,0,0,0,0,0,0,0,0,0,0,0,0,0,0,0,0],"sum_hessian":[1.0497225E4,5.443245E3,5.05398E3,3.2415115E3,2.2017336E3,1.871181E3,3.182799E3,2.218306E3,1.02320544E3,1.6365652E3,5.6516833E2,1.2494133E3,6.2176764E2,1.0046135E3,2.1781855E3,1.7018151E3,5.164909E2,5.860762E2,4.371292E2,1.2112577E3,4.253075E2,4.2870248E2,1.3646584E2,6.1068616E2,6.3872723E2,1.5102071E1,6.066656E2,5.6150653E2,4.4310703E2,2.6347797E2,1.9147075E3,1.0650646E3,6.367504E2,1.3075582E1,5.0341534E2,2.3932497E2,3.4675122E2,4.0711725E2,3.0011978E1,4.477778E2,7.634799E2,3.3391644E2,9.139103E1,1.9862488E2,2.300776E2,2.8977125E1,1.07488716E2,3.9809344E2,2.125927E2,3.9790265E2,2.4082458E2,4.685781E0,1.0416289E1,1.8281293E2,4.2385266E2,1.3704149E2,4.2446503E2,9.2891075E1,3.5021594E2,2.4410971E2,1.936826E1,6.8923895E2,1.2254685E3],"tree_param":{"num_deleted":"0","num_feature":"10","num_nodes":"63","size_leaf_vector":"1"}},{"base_weights":[3.6525744E-4,-8.818495E-1,6.336008E-1,-1.0865158E0,-5.3901726E-1,2.4427958E-1,1.0050751E0,-1.1706289E0,-9.6330047E-1,-7.114368E-1,-3.2156605E-1,6.3813E-2,7.226426E-1,7.3028207E-1,1.1486278E0,-1.1750249E0,-4.570241E-1,-1.0610057E0,-8.0824E-1,-5.960786E-1,-1.0466591E0,7.237335E-2,-4.7850093E-1,-1.00136936E-1,3.262565E-1,4.956986E-1,9.5567966E-1,6.262755E-1,1.0721372E0,1.0130082E0,1.184E0,-8.291105E-2,-1.1829928E-1,2.530522E-2,-9.4769135E-2,-9.6751496E-2,-1.1628139E-1,3.5703767E-2,-8.307525E-2,-8.836897E-2,-4.4752516E-2,-4.4141293E-2,-1.0861745E-1,6.4410634E-2,-1.6838016E-2,-6.1274357E-2,-1.6745957E-2,-8.5339026E-4,-4.600556E-2,1.14448825E-2,5.252854E-2,3.125776E-2,8.0883704E-2,8.084437E-2,1.1312999E-1,2.3427771E-2,7.316047E-2,-9.921495E-4,1.086084E-1,6.4303316E-2,1.1007383E-1,1.1128024E-1,1.2018304E-1],"categories":[],"categories_nodes":[],"categories_segments":[],"categories_sizes":[],"default_left":[0,0,0,0,0,0,0,0,0,0,0,0,0,0,0,0,0,0,0,0,0,0,0,0,0,0,0,0,0,0,0,0,0,0,0,0,0,0,0,0,0,0,0,0,0,0,0,0,0,0,0,0,0,0,0,0,0,0,0,0,0,0,0],"id":10,"left_children":[1,3,5,7,9,11,13,15,17,19,21,23,25,27,29,31,33,35,37,39,41,43,45,47,49,51,53,55,57,59,61,-1,-1,-1,-1,-1,-1,-1,-1,-1,-1,-1,-1,-1,-1,-1,-1,-1,-1,-1,-1,-1,-1,-1,-1,-1,-1,-1,-1,-1,-1,-1,-1],"loss_changes":[5.6214434E3,2.9443994E2,8.4693823E2,2.614917E1,5.877658E1,2.4698782E2,1.1739746E2,4.3549805E0,1.5404724E1,3.3288452E1,4.31761E1,8.947911E1,4.0975433E1,3.599524E1,8.237305E0,3.2895508E0,4.1365786E0,5.1120605E0,1.1291382E1,2.7579407E1,4.858597E0,2.7591974E1,2.0739708E1,4.2206043E1,3.36455E1,2.2634674E1,9.056152E0,3.257486E1,3.6199646E0,1.272467E1,6.3549805E-1,0E0,0E0,0E0,0E0,0E0,0E0,0E0,0E0,0E0,0E0,0E0,0E0,0E0,0E0,0E0,0E0,0E0,0E0,0E0,0E0,0E0,0E0,0E0,0E0,0E0,0E0,0E0,0E0,0E0,0E0,0E0,0E0],"parents":[2147483647,0,0,1,1,2,2,3,3,4,4,5,5,6,6,7,7,8,8,9,9,10,10,11,11,12,12,13,13,14,14,15,15,16,16,17,17,18,18,19,19,20,20,21,21,22,22,23,23,24,24,25,25,26,26,27,27,28,28,29,29,30,30],"right_children":[2,4,6,8,10,12,14,16,18,20,22,24,26,28,30,32,34,36,38,40,42,44,46,48,50,52,54,56,58,60,62,-1,-1,-1,-1,-1,-1,-1,-1,-1,-1,-1,-1,-1,-1,-1,-1,-1,-1,-1,-1,-1,-1,-1,-1,-1,-1,-1,-1,-1,-1,-1,-1],"split_conditions":[6.1764706E-2,4.0106952E-2,1.2184874E-1,2.6143791E-2,4.4183898E-1,5.76896E-1,5.580334E-1,5.064755E-1,4.2742676E-1,5.649689E-1,2.2423857E-1,9.243698E-2,9.191176E-2,2.4264705E-1,1.5294118E-1,4.5659158E-1,5.76896E-1,5.3207076E-1,4.370531E-1,3.8895127E-1,1.2194872E-1,5E-2,4.968807E-1,2E-1,5.209977E-1,6.1735845E-1,6.155676E-1,4.7192135E-1,3.5239747E-1,4.6031153E-1,1.8382353E-1,-8.291105E-2,-1.1829928E-1,2.530522E-2,-9.4769135E-2,-9.6751496E-2,-1.1628139E-1,3.5703767E-2,-8.307525E-2,-8.836897E-2,-4.4752516E-2,-4.4141293E-2,-1.0861745E-1,6.4410634E-2,-1.6838016E-2,-6.1274357E-2,-1.6745957E-2,-8.5339026E-4,-4.600556E-2,1.14448825E-2,5.252854E-2,3.125776E-2,8.0883704E-2,8.084437E-2,1.1312999E-1,2.3427771E-2,7.316047E-2,-9.921495E-4,1.086084E-1,6.4303316E-2,1.1007383E-1,1.1128024E-1,1.2018304E-1],"split_indices":[0,0,0,0,1,2,2,1,1,3,6,0,0,0,0,2,2,3,2,1,6,8,1,8,2,2,2,2,1,1,0,0,0,0,0,0,0,0,0,0,0,0,0,0,0,0,0,0,0,0,0,0,0,0,0,0,0,0,0,0,0,0,0],"split_type":[0,0,0,0,0,0,0,0,0,0,0,0,0,0,0,0,0,0,0,0,0,0,0,0,0,0,0,0,0,0,0,0,0,0,0,0,0,0,0,0,0,0,0,0,0,0,0,0,0,0,0,0,0,0,0,0,0,0,0,0,0,0,0],"sum_hessian":[1.0060554E4,4.203669E3,5.856885E3,2.6308926E3,1.5727764E3,2.860556E3,2.9963289E3,1.558487E3,1.0724055E3,8.7595215E2,6.968242E2,2.0778154E3,7.827404E2,1.0302598E3,1.9660692E3,1.5483027E3,1.0184381E1,6.5428876E2,4.181168E2,6.5375653E2,2.2219562E2,1.986671E2,4.9815714E2,1.279268E3,7.985475E2,3.9813867E2,3.846017E2,7.9210144E2,2.3815837E2,4.128428E2,1.5532263E3,3.7226868E1,1.5110758E3,4.3595963E0,5.8247848E0,3.465522E2,3.0773657E2,7.6430182E0,4.104738E2,2.2097772E2,4.3277878E2,1.4363564E1,2.0783206E2,5.8371986E1,1.4029512E2,3.4729697E2,1.5086017E2,1.02055084E3,2.5871713E2,3.876176E2,4.1092984E2,2.5248535E2,1.4565334E2,2.1225522E2,1.723465E2,1.684426E2,6.236588E2,3.0342479E0,2.3512411E2,8.072769E1,3.321151E2,3.2377664E2,1.2294497E3],"tree_param":{"num_deleted":"0","num_feature":"10","num_nodes":"63","size_leaf_vector":"1"}},{"base_weights":[3.6654956E-4,-8.377438E-1,5.93927E-1,-1.0502076E0,-4.9741197E-1,2.2318491E-1,9.65427E-1,-1.140119E0,-9.208635E-1,-6.754316E-1,-3.0515587E-1,5.77396E-2,6.7572045E-1,6.845901E-1,1.1174712E0,-1.1447403E0,-4.2846328E-1,-1.0226098E0,-7.626404E-1,-5.293319E-1,-9.265129E-1,-5.5895843E-2,-5.243921E-1,-9.02085E-2,2.9666358E-1,4.5479432E-1,9.110819E-1,5.174225E-1,9.0044945E-1,9.7426265E-1,1.155373E0,-7.8599736E-2,-1.1532622E-1,2.2974616E-2,-9.10238E-2,-9.084143E-2,-1.1126395E-1,3.211759E-2,-7.8483306E-2,-8.130291E-2,-3.5264283E-2,-5.15141E-2,-9.971707E-2,-2.2168076E-2,4.356953E-2,-5.8562297E-2,1.4536254E-2,-5.4222073E-2,-1.9127174E-3,1.0325163E-2,4.809915E-2,5.5198018E-3,5.8388032E-2,7.616684E-2,1.0938322E-1,6.31819E-2,2.168671E-2,6.702425E-2,1.0012374E-1,6.020974E-2,1.0654547E-1,1.0794437E-1,1.17454685E-1],"categories":[],"categories_nodes":[],"categories_segments":[],"categories_sizes":[],"default_left":[0,0,0,0,0,0,0,0,0,0,0,0,0,0,0,0,0,0,0,0,0,0,0,0,0,0,0,0,0,0,0,0,0,0,0,0,0,0,0,0,0,0,0,0,0,0,0,0,0,0,0,0,0,0,0,0,0,0,0,0,0,0,0],"id":11,"left_children":[1,3,5,7,9,11,13,15,17,19,21,23,25,27,29,31,33,35,37,39,41,43,45,47,49,51,53,55,57,59,61,-1,-1,-1,-1,-1,-1,-1,-1,-1,-1,-1,-1,-1,-1,-1,-1,-1,-1,-1,-1,-1,-1,-1,-1,-1,-1,-1,-1,-1,-1,-1,-1],"loss_changes":[4.7967075E3,2.8853662E2,7.772223E2,2.7561523E1,5.244455E1,2.1158028E2,1.19611084E2,4.268799E0,1.5545532E1,2.8779785E1,4.0487312E1,7.322898E1,3.8927673E1,3.5357758E1,8.793213E0,3.4873047E0,3.6767247E0,5.3044434E0,9.89299E0,2.5114655E1,7.9789276E0,2.8464174E1,1.6257332E1,4.110588E1,2.8192604E1,2.0202034E1,9.142639E0,1.9180298E1,9.350616E0,1.2553772E1,8.277588E-1,0E0,0E0,0E0,0E0,0E0,0E0,0E0,0E0,0E0,0E0,0E0,0E0,0E0,0E0,0E0,0E0,0E0,0E0,0E0,0E0,0E0,0E0,0E0,0E0,0E0,0E0,0E0,0E0,0E0,0E0,0E0,0E0],"parents":[2147483647,0,0,1,1,2,2,3,3,4,4,5,5,6,6,7,7,8,8,9,9,10,10,11,11,12,12,13,13,14,14,15,15,16,16,17,17,18,18,19,19,20,20,21,21,22,22,23,23,24,24,25,25,26,26,27,27,28,28,29,29,30,30],"right_children":[2,4,6,8,10,12,14,16,18,20,22,24,26,28,30,32,34,36,38,40,42,44,46,48,50,52,54,56,58,60,62,-1,-1,-1,-1,-1,-1,-1,-1,-1,-1,-1,-1,-1,-1,-1,-1,-1,-1,-1,-1,-1,-1,-1,-1,-1,-1,-1,-1,-1,-1,-1,-1],"split_conditions":[6.1764706E-2,4.0106952E-2,1.2184874E-1,2.6143791E-2,4.3772966E-1,5.76896E-1,5.580334E-1,5.064755E-1,4.2742676E-1,5.4193926E-1,2.633426E-1,9.243698E-2,9.191176E-2,1.8627451E-1,1.5294118E-1,4.5659158E-1,5.76896E-1,5.1963073E-1,4.370531E-1,3.8804418E-1,1.5396969E-1,5.9372324E-1,5.37889E-1,3.9735362E-1,5.209977E-1,4.514776E-1,6.155676E-1,2.5E-1,4.980763E-1,4.6031153E-1,1.8382353E-1,-7.8599736E-2,-1.1532622E-1,2.2974616E-2,-9.10238E-2,-9.084143E-2,-1.1126395E-1,3.211759E-2,-7.8483306E-2,-8.130291E-2,-3.5264283E-2,-5.15141E-2,-9.971707E-2,-2.2168076E-2,4.356953E-2,-5.8562297E-2,1.4536254E-2,-5.4222073E-2,-1.9127174E-3,1.0325163E-2,4.809915E-2,5.5198018E-3,5.8388032E-2,7.616684E-2,1.0938322E-1,6.31819E-2,2.168671E-2,6.702425E-2,1.0012374E-1,6.020974E-2,1.0654547E-1,1.0794437E-1,1.17454685E-1],"split_indices":[0,0,0,0,1,2,2,1,1,3,6,0,0,0,0,2,2,3,2,1,6,2,1,1,2,1,2,8,2,1,0,0,0,0,0,0,0,0,0,0,0,0,0,0,0,0,0,0,0,0,0,0,0,0,0,0,0,0,0,0,0,0,0],"split_type":[0,0,0,0,0,0,0,0,0,0,0,0,0,0,0,0,0,0,0,0,0,0,0,0,0,0,0,0,0,0,0,0,0,0,0,0,0,0,0,0,0,0,0,0,0,0,0,0,0,0,0,0,0,0,0,0,0,0,0,0,0,0,0],"sum_hessian":[9.640221E3,3.9965957E3,5.6436245E3,2.4592432E3,1.5373525E3,2.8254944E3,2.8181301E3,1.4461569E3,1.01308636E3,7.9692566E2,7.404269E2,2.069881E3,7.556133E2,9.917668E2,1.8263633E3,1.4362218E3,9.935055E0,6.1326154E2,3.9982483E2,5.0574817E2,2.9117752E2,3.4707544E2,3.9335144E2,1.278699E3,7.911821E2,3.9127167E2,3.643416E2,5.6083636E2,4.3093042E2,3.8779953E2,1.4385637E3,3.548848E1,1.4007333E3,4.419787E0,5.5152683E0,2.7523618E2,3.380254E2,7.752337E0,3.9207248E2,1.9271606E2,3.130321E2,4.3897213E1,2.4728032E2,2.5995642E2,8.711902E1,3.6051755E2,3.2833885E1,1.728572E2,1.1058418E3,3.8683905E2,4.0434305E2,9.588361E1,2.9538806E2,2.0329718E2,1.6104445E2,4.0542322E2,1.5541316E2,1.335477E2,2.9738272E2,7.781797E1,3.0998157E2,3.0158286E2,1.1369808E3],"tree_param":{"num_deleted":"0","num_feature":"10","num_nodes":"63","size_leaf_vector":"1"}},{"base_weights":[3.633603E-4,-7.9594564E-1,5.5656564E-1,-1.0162985E0,-4.5887706E-1,2.0391122E-1,9.2776495E-1,-1.1125287E0,-8.8055766E-1,-6.7333287E-1,-3.118018E-1,7.474727E-2,7.1609634E-1,6.4115554E-1,1.0889924E0,-7.209374E-1,-1.1221877E0,-9.8652834E-1,-7.192905E-1,-3.721621E-1,-8.5630184E-1,-1.056911E-1,-5.148491E-1,-1.0920578E-1,2.6323274E-1,5.0572884E-1,9.359705E-1,5.382165E-1,1.0003979E0,9.873831E-1,1.1504184E0,-9.473737E-2,2.0030687E-2,-1.12655E-1,-4.7487695E-2,-8.857715E-2,-1.099413E-1,-6.376278E-2,-1.0400559E-1,2.2163723E-2,-4.7874086E-2,-7.5768E-2,-1.10482E-1,2.8631056E-2,-2.9291874E-2,-6.336934E-2,-1.8629855E-2,4.293665E-3,-7.9789415E-2,4.473677E-2,-3.5661801E-3,-1.2929644E-1,5.388545E-2,7.170364E-2,1.0326636E-1,1.6356789E-2,6.433147E-2,-6.452513E-3,1.0155729E-1,6.5577835E-2,1.0486181E-1,1.1531102E-1,7.0398234E-2],"categories":[],"categories_nodes":[],"categories_segments":[],"categories_sizes":[],"default_left":[0,0,0,0,0,0,0,0,0,0,0,0,0,0,0,0,0,0,0,0,0,0,0,0,0,0,0,0,0,0,0,0,0,0,0,0,0,0,0,0,0,0,0,0,0,0,0,0,0,0,0,0,0,0,0,0,0,0,0,0,0,0,0],"id":12,"left_children":[1,3,5,7,9,11,13,15,17,19,21,23,25,27,29,31,33,35,37,39,41,43,45,47,49,51,53,55,57,59,61,-1,-1,-1,-1,-1,-1,-1,-1,-1,-1,-1,-1,-1,-1,-1,-1,-1,-1,-1,-1,-1,-1,-1,-1,-1,-1,-1,-1,-1,-1,-1,-1],"loss_changes":[4.0932043E3,2.818125E2,7.120834E2,2.9028809E1,4.7233917E1,1.8462386E2,1.2178369E2,4.2612305E0,1.56588745E1,3.335379E1,3.7365105E1,7.7364494E1,2.5525543E1,3.483966E1,9.442749E0,7.504568E0,3.1539307E0,5.569641E0,9.382462E0,1.4833126E1,8.460632E0,3.274223E1,1.7458817E1,1.18382996E2,6.0664124E1,1.794168E1,5.052719E0,2.9259338E1,3.4900665E0,1.2422546E1,4.5043945E-1,0E0,0E0,0E0,0E0,0E0,0E0,0E0,0E0,0E0,0E0,0E0,0E0,0E0,0E0,0E0,0E0,0E0,0E0,0E0,0E0,0E0,0E0,0E0,0E0,0E0,0E0,0E0,0E0,0E0,0E0,0E0,0E0],"parents":[2147483647,0,0,1,1,2,2,3,3,4,4,5,5,6,6,7,7,8,8,9,9,10,10,11,11,12,12,13,13,14,14,15,15,16,16,17,17,18,18,19,19,20,20,21,21,22,22,23,23,24,24,25,25,26,26,27,27,28,28,29,29,30,30],"right_children":[2,4,6,8,10,12,14,16,18,20,22,24,26,28,30,32,34,36,38,40,42,44,46,48,50,52,54,56,58,60,62,-1,-1,-1,-1,-1,-1,-1,-1,-1,-1,-1,-1,-1,-1,-1,-1,-1,-1,-1,-1,-1,-1,-1,-1,-1,-1,-1,-1,-1,-1,-1,-1],"split_conditions":[6.1764706E-2,4.0106952E-2,1.2184874E-1,2.6143791E-2,4.2532164E-1,5.9023225E-1,5.580334E-1,4.5659158E-1,4.2742676E-1,4.922171E-1,2.633426E-1,4.5515847E-1,9.191176E-2,2.4264705E-1,1.8382353E-1,3.0549955E-1,5.064755E-1,5.3207076E-1,3.2355204E-1,4.055158E-1,5.649689E-1,5E-2,4.968807E-1,5.6941724E-1,2E-1,3.8982692E-1,4.8201475E-1,4.7192135E-1,3.5239747E-1,4.5449892E-1,5.960642E-1,-9.473737E-2,2.0030687E-2,-1.12655E-1,-4.7487695E-2,-8.857715E-2,-1.099413E-1,-6.376278E-2,-1.0400559E-1,2.2163723E-2,-4.7874086E-2,-7.5768E-2,-1.10482E-1,2.8631056E-2,-2.9291874E-2,-6.336934E-2,-1.8629855E-2,4.293665E-3,-7.9789415E-2,4.473677E-2,-3.5661801E-3,-1.2929644E-1,5.388545E-2,7.170364E-2,1.0326636E-1,1.6356789E-2,6.433147E-2,-6.452513E-3,1.0155729E-1,6.5577835E-2,1.0486181E-1,1.1531102E-1,7.0398234E-2],"split_indices":[0,0,0,0,1,2,2,2,1,3,6,1,0,0,0,7,1,3,6,3,3,8,1,3,8,1,1,2,1,1,6,0,0,0,0,0,0,0,0,0,0,0,0,0,0,0,0,0,0,0,0,0,0,0,0,0,0,0,0,0,0,0,0],"split_type":[0,0,0,0,0,0,0,0,0,0,0,0,0,0,0,0,0,0,0,0,0,0,0,0,0,0,0,0,0,0,0,0,0,0,0,0,0,0,0,0,0,0,0,0,0,0,0,0,0,0,0,0,0,0,0,0,0,0,0,0,0,0,0],"sum_hessian":[9.23964E3,3.799502E3,5.4401377E3,2.2963115E3,1.5031903E3,2.7905505E3,2.6495874E3,1.3395057E3,9.568059E2,6.1006067E2,8.9312964E2,2.229465E3,5.610853E2,9.5567975E2,1.6939077E3,3.4065624E1,1.3054401E3,5.743053E2,3.825006E2,2.317044E2,3.7835626E2,4.4397598E2,4.4915366E2,1.1285112E3,1.100954E3,2.8842804E2,2.726573E2,7.4476843E2,2.1091136E2,6.446383E2,1.0492694E3,2.732174E1,6.7438836E0,1.2959661E3,9.474023E0,3.0812775E2,2.6617755E2,3.0726318E2,7.5237434E1,3.509491E1,1.966095E2,2.7376443E2,1.0459181E2,1.4333786E2,3.006381E2,3.291601E2,1.1999356E2,9.25083E2,2.0342819E2,6.8095355E2,4.2000037E2,4.528032E0,2.8390002E2,8.610735E1,1.8654994E2,1.6371661E2,5.810518E2,2.9175394E0,2.0799382E2,1.023099E2,5.423284E2,1.0414073E3,7.8620462E0],"tree_param":{"num_deleted":"0","num_feature":"10","num_nodes":"63","size_leaf_vector":"1"}},{"base_weights":[3.0459114E-4,-6.0254866E-1,6.57487E-1,-9.3156356E-1,-2.0762785E-1,3.524219E-1,9.352231E-1,-1.0471606E0,-7.0726484E-1,-3.213739E-1,1.12753674E-1,1.8700667E-1,7.3801965E-1,6.363025E-1,1.0648077E0,-1.09755E0,-8.865131E-1,-9.099278E-1,-6.0764366E-1,-2.2168854E-1,-8.06021E-1,4.1870105E-1,-7.101042E-2,-6.6639003E-3,3.3488464E-1,4.9805668E-1,8.5660696E-1,-1.6309734E-1,6.871441E-1,9.0665585E-1,1.1076443E0,-9.5765874E-2,-1.11706235E-1,-2.6490688E-2,-9.3895935E-2,-5.4560732E-2,-1.0255611E-1,-4.9785633E-2,-8.359846E-2,-7.945268E-3,-5.989764E-2,-4.9107976E-2,-1.0617413E-1,1.9575123E-2,7.530946E-2,-1.8979406E-2,2.9550955E-2,2.4624616E-2,-4.3836452E-2,5.5090494E-2,9.611235E-3,3.9008617E-2,8.008518E-2,7.4683435E-2,1.0427777E-1,4.996126E-2,-1.3684724E-1,8.577897E-2,4.4860218E-2,5.1026393E-2,1.0091918E-1,1.0255658E-1,1.1285529E-1],"categories":[],"categories_nodes":[],"categories_segments":[],"categories_sizes":[],"default_left":[0,0,0,0,0,0,0,0,0,0,0,0,0,0,0,0,0,0,0,0,0,0,0,0,0,0,0,0,0,0,0,0,0,0,0,0,0,0,0,0,0,0,0,0,0,0,0,0,0,0,0,0,0,0,0,0,0,0,0,0,0,0,0],"id":13,"left_children":[1,3,5,7,9,11,13,15,17,19,21,23,25,27,29,31,33,35,37,39,41,43,45,47,49,51,53,55,57,59,61,-1,-1,-1,-1,-1,-1,-1,-1,-1,-1,-1,-1,-1,-1,-1,-1,-1,-1,-1,-1,-1,-1,-1,-1,-1,-1,-1,-1,-1,-1,-1,-1],"loss_changes":[3.514194E3,6.009208E2,3.5923926E2,6.46875E1,7.6704666E1,1.2896115E2,8.534656E1,1.2490234E1,1.683609E1,7.484395E1,3.1062595E1,4.060575E1,1.6854279E1,2.7508575E1,9.480957E0,2.3745117E0,1.2866974E1,1.1313614E1,1.4135117E1,6.91431E1,2.0783493E1,1.530526E1,1.5106577E1,6.723375E1,4.141349E1,6.3320923E0,7.4986877E0,3.3527702E1,2.5421448E1,1.3116241E1,9.2492676E-1,0E0,0E0,0E0,0E0,0E0,0E0,0E0,0E0,0E0,0E0,0E0,0E0,0E0,0E0,0E0,0E0,0E0,0E0,0E0,0E0,0E0,0E0,0E0,0E0,0E0,0E0,0E0,0E0,0E0,0E0,0E0,0E0],"parents":[2147483647,0,0,1,1,2,2,3,3,4,4,5,5,6,6,7,7,8,8,9,9,10,10,11,11,12,12,13,13,14,14,15,15,16,16,17,17,18,18,19,19,20,20,21,21,22,22,23,23,24,24,25,25,26,26,27,27,28,28,29,29,30,30],"right_children":[2,4,6,8,10,12,14,16,18,20,22,24,26,28,30,32,34,36,38,40,42,44,46,48,50,52,54,56,58,60,62,-1,-1,-1,-1,-1,-1,-1,-1,-1,-1,-1,-1,-1,-1,-1,-1,-1,-1,-1,-1,-1,-1,-1,-1,-1,-1,-1,-1,-1,-1,-1,-1],"split_conditions":[7.9831935E-2,4.621849E-2,5.599063E-1,3.2352943E-2,4.7810528E-1,1.5441176E-1,1.2184874E-1,4.2532164E-1,4.0357584E-1,6.005961E-1,2.6846623E-1,4.4937667E-1,4.980763E-1,4.183852E-1,1.5294118E-1,4.9597806E-1,4.9708667E-1,4.5653555E-1,2.8229442E-1,1.5E-1,2.2712679E-1,5.9023225E-1,5.337144E-1,5.1963073E-1,2E-1,2.647059E-1,2.4264705E-1,5.527177E-1,6.0968316E-1,4.6031153E-1,1.8382353E-1,-9.5765874E-2,-1.11706235E-1,-2.6490688E-2,-9.3895935E-2,-5.4560732E-2,-1.0255611E-1,-4.9785633E-2,-8.359846E-2,-7.945268E-3,-5.989764E-2,-4.9107976E-2,-1.0617413E-1,1.9575123E-2,7.530946E-2,-1.8979406E-2,2.9550955E-2,2.4624616E-2,-4.3836452E-2,5.5090494E-2,9.611235E-3,3.9008617E-2,8.008518E-2,7.4683435E-2,1.0427777E-1,4.996126E-2,-1.3684724E-1,8.577897E-2,4.4860218E-2,5.1026393E-2,1.0091918E-1,1.0255658E-1,1.1285529E-1],"split_indices":[0,0,2,0,1,0,0,1,1,3,6,1,2,1,0,2,2,3,6,8,6,2,1,3,8,0,0,3,3,1,0,0,0,0,0,0,0,0,0,0,0,0,0,0,0,0,0,0,0,0,0,0,0,0,0,0,0,0,0,0,0,0,0],"split_type":[0,0,0,0,0,0,0,0,0,0,0,0,0,0,0,0,0,0,0,0,0,0,0,0,0,0,0,0,0,0,0,0,0,0,0,0,0,0,0,0,0,0,0,0,0,0,0,0,0,0,0,0,0,0,0,0,0,0,0,0,0,0,0],"sum_hessian":[8.868094E3,4.6252734E3,4.2428203E3,2.522434E3,2.1028396E3,2.0230135E3,2.2198066E3,1.6621445E3,8.6028955E2,1.5518707E3,5.5096875E2,1.4167397E3,6.062737E2,6.730807E2,1.546726E3,1.2608337E3,4.013108E2,2.8083762E2,5.794519E2,1.288335E3,2.635358E2,2.0627112E2,3.446976E2,6.1380975E2,8.0293005E2,2.0223944E2,4.0403427E2,4.011595E1,6.329648E2,3.3437704E2,1.2123489E3,1.6046655E2,1.1003672E3,3.1695776E1,3.6961502E2,6.9038795E1,2.1179881E2,3.9345648E2,1.8599544E2,9.364921E2,3.5184283E2,1.1940223E2,1.4413356E2,1.2470925E2,8.156187E1,2.6069305E2,8.400455E1,3.8732596E2,2.2648376E2,4.208629E2,3.8206717E2,1.5076721E2,5.147222E1,2.573207E2,1.4671355E2,2.6262472E1,1.385348E1,3.6748288E2,2.6548187E2,6.994688E1,2.6443018E2,2.5629495E2,9.560539E2],"tree_param":{"num_deleted":"0","num_feature":"10","num_nodes":"63","size_leaf_vector":"1"}},{"base_weights":[3.1701324E-4,-7.2000283E-1,4.897283E-1,-9.5392257E-1,-3.9591336E-1,1.7246039E-1,8.588602E-1,-1.0644608E0,-8.043225E-1,-5.879623E-1,-2.4215366E-1,5.961955E-2,6.463584E-1,5.6617725E-1,1.038005E0,-6.3700247E-1,-1.0756842E0,-8.7934065E-1,-5.3390425E-1,-4.0336823E-1,-8.5626E-1,1.0386484E-1,-3.5998735E-1,-3.0306536E-1,1.4038359E-1,4.4544125E-1,8.703047E-1,4.693342E-1,9.318143E-1,9.232223E-1,1.109576E0,-8.769124E-2,2.5858143E-2,-1.0807782E-1,-3.8422465E-2,-6.891866E-2,-9.328557E-2,1.3228837E-1,-5.621765E-2,-6.8779826E-2,-1.8205425E-2,-4.672963E-2,-9.376718E-2,4.8929635E-2,-2.0545507E-2,-4.6109766E-2,-9.259094E-3,1.0443799E-2,-6.8623275E-2,3.2087583E-2,-1.3614905E-2,-1.1954112E-1,4.7680356E-2,6.907036E-2,1.0117979E-1,1.2143119E-2,5.7134338E-2,2.2024484E-2,9.593582E-2,5.7498634E-2,9.914783E-2,1.1126887E-1,6.2029E-2],"categories":[],"categories_nodes":[],"categories_segments":[],"categories_sizes":[],"default_left":[0,0,0,0,0,0,0,0,0,0,0,0,0,0,0,0,0,0,0,0,0,0,0,0,0,0,0,0,0,0,0,0,0,0,0,0,0,0,0,0,0,0,0,0,0,0,0,0,0,0,0,0,0,0,0,0,0,0,0,0,0,0,0],"id":14,"left_children":[1,3,5,7,9,11,13,15,17,19,21,23,25,27,29,31,33,35,37,39,41,43,45,47,49,51,53,55,57,59,61,-1,-1,-1,-1,-1,-1,-1,-1,-1,-1,-1,-1,-1,-1,-1,-1,-1,-1,-1,-1,-1,-1,-1,-1,-1,-1,-1,-1,-1,-1,-1,-1],"loss_changes":[3.0042578E3,2.6099158E2,5.941194E2,3.2244507E1,4.258603E1,1.4595343E2,1.22376465E2,4.82251E0,1.6867981E1,3.1484146E1,3.2871452E1,6.466483E1,2.3232132E1,3.1170013E1,1.0916626E1,7.064392E0,3.5197754E0,6.149597E0,1.0620613E1,2.3960182E1,7.828598E0,2.4582441E1,1.6204887E1,6.2858845E1,9.0136475E1,1.49146385E1,5.583023E0,2.5047272E1,3.4322357E0,1.2840698E1,6.657715E-1,0E0,0E0,0E0,0E0,0E0,0E0,0E0,0E0,0E0,0E0,0E0,0E0,0E0,0E0,0E0,0E0,0E0,0E0,0E0,0E0,0E0,0E0,0E0,0E0,0E0,0E0,0E0,0E0,0E0,0E0,0E0,0E0],"parents":[2147483647,0,0,1,1,2,2,3,3,4,4,5,5,6,6,7,7,8,8,9,9,10,10,11,11,12,12,13,13,14,14,15,15,16,16,17,17,18,18,19,19,20,20,21,21,22,22,23,23,24,24,25,25,26,26,27,27,28,28,29,29,30,30],"right_children":[2,4,6,8,10,12,14,16,18,20,22,24,26,28,30,32,34,36,38,40,42,44,46,48,50,52,54,56,58,60,62,-1,-1,-1,-1,-1,-1,-1,-1,-1,-1,-1,-1,-1,-1,-1,-1,-1,-1,-1,-1,-1,-1,-1,-1,-1,-1,-1,-1,-1,-1,-1,-1],"split_conditions":[6.1764706E-2,4.0106952E-2,1.2184874E-1,2.6143791E-2,4.3025044E-1,5.9023225E-1,5.580334E-1,4.5659158E-1,4.514776E-1,5.2868044E-1,5E-2,4.1104087E-1,9.191176E-2,2.4264705E-1,1.8382353E-1,3.0549955E-1,5.064755E-1,5.029323E-1,1.259786E-1,3.8804418E-1,1.5778194E-1,6.005961E-1,4.9608138E-1,4.7217575E-1,5.813594E-1,3.8982692E-1,6.155676E-1,4.7192135E-1,3.8166565E-1,4.5449892E-1,5.960642E-1,-8.769124E-2,2.5858143E-2,-1.0807782E-1,-3.8422465E-2,-6.891866E-2,-9.328557E-2,1.3228837E-1,-5.621765E-2,-6.8779826E-2,-1.8205425E-2,-4.672963E-2,-9.376718E-2,4.8929635E-2,-2.0545507E-2,-4.6109766E-2,-9.259094E-3,1.0443799E-2,-6.8623275E-2,3.2087583E-2,-1.3614905E-2,-1.1954112E-1,4.7680356E-2,6.907036E-2,1.0117979E-1,1.2143119E-2,5.7134338E-2,2.2024484E-2,9.593582E-2,5.7498634E-2,9.914783E-2,1.1126887E-1,6.2029E-2],"split_indices":[0,0,0,0,1,2,2,2,1,3,8,1,0,0,0,7,1,2,7,1,6,3,1,3,3,1,2,2,1,1,6,0,0,0,0,0,0,0,0,0,0,0,0,0,0,0,0,0,0,0,0,0,0,0,0,0,0,0,0,0,0,0,0],"split_type":[0,0,0,0,0,0,0,0,0,0,0,0,0,0,0,0,0,0,0,0,0,0,0,0,0,0,0,0,0,0,0,0,0,0,0,0,0,0,0,0,0,0,0,0,0,0,0,0,0,0,0,0,0,0,0,0,0,0,0,0,0,0,0],"sum_hessian":[8.519928E3,3.4466484E3,5.073279E3,2.0006704E3,1.4459781E3,2.7290955E3,2.3441833E3,1.1470272E3,8.5364325E2,6.416813E2,8.042968E2,2.2051487E3,5.239468E2,8.9162537E2,1.4525579E3,3.0823765E1,1.1162035E3,6.664955E2,1.8714775E2,3.8162158E2,2.600597E2,2.043479E2,5.999489E2,4.0111588E2,1.8040328E3,2.7774884E2,2.461979E2,7.06725E2,1.8490036E2,5.6320746E2,8.8935046E2,2.4327686E1,6.496078E0,1.1074817E3,8.7217245E0,1.4942487E2,5.170706E2,2.120079E0,1.8502768E2,1.6607556E2,2.1554604E2,4.61772E1,2.138825E2,9.072151E1,1.13626396E2,4.3481018E2,1.6513872E2,1.947375E2,2.0637837E2,1.0914716E3,7.1256134E2,4.5130506E0,2.7323578E2,1.1108117E2,1.3511674E2,1.607333E2,5.459917E2,7.225773E0,1.7767459E2,9.384464E1,4.6936282E2,8.824624E2,6.888071E0],"tree_param":{"num_deleted":"0","num_feature":"10","num_nodes":"63","size_leaf_vector":"1"}},{"base_weights":[2.8627488E-4,-5.337096E-1,5.8607525E-1,-8.662014E-1,-1.7587875E-1,3.3694297E-1,9.195368E-1,-9.962669E-1,-6.302344E-1,-4.3267044E-1,-5.936259E-2,1.797572E-1,7.1493053E-1,6.302241E-1,1.0385387E0,-1.0546602E0,-8.1567454E-1,-6.7101806E-1,-1.2259009E-1,-1.4526983E-1,-7.3976415E-1,2.4334218E-1,-1.9305621E-1,2.950743E-1,-5.652609E-2,4.2850637E-1,8.315209E-1,4.9158096E-1,9.4123405E-1,7.5895697E-1,1.0655639E0,-1.1019989E-1,-9.755972E-2,-1.839501E-2,-8.7301455E-2,-5.9518542E-2,-9.261104E-2,-4.9963117E-2,1.4546916E-2,2.484931E-2,-4.7145944E-2,-5.70502E-2,-9.814815E-2,4.191816E-2,-1.5861971E-2,1.5757894E-2,-3.0200813E-2,-4.1746918E-2,3.7689578E-2,-4.424361E-2,2.1896683E-2,4.6938125E-2,-2.967213E-2,7.207988E-2,1.0131719E-1,5.8078226E-2,-2.9849265E-2,-9.448966E-2,9.652624E-2,9.096467E-2,-8.222053E-2,9.9513896E-2,1.1043539E-1],"categories":[],"categories_nodes":[],"categories_segments":[],"categories_sizes":[],"default_left":[0,0,0,0,0,0,0,0,0,0,0,0,0,0,0,0,0,0,0,0,0,0,0,0,0,0,0,0,0,0,0,0,0,0,0,0,0,0,0,0,0,0,0,0,0,0,0,0,0,0,0,0,0,0,0,0,0,0,0,0,0,0,0],"id":15,"left_children":[1,3,5,7,9,11,13,15,17,19,21,23,25,27,29,31,33,35,37,39,41,43,45,47,49,51,53,55,57,59,61,-1,-1,-1,-1,-1,-1,-1,-1,-1,-1,-1,-1,-1,-1,-1,-1,-1,-1,-1,-1,-1,-1,-1,-1,-1,-1,-1,-1,-1,-1,-1,-1],"loss_changes":[2.5638489E3,5.0997522E2,3.2439783E2,6.757605E1,6.180157E1,1.3288434E2,5.686975E1,1.4228882E1,1.6322784E1,5.6801834E1,5.7618866E1,4.3136745E1,2.1590576E1,2.064421E1,8.124634E0,2.9591064E0,1.2663574E1,1.3632629E1,6.1518426E0,4.305817E1,1.2183655E1,3.0901907E1,3.7765907E1,6.217002E1,5.5367607E1,5.8364563E0,8.642548E0,2.4181808E1,7.7027435E0,2.6406322E1,1.8393555E0,0E0,0E0,0E0,0E0,0E0,0E0,0E0,0E0,0E0,0E0,0E0,0E0,0E0,0E0,0E0,0E0,0E0,0E0,0E0,0E0,0E0,0E0,0E0,0E0,0E0,0E0,0E0,0E0,0E0,0E0,0E0,0E0],"parents":[2147483647,0,0,1,1,2,2,3,3,4,4,5,5,6,6,7,7,8,8,9,9,10,10,11,11,12,12,13,13,14,14,15,15,16,16,17,17,18,18,19,19,20,20,21,21,22,22,23,23,24,24,25,25,26,26,27,27,28,28,29,29,30,30],"right_children":[2,4,6,8,10,12,14,16,18,20,22,24,26,28,30,32,34,36,38,40,42,44,46,48,50,52,54,56,58,60,62,-1,-1,-1,-1,-1,-1,-1,-1,-1,-1,-1,-1,-1,-1,-1,-1,-1,-1,-1,-1,-1,-1,-1,-1,-1,-1,-1,-1,-1,-1,-1,-1],"split_conditions":[7.9831935E-2,4.621849E-2,5.725896E-1,3.2352943E-2,4.2322654E-1,1.5441176E-1,1.2184874E-1,4.2532164E-1,4.9608138E-1,5.031619E-1,2.2712679E-1,2E-1,4.980763E-1,6.233047E-1,4.5009667E-1,2.2058824E-2,4.9708667E-1,2.890746E-1,1.732186E-1,5E-2,5E-2,1.5E-1,5.377124E-1,3.8895127E-1,4.8121887E-1,3.5336927E-1,2.4264705E-1,6.680503E-1,3.8624406E-1,6.0476816E-1,1.8382353E-1,-1.1019989E-1,-9.755972E-2,-1.839501E-2,-8.7301455E-2,-5.9518542E-2,-9.261104E-2,-4.9963117E-2,1.4546916E-2,2.484931E-2,-4.7145944E-2,-5.70502E-2,-9.814815E-2,4.191816E-2,-1.5861971E-2,1.5757894E-2,-3.0200813E-2,-4.1746918E-2,3.7689578E-2,-4.424361E-2,2.1896683E-2,4.6938125E-2,-2.967213E-2,7.207988E-2,1.0131719E-1,5.8078226E-2,-2.9849265E-2,-9.448966E-2,9.652624E-2,9.096467E-2,-8.222053E-2,9.9513896E-2,1.1043539E-1],"split_indices":[0,0,2,0,1,0,0,1,1,3,6,8,2,2,1,0,2,6,4,8,8,8,3,1,1,4,0,3,1,3,0,0,0,0,0,0,0,0,0,0,0,0,0,0,0,0,0,0,0,0,0,0,0,0,0,0,0,0,0,0,0,0,0],"split_type":[0,0,0,0,0,0,0,0,0,0,0,0,0,0,0,0,0,0,0,0,0,0,0,0,0,0,0,0,0,0,0,0,0,0,0,0,0,0,0,0,0,0,0,0,0,0,0,0,0,0,0,0,0,0,0,0,0,0,0,0,0,0,0],"sum_hessian":[8.194216E3,4.286657E3,3.907559E3,2.2212651E3,2.065392E3,2.237736E3,1.669823E3,1.4298867E3,7.9137836E2,6.4379944E2,1.4215925E3,1.5815327E3,6.562034E2,4.884991E2,1.1813239E3,1.0768533E3,3.5303345E2,7.322299E2,5.9148422E1,3.3332385E2,3.1047562E2,4.352633E2,9.863292E2,1.062658E3,5.1887476E2,1.9118944E2,4.6501398E2,3.396633E2,1.488358E2,1.0668861E2,1.0746353E3,6.6546826E2,4.1138498E2,2.9727562E1,3.2330588E2,5.6700616E2,1.652238E2,2.4219038E1,3.4929382E1,1.5112729E2,1.8219656E2,1.845823E2,1.258933E2,3.0277197E2,1.3249133E2,2.3371815E2,7.526111E2,1.0903374E2,9.5362427E2,2.1587352E2,3.0300125E2,1.8132262E2,9.866822E0,2.919991E2,1.7301486E2,3.0544293E2,3.4220367E1,1.390152E0,1.4744565E2,9.77933E1,8.8953085E0,3.911466E2,6.8348865E2],"tree_param":{"num_deleted":"0","num_feature":"10","num_nodes":"63","size_leaf_vector":"1"}},{"base_weights":[2.5391715E-4,-6.4911336E-1,4.2862645E-1,-9.449618E-1,-3.8540688E-1,1.4474991E-1,7.9395586E-1,-9.854462E-1,-6.0848737E-1,-5.3796446E-1,-1.9632286E-1,1.888601E-4,4.4737655E-1,4.9694163E-1,9.92695E-1,-7.4192417E-1,-1.0272018E0,-6.55494E-1,5.547238E-1,-4.1824716E-1,-8.851227E-1,-2.6561767E-1,4.221678E-1,-5.6367204E-2,4.1926938E-1,2.6323703E-1,6.922979E-1,4.053585E-1,8.7029046E-1,8.632382E-1,1.0763214E0,-9.0440616E-2,-3.487209E-2,-1.0851164E-1,-9.5319286E-2,-4.411798E-2,-9.2389815E-2,9.218343E-2,-6.742001E-2,-6.31119E-2,-1.7080143E-2,-1.1160022E-1,-7.514777E-2,-5.5630067E-3,-4.4908877E-2,9.909223E-2,1.0247995E-2,6.787366E-3,-4.3605458E-2,4.975446E-2,2.2932123E-3,5.5549152E-2,9.644817E-3,4.4448897E-2,8.3407894E-2,6.3979747E-3,5.1580705E-2,2.167603E-2,9.041929E-2,5.3047188E-2,9.470824E-2,7.831411E-2,1.0842264E-1],"categories":[],"categories_nodes":[],"categories_segments":[],"categories_sizes":[],"default_left":[0,0,0,0,0,0,0,0,0,0,0,0,0,0,0,0,0,0,0,0,0,0,0,0,0,0,0,0,0,0,0,0,0,0,0,0,0,0,0,0,0,0,0,0,0,0,0,0,0,0,0,0,0,0,0,0,0,0,0,0,0,0,0],"id":16,"left_children":[1,3,5,7,9,11,13,15,17,19,21,23,25,27,29,31,33,35,37,39,41,43,45,47,49,51,53,55,57,59,61,-1,-1,-1,-1,-1,-1,-1,-1,-1,-1,-1,-1,-1,-1,-1,-1,-1,-1,-1,-1,-1,-1,-1,-1,-1,-1,-1,-1,-1,-1,-1,-1],"loss_changes":[2.1960088E3,2.444408E2,4.9318677E2,1.9535034E1,4.780005E1,1.1715401E2,1.22267456E2,1.2637329E1,9.186497E0,3.7806213E1,3.196264E1,4.30003E1,3.885994E1,2.8222382E1,1.254895E1,1.2237236E1,3.775879E0,8.540054E0,3.693408E0,3.596994E1,6.40152E0,2.5745514E1,1.3582527E1,7.5436035E1,6.681076E0,2.4112827E1,1.2661087E1,2.5341042E1,3.4320755E0,1.3270813E1,8.9453125E-1,0E0,0E0,0E0,0E0,0E0,0E0,0E0,0E0,0E0,0E0,0E0,0E0,0E0,0E0,0E0,0E0,0E0,0E0,0E0,0E0,0E0,0E0,0E0,0E0,0E0,0E0,0E0,0E0,0E0,0E0,0E0,0E0],"parents":[2147483647,0,0,1,1,2,2,3,3,4,4,5,5,6,6,7,7,8,8,9,9,10,10,11,11,12,12,13,13,14,14,15,15,16,16,17,17,18,18,19,19,20,20,21,21,22,22,23,23,24,24,25,25,26,26,27,27,28,28,29,29,30,30],"right_children":[2,4,6,8,10,12,14,16,18,20,22,24,26,28,30,32,34,36,38,40,42,44,46,48,50,52,54,56,58,60,62,-1,-1,-1,-1,-1,-1,-1,-1,-1,-1,-1,-1,-1,-1,-1,-1,-1,-1,-1,-1,-1,-1,-1,-1,-1,-1,-1,-1,-1,-1,-1,-1],"split_conditions":[6.1764706E-2,3.6764707E-2,1.2184874E-1,4.5589226E-1,4.4183898E-1,5.6302416E-1,5.580334E-1,4.9913207E-1,5.4088235E-1,5.649689E-1,6.203092E-1,5.135232E-1,9.411765E-2,2.4264705E-1,1.8382353E-1,3.981555E-1,2.2058824E-2,2.6527268E-1,3.529412E-2,4.0357584E-1,4.1694614E-1,5.990964E-1,2.2568493E-1,3.3119524E-1,4.7646582E-1,5.6941724E-1,4.765049E-1,4.343276E-1,3.8624406E-1,4.6031153E-1,4.2742676E-1,-9.0440616E-2,-3.487209E-2,-1.0851164E-1,-9.5319286E-2,-4.411798E-2,-9.2389815E-2,9.218343E-2,-6.742001E-2,-6.31119E-2,-1.7080143E-2,-1.1160022E-1,-7.514777E-2,-5.5630067E-3,-4.4908877E-2,9.909223E-2,1.0247995E-2,6.787366E-3,-4.3605458E-2,4.975446E-2,2.2932123E-3,5.5549152E-2,9.644817E-3,4.4448897E-2,8.3407894E-2,6.3979747E-3,5.1580705E-2,2.167603E-2,9.041929E-2,5.3047188E-2,9.470824E-2,7.831411E-2,1.0842264E-1],"split_indices":[0,0,0,1,1,2,2,2,1,3,2,1,0,0,0,1,0,6,0,1,1,3,7,6,6,3,1,1,1,1,1,0,0,0,0,0,0,0,0,0,0,0,0,0,0,0,0,0,0,0,0,0,0,0,0,0,0,0,0,0,0,0,0],"split_type":[0,0,0,0,0,0,0,0,0,0,0,0,0,0,0,0,0,0,0,0,0,0,0,0,0,0,0,0,0,0,0,0,0,0,0,0,0,0,0,0,0,0,0,0,0,0,0,0,0,0,0,0,0,0,0,0,0,0,0,0,0,0,0],"sum_hessian":[7.8924536E3,3.136833E3,4.7556206E3,1.4771057E3,1.6597272E3,2.676929E3,2.078692E3,1.316747E3,1.6035883E2,9.175668E2,7.4216034E2,1.8122432E3,8.646858E2,8.3471564E2,1.2439762E3,1.9547713E2,1.1212698E3,1.5454977E2,5.809046E0,6.8392163E2,2.3364517E2,6.679003E2,7.4260056E1,1.5975192E3,2.1472408E2,4.9477405E2,3.6991174E2,6.7196674E2,1.627489E2,4.9265323E2,7.5132294E2,1.373998E2,5.8077328E1,6.2136707E2,4.9990277E2,8.740373E1,6.714605E1,4.665291E0,1.143755E0,3.6681158E2,3.1711005E2,8.296603E1,1.5067915E2,3.1205185E2,3.5584845E2,2.5965448E1,4.8294605E1,1.204278E3,3.932412E2,1.7909758E2,3.5626495E1,1.7892451E2,3.1584955E2,1.361245E2,2.3378726E2,1.6464732E2,5.0731943E2,8.391002E0,1.543579E2,1.0062254E2,3.9203067E2,2.2353237E1,7.2896967E2],"tree_param":{"num_deleted":"0","num_feature":"10","num_nodes":"63","size_leaf_vector":"1"}},{"base_weights":[2.410543E-4,-7.193941E-1,3.451036E-1,-9.4883156E-1,-4.9086264E-1,4.5248494E-2,7.028825E-1,-1.0161922E0,-7.4857867E-1,-5.9394956E-1,-2.7855045E-1,-6.901257E-2,3.788938E-1,3.317684E-1,8.815049E-1,-1.0714128E0,-9.2616993E-1,-1.275634E-1,-8.102858E-1,-4.70796E-1,-8.321959E-1,1.2620403E-1,-4.084742E-1,2.2476519E-2,-6.59499E-1,2.903026E-1,9.313273E-1,2.2559527E-1,5.877888E-1,6.884496E-1,1.0174153E0,-4.538091E-2,-1.07304506E-1,5.269595E-2,-9.36227E-2,6.134745E-2,-6.1118823E-2,-8.361497E-2,1.480362E-2,-6.627098E-2,-2.3450263E-2,-2.984411E-2,-8.781401E-2,-1.9862376E-2,7.5874336E-2,-4.4656184E-2,7.4224055E-2,1.9893095E-2,-2.9546468E-2,-1.998562E-2,-8.75192E-2,4.8234746E-2,6.8232142E-3,1.03722885E-1,4.1165285E-2,3.0878177E-2,-2.9481167E-2,3.4194447E-2,7.320847E-2,-5.489668E-2,7.2999634E-2,6.5917075E-2,1.0347624E-1],"categories":[],"categories_nodes":[],"categories_segments":[],"categories_sizes":[],"default_left":[0,0,0,0,0,0,0,0,0,0,0,0,0,0,0,0,0,0,0,0,0,0,0,0,0,0,0,0,0,0,0,0,0,0,0,0,0,0,0,0,0,0,0,0,0,0,0,0,0,0,0,0,0,0,0,0,0,0,0,0,0,0,0],"id":17,"left_children":[1,3,5,7,9,11,13,15,17,19,21,23,25,27,29,31,33,35,37,39,41,43,45,47,49,51,53,55,57,59,61,-1,-1,-1,-1,-1,-1,-1,-1,-1,-1,-1,-1,-1,-1,-1,-1,-1,-1,-1,-1,-1,-1,-1,-1,-1,-1,-1,-1,-1,-1,-1,-1],"loss_changes":[1.8892883E3,1.2884998E2,5.5208856E2,1.5825928E1,2.6922516E1,1.0680543E2,1.5525586E2,3.567688E0,1.1902771E1,2.4027008E1,2.1423185E1,1.1277525E2,3.470636E1,2.0635887E1,4.0846924E1,7.977295E-2,5.6980286E0,1.09489E1,7.1828156E0,2.4828827E1,6.6607666E0,2.059824E1,1.3825459E1,1.0150373E2,2.7589325E1,2.6295837E1,4.9838104E0,2.3541336E1,7.6727524E0,3.4192596E1,5.079834E0,0E0,0E0,0E0,0E0,0E0,0E0,0E0,0E0,0E0,0E0,0E0,0E0,0E0,0E0,0E0,0E0,0E0,0E0,0E0,0E0,0E0,0E0,0E0,0E0,0E0,0E0,0E0,0E0,0E0,0E0,0E0,0E0],"parents":[2147483647,0,0,1,1,2,2,3,3,4,4,5,5,6,6,7,7,8,8,9,9,10,10,11,11,12,12,13,13,14,14,15,15,16,16,17,17,18,18,19,19,20,20,21,21,22,22,23,23,24,24,25,25,26,26,27,27,28,28,29,29,30,30],"right_children":[2,4,6,8,10,12,14,16,18,20,22,24,26,28,30,32,34,36,38,40,42,44,46,48,50,52,54,56,58,60,62,-1,-1,-1,-1,-1,-1,-1,-1,-1,-1,-1,-1,-1,-1,-1,-1,-1,-1,-1,-1,-1,-1,-1,-1,-1,-1,-1,-1,-1,-1,-1,-1],"split_conditions":[5.392157E-2,3.2352943E-2,1.092437E-1,4.2532164E-1,4.5227307E-1,4.9107465E-1,5.36395E-1,2.2058824E-2,4.9708667E-1,5.555549E-1,5E-2,6.1290175E-1,6.2562233E-1,1.8627451E-1,1.6470589E-1,9.6201345E-2,3.501751E-1,5.919185E-1,5.226088E-1,4.0357584E-1,1.3526899E-1,5.856097E-1,5.5669975E-1,1.5E-1,2.0665818E-1,6.202864E-1,3.355881E-1,3E-1,4.5515847E-1,4.0593675E-1,4.2889315E-1,-4.538091E-2,-1.07304506E-1,5.269595E-2,-9.36227E-2,6.134745E-2,-6.1118823E-2,-8.361497E-2,1.480362E-2,-6.627098E-2,-2.3450263E-2,-2.984411E-2,-8.781401E-2,-1.9862376E-2,7.5874336E-2,-4.4656184E-2,7.4224055E-2,1.9893095E-2,-2.9546468E-2,-1.998562E-2,-8.75192E-2,4.8234746E-2,6.8232142E-3,1.03722885E-1,4.1165285E-2,3.0878177E-2,-2.9481167E-2,3.4194447E-2,7.320847E-2,-5.489668E-2,7.2999634E-2,6.5917075E-2,1.0347624E-1],"split_indices":[0,0,0,1,1,1,2,0,2,3,8,3,2,0,0,7,3,3,1,1,6,2,1,8,6,3,7,8,1,1,1,0,0,0,0,0,0,0,0,0,0,0,0,0,0,0,0,0,0,0,0,0,0,0,0,0,0,0,0,0,0,0,0],"split_type":[0,0,0,0,0,0,0,0,0,0,0,0,0,0,0,0,0,0,0,0,0,0,0,0,0,0,0,0,0,0,0,0,0,0,0,0,0,0,0,0,0,0,0,0,0,0,0,0,0,0,0,0,0,0,0,0,0,0,0,0,0,0,0],"sum_hessian":[7.61072E3,2.4652734E3,5.145447E3,1.2286251E3,1.2366484E3,2.7999397E3,2.3455073E3,9.163208E2,3.1230426E2,8.31245E2,4.054034E2,2.086265E3,7.136747E2,7.6303906E2,1.5824683E3,5.6118317E2,3.5513763E2,2.8504505E1,2.8379977E2,5.499452E2,2.812998E2,9.8517685E1,3.068857E2,1.807219E3,2.790459E2,6.163577E2,9.731694E1,5.4069214E2,2.2234694E2,6.56294E2,9.261742E2,2.2146795E0,5.589685E2,2.0877237E0,3.530499E2,1.1150529E1,1.7353975E1,2.764658E2,7.3339643E0,3.0247507E2,2.4747011E2,2.2888567E1,2.5841122E2,6.554458E1,3.2973106E1,2.9764584E2,9.23988E0,1.1624463E3,6.447727E2,8.9738754E1,1.8930713E2,3.2989502E2,2.8646274E2,8.001518E1,1.7301764E1,4.665252E2,7.416691E1,8.348278E1,1.3886417E2,2.0922745E1,6.353713E2,4.4577686E1,8.815965E2],"tree_param":{"num_deleted":"0","num_feature":"10","num_nodes":"63","size_leaf_vector":"1"}},{"base_weights":[2.0102775E-4,-3.7461945E-1,5.8483624E-1,-8.41175E-1,-1.3391247E-1,3.2814264E-1,8.889849E-1,-9.837611E-1,-6.673703E-1,-3.2067025E-1,2.343485E-2,2.2923641E-1,6.805557E-1,7.004272E-1,1.0233971E0,-4.5741078E-1,-9.9926776E-1,-8.113023E-1,-4.879396E-1,-3.5762917E-2,-5.2823365E-1,9.898574E-2,-4.5111147E-1,3.599676E-1,2.0728445E-2,4.1841945E-1,8.13648E-1,4.2638028E-1,8.4351355E-1,9.0105075E-1,1.0565914E0,-7.4403234E-2,4.7609955E-2,-1.02208674E-1,-7.1094185E-2,-6.675608E-2,-9.898137E-2,-3.9892104E-2,-8.643078E-2,-5.495462E-2,2.0035435E-2,-2.8049365E-2,-7.7846386E-2,2.6448552E-2,-9.671153E-3,-7.039291E-2,-7.794498E-3,1.0843352E-2,5.6346186E-2,-1.8497257E-2,4.178216E-2,4.584035E-2,-7.706283E-2,6.816257E-2,1.0084013E-1,6.564743E-2,-6.611296E-2,6.509332E-2,9.758794E-2,9.161358E-2,-1.2686598E-2,1.0613185E-1,3.8850874E-2],"categories":[],"categories_nodes":[],"categories_segments":[],"categories_sizes":[],"default_left":[0,0,0,0,0,0,0,0,0,0,0,0,0,0,0,0,0,0,0,0,0,0,0,0,0,0,0,0,0,0,0,0,0,0,0,0,0,0,0,0,0,0,0,0,0,0,0,0,0,0,0,0,0,0,0,0,0,0,0,0,0,0,0],"id":18,"left_children":[1,3,5,7,9,11,13,15,17,19,21,23,25,27,29,31,33,35,37,39,41,43,45,47,49,51,53,55,57,59,61,-1,-1,-1,-1,-1,-1,-1,-1,-1,-1,-1,-1,-1,-1,-1,-1,-1,-1,-1,-1,-1,-1,-1,-1,-1,-1,-1,-1,-1,-1,-1,-1],"loss_changes":[1.6121056E3,5.0331543E2,2.2408838E2,3.714746E1,8.693971E1,5.4224823E1,3.2606445E1,6.3652954E0,1.7438843E1,7.998056E1,5.764172E1,3.3241447E1,1.1570435E1,2.1221405E1,2.1565552E0,7.248041E0,4.6098633E0,9.133102E0,1.0037743E1,6.940911E1,4.8293915E1,4.4937374E1,2.0777866E1,3.831015E1,3.8559216E1,5.916952E0,5.1074677E0,4.8180103E1,8.555634E0,2.7546082E0,1.4708862E0,0E0,0E0,0E0,0E0,0E0,0E0,0E0,0E0,0E0,0E0,0E0,0E0,0E0,0E0,0E0,0E0,0E0,0E0,0E0,0E0,0E0,0E0,0E0,0E0,0E0,0E0,0E0,0E0,0E0,0E0,0E0,0E0],"parents":[2147483647,0,0,1,1,2,2,3,3,4,4,5,5,6,6,7,7,8,8,9,9,10,10,11,11,12,12,13,13,14,14,15,15,16,16,17,17,18,18,19,19,20,20,21,21,22,22,23,23,24,24,25,25,26,26,27,27,28,28,29,29,30,30],"right_children":[2,4,6,8,10,12,14,16,18,20,22,24,26,28,30,32,34,36,38,40,42,44,46,48,50,52,54,56,58,60,62,-1,-1,-1,-1,-1,-1,-1,-1,-1,-1,-1,-1,-1,-1,-1,-1,-1,-1,-1,-1,-1,-1,-1,-1,-1,-1,-1,-1,-1,-1,-1,-1],"split_conditions":[9.191176E-2,4.0106952E-2,5.6673473E-1,2.6143791E-2,4.4244206E-1,1.8627451E-1,1.5294118E-1,4.5659158E-1,4.246262E-1,5.031619E-1,3.97288E-1,2E-1,5.029323E-1,4.765049E-1,1.8382353E-1,3.0549955E-1,4.5515847E-1,5.3207076E-1,3.2355204E-1,3.7980062E-1,5E-2,1.5E-1,5.083946E-1,4.3922365E-1,5.104452E-1,5.8759E-1,4.9191037E-1,6.079936E-1,6.025762E-1,7.4911577E-1,5.960642E-1,-7.4403234E-2,4.7609955E-2,-1.02208674E-1,-7.1094185E-2,-6.675608E-2,-9.898137E-2,-3.9892104E-2,-8.643078E-2,-5.495462E-2,2.0035435E-2,-2.8049365E-2,-7.7846386E-2,2.6448552E-2,-9.671153E-3,-7.039291E-2,-7.794498E-3,1.0843352E-2,5.6346186E-2,-1.8497257E-2,4.178216E-2,4.584035E-2,-7.706283E-2,6.816257E-2,1.0084013E-1,6.564743E-2,-6.611296E-2,6.509332E-2,9.758794E-2,9.161358E-2,-1.2686598E-2,1.0613185E-1,3.8850874E-2],"split_indices":[0,0,2,0,1,0,0,2,1,3,6,8,2,1,0,7,1,3,6,1,8,8,1,1,1,1,1,3,2,3,6,0,0,0,0,0,0,0,0,0,0,0,0,0,0,0,0,0,0,0,0,0,0,0,0,0,0,0,0,0,0,0,0],"split_type":[0,0,0,0,0,0,0,0,0,0,0,0,0,0,0,0,0,0,0,0,0,0,0,0,0,0,0,0,0,0,0,0,0,0,0,0,0,0,0,0,0,0,0,0,0,0,0,0,0,0,0,0,0,0,0,0,0,0,0,0,0,0,0],"sum_hessian":[7.3547363E3,4.481758E3,2.8729788E3,1.524455E3,2.9573027E3,1.5591638E3,1.3138151E3,8.3487756E2,6.8957733E2,1.3517974E3,1.6055054E3,1.2187632E3,3.4040057E2,5.493624E2,7.644526E2,2.4765062E1,8.101125E2,3.806855E2,3.0889185E2,5.7024097E2,7.815564E2,1.3856864E3,2.1981897E2,7.48647E2,4.7011618E2,1.1602456E2,2.2437602E2,1.8980919E2,3.5955322E2,1.6915048E2,5.953021E2,1.9102787E1,5.662275E0,7.483417E2,6.177085E1,2.1350548E2,1.6718001E2,2.5147334E2,5.7418507E1,1.7913083E2,3.911101E2,3.9379813E2,3.8775827E2,7.505772E2,6.3510925E2,1.305118E2,8.9307175E1,3.3548965E2,4.1315735E2,3.1004288E2,1.600733E2,1.1284442E2,3.180137E0,1.3640657E2,8.796945E1,1.5698982E2,3.281937E1,1.4887352E2,2.1067972E2,1.6681122E2,2.3392658E0,5.905351E2,4.7670255E0],"tree_param":{"num_deleted":"0","num_feature":"10","num_nodes":"63","size_leaf_vector":"1"}},{"base_weights":[2.1533943E-4,-6.5793175E-1,3.0048433E-1,-9.033402E-1,-4.3611112E-1,7.707951E-2,7.003326E-1,-9.805476E-1,-6.8458605E-1,-4.9917185E-1,-1.4207968E-1,1.1484763E-2,5.7670736E-1,4.022367E-1,9.2990255E-1,-7.7203834E-1,-1.0119102E0,-1.15634784E-1,-7.593755E-1,-4.2099518E-1,-7.601157E-1,2.0567113E-1,-3.7216222E-1,1.22023724E-1,-1.9353814E-1,-4.1001335E-1,6.2422305E-1,3.2070488E-1,8.0740345E-1,7.7841264E-1,1.0348501E0,-8.415603E-2,3.3733707E-2,-1.0724165E-1,-9.4642244E-2,5.3700734E-2,-4.6739466E-2,-7.8892276E-2,2.4346767E-2,-6.1923236E-2,-3.0631665E-2,-7.7730365E-2,4.3155614E-2,-3.2615665E-2,5.047744E-2,-4.192133E-2,8.15944E-2,-2.9148227E-2,2.5196347E-2,-6.137398E-2,5.69645E-3,7.20146E-2,-8.61266E-2,5.2794587E-2,1.0141231E-1,-3.7641967E-5,4.2257138E-2,8.915334E-3,8.511815E-2,4.1275322E-2,8.777243E-2,6.862343E-2,1.0450528E-1],"categories":[],"categories_nodes":[],"categories_segments":[],"categories_sizes":[],"default_left":[0,0,0,0,0,0,0,0,0,0,0,0,0,0,0,0,0,0,0,0,0,0,0,0,0,0,0,0,0,0,0,0,0,0,0,0,0,0,0,0,0,0,0,0,0,0,0,0,0,0,0,0,0,0,0,0,0,0,0,0,0,0,0],"id":19,"left_children":[1,3,5,7,9,11,13,15,17,19,21,23,25,27,29,31,33,35,37,39,41,43,45,47,49,51,53,55,57,59,61,-1,-1,-1,-1,-1,-1,-1,-1,-1,-1,-1,-1,-1,-1,-1,-1,-1,-1,-1,-1,-1,-1,-1,-1,-1,-1,-1,-1,-1,-1,-1,-1],"loss_changes":[1.406914E3,1.2102368E2,4.3665356E2,1.7197449E1,2.1687088E1,1.02819855E2,1.19540344E2,4.317383E0,1.1797226E1,1.938269E1,1.6768856E1,6.290092E1,1.7326431E1,2.4982857E1,1.4920471E1,8.471489E0,1.6577759E0,7.971464E0,7.5015106E0,1.6756393E1,4.870453E0,1.3481202E1,7.3806286E0,9.6960464E1,1.02375984E2,9.458879E0,1.2519119E1,2.0859978E1,3.9283218E0,1.4484711E1,1.3504639E0,0E0,0E0,0E0,0E0,0E0,0E0,0E0,0E0,0E0,0E0,0E0,0E0,0E0,0E0,0E0,0E0,0E0,0E0,0E0,0E0,0E0,0E0,0E0,0E0,0E0,0E0,0E0,0E0,0E0,0E0,0E0,0E0],"parents":[2147483647,0,0,1,1,2,2,3,3,4,4,5,5,6,6,7,7,8,8,9,9,10,10,11,11,12,12,13,13,14,14,15,15,16,16,17,17,18,18,19,19,20,20,21,21,22,22,23,23,24,24,25,25,26,26,27,27,28,28,29,29,30,30],"right_children":[2,4,6,8,10,12,14,16,18,20,22,24,26,28,30,32,34,36,38,40,42,44,46,48,50,52,54,56,58,60,62,-1,-1,-1,-1,-1,-1,-1,-1,-1,-1,-1,-1,-1,-1,-1,-1,-1,-1,-1,-1,-1,-1,-1,-1,-1,-1,-1,-1,-1,-1,-1,-1],"split_conditions":[5.392157E-2,3.2352943E-2,1.2184874E-1,4.2532164E-1,4.7810528E-1,6.0567504E-1,5.580334E-1,4.9597806E-1,5.0472593E-1,2.890746E-1,2.6057184E-1,5.813594E-1,4.183852E-1,2.647059E-1,1.8382353E-1,3.888326E-1,3.853382E-1,5.761269E-1,5.226088E-1,4.0357584E-1,5.2326614E-1,1.7518996E-1,5.71216E-1,4.0593675E-1,4.7280553E-1,5.0553966E-1,6.583534E-1,4.7192135E-1,3.8624406E-1,4.6031153E-1,4.2742676E-1,-8.415603E-2,3.3733707E-2,-1.0724165E-1,-9.4642244E-2,5.3700734E-2,-4.6739466E-2,-7.8892276E-2,2.4346767E-2,-6.1923236E-2,-3.0631665E-2,-7.7730365E-2,4.3155614E-2,-3.2615665E-2,5.047744E-2,-4.192133E-2,8.15944E-2,-2.9148227E-2,2.5196347E-2,-6.137398E-2,5.69645E-3,7.20146E-2,-8.61266E-2,5.2794587E-2,1.0141231E-1,-3.7641967E-5,4.2257138E-2,8.915334E-3,8.511815E-2,4.1275322E-2,8.777243E-2,6.862343E-2,1.0450528E-1],"split_indices":[0,0,0,1,1,2,2,2,2,6,6,3,1,0,0,7,1,3,1,1,6,4,1,1,1,3,2,2,1,1,1,0,0,0,0,0,0,0,0,0,0,0,0,0,0,0,0,0,0,0,0,0,0,0,0,0,0,0,0,0,0,0,0],"split_type":[0,0,0,0,0,0,0,0,0,0,0,0,0,0,0,0,0,0,0,0,0,0,0,0,0,0,0,0,0,0,0,0,0,0,0,0,0,0,0,0,0,0,0,0,0,0,0,0,0,0,0,0,0,0,0,0,0,0,0,0,0,0,0],"sum_hessian":[7.1172476E3,2.22944E3,4.8878076E3,1.0569851E3,1.1724548E3,3.1365398E3,1.7512676E3,7.786758E2,2.7830936E2,9.6483057E2,2.0762424E2,2.773445E3,3.6309488E2,7.63116E2,9.8815155E2,1.05158875E2,6.735169E2,3.262965E1,2.456797E2,7.4442126E2,2.2040929E2,8.271437E1,1.2490987E2,1.8021909E3,9.71254E2,1.63311E1,3.467638E2,6.3677014E2,1.263459E2,4.0784784E2,5.803037E2,9.918462E1,5.9742565E0,3.4208078E2,3.3143616E2,1.1243062E1,2.1386587E1,2.388555E2,6.8241954E0,2.7120587E2,4.732154E2,2.1761821E2,2.7910721E0,2.974144E1,5.297293E1,1.2077416E2,4.135709E0,4.306128E2,1.3715781E3,3.62214E2,6.0904004E2,4.490012E0,1.1841088E1,2.799824E2,6.678141E1,1.5360533E2,4.831648E2,7.4329443E0,1.1891296E2,8.821216E1,3.1963568E2,1.8441301E1,5.6186237E2],"tree_param":{"num_deleted":"0","num_feature":"10","num_nodes":"63","size_leaf_vector":"1"}},{"base_weights":[1.9807731E-4,-6.24985E-1,2.7796036E-1,-8.805367E-1,-4.046151E-1,1.1732358E-1,7.912335E-1,-9.6295565E-1,-6.533818E-1,-5.600889E-1,-2.918641E-1,2.4264434E-2,5.2239054E-1,4.1296127E-1,9.494515E-1,-1.0338589E0,-8.5080284E-1,-1.0551423E-1,-7.2933704E-1,6.1948366E-2,-6.420037E-1,-2.1104777E-2,-4.1070777E-1,1.4843053E-1,-1.433949E-1,2.8844258E-1,7.7205354E-1,2.1555515E-1,5.614432E-1,8.2567793E-1,1.0317554E0,-3.468451E-2,-1.03594236E-1,6.9359876E-3,-8.733755E-2,4.7075268E-2,-4.3682314E-2,-8.203199E-2,-3.726039E-2,-2.7083648E-2,8.076559E-2,-5.000576E-2,-8.642741E-2,-2.0529594E-2,5.803447E-2,-4.50708E-2,3.0332813E-2,-6.417488E-3,4.0299416E-2,-6.843509E-2,2.4446046E-3,1.697909E-2,7.294092E-2,3.7583828E-2,8.31668E-2,4.4053506E-2,-1.9969407E-2,7.049873E-2,1.8507918E-2,-2.2243626E-2,8.6248055E-2,1.0355188E-1,4.645863E-2],"categories":[],"categories_nodes":[],"categories_segments":[],"categories_sizes":[],"default_left":[0,0,0,0,0,0,0,0,0,0,0,0,0,0,0,0,0,0,0,0,0,0,0,0,0,0,0,0,0,0,0,0,0,0,0,0,0,0,0,0,0,0,0,0,0,0,0,0,0,0,0,0,0,0,0,0,0,0,0,0,0,0,0],"id":20,"left_children":[1,3,5,7,9,11,13,15,17,19,21,23,25,27,29,31,33,35,37,39,41,43,45,47,49,51,53,55,57,59,61,-1,-1,-1,-1,-1,-1,-1,-1,-1,-1,-1,-1,-1,-1,-1,-1,-1,-1,-1,-1,-1,-1,-1,-1,-1,-1,-1,-1,-1,-1,-1,-1],"loss_changes":[1.1975234E3,1.1911017E2,3.9358655E2,1.7744873E1,1.9837067E1,1.3711398E2,6.771411E1,4.830139E0,1.0925545E1,2.4422241E1,2.133899E1,6.1625183E1,3.9468872E1,9.767654E0,7.313904E0,2.637024E-1,5.954468E0,6.575124E0,7.225456E0,1.4263226E1,1.2911255E1,2.2654736E1,1.3303604E1,9.206622E1,1.1438158E2,1.8315022E1,7.438141E0,1.3769526E1,1.0237999E1,1.2733856E1,5.3793335E-1,0E0,0E0,0E0,0E0,0E0,0E0,0E0,0E0,0E0,0E0,0E0,0E0,0E0,0E0,0E0,0E0,0E0,0E0,0E0,0E0,0E0,0E0,0E0,0E0,0E0,0E0,0E0,0E0,0E0,0E0,0E0,0E0],"parents":[2147483647,0,0,1,1,2,2,3,3,4,4,5,5,6,6,7,7,8,8,9,9,10,10,11,11,12,12,13,13,14,14,15,15,16,16,17,17,18,18,19,19,20,20,21,21,22,22,23,23,24,24,25,25,26,26,27,27,28,28,29,29,30,30],"right_children":[2,4,6,8,10,12,14,16,18,20,22,24,26,28,30,32,34,36,38,40,42,44,46,48,50,52,54,56,58,60,62,-1,-1,-1,-1,-1,-1,-1,-1,-1,-1,-1,-1,-1,-1,-1,-1,-1,-1,-1,-1,-1,-1,-1,-1,-1,-1,-1,-1,-1,-1,-1,-1],"split_conditions":[5.392157E-2,3.2352943E-2,1.5441176E-1,4.2532164E-1,4.2322654E-1,5.9023225E-1,5.386032E-1,2.2058824E-2,5.0472593E-1,4.3409404E-1,5E-2,5.636124E-1,9.191176E-2,4.6108708E-1,2.1323529E-1,9.6201345E-2,3.8678774E-1,5.761269E-1,4.735529E-1,3.7980062E-1,5.302553E-1,5.8952E-1,5.35105E-1,5.209977E-1,4.5299366E-1,6.401434E-1,4.5074618E-1,5.1868194E-1,5.589195E-1,4.1694614E-1,5.960642E-1,-3.468451E-2,-1.03594236E-1,6.9359876E-3,-8.733755E-2,4.7075268E-2,-4.3682314E-2,-8.203199E-2,-3.726039E-2,-2.7083648E-2,8.076559E-2,-5.000576E-2,-8.642741E-2,-2.0529594E-2,5.803447E-2,-4.50708E-2,3.0332813E-2,-6.417488E-3,4.0299416E-2,-6.843509E-2,2.4446046E-3,1.697909E-2,7.294092E-2,3.7583828E-2,8.31668E-2,4.4053506E-2,-1.9969407E-2,7.049873E-2,1.8507918E-2,-2.2243626E-2,8.6248055E-2,1.0355188E-1,4.645863E-2],"split_indices":[0,0,0,1,1,2,2,0,2,3,8,3,0,1,0,7,3,3,1,1,3,2,1,2,1,2,1,3,5,1,6,0,0,0,0,0,0,0,0,0,0,0,0,0,0,0,0,0,0,0,0,0,0,0,0,0,0,0,0,0,0,0,0],"split_type":[0,0,0,0,0,0,0,0,0,0,0,0,0,0,0,0,0,0,0,0,0,0,0,0,0,0,0,0,0,0,0,0,0,0,0,0,0,0,0,0,0,0,0,0,0,0,0,0,0,0,0,0,0,0,0,0,0,0,0,0,0,0,0],"sum_hessian":[6.8940986E3,2.1203645E3,4.773734E3,9.804226E2,1.139942E3,3.6367766E3,1.1369572E3,7.1702435E2,2.633983E2,4.775185E2,6.6242346E2,2.9582217E3,6.785551E2,3.3636835E2,8.005888E2,4.3426343E2,2.8276093E2,3.2361664E1,2.3103664E2,5.559443E1,4.2192407E2,2.0242348E2,4.6E2,1.6996213E3,1.2586003E3,3.5141516E2,3.2713995E2,1.4544778E2,1.9092056E2,3.2414804E2,4.7644077E2,1.8192493E0,4.3244418E2,6.720744E0,2.7604016E2,1.1659922E1,2.070174E1,1.8305098E2,4.798565E1,3.8880253E1,1.6714178E1,2.594708E2,1.6245325E2,1.5547012E2,4.6953354E1,4.3594708E2,2.4052929E1,9.265429E2,7.7307837E2,2.9730402E2,9.612963E2,2.779986E2,7.3416534E1,4.37394E1,2.8340057E2,9.4297165E1,5.115062E1,1.3757626E2,5.3344303E1,1.0824651E1,3.133234E2,4.7247998E2,3.9607966E0],"tree_param":{"num_deleted":"0","num_feature":"10","num_nodes":"63","size_leaf_vector":"1"}},{"base_weights":[1.8454589E-4,-3.069855E-1,4.9780044E-1,-7.600682E-1,-1.0946105E-1,2.775354E-1,8.401226E-1,-9.8158467E-1,-6.1565226E-1,-3.911958E-1,-3.1298924E-2,1.919654E-1,6.134701E-1,6.5185684E-1,9.8280734E-1,-9.871749E-1,7.007738E-2,-7.461105E-1,-4.282943E-1,-1.8417232E-2,-6.4560837E-1,3.18456E-1,-1.3407744E-1,2.8113407E-1,-1.3720758E-1,3.276942E-1,7.574111E-1,3.8826007E-1,7.9056835E-1,8.4254867E-1,1.0217934E0,-1.028473E-1,-8.298266E-2,-6.0750123E-2,-9.1266796E-2,-3.0616948E-2,-7.220534E-2,-4.221365E-2,3.0812869E-2,-4.729482E-2,-9.368589E-2,5.540688E-2,-1.4474869E-2,-2.1470932E-2,2.3884108E-2,2.4625075E-3,4.4104084E-2,-4.775335E-2,2.7207643E-2,3.2519416E-3,4.87351E-2,6.1357576E-2,9.705763E-2,6.383567E-2,-6.071363E-2,5.9013575E-2,9.157768E-2,8.623895E-2,-2.886026E-2,1.0281476E-1,2.608491E-2],"categories":[],"categories_nodes":[],"categories_segments":[],"categories_sizes":[],"default_left":[0,0,0,0,0,0,0,0,0,0,0,0,0,0,0,0,0,0,0,0,0,0,0,0,0,0,0,0,0,0,0,0,0,0,0,0,0,0,0,0,0,0,0,0,0,0,0,0,0,0,0,0,0,0,0,0,0,0,0,0,0],"id":21,"left_children":[1,3,5,7,9,11,13,15,17,19,21,23,25,27,29,31,-1,33,35,37,39,41,43,45,47,49,51,53,55,57,59,-1,-1,-1,-1,-1,-1,-1,-1,-1,-1,-1,-1,-1,-1,-1,-1,-1,-1,-1,-1,-1,-1,-1,-1,-1,-1,-1,-1,-1,-1],"loss_changes":[1.0230041E3,3.7027032E2,1.9237878E2,3.9582397E1,6.347545E1,4.460633E1,2.6212402E1,5.3385925E0,1.83331E1,5.9362648E1,8.121175E1,3.6477314E1,1.2725601E1,1.5559998E1,2.237793E0,2.3492432E0,0E0,9.800476E0,1.1101105E1,3.3744827E1,1.8267456E1,5.608157E1,5.2548126E1,4.0069824E1,3.7081196E1,5.046032E0,5.8121567E0,3.8124374E1,6.5708466E0,3.1430511E0,1.8531494E0,0E0,0E0,0E0,0E0,0E0,0E0,0E0,0E0,0E0,0E0,0E0,0E0,0E0,0E0,0E0,0E0,0E0,0E0,0E0,0E0,0E0,0E0,0E0,0E0,0E0,0E0,0E0,0E0,0E0,0E0],"parents":[2147483647,0,0,1,1,2,2,3,3,4,4,5,5,6,6,7,7,8,8,9,9,10,10,11,11,12,12,13,13,14,14,15,15,17,17,18,18,19,19,20,20,21,21,22,22,23,23,24,24,25,25,26,26,27,27,28,28,29,29,30,30],"right_children":[2,4,6,8,10,12,14,16,18,20,22,24,26,28,30,32,-1,34,36,38,40,42,44,46,48,50,52,54,56,58,60,-1,-1,-1,-1,-1,-1,-1,-1,-1,-1,-1,-1,-1,-1,-1,-1,-1,-1,-1,-1,-1,-1,-1,-1,-1,-1,-1,-1,-1,-1],"split_conditions":[9.243698E-2,4.0106952E-2,5.720006E-1,2.2058824E-2,4.1104087E-1,1.8627451E-1,1.5294118E-1,6.6639835E-1,4.2742676E-1,4.754936E-1,5E-2,2.5E-1,5.029323E-1,4.765049E-1,1.8382353E-1,4.2114797E-1,7.007738E-2,5.3207076E-1,2.8796935E-1,3.735322E-1,5E-2,6.1290175E-1,5.1249176E-1,4.3922365E-1,5.0553346E-1,4.4721022E-1,4.9191037E-1,6.079936E-1,6.025762E-1,7.4911577E-1,5.960642E-1,-1.028473E-1,-8.298266E-2,-6.0750123E-2,-9.1266796E-2,-3.0616948E-2,-7.220534E-2,-4.221365E-2,3.0812869E-2,-4.729482E-2,-9.368589E-2,5.540688E-2,-1.4474869E-2,-2.1470932E-2,2.3884108E-2,2.4625075E-3,4.4104084E-2,-4.775335E-2,2.7207643E-2,3.2519416E-3,4.87351E-2,6.1357576E-2,9.705763E-2,6.383567E-2,-6.071363E-2,5.9013575E-2,9.157768E-2,8.623895E-2,-2.886026E-2,1.0281476E-1,2.608491E-2],"split_indices":[0,0,2,0,1,0,0,5,1,3,8,8,2,1,0,1,0,3,6,1,8,3,1,1,1,1,1,3,2,3,6,0,0,0,0,0,0,0,0,0,0,0,0,0,0,0,0,0,0,0,0,0,0,0,0,0,0,0,0,0,0],"split_type":[0,0,0,0,0,0,0,0,0,0,0,0,0,0,0,0,0,0,0,0,0,0,0,0,0,0,0,0,0,0,0,0,0,0,0,0,0,0,0,0,0,0,0,0,0,0,0,0,0,0,0,0,0,0,0,0,0,0,0,0,0],"sum_hessian":[6.690745E3,4.1372637E3,2.5534814E3,1.2552095E3,2.8820542E3,1.5548402E3,9.9864124E2,4.930829E2,7.6212665E2,6.2505255E2,2.2570017E3,1.2404432E3,3.143969E2,4.3295117E2,5.6569006E2,4.918617E2,1.2211787E0,4.4752832E2,3.145983E2,2.5398006E2,3.7107248E2,5.121293E2,1.7448724E3,9.7616016E2,2.6428308E2,1.06410164E2,2.0798676E2,1.505867E2,2.8236447E2,1.2795684E2,4.3773325E2,3.8521957E2,1.0664212E2,2.4679367E2,2.0073465E2,2.2365868E2,9.093963E1,1.1343901E2,1.4054105E2,2.3461252E2,1.3645996E2,3.393301E2,1.7279916E2,1.4350192E3,3.098534E2,3.7529593E2,6.008642E2,1.4420647E2,1.2007664E2,3.7775043E1,6.8635124E1,1.2650476E2,8.148199E1,1.2063535E2,2.9951345E1,1.1076542E2,1.7159904E2,1.2598462E2,1.9722186E0,4.3376E2,3.9732265E0],"tree_param":{"num_deleted":"0","num_feature":"10","num_nodes":"61","size_leaf_vector":"1"}},{"base_weights":[2.2598568E-4,-5.657148E-1,2.4003102E-1,-8.353322E-1,-3.5484976E-1,1.00298636E-1,7.369186E-1,-9.3704253E-1,-6.11569E-1,-2.7711555E-1,-5.636799E-1,3.556806E-2,5.782386E-1,3.5661533E-1,9.1307026E-1,-6.8660814E-1,-9.7730577E-1,-5.969863E-3,-6.820128E-1,-5.2473843E-1,-1.68525E-1,-7.225304E-1,-1.8071891E-1,2.5848582E-1,-5.94568E-2,3.62191E-1,8.1969935E-1,-1.4649537E-1,4.131587E-1,7.742883E-1,1.0091001E0,-7.733184E-2,5.1542826E-2,-1.0459105E-1,-8.9530185E-2,7.184129E-2,-3.7387032E-2,-7.6976836E-2,-2.9927507E-2,2.4047333E-3,-6.4922236E-2,-2.590434E-4,-4.213624E-2,-3.5948772E-2,-8.042572E-2,1.1202683E-1,-2.4440736E-2,4.769599E-3,4.6167362E-2,-2.5453055E-2,1.3522844E-2,2.5613574E-2,8.9844406E-2,1.7335637E-2,8.7203994E-2,-3.31513E-2,5.7309795E-2,2.387143E-2,5.511857E-2,-2.5928218E-2,8.1497945E-2,1.01346865E-1,4.247312E-2],"categories":[],"categories_nodes":[],"categories_segments":[],"categories_sizes":[],"default_left":[0,0,0,0,0,0,0,0,0,0,0,0,0,0,0,0,0,0,0,0,0,0,0,0,0,0,0,0,0,0,0,0,0,0,0,0,0,0,0,0,0,0,0,0,0,0,0,0,0,0,0,0,0,0,0,0,0,0,0,0,0,0,0],"id":22,"left_children":[1,3,5,7,9,11,13,15,17,19,21,23,25,27,29,31,33,35,37,39,41,43,45,47,49,51,53,55,57,59,61,-1,-1,-1,-1,-1,-1,-1,-1,-1,-1,-1,-1,-1,-1,-1,-1,-1,-1,-1,-1,-1,-1,-1,-1,-1,-1,-1,-1,-1,-1,-1,-1],"loss_changes":[8.829578E2,1.0978735E2,3.1720325E2,1.8749878E1,1.7509903E1,1.103581E2,6.685571E1,5.195709E0,1.1437485E1,2.1289494E1,1.776905E1,6.6599174E1,2.190065E1,9.1381645E0,8.344299E0,9.148403E0,1.8702393E0,7.9851766E0,7.8387756E0,1.654023E1,2.3247528E1,5.8715973E0,7.532136E0,4.0222687E1,8.3763176E1,1.2643749E1,6.6197205E0,4.5805755E0,6.7817764E0,1.216954E1,5.942993E-1,0E0,0E0,0E0,0E0,0E0,0E0,0E0,0E0,0E0,0E0,0E0,0E0,0E0,0E0,0E0,0E0,0E0,0E0,0E0,0E0,0E0,0E0,0E0,0E0,0E0,0E0,0E0,0E0,0E0,0E0,0E0,0E0],"parents":[2147483647,0,0,1,1,2,2,3,3,4,4,5,5,6,6,7,7,8,8,9,9,10,10,11,11,12,12,13,13,14,14,15,15,16,16,17,17,18,18,19,19,20,20,21,21,22,22,23,23,24,24,25,25,26,26,27,27,28,28,29,29,30,30],"right_children":[2,4,6,8,10,12,14,16,18,20,22,24,26,28,30,32,34,36,38,40,42,44,46,48,50,52,54,56,58,60,62,-1,-1,-1,-1,-1,-1,-1,-1,-1,-1,-1,-1,-1,-1,-1,-1,-1,-1,-1,-1,-1,-1,-1,-1,-1,-1,-1,-1,-1,-1,-1,-1],"split_conditions":[5.392157E-2,3.2352943E-2,1.5441176E-1,4.2043877E-1,2.890746E-1,6.0567504E-1,5.386032E-1,4.9597806E-1,4.9708667E-1,4.0357584E-1,4.7220957E-1,2.2023387E-1,9.558824E-2,4.320795E-1,2.1323529E-1,3.888326E-1,3.853382E-1,2.0665818E-1,4.735529E-1,4.3409404E-1,5.9674096E-1,4.922171E-1,5.394382E-1,4.3025044E-1,4.661547E-1,6.583534E-1,4.4244206E-1,2.647059E-1,4.6108708E-1,4.1694614E-1,5.960642E-1,-7.733184E-2,5.1542826E-2,-1.0459105E-1,-8.9530185E-2,7.184129E-2,-3.7387032E-2,-7.6976836E-2,-2.9927507E-2,2.4047333E-3,-6.4922236E-2,-2.590434E-4,-4.213624E-2,-3.5948772E-2,-8.042572E-2,1.1202683E-1,-2.4440736E-2,4.769599E-3,4.6167362E-2,-2.5453055E-2,1.3522844E-2,2.5613574E-2,8.9844406E-2,1.7335637E-2,8.7203994E-2,-3.31513E-2,5.7309795E-2,2.387143E-2,5.511857E-2,-2.5928218E-2,8.1497945E-2,1.01346865E-1,4.247312E-2],"split_indices":[0,0,0,1,6,2,2,2,2,1,5,6,0,2,0,7,1,6,1,3,3,3,3,1,1,2,1,0,1,1,6,0,0,0,0,0,0,0,0,0,0,0,0,0,0,0,0,0,0,0,0,0,0,0,0,0,0,0,0,0,0,0,0],"split_type":[0,0,0,0,0,0,0,0,0,0,0,0,0,0,0,0,0,0,0,0,0,0,0,0,0,0,0,0,0,0,0,0,0,0,0,0,0,0,0,0,0,0,0,0,0,0,0,0,0,0,0,0,0,0,0,0,0,0,0,0,0,0,0],"sum_hessian":[6.503948E3,1.9352922E3,4.5686562E3,8.480248E2,1.0872675E3,3.566815E3,1.00184106E3,5.80826E2,2.6719882E2,7.940282E2,2.9323926E2,3.1423062E3,4.2450888E2,3.1810074E2,6.8374036E2,8.294812E1,4.9787784E2,2.7955202E1,2.392436E2,2.4088878E2,5.531394E2,2.0663942E2,8.659983E1,9.386402E2,2.2036658E3,2.2536392E2,1.9914496E2,3.1977846E1,2.861229E2,2.8333234E2,4.00408E2,7.769982E1,5.2483034E0,2.6468643E2,2.331914E2,9.094912E0,1.886029E1,1.937977E2,4.5445908E1,4.4688187E1,1.9620059E2,3.345729E2,2.1856651E2,3.8962147E1,1.6767728E2,3.2673178E0,8.333251E1,4.613078E2,4.773324E2,1.100581E3,1.1030848E3,1.8938644E2,3.5977486E1,1.5241603E1,1.8390335E2,2.5866507E1,6.1113396E0,1.2759381E2,1.5852908E2,1.052866E1,2.7280368E2,3.9670804E2,3.6999679E0],"tree_param":{"num_deleted":"0","num_feature":"10","num_nodes":"63","size_leaf_vector":"1"}},{"base_weights":[2.2592506E-4,-4.0937492E-1,2.8990063E-1,-8.120077E-1,-2.3596185E-1,1.4724244E-1,7.0895725E-1,-9.2001283E-1,-5.816338E-1,-1.5620054E-1,-4.5599967E-1,8.463066E-2,6.3134277E-1,3.9752063E-1,9.38343E-1,-1.0078726E0,-7.831535E-1,1.16640784E-1,-6.399484E-1,-2.721491E-1,9.737287E-2,-5.362259E-1,1.5841903E-1,2.262822E-1,-9.002611E-2,2.3965602E-1,7.3666E-1,2.8845212E-1,7.094656E-1,7.7710223E-1,9.877968E-1,-8.1357695E-2,-1.02535106E-1,1.2680179E-2,-8.154702E-2,8.158326E-2,-3.4178738E-2,-7.251661E-2,-2.8074741E-2,-1.1666508E-2,-5.3189527E-2,3.4779973E-2,-1.1256452E-2,-5.5936106E-2,5.9017945E-2,-5.133595E-3,6.298935E-2,1.7182603E-3,4.6949647E-2,-6.895108E-2,5.8953105E-3,7.7216655E-2,-3.677791E-2,5.2738726E-2,8.730501E-2,3.8586475E-2,-1.0589077E-2,7.464474E-2,-3.2385778E-2,7.950485E-2,-1.8875051E-2,5.422602E-2,1.0022968E-1],"categories":[],"categories_nodes":[],"categories_segments":[],"categories_sizes":[],"default_left":[0,0,0,0,0,0,0,0,0,0,0,0,0,0,0,0,0,0,0,0,0,0,0,0,0,0,0,0,0,0,0,0,0,0,0,0,0,0,0,0,0,0,0,0,0,0,0,0,0,0,0,0,0,0,0,0,0,0,0,0,0,0,0],"id":23,"left_children":[1,3,5,7,9,11,13,15,17,19,21,23,25,27,29,31,33,35,37,39,41,43,45,47,49,51,53,55,57,59,61,-1,-1,-1,-1,-1,-1,-1,-1,-1,-1,-1,-1,-1,-1,-1,-1,-1,-1,-1,-1,-1,-1,-1,-1,-1,-1,-1,-1,-1,-1,-1,-1],"loss_changes":[7.5186926E2,1.830922E2,2.217933E2,1.9117065E1,3.2154922E1,8.39176E1,6.695245E1,5.6559143E0,1.045079E1,3.9694893E1,2.4139542E1,6.0739548E1,1.2905083E1,1.34541855E1,3.5540466E0,2.625122E-1,6.3979797E0,6.8452663E0,7.000023E0,3.7340187E1,2.2335114E1,1.1584328E1,5.682345E0,6.892496E1,9.8264336E1,2.25E1,6.6592255E0,1.153194E1,4.189884E0,2.436287E0,2.112091E0,0E0,0E0,0E0,0E0,0E0,0E0,0E0,0E0,0E0,0E0,0E0,0E0,0E0,0E0,0E0,0E0,0E0,0E0,0E0,0E0,0E0,0E0,0E0,0E0,0E0,0E0,0E0,0E0,0E0,0E0,0E0,0E0],"parents":[2147483647,0,0,1,1,2,2,3,3,4,4,5,5,6,6,7,7,8,8,9,9,10,10,11,11,12,12,13,13,14,14,15,15,16,16,17,17,18,18,19,19,20,20,21,21,22,22,23,23,24,24,25,25,26,26,27,27,28,28,29,29,30,30],"right_children":[2,4,6,8,10,12,14,16,18,20,22,24,26,28,30,32,34,36,38,40,42,44,46,48,50,52,54,56,58,60,62,-1,-1,-1,-1,-1,-1,-1,-1,-1,-1,-1,-1,-1,-1,-1,-1,-1,-1,-1,-1,-1,-1,-1,-1,-1,-1,-1,-1,-1,-1,-1,-1],"split_conditions":[6.7226894E-2,3.2352943E-2,1.5441176E-1,4.2043877E-1,1.5E-1,6.075497E-1,5.580334E-1,2.2058824E-2,4.8275855E-1,4.536614E-1,6E-1,5.636124E-1,4.618839E-1,2.647059E-1,1.8382353E-1,4.9072468E-1,4.4131356E-1,5.761269E-1,4.735529E-1,5.512662E-1,6.104393E-1,6.5222895E-1,5.1249176E-1,5.2377886E-1,4.514776E-1,5.7164234E-1,9.558824E-2,3E-1,3.9029214E-1,7.4911577E-1,4.2742676E-1,-8.1357695E-2,-1.02535106E-1,1.2680179E-2,-8.154702E-2,8.158326E-2,-3.4178738E-2,-7.251661E-2,-2.8074741E-2,-1.1666508E-2,-5.3189527E-2,3.4779973E-2,-1.1256452E-2,-5.5936106E-2,5.9017945E-2,-5.133595E-3,6.298935E-2,1.7182603E-3,4.6949647E-2,-6.895108E-2,5.8953105E-3,7.7216655E-2,-3.677791E-2,5.2738726E-2,8.730501E-2,3.8586475E-2,-1.0589077E-2,7.464474E-2,-3.2385778E-2,7.950485E-2,-1.8875051E-2,5.422602E-2,1.0022968E-1],"split_indices":[0,0,0,1,8,2,2,0,2,1,9,3,1,0,0,2,2,3,1,3,3,2,1,2,1,3,0,8,4,3,1,0,0,0,0,0,0,0,0,0,0,0,0,0,0,0,0,0,0,0,0,0,0,0,0,0,0,0,0,0,0,0,0],"split_type":[0,0,0,0,0,0,0,0,0,0,0,0,0,0,0,0,0,0,0,0,0,0,0,0,0,0,0,0,0,0,0,0,0,0,0,0,0,0,0,0,0,0,0,0,0,0,0,0,0,0,0,0,0,0,0,0,0,0,0,0,0,0,0],"sum_hessian":[6.334813E3,2.6240232E3,3.7107896E3,7.888284E2,1.8351948E3,2.7693718E3,9.4141766E2,5.350091E2,2.5381934E2,1.3481978E3,4.8699707E2,2.453252E3,3.161199E2,4.004544E2,5.4096326E2,3.2195737E2,2.130517E2,1.9486197E1,2.3433315E2,9.2511017E2,4.230876E2,4.3086517E2,5.613191E1,1.3544552E3,1.0987968E3,6.768122E1,2.4843867E2,2.9813803E2,1.0231637E2,1.3089687E2,4.1006635E2,3.049648E1,2.914609E2,7.206685E0,2.0584502E2,7.4079723E0,1.2078225E1,1.8857605E2,4.5757084E1,5.796069E2,3.4550336E2,1.9263884E2,2.3044873E2,4.2268704E2,8.17811E0,3.9465263E1,1.6666647E1,7.2888153E2,6.2557367E2,2.1798961E2,8.808072E2,3.5920326E1,3.1760897E1,9.994814E1,1.4849052E2,2.3909665E2,5.9041397E1,9.904912E1,3.267256E0,1.286827E2,2.214168E0,1.413523E1,3.9593112E2],"tree_param":{"num_deleted":"0","num_feature":"10","num_nodes":"63","size_leaf_vector":"1"}},{"base_weights":[2.6525074E-4,-5.2441233E-1,1.9963574E-1,-8.7445104E-1,-3.6822534E-1,8.064115E-2,6.807457E-1,-2.1062274E-1,-8.986169E-1,-4.3559214E-1,-5.682894E-2,1.0485094E-2,4.2178687E-1,3.7269115E-1,9.2526364E-1,-5.6594276E-1,7.2586715E-1,-9.3362993E-1,-5.375547E-1,-3.4664667E-1,-7.327288E-1,1.369728E-1,-4.0399253E-1,9.232088E-2,-2.3551787E-1,2.362757E-1,6.644781E-1,2.6783898E-1,6.842179E-1,8.3116347E-1,1.02077685E-1,-8.5034646E-2,-1.0427817E-2,-1.6254326E-2,1.2768756E-1,-9.470798E-2,-5.278764E-2,4.7060233E-2,-6.298748E-2,-5.8422443E-2,-1.6426714E-2,-8.714453E-2,-5.2665856E-2,1.9326837E-1,9.5186895E-3,-6.1261456E-2,-5.431593E-3,-3.8673952E-2,1.528828E-2,-4.107131E-2,1.8080683E-2,5.658226E-2,7.216524E-3,3.5953533E-2,7.4868284E-2,-3.7789542E-2,3.226992E-2,-7.242318E-3,7.382668E-2,